-1.317190625358613011e-02 4.704238381339279074e-02
-2.353231645249198589e-02 -7.371964758634677595e-02
-1.560224216624535309e-02 -5.559019038566721804e-02
-4.187735021542931396e-02 -7.545327455507706838e-02
-1.458898944487770077e-02 -6.096642651562578404e-03
-1.783526061869770973e-02 3.962548582527485735e-02
-6.617572707277478983e-02 -6.021970059345454346e-02
-4.985163169132456051e-02 3.217619653626246912e-02
-6.900195515198266627e-02 -4.790331081808674174e-02
-4.799574166302138928e-02 4.456817715287134107e-02
-3.093037568544594607e-02 4.436311119085972060e-02
-1.886436648957865586e-02 5.783153661154932096e-02
-7.996622486068401259e-02 6.226784389742661546e-02
-5.058201298427598275e-02 4.039403914134247903e-02
-7.720795954221543189e-02 8.161064227656081305e-02
-4.376530288039479771e-02 -8.867126201029701393e-02
-8.014743663878694246e-02 4.165379902121682520e-02
-2.549342915254504578e-03 3.723479140474399846e-02
-8.384951508786318841e-02 5.942159702374587987e-02
-8.789282603940298810e-02 8.945350290099479684e-02
-6.133227313971834418e-03 1.751386947742064257e-02
-4.243865024506970202e-02 -1.097951355713915403e-02
-2.045059880043602688e-02 6.404785493408585162e-02
-3.011141183225747586e-02 7.249418185233898193e-02
-7.710238113533939008e-02 -8.728353561331242405e-02
-1.302881374085191994e-02 9.872212544734729200e-02
-5.043135623650801119e-02 -9.623102534822632059e-02
-2.250161495022977645e-02 -2.716285505098079561e-02
-3.479257620385689531e-02 1.702376873699025170e-02
-5.520811005352802003e-03 -1.693279158356424466e-02
-9.576978010130053620e-02 -6.173063008387844747e-02
-9.940666913441734143e-02 -6.923788181678945663e-02
-8.631864233094521666e-02 -9.575812393144081391e-02
-3.105694640373404813e-02 1.079080019843017303e-02
-7.259374521553788040e-02 -8.726522238095597850e-02
-7.548277201850955853e-02 5.849098526020024558e-02
-9.630412081668067448e-02 5.470551411877655479e-02
-3.262478310453552355e-02 3.197270180386364846e-02
-6.456383145595043227e-02 -6.072012977242527421e-02
-3.612505422029579916e-03 -2.409362576861011698e-02
-1.070710597358055793e-02 -9.359586119353580091e-02
-2.311674387149664778e-02 7.007288175835046928e-02
-1.004536894611722520e-02 1.565775694498965434e-02
-3.802075154557815750e-02 -1.826518310538827183e-02
-8.532693619297887500e-02 -2.925365539506193102e-02
-9.621934073199807369e-02 -3.098882043952795595e-02
-8.388085470446944580e-02 -2.843398975689828342e-02
-3.880904416208970364e-02 6.607108879494216769e-02
-6.824075695929876506e-02 9.339770041904082998e-02
-6.522510678441409415e-03 -2.354781929761040962e-03
-1.158092880991642981e-02 -6.208467638466180077e-02
-6.233890527736773990e-02 4.052451962295931104e-02
-1.884295989035041086e-02 -7.742342307135081925e-02
-5.646469545311143950e-02 -8.169234027702450274e-02
-7.108565509506675761e-02 -4.647729465443537628e-02
-2.093334608850136447e-02 1.838080434696740678e-02
-7.865779670677885971e-02 5.292588945159149016e-02
-8.069728686109348126e-02 7.383368986133034828e-02
-6.990445814283098060e-04 1.909401477778773989e-02
-8.749626056467758872e-02 -9.121369559714127828e-02
-2.499556886805646971e-02 4.301316778932624818e-02
-9.959095937368347973e-02 2.766412245395442199e-02
-5.756999466579862390e-02 -8.816754604502388681e-02
-8.437338999257180949e-02 8.541047387515916800e-02
-7.890117749954538018e-02 -5.292604884353738215e-02
-7.293776900134517349e-02 -6.396701253257407183e-02
-1.853991895330392436e-03 8.496066608218307004e-02
-8.410486356695984211e-02 -5.184754227936849702e-03
-3.490796291964526343e-02 -9.270747710620093340e-02
-1.386159537776610051e-02 3.833644843983974315e-02
-2.431564576127387411e-02 1.298634006360159868e-02
-3.121495702261189997e-02 -3.668365222710339574e-02
-2.431251978402573441e-02 -7.112918442110179040e-02
-8.183950433507394817e-02 4.820194586733009268e-02
-3.594946697231917593e-02 -8.075573395545232805e-03
-4.320056855728474088e-02 6.373623925478942576e-02
-7.063535032444556716e-02 1.401907673433997609e-02
-9.196185642038029462e-02 6.489496071040055936e-02
-4.257605684235835075e-02 5.687329022879825807e-02
-3.308366936322747198e-02 -8.409907260942324492e-02
-4.346452257698880939e-02 7.103504576477706611e-02
-6.367766601318730624e-02 1.127722638708532690e-02
-8.859466385103327568e-02 -3.306469788444872659e-02
-7.894009193443074501e-03 -5.758968848469914713e-03
-4.782719069728127992e-02 9.470739676201039847e-02
-1.418269275269896934e-02 -3.176274011130504615e-02
-5.781310138770312523e-02 1.100174513286527114e-02
-6.909267070705978064e-02 6.058254428113874109e-03
-3.265711145872190330e-02 -1.366725254635270392e-02
-2.960359039967268291e-02 8.358447729353515876e-02
8.835509056671070338e-02 -9.363018606149882406e-02
-6.400683384660740827e-02 6.971385223740336756e-02
-7.968017484231032510e-02 -1.344710569081717516e-02
-2.756985444767543619e-02 -9.064336055953547966e-02
-1.084405763398105238e-04 -3.137239081545613317e-02
-1.545256314536820434e-02 7.872579352799453922e-02
-1.012192695166964918e-02 -4.611140302014374304e-02
-5.807936555187007827e-02 -7.730759617105012471e-02
-3.477393427231045830e-02 8.827767194772184745e-03
-2.672350021474659276e-03 -6.117477140125844592e-02
-3.687048088127369005e-02 -6.978063598851094729e-02
-7.400575116906345230e-02 7.443898258638219356e-02
-5.452066176716541777e-03 -2.310498454602432153e-02
-7.563826706539100719e-03 4.339749635288150942e-02
-4.973297131220147382e-02 3.241245130207261876e-02
-8.069093901959052684e-02 1.836261819983038210e-02
-3.209079109624871085e-02 6.166961107749038828e-02
-6.560379511455012580e-02 3.923521040935065707e-02
-6.743788242610231076e-02 -8.238849460275327052e-02
-2.752076921981230773e-02 -9.134465805966843210e-02
-3.493206075896944374e-02 -4.768797663047633084e-02
-5.736304645863994633e-02 4.952000776150999872e-02
-6.698434303895453579e-02 -2.169945231393315480e-02
-2.104907524937031996e-02 5.171107041113878755e-02
-4.835677641767784085e-02 -3.889394532268493354e-02
-6.965493422365524878e-02 -9.301174770424898430e-02
-4.495481255873179371e-02 -4.322049547438995554e-02
-7.816171716423880866e-02 2.107002153841579586e-02
-8.452136739544409416e-02 5.477617712949443135e-02
-5.464157855803830621e-02 -6.259633475573578298e-02
7.286957557755260884e-02 -4.555168604365958385e-02
-5.317777245352339754e-02 -8.529332586628224355e-02
-7.699693788702784147e-02 -9.591153534659375979e-02
-7.558913970328834386e-02 1.134622675464331924e-02
-8.974217761191471965e-02 -3.441772129417055431e-02
-4.552651770990217422e-02 -2.426949382097665434e-03
-7.564686926850978932e-02 5.662799850631641818e-02
-9.576260763312322011e-02 -9.071976921106016112e-02
-3.090173054036558092e-02 -4.663126816843337491e-02
-6.504539241287597695e-02 -1.351359913145224780e-02
-2.688074288552553398e-02 -5.652490550388918067e-02
-8.214147593328990915e-02 -2.356747190979424731e-03
-3.516971271270241759e-03 4.323540812187218890e-02
-1.301030019847673747e-03 7.124494306571478586e-02
-2.020498853384163074e-02 1.502350436290913506e-02
-1.216442154475175230e-02 -7.900747115680831212e-02
-2.420635635169441496e-02 -2.004963762388172269e-02
-8.464228537263650265e-02 -3.250212614491500979e-02
-3.490114619546289682e-02 -3.067693928347450458e-02
-8.565883800039136853e-02 2.398255827238760310e-03
-1.276037603578712536e-02 -5.509650373020707342e-02
-9.150706507724822025e-02 9.357866934198638686e-02
-4.226582744842739825e-02 -5.211289977186044781e-02
-5.104036397242657508e-02 5.317876002822938958e-02
-2.634992496678010415e-02 9.976288157231937015e-02
-3.249262886966995667e-02 -1.235416768251356226e-02
-4.314064729872910814e-02 -2.304745912992263446e-02
-6.787433189903889497e-02 8.801995941404899826e-02
-2.935431417128782361e-02 -7.896698088535553106e-02
-3.694937944297048416e-02 -7.333072576821711430e-02
-6.458555495956430637e-02 -6.361608345488352356e-02
-6.828822157163960682e-03 -4.892965682813752576e-02
-7.263698393115987362e-02 4.890154600132941287e-02
-1.627777538393085019e-02 -9.053425190578689996e-02
-6.466507447686482835e-02 5.650129689056737625e-02
-9.338969977185294924e-02 -2.230344763486795737e-02
-5.512633406285341597e-02 5.756824476768232501e-02
-1.082385191418568961e-02 -9.032163324867117926e-02
-2.304691594158066181e-02 -8.688297715479575967e-02
-6.102378600333087377e-02 -4.685036009253820688e-02
-1.132584145123660679e-02 -3.645475556281119276e-03
-5.805390532948991045e-02 4.855021081099428898e-02
-9.406650154224052707e-02 -7.823286919442240528e-02
-1.552881584062901221e-02 7.185478233281632210e-02
-4.988047420283099609e-02 4.889334981108928863e-03
-2.650024775865001108e-03 2.529754769984011997e-02
-5.512464420748922067e-02 -3.793173907810587497e-02
-8.430108378144454684e-02 -6.451841082702580721e-02
-6.671112387874729432e-02 8.608757828300150558e-03
-3.469800608632349348e-02 -8.118818058876675625e-02
-4.478156676931917268e-02 4.407548336154609725e-02
-4.873772205999589435e-02 -9.601476203608272364e-02
-7.394318747741211728e-02 -9.844190196335361742e-02
-7.050493286687327388e-02 2.522760461014184052e-02
-6.339127889351034439e-02 -3.147714731286066492e-02
-6.243966011780906211e-02 -5.258781516023665337e-02
-2.998931682531734422e-02 6.690548015971063689e-02
-5.443593652321357390e-02 7.083839341252007316e-04
-9.074865980831198220e-02 3.399807611253231887e-02
-3.636324123161922828e-02 4.591284850176351878e-02
-3.506291695758905619e-02 -1.149362901089499150e-02
-2.452381018859375525e-02 2.728164518494909097e-02
-1.230648102528795335e-02 -8.312675944714438547e-02
-9.729976807944124007e-02 -7.005616058605594609e-02
-5.353565660280146243e-02 4.926290210474420367e-02
-4.207691759014118432e-02 -7.849294363892639348e-02
-9.286332794872537155e-03 5.495155537586696171e-02
-5.330903684307813223e-02 -3.452003678682667026e-02
-5.502025398631654046e-02 -8.542537413984299666e-02
-2.935804746856754410e-02 -4.850705600877400908e-02
-6.850582589663345434e-02 3.390972849896894264e-02
-5.053321010805807145e-02 -5.281044533693580144e-03
-6.186740624979913949e-02 3.740496239444097981e-02
-3.373903978801100906e-02 -7.692061099840242014e-03
-1.433516882245762340e-02 9.425560920828489342e-02
-9.616097117868134536e-02 -5.490699016539051652e-02
-8.352535367367981689e-02 3.260367430661841731e-02
-4.699870402748534265e-02 8.641059978936882491e-02
-2.488383335959420961e-02 6.226018284206309705e-02
-4.247209501280835471e-03 -8.082420493389007310e-02
-5.008654111283836891e-02 -3.099791391742983196e-02
-9.488276268937820279e-03 3.029227771780962711e-03
-2.661438499084145537e-02 -5.659138539223640754e-03
-5.874496286263597433e-02 3.606671640283698466e-02
-9.126537799721537447e-02 2.989455527471407501e-03
-9.160978925280156837e-02 3.460074632993455357e-02
-9.926590322801293054e-02 5.910404899249648708e-02
-7.593566651413104218e-02 -8.055520038876012867e-02
-2.253898560357030581e-02 1.420547782792629457e-02
-2.589531835486647265e-03 -2.773391175461492608e-03
-3.748450852623301521e-02 -6.817289970706130742e-02
-5.791883584714985905e-03 7.724479974872361376e-02
-8.335920040855360202e-02 -5.778405006220495299e-02
-2.770891214678709857e-02 6.991906923995723500e-02
-3.387199968232931790e-03 4.097227917091048749e-02
-1.005098426102765674e-02 -4.916394407891098300e-02
-9.842382120400153256e-02 5.638544323286729526e-02
-2.041210321612578829e-02 -4.952151803854085849e-02
-5.748372664655954263e-03 5.712710285433902219e-02
-5.980075216450795456e-02 -7.616631316825649145e-02
-4.513152634254229828e-02 -3.677351229011771583e-02
-7.307403564784303862e-02 5.831222831032696619e-02
-4.986450482514712818e-02 6.121438313719327479e-02
-8.548737544764238583e-02 9.038900222892135017e-02
-2.179545101739883972e-02 3.070513126230736342e-02
-8.787996044223272962e-02 -1.294570385151470188e-02
-7.297177812684610410e-02 -8.929825008228570171e-02
-3.242157862110646438e-02 2.270438121308719984e-02
-7.128334412498145423e-02 3.613484448841486341e-02
-2.215156278083769970e-02 -4.491749043879680880e-02
-2.331008702747802697e-02 -8.044190549143595548e-02
-4.969543155908238280e-02 7.502062188878221016e-02
-6.675271090751878217e-03 3.864142516538458111e-02
-2.060237262006319250e-02 -1.131745687811056694e-02
-2.086318874890261132e-03 4.183261301326895304e-02
-8.019512038477157045e-02 1.885469391040997186e-02
-2.907749716189915457e-02 9.374377396806998428e-03
-4.192864484732248403e-02 -3.261260925591533827e-02
-9.467196160129232041e-02 9.292600227565056548e-02
-9.476459422117522458e-02 -2.124632565089506001e-02
-3.336268903729329438e-02 4.563925335705250330e-02
-4.218905701009108278e-02 6.244705289927361680e-02
-4.063147237045197646e-02 -4.963451654689981368e-02
-2.556925483602252858e-02 5.186642909526424650e-02
-3.820689146724392388e-02 -5.516174875462143135e-02
-2.876253716382833059e-02 5.704118592522782610e-02
-1.847271212299525511e-02 5.410802589683414571e-02
-7.865008086490418715e-03 -8.995236120454840056e-02
-4.651856496160669541e-02 -2.491592219572247476e-03
-1.171520501426228690e-02 7.991713433321785687e-02
