-6.976499705437699816e-02 6.530590751932231069e-03 -1.073859871501749025e-01 -6.153969680440918300e-02 4.198589656607001896e-02 -1.941776243327020257e-02 -1.669686462608992172e-02 1.791325410217361677e-02 -4.601003952051551521e-02 7.084167488668050017e-02 6.829815173953790453e-02 5.038866422744635309e-02 6.475219721958994090e-02 -2.589995588631444079e-02 7.282341123804166039e-02 2.652729332439965684e-03 -6.733174239139012862e-02 2.158246132586705453e-03 -3.926163730998429024e-02 2.060779758866638015e-02 5.294052441228194739e-02 -9.372518389745823630e-02 2.502320225043606211e-02 -4.762902224194588002e-02 -5.793558509157437086e-02 -6.644629466245902116e-02 -8.384274910706138173e-02 -4.562494263951501899e-02 -9.944288516921742649e-02 8.168150093624276797e-02 -5.790851896635842988e-02 -3.190797574460044889e-02 3.669433765753200849e-02 7.849304913841231857e-02 -4.716015523482597338e-02 -6.901849355195829872e-02 -6.562742384019766562e-02 -3.097031547867463638e-02 -4.819225223933050473e-02 -7.409112133072386086e-02 -1.190378608412321487e-02 -7.922978647124485907e-02 -6.590202720538873571e-02 3.375041940362590726e-02 1.305913681371673532e-02 -1.879721158659010752e-02 7.942898235505975457e-02 -1.178674938595184324e-01 -5.381890081812101823e-02 -3.268768829207840260e-02 -2.315903832119927536e-02 4.691085868334687881e-02 -8.405960212151759869e-02 5.458274975777166471e-02 -2.057939105372553340e-02 -6.834338991821557741e-02 8.994982115020349472e-03 -2.373759168969802585e-03 -2.970686232946382482e-02 5.849084442527346245e-02 1.582092523593545824e-02 9.464066607148541310e-02 -9.130538620384885673e-02 4.549320122753495316e-02 -6.341095861599744393e-03 4.069597125579572233e-02 6.376801835757335557e-02 -2.783012285833987715e-02 -1.116850859075409035e-02 4.886184871490946435e-02 -6.682548453008828326e-02 2.038014042814799767e-02 4.637369313577446167e-02 -9.926021394039574730e-02 -1.047009999996748597e-01 2.977215339417238742e-03 2.767878194957651417e-02 -5.652492371649578407e-02 -7.444744997820951400e-03 6.212260430326348865e-02 -9.113081287132612784e-02 -1.795757698624662543e-02 -9.679241447081957106e-02 -4.837740688956187335e-02 -6.270914873329061501e-02 -8.456437850693908354e-02 -8.602594798021252764e-02 -8.796439639503612906e-02 8.111654823671191061e-02 -5.035963989069367625e-02 3.943529365230438039e-02 -8.018992309719197298e-02 -6.609579246741990877e-02 2.837074457874537957e-03 2.832670218262993769e-02 9.145439237671076915e-02 5.935566911552372926e-02 -9.974688262176921449e-02 9.126006870762660636e-03 9.162194708475104865e-02 -6.021326229302187416e-02 5.963237850244409305e-02 4.106985028297008289e-02 6.108235853579988689e-02 5.795257897285433293e-03 -7.251499926899709902e-02 -6.520940004931688461e-02 -3.930351003664170340e-02 7.074657131144811151e-02 4.644950314396761176e-02 3.855337549961677934e-02 -3.242577028198978528e-02 -5.525608893742520178e-02 3.264982454304404813e-02 8.001853347892891322e-02 -8.655673060285502818e-02 6.089394120859495385e-02 6.937744519661188936e-02 -6.295524684321909814e-02 8.082441071431332308e-03 -4.032191718983524353e-02 6.261461942318405360e-02 -3.622728400870377924e-02 -8.352605937666530977e-02 -9.120320172675994153e-02 -3.379467604524715590e-02 -3.063340137934076474e-02 7.305678198801567047e-02 -5.015100746615730812e-03 -3.848454257234776993e-02 6.497117425047367612e-02 -3.582196140339215934e-02 -9.902757327061620374e-02 7.731254601891995870e-02 -6.677563950254770953e-02 -4.000138356134002454e-02 -1.712877142941679823e-02 -1.969076571394667852e-03 -4.051481177401417000e-02 6.530684253396792927e-02 -6.391686802904038289e-02 -8.444903396395059270e-02 3.461631784007586365e-02 1.326892001368553710e-02 -2.050430277898705050e-02 -5.068384589440304983e-02 2.618956915411581321e-02 6.892120379770043381e-02 6.200955276471930427e-02 -7.340097593786723551e-02 6.929360037506160364e-02 -8.374305896804812993e-03 -8.854858543859259190e-02 4.476433277304386199e-02 7.613098595251260869e-02 -5.836116063909065066e-02 9.023455573484851291e-03 -1.002712702012206053e-01 -2.653627936690279143e-03 4.708106104112202983e-02 -3.041696662735076870e-04 7.940248115471600088e-02 -9.908989699338854873e-02 -9.750943258037436667e-02 -9.589638809313530410e-02 -4.258528521502977920e-02 -9.392136710161183566e-02 -8.858689031244436352e-02 5.612784379608478508e-02 2.290228865806167788e-02 -1.028184604744267761e-01 -3.920719270084323249e-02 -5.541319392389585513e-02 7.480310538846390855e-02 3.289608578020466328e-02 -6.674297409041277107e-02 3.915917522590484437e-03 4.043055109324766860e-02 5.623747883013570370e-02 -6.816653247199247478e-02 2.480014836874518125e-02 -4.679402774614951216e-02 1.239198582152634467e-02 -4.120641164266002771e-02 7.245946223846026768e-02 -7.256122925370457610e-02 9.129980721929885357e-02 7.073480098225695678e-02 8.472955933182646504e-02 8.013695828943756538e-02 3.421551343838463710e-02 3.500944706404536533e-02 -5.213289022692733227e-02 -4.740082822372540527e-02 -9.239256303362136657e-02 8.298911072896485164e-02 1.600056678131389978e-02 -1.069145365305570333e-01 -9.298774396833653366e-02 4.364773578165870999e-02 1.793199377513299362e-03 5.575037918330197351e-02 2.197481702230208445e-02 -6.581320735767373642e-02 -2.401397247909624680e-02 8.564120409870897010e-02 1.871396742655438011e-02 -4.295948775237470874e-02 -1.923865145857006631e-02 -4.571505045235463999e-02 -3.426212967116755263e-03 -9.685808026503522905e-02 -2.006405070441274942e-03 1.498809859439802564e-02 -1.825031456605941821e-02 -8.794635908286881076e-02 -5.497478111504888049e-02 -7.143008435062887795e-02 -9.470206566903288659e-02 4.212096976239099351e-03 -2.579907164962864929e-02 2.167869236558877047e-02 2.997801079185831441e-02 9.742284155648082977e-02 -2.724249191322951694e-02 6.993509748948871507e-02 -5.468533727530953265e-02 -2.274009489499732861e-02 -7.419340080949177879e-03 -1.847852631762487638e-02 2.950398184248559721e-02 -8.937548089849145505e-02 -6.944881918301874790e-02 4.544030959987242768e-02 -7.259707454151871631e-02 -3.203129064959309158e-02 -8.428066018845759011e-02 5.871451670055585770e-02 8.366703728191426936e-02 -7.732359248587804268e-02 -2.024637422482136392e-02 4.115126480020508265e-02 -4.965522501896857399e-02 -3.972546126681673201e-02 1.346962798176807447e-02 1.273387315880818507e-02 2.931022587663324394e-02 4.836070858765600250e-02 1.739148719241312424e-02 -8.183744286760258335e-02
-1.864843882461029168e-01 -4.737048768898726586e-02 -2.430592309187194072e-02 -1.601955679415669742e-01 -5.065349378521882134e-02 -1.413916316991102873e-01 -2.804886037069767579e-02 -4.579646754668945108e-03 -8.369355347092187480e-02 2.262661550943396299e-02 -3.055082329475419800e-03 -6.272326991992988043e-02 -1.250717497482869700e-01 -7.159096050482108287e-03 -2.611369204063561378e-02 -3.863085310781280701e-02 -1.543855486366173813e-01 -8.961371221708741563e-02 -6.013144407326918850e-02 -4.496544178375427858e-02 -1.301391107251023138e-01 -6.254564139623790264e-02 -5.199405850054192313e-02 -1.998700065061234099e-01 -1.193966484054084093e-02 -9.786801877493321589e-02 3.286367017358640674e-03 -9.720221537102158305e-02 -6.570522417553158190e-02 2.420358262000157912e-02 -9.487594970078044865e-02 -4.332583440723411505e-02 -9.147546352497110123e-02 -8.764102128108670897e-02 4.967239759783019515e-02 1.238617527356145054e-02 -1.681809866822208122e-01 -1.693475390841862604e-01 -1.748737428439536001e-01 -1.897721719374209082e-01 -5.034632044431013725e-02 -3.253563109557999766e-02 -8.704330825478556743e-02 -4.709754492206783688e-02 -6.896189210520570212e-04 -5.773396544213962867e-02 -4.780773796466322723e-02 -5.742126025268272371e-02 -9.344278553112821128e-02 6.540339860983632181e-02 -1.296784118598147684e-01 -1.180032733161947844e-01 2.819885245560007497e-02 4.913381533913957488e-02 8.052989103985914998e-02 -6.575737280092658343e-02 -1.272570975541477134e-01 -9.076855881845245777e-02 -2.889253325004832729e-02 -6.392482438405167056e-02 -1.436002936794893436e-01 -4.571608261659741018e-02 -1.193852169002176111e-01 1.763514517923704672e-03 -8.582745962121277050e-02 -9.594457922876652167e-02 7.011591924661141062e-02 -3.466256872393580490e-02 6.754761005193621326e-02 -9.920856195496741137e-02 -2.932630454068484160e-02 -1.014154004996036251e-01 -8.322991516920981436e-02 2.056828577002371011e-02 -1.637455991584280124e-01 -5.650060945947405627e-02 -4.265793448046020092e-02 -5.487552588839639256e-02 3.558257611164407364e-02 -1.128748358968670873e-01 -8.657962951166137122e-03 -4.924114763147838941e-02 -1.609803767967657451e-01 -5.046615942939787491e-02 -5.513146161156622788e-02 -1.043089693537130880e-01 5.383142282133410172e-02 -4.923150352037428817e-02 -5.419361475139688328e-02 2.936143710352841218e-02 -1.030600144220644859e-01 -1.685852892373065209e-02 -3.087561611113508880e-02 -5.562182367519850207e-02 -5.587304442190292597e-02 -1.975973540217624835e-01 -1.949081120055276561e-02 -3.848688209293869150e-02 5.380344634030416462e-02 -6.755754003539737873e-02 -7.472511651440623404e-02 -2.808521214048347037e-02 -8.290893416759657908e-02 -3.639978260355623829e-02 -2.851528555341929783e-02 -1.036588894358861090e-01 4.431917777417489213e-02 -2.114416661064943970e-02 -1.477716221905911453e-01 3.867973705823679609e-02 -4.785334091834387432e-02 9.448330873134472285e-02 -3.650533162428340472e-02 -1.204242336053829021e-02 -1.271186466127942616e-01 2.379923027961144966e-02 -1.731942894451270476e-01 2.533500592558009940e-02 -4.970510134432166993e-02 -1.518282140919581247e-01 5.434968053871049032e-02 -2.189525318338271520e-02 -1.147156880922965416e-01 -1.418248752138107083e-01 -1.728459307263540135e-01 -1.502717586445046101e-04 -2.170071529141871097e-02 -5.573798614600244949e-02 -3.293983913388900953e-02 -6.087838871886361303e-02 -1.028844561455491552e-01 -6.481494116978832321e-02 -1.003044627667816074e-01 -1.845665014863812903e-01 -9.101035136870141984e-02 -5.355787537111797447e-02 -9.877072367381660445e-02 4.254570770871779484e-02 -2.263732184895698996e-02 -3.214443819242272099e-02 -1.158395661129493215e-01 -1.571668891842254445e-01 -1.597257732638222572e-01 -3.938962475284052411e-02 -9.284790004006289454e-02 6.896633316596276209e-02 4.459034881174051002e-04 -2.198845032143764699e-03 7.682960237957610350e-02 -1.859562551644078354e-01 -1.058676406946386789e-01 1.989523442907666084e-02 -6.508232832953717018e-02 1.117585816916591424e-02 -1.483502756118635357e-01 -4.914530805386441159e-02 -1.329132935086950185e-01 -1.562806206884372329e-01 -6.056632790072396383e-02 -1.070211286447722704e-01 -9.931661626193298564e-02 -5.467282187820495659e-03 -5.067452603442882536e-03 -6.329476696980057548e-02 -3.832072811268143198e-02 -4.458291023732742497e-02 3.115740628975821602e-02 -1.383417499415640073e-01 -3.130384318064503846e-02 -8.929139763093214832e-02 -1.529508613353216251e-01 -9.681356487648125342e-02 -7.852761241090452926e-03 -5.442435297608300832e-02 2.698471869606278509e-03 -1.494242230345811107e-01 -1.208546492106864212e-01 6.556332678342270681e-02 -2.658332184864359293e-03 -1.011776322660137423e-01 -3.669203401593103264e-02 -6.673341028905629968e-02 -8.379251370499936347e-02 -9.474228837299064621e-02 -2.603695252822401524e-02 -3.946948048866645575e-02 4.837580319123811756e-02 -1.453451014712374700e-01 1.194436600706269558e-03 -1.012401672844222000e-01 -8.428393656385463339e-02 -1.789999866883172919e-01 -1.795678023213931329e-01 -1.632736507657504554e-01 -1.915551267296751459e-01 -5.499569778995336972e-02 -6.869417344574582640e-02 -6.821454208091667915e-02 -4.981888389399040384e-02 -1.114894059116607883e-01 -6.678308113917694189e-02 -7.467282333130660643e-02 -1.523634606693748117e-02 -5.553999541632703707e-02 -5.502511340753666463e-02 9.250158498497173740e-03 2.864068100068145606e-03 -1.169561869581543928e-01 -5.793358054373081573e-02 -1.504535406516795959e-01 -2.769042808068514216e-03 -1.127454817638411516e-01 -3.633480260242421406e-02 -5.037670387885254120e-02 -1.611304091491565227e-02 3.679132086915413297e-02 -3.388218834934786372e-03 -4.861846576207546483e-02 -1.353414972992061927e-02 -8.522215670605992610e-02 4.949741536484073001e-03 -9.406939955947873910e-02 -2.691265429569221143e-02 -1.306509431666673660e-01 -4.487109713343781503e-02 -2.185080182536644489e-02 9.182112726483432352e-02 -2.394580837872124779e-02 -8.443566187440772197e-02 -9.747085776321398609e-02 -4.918160062742338301e-02 6.289440466651328998e-02 -8.758543498892157331e-03 -2.822117776829365793e-02 -1.092629061945609437e-01 -9.676382287605890531e-02 -1.383388158323800576e-01 -4.032487591039135566e-04 -1.329001400238426223e-01 -1.914106610611315817e-02 1.139699670500425241e-02 -1.325323657066173888e-01 -8.818875198060477372e-02 -5.456499657022240157e-02 3.773072772438132438e-02 -1.680241990564345644e-01 -1.437015084026162792e-01 -1.118511751532645510e-01 -7.540508342372916062e-02 -1.058156014329027506e-01
-5.466699193588075989e-02 4.122716390705730150e-02 -1.801763812415338450e-02 -9.392633821177387866e-04 -4.783256890149004126e-02 -4.738947201700632189e-02 -1.174821688968250982e-01 -9.123898372010373625e-02 -9.222217068685173436e-02 7.692970930653605932e-02 8.343685097833251907e-02 -1.748435827071518484e-03 -8.895325117310909357e-02 -3.044857893048136515e-03 4.097061003829972209e-02 4.136632135623515005e-02 3.000973711737767863e-02 4.684654756133883879e-02 -3.078435730281090660e-02 4.764355848878788074e-02 -2.426484187085635805e-02 2.613892776309856281e-03 -2.344290245537979100e-02 4.879694975838487665e-03 1.977848201282159796e-02 -1.189807390160186121e-02 4.068236266374691650e-03 -1.142970759493942834e-01 -6.054854173119385286e-02 -6.970041407125826538e-02 -5.651008695018000516e-03 7.323065360510284949e-02 1.799859782161863583e-02 -8.879058129907001218e-02 8.150139961257024668e-02 5.335713167941839169e-02 1.462509500788404873e-02 1.378146251969294966e-02 -9.616123740848932233e-02 7.360491038958930088e-02 -5.438732912573765454e-02 -1.115162852511920322e-01 -1.036066178561513562e-02 -5.776240967357256645e-02 -8.984657962792859387e-02 -6.244200325350006409e-02 -3.092291347896534981e-03 3.539651761079913583e-02 7.888392472603823410e-03 -7.933119596455073808e-02 -4.067460280656284843e-02 -1.318824523819268728e-02 1.325819398553670925e-02 -5.698746956193323498e-02 5.370726949619646085e-02 5.821967089127265405e-03 -6.237654342615900349e-02 9.255275756842117063e-02 2.868616850962928469e-02 4.758813750084232158e-02 -8.275045988355891891e-02 6.303305830190480963e-02 4.045521150385056677e-03 -3.301006026761195422e-02 -6.326514505417411838e-02 -3.313953506157155116e-02 3.884545601786983104e-02 -5.497486496754534768e-02 -1.561567809370142598e-02 -4.393069788164886968e-03 -5.016411637149942315e-02 1.147932685830830440e-02 -3.356974976381383452e-02 5.510871594361518161e-02 2.400367415998022613e-02 -5.490537809800118130e-02 4.261170888898475895e-02 -5.543593336172501079e-02 -4.609260760472323748e-02 -1.752369414372534481e-03 8.936923254208334333e-02 7.338872510024517515e-02 -9.952603051442715509e-02 8.555074552791573639e-02 4.231367034600686666e-02 4.657940780366851691e-02 4.295602235671886621e-02 1.333998442380128491e-03 5.485003549882041390e-02 -1.926646397838271962e-02 -1.634074467390709759e-02 -4.245011044060489902e-02 -5.601188430730517226e-02 7.377440127297937855e-02 -9.430392532138615058e-02 -1.192367118169227608e-01 -9.667287817137169836e-02 8.278913712066363062e-03 7.461925320240465898e-02 1.979219370183082916e-02 -1.019417548902827181e-01 -6.341243340298864661e-02 -7.331094299636471689e-02 3.282568461717747660e-02 -5.474144707474220412e-02 -5.525217820556765913e-02 -6.548430500589321780e-03 -6.495694773372452657e-04 -1.092358102403712256e-01 2.252851569980445293e-02 2.460722090703616055e-02 -8.419570361195810593e-02 1.463791878122409212e-02 -7.965790288042870482e-02 -4.444672727175289634e-02 -9.654902222076039431e-02 -1.127707572829961345e-03 -8.049311104930043093e-02 9.078572357676949200e-02 -7.832551643583987588e-02 -9.696776875219378922e-02 7.132679798145449834e-02 -5.718298346520142572e-03 -5.713028100951980659e-02 -6.497312515982242576e-02 -7.025980598974429503e-02 -8.659544165425384077e-02 -7.551685942235478177e-02 -5.527117721836838360e-02 -1.455193791410833853e-02 -2.737685277453345140e-02 -4.420025500077873204e-02 -8.451848024442539659e-03 -6.175468762940833356e-02 -1.334531786478072857e-01 4.574070913213708345e-02 4.913370675962196177e-03 8.053902790163894321e-02 -6.645606398448965224e-02 -4.402862646367829147e-02 1.319307910935374820e-02 -3.791835384298339329e-02 4.241198109962727308e-02 -8.200914827117445835e-03 -5.362781008094138352e-02 -3.895707873277818450e-02 4.412641673211170623e-02 -3.415873100498317827e-02 -8.392830792673838802e-02 -7.081845042218738728e-02 1.843569636360268410e-02 3.547890278615239978e-02 7.508983302561676731e-02 4.714611466656015715e-02 5.535649412256650470e-02 4.462698742680581976e-02 3.291588803119256668e-02 -1.243586603309395494e-02 5.038290508750641050e-02 8.675472081696382343e-03 3.213456212789365940e-02 -6.829500627627668741e-02 3.757800956117463009e-02 -8.766957036378703050e-02 -8.377061255834045150e-02 -1.165208885589788003e-02 1.867968867576542263e-02 2.582374338084896664e-02 -3.798966378900740098e-02 4.392972915962703451e-02 4.292551396241976042e-02 -8.820102547406993843e-02 -4.772257514452798305e-02 8.796079691456933081e-02 -3.010511820164754257e-02 -1.039976188966063725e-02 -1.559076594150632725e-02 6.736704167445649316e-02 -6.759837114131324320e-02 -6.717914528698634702e-02 -9.566845388786336668e-02 5.704867828879798403e-02 4.237630395268656563e-02 -1.037484799288888038e-01 2.147771002470988400e-02 -7.954715288010441587e-02 -8.325196554515637559e-02 -8.276836289721996309e-02 1.908037720205018120e-02 -1.076816607522436547e-01 2.219099501747311132e-02 -5.617299382713669860e-03 5.940196383672655817e-02 1.035896167571546261e-02 -8.758042395688842019e-02 -4.317518781118392934e-02 -7.188559224492743760e-02 -7.409779179647746350e-03 5.910551217366044607e-02 -2.004818991332706427e-02 8.228283975229376546e-02 6.352325467936650871e-02 -3.445073646549114826e-02 -7.399427407328618145e-02 -7.540366005561299767e-02 7.011058004464398863e-02 -4.591132944237946018e-02 1.287345812341607158e-02 -1.191126324423887918e-02 -1.245803510198485731e-01 -3.686770549476384162e-02 2.675549783215800531e-02 3.395456450516710217e-02 8.788920564022384765e-03 -5.293811962390250481e-02 -5.916175717384610649e-02 -3.101942799104374579e-02 -1.827019526722558490e-02 -1.384759508608671141e-01 7.648238406438696846e-02 8.663637090926740170e-02 -2.453961609199866237e-02 6.658167237886873646e-02 4.591230475820167606e-02 2.870121887456861254e-02 7.528328372411492719e-02 -8.304890471632538074e-02 -2.905599996630217965e-02 -2.512766615791983682e-02 -5.530825388816320784e-03 -1.042688571301548933e-01 3.456782259660732409e-02 1.757420999444460341e-02 3.708777433731862139e-02 -9.318031371456109158e-02 -1.515617281694370266e-02 -8.022491350572422131e-02 -9.035823848843205219e-02 2.967601560313877507e-02 -7.308684712536719918e-02 -4.124117399746425605e-02 7.818229112984587115e-02 -6.641868305934038597e-02 -1.303335148854668259e-02 -1.418339825984928949e-02 -2.636394810701088443e-02 8.179962631480464097e-03 -1.093763145386142735e-02 -5.981690343939709970e-02 -8.343985114888521903e-02
6.255117444210452071e-02 8.610791589786290570e-03 -5.967475400923389489e-02 -6.478441585725674967e-02 1.042498095648967255e-02 9.552281597095079249e-03 5.386850552208402587e-02 7.010573506900170948e-02 -4.574595072937633067e-02 1.447451989120216928e-02 -1.232882270532908130e-02 -4.233892312462322893e-02 4.014754511673105514e-02 -2.237469215582849405e-02 -5.000816371274446198e-02 -1.173017089338132882e-02 -1.780813345526495173e-01 -8.344777008596455936e-02 -7.467379173820484772e-02 -1.810765299240080228e-02 5.883586653186262394e-02 -6.202491488653382595e-02 1.025644236248068053e-01 -1.033321033215435780e-01 3.114234675565022079e-02 4.842805792193442121e-02 4.161791892306793139e-02 -3.291393705436192196e-05 -4.070629267309507776e-02 -6.365116606958967638e-02 6.024433463533281768e-02 -6.892507125808221280e-02 -6.790285101201425089e-02 -3.554700927746243244e-02 4.865942146977750987e-02 -1.252196024850952411e-02 1.428607345337274195e-02 3.525329756937684716e-02 1.515520772877296946e-02 -1.071192056169289059e-01 -8.290300292394557624e-02 -1.798945719212940997e-01 -4.031773819911843582e-02 -1.324050152953579751e-01 -9.199359199694730205e-03 8.831163779706661943e-02 -7.974923255096209862e-02 -2.968984832502982382e-02 -8.664941356012426099e-02 2.042346812884998902e-03 -1.361394475596350295e-01 8.873828584006722420e-02 -5.302945180946419534e-02 -3.969315750576354884e-02 -5.604211438277183210e-02 -7.915429405648305439e-02 -1.169597842770057627e-01 1.487186097120001341e-02 -9.332296246649414775e-03 -5.861451809455176659e-02 7.491374470777145689e-02 8.842059742123978272e-02 -3.475023676322046284e-02 -1.475149051440498640e-02 -8.166187461926664726e-02 -1.030638601186717740e-01 -3.019253686332572240e-02 -6.089804612206114326e-02 -6.028078232351041094e-02 4.036056621192114779e-03 -7.917327769732830645e-02 -2.090388785006806055e-02 -4.459759814705380188e-02 9.134875607234396733e-02 1.993624366624595357e-02 2.336505977439358797e-02 -7.002216540322303562e-02 -1.029750896056152443e-01 -1.497293403910674239e-02 2.297455293325722028e-02 5.702959596507613943e-02 7.130553776819396894e-02 -2.351231971140243376e-02 -1.315553357447214050e-02 4.807892071922120758e-02 -1.003810468602656276e-02 8.076236633521943764e-02 -4.299289778394737443e-02 -7.182105552143057403e-02 -6.458867091676333272e-02 -5.467135730298455960e-03 -7.577386755942146224e-02 -5.680196620762564819e-02 -8.465330530333110837e-02 2.401862169403579453e-02 -3.269083310650575808e-02 -5.532425473952600620e-02 -3.411561714206725465e-02 -3.131038389400644592e-03 -1.947664463193680973e-02 2.099683356008681320e-02 -7.955004070262093607e-02 8.161119350001277972e-02 -9.212117561493003703e-02 8.971644250155810796e-02 -3.198780361792584633e-03 -1.213287401304466162e-01 -7.271220633126382338e-02 -1.530898131867927114e-01 -6.477646549982846169e-02 -5.570642725854846322e-02 2.248555988187961319e-04 2.676416336563280929e-02 1.790902363162611560e-03 3.183525190055361970e-02 -1.199560541009761644e-01 -6.012540174787681102e-02 -4.978318597583586413e-02 -3.153843403870837739e-03 -9.140406565095039737e-02 -1.246387775562324551e-01 -3.644814536763864299e-02 -1.300309227860048100e-01 -1.074149302341691203e-01 -3.909848435022504620e-02 3.122590821962818730e-03 -7.910386357932726320e-02 -6.111762906266879347e-02 -3.782393517242698538e-02 -4.558186959818214673e-02 -4.520912471509971192e-02 -1.962475113829960371e-02 1.042233806095705928e-01 4.430144945079435292e-02 -1.538611428690943583e-01 -3.603809647500963442e-02 2.668252547396864419e-02 -9.102749328334565349e-02 -5.982345759408146807e-02 3.907442623703274998e-02 -4.242455082399648747e-02 -1.673767208232591064e-01 3.075674726754156971e-02 -3.783567342581501541e-02 3.881540455116687383e-02 2.201035348217253440e-02 4.155776639535021383e-02 -9.943906432258816167e-03 -7.528596048640188998e-02 2.256800135581278621e-02 -5.683607092200826209e-03 3.143741226267215971e-02 2.370690144598060906e-02 -4.262558372548794910e-02 3.368301063002739071e-04 -7.384428040688899297e-02 -3.406645082536989555e-02 -2.058394434524153313e-02 1.188624892568984626e-02 -1.298634309689910074e-02 -1.512293663753400824e-02 1.070979303382746037e-02 5.044235967695170908e-02 1.653225989860045847e-02 -1.085874950876704881e-01 -8.902597195765259153e-02 8.195417935648313668e-02 -3.673630889577545952e-03 -1.184255523519541220e-01 -6.732958491538941492e-02 -3.277670656559756451e-02 -5.456867340503102071e-05 3.614050874680911629e-02 1.996116612115124769e-02 -8.656184476069261891e-02 6.678834747660604421e-02 1.632631527573695507e-02 -7.780660708501829781e-02 -4.700792324271092087e-02 -8.354009969178202710e-02 -6.640614390780615051e-02 4.128467292439184227e-04 9.143024508887930002e-02 6.176289789753779819e-02 6.074416258159390930e-02 -5.285182413256601236e-02 -4.913221320981518009e-02 4.130300103708722803e-02 6.295332493742174240e-02 9.224961354597314978e-02 -4.520326217498019800e-02 -5.350264346577903590e-02 2.476963996522976719e-02 3.021598093803144411e-03 9.841296570865704779e-03 -2.493703306455984786e-02 -1.412698700219562065e-01 -1.373341882467180586e-01 2.181608104160344397e-02 -6.921022292473555382e-02 3.890469210965724622e-02 -2.378256153836799669e-03 -8.209148465350771251e-02 3.104079483740811336e-03 4.798751321786743490e-02 6.759001884113080560e-02 1.756187971991424179e-02 4.026429998027392793e-02 -6.580943881142906071e-02 -5.259245624397869412e-02 -1.165312199105780766e-01 3.849396798211134063e-03 2.576636339065248305e-02 -1.063538442632173120e-01 7.826834708861231393e-03 8.082765997207037867e-03 -1.406524140505711340e-01 -1.054754362425347897e-01 -2.963635185019891823e-03 -5.102255685577108089e-03 -6.388092475856224639e-02 -6.242166683662201537e-02 3.651728436943156575e-02 8.173002183870079276e-03 4.180999459004860336e-02 -2.936429424254955595e-02 -9.176930545556408192e-02 3.757960988415453424e-02 -4.606195821270275131e-02 6.452500307220854214e-02 6.710724206996828041e-03 -5.750232412423206783e-03 5.533231054583011288e-03 -1.498278485743758104e-01 -1.068983483484067243e-01 6.329383893403950356e-02 -1.628786702890428484e-01 -8.359810932879666034e-02 6.759242250159865073e-02 -1.626548824459201903e-01 -3.347894370050384129e-03 5.660939071519762583e-02 -1.518370147034816819e-01 -6.940938015752994017e-02 1.871069820604021397e-02 -9.604018311709447420e-02 -1.621478450675145622e-01 2.781196553776316138e-03 1.801694072352531817e-02 6.880565751975586952e-02
-7.748720996184128851e-02 -2.219608860713789822e-03 -4.410480300904997576e-03 -1.369305062331244160e-01 -3.206847402732491970e-02 -1.793101527458411670e-01 -2.197600242799002679e-02 -1.443283668802529673e-01 -5.073803448833431873e-02 -1.134740133852863153e-01 2.170836558842599573e-02 -1.690695543844483728e-01 5.570953091803415580e-04 -8.101322194551174860e-02 -9.107697758279563460e-02 -5.823817091068545643e-02 -1.003882502107585478e-01 2.037550113577239058e-02 -8.212018982452848337e-02 1.824001251186167100e-02 -9.873452610311089783e-02 -1.110062157113838044e-01 -4.406439292209780173e-02 1.125798927876236685e-02 1.039542809420694602e-02 -1.908146136494685841e-02 -1.405768970681236796e-01 -2.197395846302541145e-02 -4.232311293348166997e-02 6.685353889961806462e-02 -6.468021022069136983e-02 8.149644301745967434e-02 -9.545673201223217608e-02 -1.181780719185047818e-01 -5.573936041023404286e-02 -1.780871981603096219e-02 -1.408054412480259920e-02 -6.484534387573251402e-02 7.914597683664606476e-03 -1.282932171668073329e-01 -3.457734359124844947e-02 -1.296709985281912503e-01 -5.335426136394321589e-02 1.145659742048499405e-04 -8.739695449363510393e-03 -5.965963525146891766e-02 -1.584532556930428326e-01 -9.493285010411987856e-02 -2.521585189070527089e-02 8.417011871435846337e-02 -2.331398391568505202e-02 -1.442670940540195512e-01 2.455004327674078363e-02 -1.060920534497784562e-01 -4.062588185092925325e-02 3.842920825431356269e-02 -1.800126379968176871e-02 8.925893363838813266e-02 -1.879006424141915765e-01 -1.261931421877800497e-01 -4.120960713548241228e-03 -1.476758897307712814e-01 1.193004464240696172e-02 -8.434878921727237411e-02 4.158553265059166532e-02 -1.480084398190879558e-01 3.864621266338228757e-03 -1.438748395045340578e-01 6.706152891690123075e-02 -4.100544582671412919e-02 -1.318082025250640332e-01 -9.493994111792838919e-02 -2.814897846515146407e-03 6.786853785961881325e-02 -3.984969243621785950e-02 -5.037522544778461064e-03 5.517814693262258069e-02 -9.123854140275126923e-02 -3.803151131944836061e-02 -1.057439610051663509e-01 -9.807563992916953910e-02 -1.489570989020701508e-01 6.854118244099385859e-03 -1.633057644276511566e-01 -2.397181749040925430e-02 -1.187135533503211882e-01 -2.408407021106609772e-02 -6.606158612230776661e-02 -1.246106900001202888e-01 1.017632240663233004e-02 -2.064804000431132505e-03 -1.380421087305818140e-01 2.824735084657604978e-02 5.194157687395135892e-02 -1.973541811044075833e-02 -6.710520561749021284e-02 -2.463675850764811270e-02 -8.758292774855364060e-02 1.241893530527567180e-02 -9.147646188635928655e-03 -7.654663794668883914e-02 -1.820337934879643904e-01 6.890868213749054561e-03 -3.149349512035036491e-02 -2.009932609720015140e-02 -1.587037536317197906e-01 -9.189823087222717679e-02 -6.913113778676696630e-02 -7.612002019714834977e-02 3.118276050175037076e-02 -4.392873475594647262e-04 5.204425673640771660e-02 -1.181909308815873999e-01 -1.263052393816191943e-01 -1.217366088717870276e-01 -1.584430676954280137e-01 1.669759799486590646e-02 -4.049530417489010520e-02 -8.084635022265534987e-02 -3.581120688224363746e-02 1.630626773470296789e-02 -1.068060516055985287e-02 -1.060461645296568167e-01 -2.762804477118653568e-02 -6.008310719230008229e-02 -1.214441719978520684e-02 -2.604711479105115829e-02 -2.063976252270327549e-02 -1.170649110736387416e-02 -1.298030575719298640e-01 -6.570242734488263014e-02 -8.489918336758406348e-02 8.031754396914252137e-02 -1.906660340560015487e-01 -1.171689814966255377e-01 -2.170186988956399055e-02 -6.483618631077395222e-03 -4.200098886615399874e-02 -4.364471260306097833e-02 -4.236048961972052607e-02 -1.126242274383191244e-01 -1.829724554644113210e-03 -5.124434436241645519e-02 -1.068290552618702122e-01 -1.216201366285543373e-01 -8.931519501889362278e-02 -2.208374726845351022e-02 -6.965725641218473152e-02 -2.431829630965671660e-02 -3.364864747760281521e-02 -8.362178389137664425e-02 -6.118704427711901123e-02 4.714691551358980715e-02 -9.704686299739545552e-02 -6.498357273906173182e-02 -1.431506883376565398e-02 -1.259972915804060678e-01 -1.141530720180577024e-01 -1.205496357691838716e-01 -1.180510092133904704e-01 -9.468167868830440481e-02 2.403033073285228832e-02 2.600233899569366278e-02 -1.380253496683133962e-01 -1.027196934076818474e-01 2.882215051029139719e-02 2.301464821068974209e-02 -1.541317293269808264e-01 -1.326392628424890863e-01 -2.194234918720511934e-02 -1.746372970485322029e-01 4.568709772860433949e-02 -1.213993712261469127e-01 3.207056898695619801e-02 7.135028395078191199e-02 -1.492363953023267131e-01 -7.692942156869543580e-02 2.373447479196005849e-02 -9.475010909037265283e-02 -1.743642749361618699e-02 1.817659091083434486e-02 -1.173526084814762727e-01 -1.775485865013178288e-01 -4.312122149425319517e-02 -4.203853805855529979e-02 -1.349739966335148367e-01 -7.593787458340298113e-02 1.687147666092957132e-02 4.823278106434808477e-02 -1.645406724086012629e-01 -6.994153527190451192e-02 -1.850193940349546817e-02 -1.190612233676088816e-01 -1.883399955025281958e-01 -1.898914022500278187e-01 -5.460333097529526669e-02 -3.826230838615712199e-02 -1.787483530249071861e-01 -1.212736915870999549e-01 -4.831071342848006211e-02 -9.043423792973991071e-02 -1.112613091223208089e-01 -1.202291835257053576e-02 -5.828479173180387690e-02 -4.317769570797933693e-02 -7.303579928662817800e-03 -2.182580515664171716e-02 -5.488591698252662243e-02 -1.464873812674619136e-01 -1.578379137982522107e-01 -1.186428342358948618e-02 3.979686497604041640e-02 -9.905277510823538856e-02 -7.302624973872536007e-02 -5.434962821150443602e-02 1.527051773837628801e-02 -1.541050226475186025e-01 -1.611645984717356428e-01 -9.058545001610472658e-02 -6.660412691731254498e-02 -8.208844602299736337e-02 -6.155646450510785656e-02 3.851758661855630983e-02 -2.623988669750697972e-02 1.088946662811864086e-02 -1.922244785347025919e-01 -8.121619070933337736e-02 -1.094165321849946970e-01 -8.302447574031970867e-02 -1.154504225297279252e-01 -7.336794166858587318e-02 -6.635826030814168108e-02 -5.312027085159121143e-02 -2.714761497533885529e-02 -6.614349470557556732e-04 -1.015684913115474930e-01 -1.597080813218118012e-01 -6.065463374291388959e-02 -1.518007602800012790e-01 -5.314111683307895517e-02 -2.052999375028891765e-02 -9.085941404770790653e-02 -1.376103169030699069e-01 -4.193270725624656525e-03 -1.069403365764061281e-01 -1.114848967720373923e-01 -1.111669953257776594e-01 -4.003787749469536750e-02 -1.675672123801494329e-01 -1.292578247504484190e-01
-3.156696940849207378e-02 -1.067744005197904245e-01 5.401878762188142176e-03 -5.063099404019740651e-02 -1.003037905641301041e-02 6.523050011702984097e-02 -5.821162570204311409e-02 6.272565188374176759e-02 -6.591558529901235530e-02 -3.817755734631896741e-02 7.641320996015696365e-02 -8.344306865321390876e-02 4.607739947016529364e-02 6.573582872026539903e-02 -5.169965422072189155e-03 -6.827303348364924251e-02 -2.234123624302788297e-02 8.231497079930384653e-02 8.210249934072011424e-02 -9.130968440095586780e-02 -6.616866591942777154e-02 2.473737375504921759e-02 5.013083865819319140e-02 -1.034483377447747432e-01 6.258260136041289556e-02 -2.439777730047208021e-02 2.150617052249698818e-02 5.701711907074546309e-02 3.436945969892811308e-03 2.999266494364849836e-02 4.931393298563657712e-02 2.942459847159226496e-02 7.252325314182091198e-02 -5.200226844230010359e-02 -5.892586318435430459e-02 -1.266435555329177842e-01 -2.365049402514461663e-02 -1.066454049521013692e-01 1.849008119698800426e-03 -5.203729916361642116e-02 4.291328396841193743e-02 7.617578425808750608e-02 -4.220327046503238172e-02 3.324710049716885808e-03 -3.106429750087794442e-02 2.376439738929365247e-02 -1.362008748893356672e-03 -6.176971958079702923e-02 6.733190737066781228e-02 3.902740626840728311e-02 -9.368328107836179641e-03 5.657314081832291036e-03 -7.439976185496464944e-02 4.854002908530916788e-02 -1.170231334294362935e-01 -8.082861279639230734e-02 7.840651589558424173e-02 4.104818224072706578e-02 -4.676973923709276670e-02 -1.499406395659305322e-02 5.778960599151110322e-02 -3.986345827652265639e-02 6.810628865580170554e-02 4.889626771935760841e-02 -4.292881987966179480e-02 -2.862141680727790793e-02 1.932668837608076187e-02 -9.274551509782388847e-02 -7.432272412880001899e-02 -4.597928077368107491e-02 4.119793634292306245e-03 1.359407790669085909e-02 -8.562428910248526259e-02 5.622853793787601501e-02 7.215910348719324630e-02 -9.324256688253537706e-02 -7.435336579874798901e-02 8.789442149359547041e-02 7.211493299175167349e-02 7.169738397047846490e-02 -1.224315276875425837e-02 -3.110894053130752734e-02 -1.540792326896273448e-02 6.005805618784755551e-02 6.610755771577668527e-02 4.652581696067294159e-02 -4.775460231442986772e-03 2.807617717044372935e-02 -8.275042469415817836e-02 9.196378625400106199e-02 -3.599144623562128276e-02 1.353029444980616801e-02 2.916952276600241062e-02 4.023939565948542185e-02 -6.239425289398792263e-02 -5.900565251722630564e-03 -3.677805381273894364e-02 5.627410144239791689e-02 -8.542896101998356806e-02 1.886519987270673243e-02 -4.505949088225365967e-02 -6.213380598471599653e-02 8.921312713800814281e-03 8.197529640870883372e-02 -4.586459302279298489e-02 1.664211689764948793e-02 -1.253129665153266195e-02 6.907412281701023893e-02 -9.355280867692276903e-02 4.070222534024516697e-02 1.262374554896750212e-04 5.324607289743372995e-02 5.733558244549462335e-02 -6.884258669855282398e-02 1.971251774436241777e-02 -4.696345023196511065e-02 5.658902252946570316e-02 7.275147659053037008e-02 -6.407018232141226122e-02 1.456595012846962842e-03 -3.751243634806274846e-02 -5.377162698863856283e-02 1.253144426502028619e-02 -6.222511433776550804e-02 7.091416080045849502e-02 -6.613386469834854793e-03 2.509576524927071076e-02 3.377373242921358903e-02 -9.998285238255372187e-02 -6.309385960337134287e-03 -1.003024527328277571e-01 2.854224324856298456e-02 -4.800874904673176763e-02 7.674061318193760306e-02 -9.855369359277335595e-02 1.805884832177510196e-02 1.517537960304896072e-02 -9.523402833614134921e-02 -6.209953052527249218e-02 -4.573139206158272074e-02 -1.013663369345598961e-03 -1.055265150277416575e-01 3.829488299302092474e-02 1.372554176105049775e-02 2.126075027438132162e-02 2.099879597023801732e-03 -5.471784782772074612e-02 -9.905226033690751886e-02 1.908424173864546949e-02 3.384910105355330712e-02 -9.790043526582517530e-02 7.384178676437969796e-03 8.458792039825731301e-02 -2.447798635699353215e-02 -8.503141458476300152e-02 4.356465186970887721e-02 6.583161170763018877e-02 -6.477492084933900163e-02 -7.234512828059405654e-02 4.609915136020948517e-02 4.015774858533491948e-02 -3.319231076535940350e-02 -1.013792438382558336e-01 -9.413650976952855909e-02 2.055716089433974082e-03 3.307617090849491320e-02 -5.818712958527241103e-02 -1.433863486313847503e-02 -3.931971467160939870e-02 -5.017407363637024081e-02 -1.137356761626482082e-01 -3.041633287964016358e-02 6.194185272183030250e-02 -2.127521398653679785e-02 4.414739455260389966e-02 5.050637358240489538e-02 -3.539791658685145087e-02 -7.137075342634659897e-04 -1.015407637584595929e-01 -3.124902946888133762e-02 -8.501965301677386067e-02 -2.879228002747152848e-02 -8.584871110308694986e-02 -1.044220577972192893e-01 -6.850957129443589755e-02 -4.319647773988862655e-02 -2.734930924920420114e-02 -3.627755491357194384e-02 -8.276143960101359220e-02 7.900187921025408899e-02 2.919690694086012062e-02 -3.999881075991783275e-02 -6.009582978621127308e-02 3.518213658388273657e-02 -4.470902982251358238e-02 5.371486510031690809e-02 -8.470095643103528471e-02 -9.950151169041979160e-02 1.547748379398938834e-02 -1.109902492555494974e-01 4.138977383378126401e-04 2.610432225224174063e-02 5.240572566062000337e-02 -4.221872682205937352e-03 8.048718321497545791e-02 8.925737508086584171e-02 1.047585844182622947e-02 3.181656474298878712e-02 6.581198795341639679e-03 -1.077365841205816382e-01 -8.111812790913620896e-02 6.208876113453232204e-02 5.969019299938719408e-02 4.965575863559516800e-02 -1.566554668059256042e-02 -6.653124651742996221e-02 -9.943621365856350480e-02 -2.085834690195039962e-02 -1.139884335053077402e-01 3.737231900743324259e-03 5.726962235937822776e-02 6.825108065246159039e-03 -2.203322983376140680e-03 7.658694665365409215e-03 -9.543773839728851571e-02 7.103290792347995153e-02 -5.442405935422039293e-02 -4.493074148446409011e-02 -3.343944620086897190e-02 6.983938580470856750e-02 9.836011155198262634e-02 8.255617994617646394e-02 2.445613504583744706e-03 -5.098271659732095396e-02 -1.432851557028315057e-02 -9.844932659277891296e-02 -6.703479417939493812e-02 -6.984859265738842249e-02 8.150847002506671213e-02 -8.346078333574354080e-02 5.292466894443011161e-02 5.905250222969302132e-02 -6.540522332494488542e-04 1.408614428640505775e-02 -8.500994434187197912e-02 -6.501409599456167698e-02 -1.198787386259430321e-01 -6.365822894748360272e-02 8.413751674138943148e-02 -7.272470269840901336e-02
2.929931984179092591e-02 5.689443946397530066e-02 1.194197184251023433e-02 -1.467057505675641894e-02 -7.433128818336934285e-02 -6.298779944356971972e-02 -5.944657239929245635e-02 -6.779975328983828264e-02 1.217863322257829208e-02 -3.203768857421580851e-02 -6.729292699391228524e-03 -6.550665375153727488e-02 -8.890337276894656748e-02 3.826825778523184479e-02 8.926764447268184521e-03 -1.520041047025735559e-01 -8.371488766059978492e-02 -1.748826354266288033e-02 -2.147697826215582556e-02 -1.152722333902693810e-02 -9.706200719756856443e-02 -6.168819712009656828e-03 -5.857962918364870153e-02 -2.436418456912502715e-03 -2.668427778326559058e-02 -1.802203585002537566e-03 -3.965703356771110161e-03 -2.859854599758509738e-02 -1.020086621115966208e-01 -1.014800707094974108e-01 -3.542804489678872543e-02 8.138230560435749661e-02 5.409285162618409498e-02 4.812550061681813290e-02 2.167313529301146541e-02 -1.039941204698858618e-01 -5.951305492784449147e-04 -2.422156127864406525e-02 1.699464930425191242e-02 6.384695760315958757e-02 -9.853549501672767552e-02 -8.916652348615147772e-02 -8.257093351258296132e-02 -9.640580033258985132e-03 4.227685843705854263e-02 -9.866148263896221127e-02 -3.383190086688544346e-02 -4.579165302571924084e-02 -1.178404107122720396e-01 -6.056557265086102287e-02 -3.196360755573522672e-02 6.949766950656013909e-02 4.702655556344070842e-02 -1.124643373700103810e-01 -2.030204504279002967e-02 -2.819469447470508705e-02 3.927929256427020038e-02 1.020526445667595608e-02 3.099306394305210294e-02 -1.184310931523911287e-01 6.560246851701825865e-02 6.178008397949612956e-02 6.643585557706743749e-02 5.083642772102319775e-03 9.821091059927551659e-02 -6.697517765203958411e-03 3.396043572578460318e-02 -1.121258792155165884e-01 2.084926590221358733e-02 1.827914431050342917e-02 -1.110645173089909732e-01 -9.868189128601990989e-02 5.783875564196563554e-03 7.891249583612701402e-02 -8.853122211716907275e-02 6.568428067805755222e-03 -4.359210149336369827e-02 -5.877143994358628026e-02 -1.595654748452104282e-02 9.989472871214006428e-03 5.535030400809260592e-02 -9.877433039563610073e-02 -5.875256853057713585e-02 -9.609111878323725597e-02 -4.276881206713276096e-02 6.427675903132291924e-03 -1.460360040309051366e-02 2.030140443089521046e-02 -1.199171413771486505e-01 2.954841745514128967e-02 -7.745129684505881740e-02 -8.116898089818508355e-02 -8.711760356041463316e-02 -1.297665007676729668e-02 -8.054901534394960302e-03 1.794879011367122787e-02 -7.999980884068572107e-02 7.827073235213498348e-03 9.510246899436025636e-03 -6.148361098415998371e-02 -1.328770152913949509e-01 -4.695477955467318443e-02 -8.934648544171369666e-02 6.613457350170856563e-02 -7.049712810422467668e-02 -4.328867580968119577e-02 -8.897325809500136740e-02 -5.353555150953409614e-02 5.450568223355269082e-02 -4.475737643515785569e-02 8.284382267172273051e-02 -1.065768296266829222e-02 2.047223677051934754e-02 -8.138385788701463230e-02 6.054889856293859535e-02 -4.322813123912212785e-02 -6.326945968067368420e-02 -7.461416757164598956e-02 7.841233785747010743e-02 -1.409354990990126510e-01 2.401943900723575026e-02 -6.349073579337566331e-02 -9.783181132590806905e-02 -1.053268933381390493e-01 -1.114423908158193033e-01 -8.897614773571864422e-02 -1.026494676236253539e-01 6.382238938036149771e-03 -2.615382821849890349e-02 -7.229876036653135052e-02 -6.833873632058191927e-02 -9.649281862828252426e-03 8.786868426509077123e-02 -5.884460889333893024e-02 7.751953610481096546e-02 5.855269466308907211e-02 -1.989453141622513424e-02 3.459880074956152296e-02 3.475822563937700643e-02 -8.363217448968324197e-02 -4.646459943900208001e-02 3.142666365611599538e-02 -7.523356904047545646e-02 -5.703900017429539698e-02 -1.547394584994908617e-02 6.726753503356290576e-02 -6.164363997937803707e-02 -6.552343784844623376e-02 -1.521961911298175263e-02 -1.049494678991689245e-01 -5.024120889515912985e-02 9.635656335314020382e-02 -1.050399746048633759e-01 -7.326712768011391097e-02 4.196247494750265233e-02 7.632619028562361019e-03 7.294449544190691193e-02 1.879830623906574363e-02 -3.655346157431920567e-02 7.666878448757560860e-02 -7.916422338261985825e-02 -6.079626811338464248e-02 4.866830559776279264e-02 -7.219141206715898318e-02 -3.239235492754797413e-02 -1.032680947789397785e-01 7.895498365845025901e-02 3.174589182572085111e-02 -3.615730562937442827e-02 -3.353068995216593184e-02 -1.927568495501945367e-02 -2.309904155627742067e-02 -9.750879339317251870e-02 -3.076113257277920260e-02 -5.537141455400456519e-02 -1.699461653073255224e-02 -1.027035095848349566e-01 6.990930439892395487e-02 4.667233224707972167e-02 5.712857229431962669e-02 4.396304071398899477e-02 -8.620808358741582911e-02 -9.533323145370341256e-02 7.723802412712951759e-02 -7.279055198892601941e-02 -1.208302024061759794e-01 -5.041244263980906859e-02 -5.961264963024432567e-02 -5.367450512732789558e-02 -7.759122512266246330e-02 -2.991477198355441472e-02 -6.216433035653805977e-02 -1.766358534698893312e-02 -8.599513528000465867e-02 -1.242781478330631517e-01 -5.557370564559811765e-02 -4.171012667246143391e-02 5.982904831195459683e-02 -8.351166244587392151e-02 5.862160871825929098e-02 2.621725697273338124e-02 -5.945198066195735848e-02 -8.898019713975967304e-02 -4.963473103226317268e-02 -1.149898095301708778e-01 5.121234871775075942e-02 6.581433211486614754e-02 -2.835151969719087658e-02 -2.909685300585498555e-02 -9.875025829405795208e-02 4.668067683820736891e-02 3.520982241967114679e-02 -5.775251174602435977e-02 1.900026504237346814e-02 4.435301735199553147e-02 2.531887257339048014e-02 6.510527443396973979e-02 1.699210594816470341e-02 -7.691302446410407112e-02 -1.174677305060554955e-01 -6.959368620889896419e-03 1.140399964800786412e-02 2.067895759618609136e-02 -2.108903555607508779e-02 8.194175144165484481e-02 -8.618839822427972613e-03 -4.839342775676725057e-03 -2.769732760433401761e-02 -2.044399668635142608e-03 -3.475380454016658606e-03 -1.014140417720081969e-02 -1.176545778275428153e-02 -7.699710764324137202e-02 -8.988742714693764846e-02 -6.347448900978432118e-02 -8.324211014681069665e-02 -1.324524351195136007e-02 -7.360003904274825537e-02 -2.518432816922655526e-03 -3.153690499873521708e-03 7.556932136438335168e-02 2.114780159545690680e-02 7.008054022905751967e-02 -1.117887327219782047e-02 -2.995215189425208535e-02 -1.955178948891782634e-02 3.867675080198209464e-02 5.618013673134937547e-02 -5.239979045432133220e-02 -4.613836162226463838e-02
-1.165982299250489240e-01 -1.196067993491367609e-01 2.580978196957388338e-02 -1.493137271252827913e-01 2.247608492302428929e-02 -5.884218910649583606e-02 -1.332665692500328569e-01 5.391233909813511471e-03 -1.043184392847518044e-01 -1.126598235190664210e-01 2.232288417383573864e-02 -1.841592602937881795e-01 -9.717734450764044241e-02 -4.658856083208345877e-03 -6.220517871320391246e-02 1.353248773110311831e-02 -1.679720708590442535e-01 -4.955118122008572712e-02 -8.504368730435052370e-02 1.576207224582732921e-02 -2.993211158066393443e-02 -5.832257966500790924e-02 8.426959081725044626e-03 -1.136517889700470463e-01 -9.894716367783687461e-02 -9.894978119398430139e-02 1.758128931608049506e-02 -1.700327444277568989e-02 -3.472752719964127682e-02 6.088307532753594459e-02 -1.320786180647681440e-01 -4.394486387364475444e-02 -1.786574993861670402e-01 -1.881468682515355373e-01 -1.698505924172832859e-02 -1.292778240714627658e-01 -1.534880818566944360e-01 -1.574023140113814112e-01 -2.573228550002666648e-02 -1.977596532412683183e-01 -4.703793157306142281e-02 -4.203925446264647481e-02 -1.906009095823843202e-01 8.140684188992762527e-02 -1.578285330571804479e-01 -5.690091599391902677e-02 -5.452920508557117935e-02 -1.039256752334530159e-01 -1.386643880799247885e-01 6.134101312251873106e-02 -1.987881105943496152e-01 -2.483643699787570214e-02 5.518714852583287561e-02 6.453108733369045114e-03 -3.337734186320519963e-02 2.915714413496094115e-02 -8.919350121285751776e-02 -8.329139935786944449e-02 -9.206408920623117276e-02 -9.854622940494944805e-02 -1.018090824271188216e-01 -3.464187877727593901e-02 -2.902360161790101811e-02 4.961910334552242091e-02 5.737933226042379875e-02 -1.471532086649333937e-02 -1.048708712056027614e-02 -1.510957335272370139e-01 -1.032249973445683033e-01 -5.741579225464513159e-02 -1.148493832505164680e-01 -8.079929106903739611e-02 -1.508073880963248792e-01 -1.566976914024792097e-02 -1.480920010334244030e-02 -3.563510010038710429e-02 -3.383829356138605415e-02 -9.730305633236158158e-02 7.519468857691892494e-02 2.606035307167396675e-02 -2.428755271514090874e-02 -6.584445297080937509e-02 -4.246095317115908263e-03 -4.668682429038355924e-02 2.119188778504018517e-02 -1.333286487815685539e-01 -3.194700273213876840e-03 -1.562945573561335122e-01 -1.592193164462603339e-02 -3.138967972024484659e-02 -6.342851658945411475e-02 -6.019151670801958787e-02 -7.593869668049314792e-02 -4.225074281165262097e-02 7.220802300954666519e-02 -1.113479318365626913e-01 -4.913662411015390363e-02 -5.534413724549844954e-02 5.936964084533769004e-02 -1.051547204221384146e-01 -2.387712880423341344e-02 -1.884159451618752645e-03 -1.299802904029195849e-01 -5.692671234750801279e-02 -1.044057100995612331e-01 -3.055053999943339871e-02 3.158936283602484935e-02 -1.685994559558953165e-01 -1.045657114818764333e-01 -2.581379044823464350e-02 -9.554677279744039353e-02 -1.046193791186218573e-02 -1.101938095693752867e-01 -1.574547628075201045e-01 -9.803821140267610090e-02 -1.346516631583550283e-01 -1.526354381470837462e-01 7.186744073804693378e-03 -7.821000643251410644e-02 -8.777066746841105660e-02 -6.762559860345714394e-03 -4.842108974750633510e-02 -7.736378507664992688e-02 -1.129653025554321205e-01 -8.630181248055313059e-02 -5.042937375616407536e-02 6.423112146934895073e-02 -1.277467650649361242e-01 -1.379257454953912443e-01 -6.534637808973559059e-02 -9.395996398867799415e-02 6.818665375622130764e-02 -9.026521710031426560e-02 -9.644834614286496022e-02 -4.729291462708284932e-03 -1.074432959783285790e-01 -5.445909649701671795e-02 5.026924795937497831e-02 -7.859582087565028519e-03 2.507798986049261311e-02 2.712912050667944108e-02 -2.817468990545986263e-02 -1.452010232346254703e-01 -1.230000057848880668e-01 4.740727342375306019e-02 -1.196084236546545582e-01 -1.177597785053242641e-01 -1.590317337575418155e-01 4.331937662576648695e-02 -9.156946490936597460e-02 -8.893154288611355984e-02 3.573345331511684070e-02 -9.983103990640576630e-02 -5.901999118039014114e-03 1.136633683463517119e-02 -1.885752499888012912e-01 -8.396078451674489351e-02 -2.821319899453805791e-03 -1.108766821786082019e-01 -1.630242758461286634e-01 -1.201909635327193249e-01 -2.862290421567313670e-02 -2.283451327996817784e-02 -4.117081616497514363e-03 -5.704906432344238054e-02 8.615526667034842379e-03 -3.256784311580501745e-02 -1.774499497230949130e-01 -1.507755105007244634e-01 -1.035730941558814788e-01 -5.652099979011104836e-02 -4.627317881743531203e-04 -3.392959245568451243e-02 -1.245089060121650770e-01 -8.565559013499349228e-02 1.657579147710847023e-02 1.272719063535393547e-02 1.768263091148843807e-02 1.290336423569712898e-02 -1.451073397158103018e-01 -1.565040587798500193e-01 -1.137098289944715734e-01 -9.485874865684250368e-02 -1.579756585939089131e-02 -3.623645619179038241e-02 -1.646160636508451902e-01 4.559575565706307232e-02 -5.574970177726918524e-02 1.984097252115776117e-02 -2.887115037792319788e-02 -6.744917371659840677e-02 8.689423891848443993e-03 -1.623869489249964160e-01 -1.393219607715502351e-01 -6.789934802438751804e-03 -8.661672875337717015e-02 -6.025558803368496336e-02 -1.445336188694719137e-01 -9.803416368836276318e-03 -3.191686531896509305e-02 -1.557988690090816863e-02 3.448366788305283481e-02 -7.739117404755814500e-02 -1.359621645644426557e-01 -5.525496867784485816e-02 1.951810078665745796e-02 -3.285226824803851031e-02 -3.305838015799102136e-02 -4.968213375973001139e-02 -1.910380965247177043e-01 -2.136327351509791084e-02 -9.469577198513991212e-02 4.804567591405493193e-02 -6.752927740997505257e-02 -5.202424064638317552e-02 -1.212435366517935764e-01 -8.807905580439670534e-02 -1.371237764378094304e-02 -3.140787168157865850e-02 -1.651417384756327933e-01 -1.264286111620462894e-01 -1.237831940374787137e-01 1.162361357126086639e-02 -7.359375481587186740e-02 -1.538209597813623708e-01 -3.496127105117725897e-02 -3.290480182427666517e-02 -1.396343447853619635e-01 -1.106974678832361170e-01 -1.662767770138398049e-01 -1.580737476278990666e-02 -1.149995072216711128e-01 -6.400444947559152942e-02 2.587339806874366932e-03 -3.258084133852456876e-02 -7.015410740476296647e-02 -1.083882850351943344e-01 -1.585204995822121488e-01 -7.236771525905630331e-02 -4.313543465295874291e-02 -2.576806888824714065e-02 -1.116762631980196957e-01 -2.002461657456697242e-02 -1.253641167819521118e-01 5.849363189050228728e-02 -3.135659907527713064e-02 -4.745461452660402341e-02 -5.304357744960448706e-02 -1.569134801791273182e-01 -3.115055478462865068e-02
-5.576540754660197496e-02 -5.117083289720422701e-03 -1.267378529012879937e-02 -5.468143963600486518e-02 -2.050868163766284002e-02 -4.022230059213813269e-02 -4.376763052607421378e-02 -1.284993310481511997e-01 -6.579794556607841682e-02 -9.239774881017008556e-03 -2.541865963465112649e-02 -9.097007865936405924e-02 -1.391164711779761254e-01 -2.722313048620410292e-02 -8.360401315096410713e-03 -5.252793571121634059e-02 -5.493672559430346630e-02 -6.645855517284518510e-02 -1.216841673232397503e-01 6.436166475391238984e-02 -1.306598347744220290e-01 5.325504653289615808e-02 -3.938237595528792240e-02 -1.229360736694061346e-01 4.381643811875942512e-02 5.937373660880174153e-02 -8.278536274985738574e-03 -1.718383930371307211e-01 -1.521608587631701759e-01 -4.462135077099957381e-02 -1.090146944450717525e-01 -9.286784190668050110e-02 -6.518268260250437152e-02 -9.247131990522046430e-02 -8.175177478064003800e-02 -6.454708104952668057e-02 -4.243785564418436212e-02 -4.277535799596401955e-02 -1.551604024660650505e-01 6.097444823936176705e-03 -1.095795554388265258e-01 -1.679972614035745160e-01 2.011859735589538456e-03 1.471284276978282804e-02 -2.835303185906452167e-02 -1.166488078066054285e-01 -3.784229902849777644e-02 -6.766400688283970288e-02 -4.628329634222187045e-02 2.428714162210944549e-02 -1.133622254173240196e-01 -1.598343950263648727e-01 -1.132734663178498746e-01 4.310862259535333529e-02 -9.204692408815938476e-02 -2.178704307810162485e-02 -1.060179981360475088e-01 -6.431492675537946180e-02 -4.712839864461221967e-02 -1.112708598546291450e-02 -1.149278486933453525e-01 -9.480972752683800020e-02 -1.442411947769052238e-01 6.294066495694453089e-02 3.677948119163097079e-02 -1.696916302577530511e-01 -3.212393991333597348e-02 5.573212273753416768e-03 -6.462118713339097542e-02 -1.653629661225816672e-01 -1.030915205075187691e-01 2.930332368296978407e-02 -1.376651556040066615e-01 -1.085969183332818611e-01 -2.271758985479951920e-02 -8.441534298258474012e-02 9.622634548806657806e-03 -7.307291366845172775e-03 3.786968959680217517e-02 -7.301567161152024144e-02 -4.583584832923975894e-02 9.822184566161330788e-03 -1.501656951183159561e-01 2.021589895658383595e-02 -9.947362722576880145e-02 -8.375108349435841926e-02 -3.069593077662972208e-02 -3.695094791178286930e-02 -6.160142632894344966e-02 -9.788702222619652393e-02 2.951184444556458064e-02 1.374109869333309947e-02 -3.633323922724548960e-02 7.232406887701862963e-02 -5.979748832154536259e-02 -1.201356216152159317e-01 1.126306546226977373e-02 -1.427576994438225499e-01 2.578107274220967082e-02 -7.798365978257164322e-03 -3.422383530162870224e-02 -1.472144416638719866e-01 -5.590739603634313493e-02 -4.404572747156094287e-02 -4.165543182389696425e-02 -4.062214320658738553e-02 5.858964230592070277e-02 -1.373142166365040051e-01 2.729100097821685056e-02 -6.789713785908957355e-02 -5.918560481723775246e-02 -7.876761479751297201e-02 3.329671970171173279e-02 -1.459930135905539855e-02 -1.421772259033686758e-01 -3.450725070573661818e-02 4.042295970473216982e-03 -1.079818712001418546e-01 -1.072785169491947549e-01 1.155667217188925677e-03 1.447674761799496237e-02 -3.179508580181511501e-03 5.224969831875576898e-02 -8.454519054268104516e-02 1.080149190359956657e-02 7.499860424789171753e-02 -6.712780719665147056e-02 -3.499185365103556211e-02 -1.239754594432621593e-01 -9.440585709107676693e-02 -7.308507017062026989e-02 6.560783852409848849e-02 8.152133601939663687e-02 -9.516183891350001034e-02 -1.035245589597758031e-01 -1.516030057953492438e-01 -9.585688916285672878e-02 2.723852723522277725e-02 -1.185838013886227615e-01 -1.201821539930265480e-03 -1.351331920791680116e-02 -8.114964125960634489e-02 1.105492139920537242e-02 -1.125562050478213089e-01 3.694757848720596483e-02 6.354824626257628284e-02 -1.292658870848922281e-01 -1.545912052941713632e-01 1.501262945902626144e-03 -1.591355395728927952e-02 -6.018711729986240405e-02 -6.774666528065860505e-02 -1.878714130882068109e-02 -1.491992384873740418e-01 -1.315306112558549123e-01 -6.389696543876072221e-02 -1.128320847226889356e-01 -4.787619182002436635e-02 -4.266995797480165747e-02 -5.346625677593505599e-02 8.296091595775614835e-03 2.453634032531660375e-02 1.769743623936490332e-02 -8.101872195997614212e-02 -8.533432138110096099e-02 -7.274200979671456568e-03 -4.623635955819783983e-02 -1.684431751301075642e-01 2.312715847778780420e-02 2.888418641672010900e-03 -1.458963301710309440e-02 -1.276230763419224368e-01 -1.256098957344672640e-01 -8.236996456362569163e-03 -7.293452949284469355e-02 -9.187743755771674015e-02 7.049918869297816526e-04 4.433941684895412183e-02 -1.153858390638903830e-03 1.825468292756120270e-02 -7.395682746589908596e-02 -1.398604814974664934e-01 -1.090856273861254278e-03 1.090061352224121205e-02 3.532614937386188703e-02 -3.465207560247988983e-02 -9.434409361512713366e-02 -1.104359343901507862e-01 -2.614029742965134212e-03 -9.424441274190553663e-02 -8.926704360728963950e-02 -1.372434398534954636e-01 -1.086908080289336609e-02 2.961293478937490620e-03 -5.104197544488375815e-03 -1.150294124186042322e-01 1.735200298287344067e-02 -6.388402235859229339e-02 -6.965418773163592481e-02 -1.683081286224800133e-01 -1.512720304598544896e-01 -1.066501468522067925e-01 -8.236821314559980567e-02 -1.330266249869070938e-01 -1.837389016072124570e-02 6.066964088430327334e-02 -1.531686817978189508e-01 2.330239246121656310e-02 -1.048158821816777136e-01 -9.795524405106892374e-03 -4.176501644525075496e-02 5.420304028555759934e-02 7.425636831384736791e-02 3.695253889559366178e-03 8.570964925468466111e-03 -1.054890824293757551e-03 -7.365508122407379843e-02 -5.198964060128969528e-02 -1.486171998396122462e-01 2.331590021656321232e-02 4.782114030472792154e-02 -7.326874688113345357e-02 6.201121209163984460e-02 -3.442638847923446682e-02 -1.778219072544320878e-02 -9.776403245457210289e-02 -1.822928063393742387e-02 -9.075941156817882161e-03 -7.030243789590935599e-02 -1.956693034707123607e-02 8.025183764052033764e-02 -7.171566744969476437e-02 -1.149653565351476114e-01 -1.073781443939035296e-01 -6.933565881592215763e-02 2.532421870751881687e-02 -2.807269288672267771e-03 -1.237239867497038209e-01 -4.260968288748407523e-02 1.347348347283550130e-02 -4.148372323083475421e-02 -8.221747162432152534e-02 -9.940738900151344093e-02 4.504291370854160426e-03 -1.087575504514066427e-01 -8.475140469594429071e-02 -8.537257281871066250e-02 -1.662271247380426309e-01 -1.152999612226012771e-01 -1.306444785505878614e-01
-1.065916798183766112e-01 -1.596551065046057649e-01 -7.024245930402270299e-02 -8.271081972345234457e-02 1.938951303484603289e-03 -1.020115404348623245e-01 2.689382974908761936e-02 -1.192453076484839211e-02 2.566413011367345287e-02 -7.207007506934980101e-02 -8.742382431719150637e-02 2.826602924164128838e-02 -6.285584484080194989e-02 -1.290434126417658589e-01 -8.190025787419019654e-02 -8.380242033301313342e-02 2.714786149220324574e-02 -3.072995939205555582e-02 -7.640979032654217351e-02 8.284084087555108888e-02 -6.503714225435877627e-02 -6.669792197443593501e-03 1.850464236352887190e-02 -6.517069747620757303e-02 -3.718088751308756823e-02 9.239343208555284709e-03 -8.496887816125550663e-02 -9.317359488440038473e-02 -7.540463318897128175e-02 -8.163843824419116796e-03 -9.436409420436148165e-02 -3.436302990724900142e-03 -1.582224099010534901e-01 -8.346738754094505663e-02 -6.903443209013282456e-02 -6.085766280428341057e-02 1.826718581096313521e-02 -6.879229483976333215e-02 -1.024977197560240361e-01 -7.049194685850014575e-02 -6.580792108839385313e-02 -1.401846374880291179e-01 -4.369704225471129910e-02 7.029036366246425860e-02 -3.787447842838057022e-02 -2.844386284536774140e-02 -1.150831590196073201e-01 2.669169827247069859e-02 7.530894080480736441e-03 -5.394332942308520396e-02 -3.730424734332965508e-02 -6.974129567619383185e-02 4.845603682565369913e-02 -3.771947974411574839e-02 -4.847910152396679023e-02 3.921958194846946605e-02 -1.477003233506161695e-01 -8.071105846099230208e-02 -1.576619320486280784e-01 -1.168704731229227300e-01 3.499839824608834415e-02 -3.295575056875133663e-02 -8.419902839765097680e-02 2.451410800594084824e-02 1.140116218937818962e-02 -1.436339066758225980e-01 -2.822926327910075736e-02 -8.723997726207198544e-02 -4.675788325648849025e-02 -3.845459554002944591e-02 -1.410557848517421387e-01 -3.052264324248760846e-02 9.503468934396002571e-03 -7.853474919209063598e-02 -7.797195599116703291e-02 -1.122545021636897622e-01 -7.578666644520782626e-04 -7.376279322719267451e-02 -6.667460653093680578e-02 -8.191638815046375921e-02 -1.173775062542566083e-01 -3.605648991364690525e-02 -3.287983589375244320e-03 -2.108884558953517258e-02 -3.618297108616143343e-02 6.358299696203315032e-03 1.631037304976299535e-03 -1.455047911791473303e-01 -1.442098018857802255e-01 -6.682852068907423060e-02 -9.829881731605505379e-02 1.603977812543942727e-02 -7.646545540112517636e-02 6.510366559412050780e-02 -3.771282912788151420e-02 -8.888895401013258146e-03 -5.947953868776232472e-02 -1.188257578250067337e-01 5.591978988662261270e-04 -1.254667824041497820e-02 -4.060323855280963817e-02 3.310162361405279141e-02 -5.715446730209465531e-02 3.363780487858308854e-02 5.308772564613969958e-03 -1.219180643754678717e-01 6.228055403177130966e-02 -1.333851050013037387e-01 1.921806048597893279e-02 -1.029251669084652390e-02 -1.284888149642731195e-02 -8.949654207907808967e-02 -2.528973729043334367e-02 7.197330908820381845e-04 3.292953047227514807e-03 -7.412545772015215195e-02 -1.283739362681166618e-01 -7.631883873501557614e-02 -1.212865394318136773e-02 -5.496567885937513054e-02 -1.056747607289587193e-01 -1.161683710180259343e-01 1.223646955501869402e-02 -4.191509143536734094e-02 -1.063254421625065144e-01 -8.869705543575481799e-02 -8.535760338039101447e-02 -9.663608517653565766e-02 1.186613727729331907e-02 -6.624616129083940597e-02 2.155226363235299147e-03 -2.082884304765673239e-02 -4.979841022146692248e-02 1.963632896229274005e-02 -7.655235874319660239e-02 -2.782624193237281246e-02 4.444819023881212833e-02 -5.484456837948870414e-03 7.744152452752381399e-03 -7.042030450604645775e-02 4.850489269972941414e-02 -6.321135607547932744e-02 -9.180202743205125027e-02 -3.479244631605100946e-02 -5.270657928759985705e-02 -9.551388500831635431e-02 -2.950133074867801811e-02 -1.096815083388595624e-01 3.838888461206968819e-03 -5.410861238274374679e-02 -1.225647090533168171e-01 -5.488376238765688836e-02 -1.055173719864014314e-01 3.062353969193361974e-02 2.389605256498964631e-02 -1.063951180368691296e-02 5.012671000966960333e-02 3.405403545119381481e-02 1.662983570039583414e-02 -2.428897534893346977e-02 -4.993915929520999220e-02 -2.093647141272681617e-02 -6.821470291338219138e-02 1.342548574156647578e-02 -1.064119477684017795e-01 3.257722865298073867e-02 -9.823691106451731825e-03 -5.047766167727653353e-02 -1.258737069990311097e-01 -1.114029779795696201e-01 -4.248156540227309569e-02 2.413221915965973324e-02 -5.440483233703398425e-02 4.741042392250526677e-02 -1.179282029499750979e-03 -7.273318845002592348e-02 -1.145593969832862380e-01 -9.370173676947627164e-03 -2.425572360040473274e-02 -4.190995808228891589e-02 -9.707104713084553638e-02 -2.185099735602554633e-02 -1.142083054200400266e-01 -1.139608760426891187e-01 -1.422696404514422336e-02 2.074135047147736971e-02 -5.034081338196925298e-02 -6.593324878093599628e-02 -9.319218038012454242e-02 -5.162506058108369544e-02 -6.130687216659608946e-02 -2.669711279402413664e-02 -7.546382368769974369e-02 -1.157430043783770346e-01 1.075822509465751420e-03 -1.091510710635900383e-01 2.834287935659497715e-02 -1.623888899031633026e-01 -1.083658154013256714e-01 -3.266203300646638302e-02 -5.490436156194308109e-02 4.661232956632262864e-02 -8.200060099204883879e-02 -3.230409253460263252e-03 -9.007237771253459591e-02 -7.547702350185626040e-03 -1.567010991911829687e-01 4.163221942398775965e-02 -4.618208429043947627e-02 -1.343825621524391556e-02 -6.682105560021775470e-02 1.615613426925297663e-02 1.847798070947501842e-02 -4.637014065113403971e-02 3.783356596305891689e-02 -5.164127046761855799e-02 2.016812358111198800e-02 8.818643716816031153e-03 2.807117940678480195e-02 -3.550040605874943411e-02 1.244615557896915081e-02 -3.565178304394281406e-02 -7.979871750741772407e-02 -1.370844584664438759e-01 -3.938444820797854656e-02 -1.213668845045877825e-01 8.051092997736242207e-02 2.884263951383275737e-03 -1.157348750762326045e-01 -2.396513570938918480e-02 5.648211227436675252e-02 6.935732566302213464e-03 -5.436009155842094764e-03 -1.156986548000712989e-01 -1.151921983432147301e-01 -9.038677746327712648e-02 1.519848685368875574e-02 2.363077622210341122e-02 -1.514650586303669111e-01 -2.170801968741286475e-02 -1.213092463740459044e-02 -7.052008349053272285e-02 -4.506904899311361956e-02 -1.422150557269443449e-01 8.580082452835173512e-02 -1.179316178703826573e-01 3.104135244462707943e-03 4.468535705201129304e-03 -1.524238946400940931e-01 -6.948854210461651026e-02
-1.692707303640594851e-02 -6.404833096338347076e-02 -5.301639962965742914e-02 -1.343641432861258089e-01 -8.439691217794155487e-02 -4.975459429987025284e-02 -9.489773814968290033e-02 -1.555204864430212441e-01 -2.457525361640240658e-03 -1.041709855222878317e-01 -4.860863552121036379e-03 -1.589596766745074163e-01 -9.115697575322406765e-02 -1.024986332931631522e-01 -1.159673941325715107e-01 -6.036537350770786181e-02 -5.388447479508923221e-04 -2.674962661134933084e-02 7.056499718615244499e-03 3.648874204941678773e-02 -1.262267690419620059e-01 -1.033678391312159162e-01 -5.525732920385255376e-02 1.348509815119483535e-02 -1.245377490871707599e-01 -7.193128906655033017e-02 2.566890895872919742e-02 -1.686682450156517521e-01 -3.710283060138443167e-02 -8.296473667485218528e-02 -1.419470465505961732e-01 -1.798071474568056771e-02 -8.404024171124818698e-03 -1.029398273238371075e-01 -7.428787449272834797e-02 -3.849497613544451691e-03 -1.939847793062907111e-02 -2.565713983867433379e-02 -5.250415189768060237e-02 7.504460316384242713e-03 -1.806001229990102930e-01 -1.624293552471040569e-01 -4.382296971272061498e-02 8.713990961661920165e-02 -1.490531651453268214e-01 -1.247459215861336235e-01 -5.096146757645489411e-02 1.288385670158617713e-02 -2.782657851743661204e-02 -2.035129437215211362e-02 -1.786928113609802249e-02 -4.386796902453995312e-02 -1.046111957558856914e-01 -1.228695100929718120e-01 2.107413174674521716e-02 -9.769513708959325776e-03 -8.132282884740719975e-02 -8.845487865841981934e-02 -1.092251841983080674e-01 -8.750104530215616072e-03 -4.487881153801846768e-02 -1.401491860404694145e-01 2.969874160765154786e-02 -1.788011928246559593e-02 -1.188245901366991042e-02 -1.626091828337647427e-01 -8.102232322552177513e-02 -1.706466669548265536e-01 -8.465358482209811575e-02 -1.127758741605912329e-02 -1.692870529563130777e-01 -1.586778838845160355e-01 -1.344579824645898425e-01 -1.045295732207198874e-01 -6.482165198828601649e-02 1.563786351671271613e-02 -7.672432436743159556e-02 -1.632608214860610252e-01 -4.209812921377852069e-02 -8.179847365277656546e-02 -1.372246612766193086e-01 -3.647638136613584603e-02 -2.133118055697917625e-02 2.295963113314994364e-03 2.330106144850638619e-03 -7.089178428929433784e-02 2.561652759367879367e-02 2.107503501640220489e-02 -5.731746964714774101e-02 -5.646983581621130288e-02 -1.048066124628402040e-01 2.063315605239039729e-02 -9.963712696928844759e-02 -8.044793490169327432e-02 -2.414706701632511610e-02 -1.073345050069615114e-01 -1.472275258022885669e-01 7.454810376376685976e-03 -3.385876672108880520e-02 -1.226347444043341117e-01 -1.197307116927588400e-01 -2.490969815367800183e-02 1.515965495817717112e-02 1.480247068823613288e-02 -9.309436575163522465e-02 -2.657824185204553380e-02 -8.345681475439706287e-02 -1.201009006832054055e-01 -1.751845168833546795e-01 -6.292545128407338317e-02 -7.472879675378114872e-02 3.502417435898093345e-02 2.101067548510391486e-04 -7.217258961888300961e-02 -1.127378485771522720e-01 5.019822623505254544e-03 -4.545644764163331297e-03 1.782299022643971109e-02 -7.718476866534561276e-02 9.634089063733537739e-03 -6.391200794257827222e-02 -2.808231076860417952e-02 6.743678668144642563e-02 -3.502619062260123317e-02 -6.865289645482094971e-03 -8.853353766235770583e-02 4.721294600951292386e-02 -2.754212311273204761e-02 -8.645082935392496559e-02 3.398438714368029467e-02 -8.640700148073728049e-02 -8.122438274022409851e-03 -5.059197266046348840e-02 1.338946871888470336e-02 -3.354093435185777350e-02 -5.177240108244768324e-02 -9.705402244435244741e-03 6.629077520075268848e-02 -2.349415150650570328e-02 2.436720788877249147e-02 3.651153347648936759e-02 -1.670600682788322411e-01 -1.725039309033342683e-01 -9.939473540347239233e-02 -9.569679448161805269e-02 4.014688212570699521e-03 -2.183188667832193508e-02 -2.489431613747275507e-03 6.393996657015375840e-02 -4.942478366142850216e-02 -1.513304703517798222e-02 6.361571295350001987e-02 9.728072618871319577e-03 -8.711549575858489047e-02 3.421562532052188632e-02 -1.633675799525882710e-01 -1.094776601545595779e-01 -9.577417846421684700e-02 -4.772934413003651621e-03 -1.241371697520465833e-02 -1.169699378666094053e-01 3.186749719951587762e-02 1.718283412843048946e-03 -9.279356596638232979e-02 -5.467843544020678515e-02 -5.348652362793748782e-02 -7.584460636542759981e-02 -1.563156338334931450e-01 -4.501708813389801445e-02 -4.754850141660854623e-02 -1.071123464208538489e-02 -4.525001164437508772e-02 -3.364444747601080116e-02 3.774595346210017632e-02 2.003979065535906046e-02 -1.060220736780392997e-01 -6.467411309568396605e-02 -5.012753276461225788e-02 -1.247414209272127567e-01 1.174707853316790673e-02 2.361029483326208822e-02 -1.332420555678638929e-01 -1.461125484252789875e-01 -5.647738141588540262e-02 -2.874716608909545085e-02 -8.413198170410045307e-02 -3.174477999531367944e-02 -1.023899640306076969e-01 -3.643078923347469605e-02 -2.279536318539004958e-02 1.109475727626356087e-02 -1.294308075067958363e-01 -1.166467757531658156e-01 -1.265645266151854409e-01 -1.626660332958544952e-01 -1.488639434424312846e-01 -3.969099672663766593e-02 -1.314008949350104205e-01 3.375380944077775724e-02 -1.036073291517784212e-01 4.883532090057499109e-03 2.164621756715182782e-02 -1.124440275368837755e-01 -8.273644566921700694e-02 2.144914057475484637e-02 7.596785459394135576e-02 6.436636847575838427e-03 3.386619209689549492e-02 -1.660894857527822621e-01 -4.157280310424020520e-02 -1.447830008799172452e-01 -1.066227156144908261e-01 8.608505130450341825e-02 -8.677928614336902213e-03 -3.086950279704514521e-03 -7.645452354083778768e-02 -1.626775806736312502e-01 -1.298905584405316005e-01 -1.235948184124876781e-01 -1.738395779173608491e-01 -7.419700208999840951e-02 -1.385578212170893164e-01 2.540718398682608598e-03 -1.376334387627569100e-01 -7.284990211039207852e-02 -1.761756292485806841e-01 4.200009915169993641e-02 -4.681721642695969854e-02 -1.534441790045741605e-01 -2.957694702445449325e-02 -9.085765829074139710e-02 -7.041858586573024326e-02 -9.785366490454851240e-02 -1.423328463227323259e-02 -1.803711845527162239e-01 -3.401819792635998874e-02 -7.542624359143140778e-02 -8.654277212413670484e-02 -8.022832224369673415e-02 6.153959331284125645e-04 -2.336358014762467475e-02 -1.357227115157078889e-01 -1.832096560679103980e-01 9.193565898673761172e-03 -5.424327604130106673e-02 -1.083367846196408302e-01 -1.514382933604271897e-02 -8.920265653005236828e-02 -6.799342363285480750e-02 -1.906146942344467965e-02
-1.710722887518935087e-01 -8.805996575724817088e-02 -7.953451917406145766e-02 -1.675381692011326806e-01 -1.074970882781483839e-01 -4.952319866632857309e-02 -1.214419239266424921e-01 -5.941166255409029151e-02 -1.117808121257524018e-01 -2.474385691062842146e-02 -1.100585103594246966e-01 -4.825624799063361892e-02 -3.336158667328238681e-02 -1.433127015708839658e-01 2.588607377269666610e-02 -4.868519469433769953e-02 -1.394841541294854492e-01 -5.667916660039438309e-02 -1.511927528577383661e-01 -4.573780489573384817e-02 2.405256591730234317e-02 -5.264303134995648725e-02 6.757895830308456586e-02 -6.524000106420009548e-02 -1.100597495128201597e-01 1.142781236792969092e-02 -1.100164852369286406e-01 -1.516772974096325943e-01 -6.765349271654129415e-02 -8.961274250505489591e-02 -1.619522898787012222e-01 3.753203057879578308e-02 -4.167593363545634561e-02 -3.217852675056605272e-02 -5.219950956794283670e-03 -1.228657796516219314e-02 -5.708185146244524472e-02 3.622110939868292134e-03 -3.215996503835437392e-02 -1.294968181713907485e-01 -9.210690826278972176e-02 -2.373615435421050357e-02 -6.118128261321871542e-02 2.651261286364359204e-02 -7.335407180713415798e-02 -5.697367118182825735e-02 -6.803308897727625149e-02 -1.588656478819736040e-01 -5.007444067622578848e-02 -1.296691405452784183e-02 -9.760049118501919196e-02 1.805512278671428383e-03 3.816708586481831061e-02 6.249001462918436778e-02 7.202261376532240189e-02 5.611147959437173816e-02 -1.651320232265747479e-01 -8.507055919930361920e-02 -6.849577330290360089e-02 -9.340566949127167284e-02 -7.314914161139413062e-02 -3.090074865143498106e-02 -7.215526407972740197e-02 1.247610310038473058e-02 -2.597001341379039444e-02 -6.868642790389128949e-02 -2.203725623464656072e-02 -6.265274813203350335e-02 -6.979176680909870978e-02 -1.019313204560496483e-01 -1.770504006896000404e-01 -1.009306976171251841e-01 -1.626363995896617232e-01 4.077409062286247582e-02 -6.992242709730514538e-02 -4.992705006961103975e-02 5.706563853115990265e-02 3.754140480962661619e-03 -1.069150839432184141e-01 -9.520661240862800245e-02 -8.685400005580676264e-02 -6.819619392264567037e-02 -1.858128271335618420e-01 -1.434414779436073706e-01 -8.628899835919154326e-02 -1.111520280654784698e-02 -4.005754671124497901e-02 -1.383977683143029769e-02 -6.147509524671321973e-02 5.973894045444982925e-02 -4.653561336946358123e-02 -1.239879483780612496e-01 2.290673669132983759e-02 9.080587176803366078e-02 -1.041626804312759114e-01 -1.176479813377179218e-01 9.572740621292666341e-03 -1.269953983397467123e-01 6.919207221861845003e-02 1.545620750414471861e-02 -9.539834585147480284e-02 -1.049124315846898386e-01 -9.374972449305303546e-03 -8.631423353972891843e-03 -1.831890416777919306e-01 -1.346707944080907660e-02 3.766495389540880693e-04 -9.378907255894247674e-02 -1.579050743723079964e-01 -4.304552414866163329e-02 7.432470895896080287e-02 8.266924866993170806e-02 5.635336998903503480e-02 -1.142924646618906082e-01 -1.841756613904305950e-01 -8.874517970176197534e-02 -1.715494127719541240e-02 2.654001727448541265e-02 9.124315194335351487e-02 -6.362111000968895258e-03 1.029778873142719875e-03 -2.831166626894276311e-02 -1.362558257449668075e-01 -1.795932840901777461e-02 -4.563912434644843558e-02 8.678352286912248414e-02 -1.149854257086539017e-01 -5.804112064544869609e-03 -8.342866772767751349e-02 -5.221564406087470661e-02 -1.985999187101654684e-01 -3.703439862277246170e-02 -2.879257165481859809e-02 -4.532187813299655421e-02 -4.882508340404220770e-02 -7.384468992417837774e-02 -7.350842838279349201e-02 -6.172946486434716107e-02 -5.116440922138596609e-02 -1.599640549396026332e-02 1.607155132789881563e-02 -1.850814839272398593e-01 -1.729063364794518609e-01 -1.144299503805560336e-01 -5.005592856582222194e-02 -7.181758268441321147e-02 -7.776629451078566346e-02 -1.947657939727854837e-01 5.515212017019304608e-02 -5.691459517359001574e-02 -8.539526620141280056e-02 -1.750429858466709052e-02 -3.079847026482702282e-02 -1.402182029607488278e-01 -1.172487223036634135e-02 -1.061384297531842158e-02 1.904995470846607142e-02 -9.438235524747752569e-02 -1.730717451597705292e-01 -9.440108978299542597e-02 -4.094006719237539699e-02 -4.047888078099329268e-02 1.657220984667116120e-03 -1.660769977653086538e-01 -2.121784056538390806e-02 -3.198851199975761422e-02 -8.037041615499054825e-02 -1.584056861222338242e-01 -9.473361642477523548e-02 -4.723191213293100738e-02 -1.206866763413956267e-01 -1.064776641474669550e-01 -6.764752251679867490e-02 -7.374956330251140890e-02 2.968844433529685065e-02 -9.538102021696932831e-02 -2.447787219828479605e-02 5.192391943592354620e-02 -6.187903639154061081e-02 -2.349298748930100933e-02 -1.486850518430759827e-01 -2.381734071585622781e-03 -4.803061455322415324e-02 -6.297840224211223581e-02 -4.173466920616736991e-02 -1.289091291387811089e-01 8.736317501026322208e-02 -5.335977026809279183e-02 1.671067584775772635e-02 -3.944149196316392575e-02 4.832089302143399712e-02 -1.036753235263136730e-02 -1.987235182204510064e-01 -1.943199347865563476e-01 -1.162776283000541977e-01 -8.770158454085991151e-03 -3.354844574640838961e-02 -4.629509716651754314e-02 -7.519816835670425914e-02 -2.254864776103879254e-02 -6.711869446272467066e-02 -4.219515825500875367e-02 -3.295130981423601002e-02 -1.701422926169410266e-01 -5.953445659552765445e-02 -2.997646920511696372e-02 -1.402439121144095635e-01 -5.317241330456491666e-02 -1.192791605689861867e-01 -6.882041931266222323e-03 1.354749214324574291e-03 -1.045913526351215650e-01 6.444109679498551124e-02 -6.333989709847460958e-02 -1.276041993361264892e-01 -1.061205253523762604e-01 -3.895267724132598502e-02 -1.533884523421833734e-01 -1.522169317655724108e-01 -2.629742593958983576e-03 2.261414128911434784e-02 -8.983801394745741242e-02 -6.757145231437923505e-02 -1.370947913662780293e-02 -1.146737844302765374e-01 -1.071262543024194963e-01 9.807010266813204202e-02 -1.327143743184283353e-01 -1.567889059646003780e-01 7.287057240325314766e-03 -2.050751248372893049e-02 -9.386436746445406959e-03 5.107785041930885950e-02 -1.641614137071324420e-01 -1.771088378417455811e-01 -4.636750243829315665e-02 -4.480603720228418241e-02 -1.150722643995754080e-01 -8.506082700226083593e-03 -4.748933630651111515e-03 -2.581598573840102398e-02 -1.370517107340939456e-01 -7.562835288231053998e-03 -3.087116554928148737e-02 -4.597467366428505120e-02 -1.024236681349565831e-01 -1.392407873120318496e-01 -3.331062802102922882e-02 -1.033542036484060012e-01 -7.351471290506327028e-02
2.587049483364561170e-02 9.382772501038636956e-03 -1.081037721799014140e-01 4.544440282082692212e-02 3.327935363446444389e-02 3.515967541253445239e-02 5.722695429282762675e-02 6.877775455800383408e-02 1.140196654644174551e-02 5.700869131969837737e-03 -1.062922190472414749e-02 -9.593013360116285637e-02 -6.827245711122571781e-02 7.796982561634048514e-02 1.599297206213604744e-02 -8.725684180910348031e-02 -1.040547524699308446e-01 -2.079596080357848029e-02 -7.551413046469261647e-02 -8.862812789100507627e-02 -9.032620789758108448e-02 1.298826405150364099e-02 1.036509550249749105e-02 -5.888863791310044310e-02 9.701370143537085822e-02 -8.469338864346037665e-02 -3.858476201702425862e-02 4.938013241350830418e-02 -8.067081827203004263e-02 -1.986608501929974097e-02 -6.439251971136844555e-02 -3.587505727793227975e-03 -1.615577071060229908e-02 -6.155991732626581864e-02 -1.470817137058802460e-02 6.497434738587741510e-02 -6.228459765281897306e-03 -5.073386371170092099e-03 -8.959813051967686903e-02 -3.286261428861056433e-02 6.056155112292287840e-02 4.491086537131936535e-02 -5.492244085557493327e-02 -7.455533607481099057e-02 -4.341879967897777082e-02 8.596736208383243261e-02 3.180627224565489575e-02 2.733173353285016371e-02 -2.241320422283154395e-02 1.105776900844901434e-02 -2.212298398628018831e-02 -6.513034099119760501e-02 1.017403640773074935e-02 -2.764493204190083403e-02 -5.809140109362868204e-02 4.977921446914512077e-02 -5.984691017485311432e-02 7.125790770985651959e-03 5.350483886017763646e-02 -1.208319801726350090e-01 2.838684630178230431e-02 6.123023451711556014e-02 4.721812325615414030e-02 8.143117990805805173e-02 2.505595898628816542e-02 -8.067388031908795387e-02 8.283437209490780717e-02 -9.043467334392617241e-02 9.283485163676988283e-02 5.387733029072140634e-02 -3.481057537888598147e-02 4.173128769565298546e-02 -6.120933999206044224e-02 9.805902012411294236e-03 -6.821383950370099591e-02 -5.617429201757550422e-02 6.133640853297761542e-02 -5.782547208275325666e-03 6.173737864367135481e-02 3.776117998783044133e-02 7.993554618211018425e-02 2.631990629497876419e-02 -3.212468239404855236e-02 7.335281279841657232e-02 -5.673493793184356676e-02 9.092900855960229026e-03 7.761874694303888544e-02 -2.890859738115736030e-04 -1.029491718924402388e-01 -8.276050892716059135e-03 -5.797481818915144886e-02 -1.212595365561878503e-02 -5.528959405450559195e-02 1.170274954559900188e-02 -2.831540793471656534e-02 -8.506162035826872470e-02 5.276170725221861896e-02 2.267798389293942951e-02 7.697055465220299653e-02 -2.130928239054596940e-02 1.457997200645891334e-02 -8.483712955293282176e-02 -6.795601174737275936e-03 7.593669467874550327e-02 -9.368974604268380524e-02 -4.378242404087303447e-02 -9.216180610717353283e-02 -5.122571741515084820e-02 -4.207804210190729116e-02 -5.765272868461471939e-02 7.235118940203259796e-02 -2.580392059279634775e-02 9.135865317228231142e-02 8.981882090144621689e-02 -9.303239189152033572e-02 -9.055638747853769766e-02 6.669186246159442000e-02 -8.300076385274966773e-02 8.800926146819752771e-02 -1.151620439039644506e-01 1.044629650278528638e-02 7.435943658734850414e-02 6.158298387729398138e-02 -2.467012063506337539e-03 -2.892063105484037056e-02 -1.016804804312815558e-01 2.173515390942930628e-02 -9.291146301249884887e-02 -1.033719604141146997e-01 -3.873087274508256461e-02 8.618874284971944633e-02 9.952119337924647535e-02 8.330004781608434106e-02 8.887524125107088002e-02 7.096751753654231831e-02 3.071429622289099937e-02 5.607228642215978526e-02 -5.585275638540470461e-02 -7.840686287282677691e-02 6.945695618327145382e-02 7.760158192266868038e-02 -8.400637773327437885e-02 9.293948800546401878e-02 3.364707601833139081e-03 1.727289888134775483e-03 -3.456915503077713503e-02 5.557129608956983859e-03 -2.782990042956101293e-02 2.752215876679198203e-02 8.745370429085430608e-02 -2.976525758003277164e-02 -6.503177655951719593e-02 -6.840480595274610331e-02 -3.125089367583436945e-02 -8.573578013568605716e-02 9.225976921044465318e-02 -5.607365667507863832e-02 6.037334789743952629e-02 -6.363043853337013722e-02 8.428518830137515794e-02 -4.648012108393007741e-02 1.256650647357358125e-02 3.885833733584412308e-02 5.473063102829515275e-02 5.081765351551288667e-02 1.152110415167613422e-02 -1.168601808879079530e-02 8.744820349355009181e-02 -1.015978783650256373e-01 7.324909008233211616e-02 4.036313175601177056e-02 -7.310099679887487045e-02 -5.620480540195907371e-02 -4.979876744704510305e-02 2.959282234176505849e-02 -8.403648100319849323e-02 5.207140563433856895e-02 -8.842754534058916427e-02 -2.102468198481988355e-03 2.652583099620520191e-02 1.882213507981882888e-03 -1.749654917773808133e-02 3.103317740537407839e-03 -9.830288734678177542e-02 -8.113736324530923527e-02 -9.571210981660507877e-02 3.988725988746095324e-02 6.144453844731297132e-02 -9.859463458178462092e-02 6.341887479148417169e-03 -4.535605575894437191e-02 8.975602201305005190e-02 -3.684814154872013275e-02 -1.051316114129049184e-01 1.374710512826620573e-02 -1.034541883922712596e-01 -6.955869759544226760e-02 -1.194749703467717639e-01 5.611829218291327498e-02 -6.307319590826883544e-03 -9.941305231791934538e-02 -6.793988920720153701e-02 3.229046586484752429e-02 -1.333006460473400503e-02 -7.273402817952387411e-02 1.367997546143766632e-02 -1.044507565211628825e-01 1.452275075570666485e-02 -3.295492899620628552e-02 1.175943007100777385e-02 5.549723288844254920e-02 -1.511041457777017281e-02 5.445275611075400118e-02 7.445025850490606667e-02 -1.051086772549602588e-01 -1.025602410667281195e-02 5.841475521933425785e-02 5.272494507105766892e-02 -1.681410156635607112e-02 4.928979174503685806e-02 -2.170055014180061193e-02 -6.061743875297107009e-02 -7.200012445360444435e-02 -1.801754020060465644e-02 6.253712956386181521e-02 8.741643506435806815e-03 6.395096304603842263e-02 4.934805944857897225e-02 -6.340347278776985174e-02 -9.606651310405739386e-02 -1.220721359906098979e-01 -1.092903414493934938e-02 -8.489323902380109532e-02 -2.879968096131647545e-02 -3.286648976092212265e-02 3.329139762901217603e-02 -7.871372824458390538e-02 -4.158376902466355551e-02 8.073967123459013448e-03 -1.295800751628168046e-01 -1.284228187062881436e-02 -4.739286437306210881e-02 -9.548953212298184889e-03 6.135159281667928316e-02 -3.296756010074410742e-02 -9.018968659896207940e-02 -3.077383759244297842e-02 4.023279671788240752e-02 4.611539695244514306e-03 6.068324035275173695e-02
-1.557676987383523892e-01 -9.631216330975418682e-02 -1.104870737641703710e-01 -1.246348786656211460e-01 -1.027969737220931212e-01 -3.040690188881191303e-02 -9.578596198552383201e-02 1.524333494376287068e-02 2.851677648777659058e-02 -1.166942994655219279e-01 1.638333850919178325e-02 -1.685687889730729250e-01 -4.112473473885657621e-02 -3.238827584143217503e-02 -1.982558659931213038e-02 -3.415387947983355987e-02 -1.368784861946196474e-01 -1.277341039001038958e-01 -1.500665193120622465e-01 -8.504482591729470298e-02 -8.744227876029000979e-02 8.276209910211496101e-03 -7.938554383263132785e-02 -4.709181861255476442e-03 -1.947256275204826970e-02 -1.471128460073933830e-02 2.592222194551700720e-02 -4.295233761471008854e-02 1.843193909318616153e-02 -5.913481764528687179e-02 -1.349526123605153949e-01 4.515427621626959785e-03 -6.389231091470845558e-02 -6.807047255896767068e-02 2.478042206642912942e-02 -1.202679976500688197e-02 -3.577371802680226476e-02 -1.141409364481822397e-01 -1.013665745392348383e-01 -1.424939133173149797e-01 -8.810435141638539580e-03 -6.428323076690442561e-02 -1.561799980566526136e-01 3.023857746587881382e-02 -5.095122702607121634e-02 -1.447772590521917146e-01 -4.575957049697999823e-02 -1.230642589883211291e-01 1.339314600858447502e-02 -7.123810039548551798e-02 -9.335479241554256458e-02 -5.663861605170905644e-03 5.835581940986542954e-02 -7.030406160871890964e-02 -7.040158901764385913e-02 -2.717818761918489728e-02 -5.204618677364014623e-02 1.265349957605998998e-02 -4.772984982256445186e-02 -1.699844434088703671e-01 -2.156507585109518343e-03 -1.558379959226325329e-01 4.231482899883821924e-03 -3.359555807826448276e-02 -4.219065324605382472e-02 -3.820763443536367293e-02 -6.020628191018358340e-03 -7.069243532813142272e-02 -3.195352639044026638e-02 -1.407046768701330219e-01 1.358285084777362262e-02 -8.757924750680781689e-02 -6.636266036385840561e-03 8.201745613622266062e-02 -8.733466068551809514e-02 -1.153688887658855244e-01 -6.135295490385991868e-02 -8.487187450095998176e-02 -4.802671803204879714e-02 -9.935000855279850496e-02 -3.280780844744396463e-03 -1.377496442830628831e-01 -1.499061512200317581e-01 1.980935273622604076e-02 4.837682841639107806e-02 -1.353722471875352107e-01 -1.082033444199889533e-01 7.386752206351404615e-03 -7.355241444238781734e-02 5.702299574152037281e-02 3.863646347196904307e-02 -2.727662519693688573e-02 -2.682514024888963886e-02 -1.317790260861910825e-02 6.792347659048737774e-02 -8.534541732651050594e-02 -1.108140791038145501e-01 -1.349295527247649229e-01 -6.184989215172041060e-02 3.832330646185328621e-02 -3.644700505588752137e-03 -1.302333291209216704e-01 1.341810234899427912e-02 1.900114987393881905e-02 -9.439099760460060995e-02 -1.253230188312554061e-01 9.026751255169851440e-02 -5.437452348053151141e-03 -3.830551133789453916e-02 -8.087648225620835962e-02 4.545335539649797245e-03 4.404652979241707907e-03 -9.855226380132463271e-02 -8.707784584070843437e-02 -4.347474463255848742e-02 4.573768203147925149e-02 -7.557177276911261621e-02 1.502045063327143298e-02 6.663683876806958742e-03 2.618365194052697104e-02 -7.943762706786031136e-02 -8.195120002138597815e-02 1.166595229486670077e-02 -8.182766563625362699e-02 -1.101025570651638502e-01 7.074461149315006137e-02 2.757140035222491181e-02 -1.739728087675868062e-01 -9.075426475971830331e-02 -2.443238340580074913e-02 -1.371706078775901116e-01 -3.197646744424471194e-02 -9.070530080854127819e-02 -1.177342745910249233e-01 3.090434439392546889e-02 -1.430940535899547505e-01 -1.292603753238072417e-03 -3.964180327246562968e-02 -1.072699234776633148e-01 9.749826730068809899e-02 -8.122192309388040488e-02 -1.502570718121498672e-01 -4.693115654276384940e-02 2.234251484765625850e-02 1.620947549367387358e-02 -1.014373036384200177e-01 -1.455844791296278529e-01 2.769630507081896620e-02 -9.742158285115842808e-02 -1.203529192182527935e-01 -1.649027551533327474e-02 -4.734116854190575929e-02 -1.196235355105056131e-02 4.612851921791491505e-03 3.837206654643639248e-02 -1.045908011226485967e-02 -7.770445325660084446e-02 -3.403225012706699582e-03 8.500620374681161495e-03 -6.794720083167948843e-02 -4.292949978541821948e-02 -1.027981717833973407e-01 -5.929565231370542699e-02 -1.831808013727788398e-02 -9.440469183507566031e-02 -8.826579941240475513e-03 -7.138220114595364429e-02 5.499426638160956338e-03 -1.496926195219634714e-01 -6.930483941314713459e-02 -4.118473682893281779e-02 1.448440854270983263e-02 -1.312057787485410298e-01 5.691598910496249025e-02 -8.609393441984686257e-02 -4.998447292264847353e-03 -5.580881809617924127e-03 -8.603479129299224093e-02 -1.364980117347868172e-01 -6.636274685993050204e-02 -5.592070467600365052e-02 -3.412331539593826263e-02 -1.490132682868317571e-01 -7.706695250977488310e-02 -1.118250620529888384e-02 -6.839914215752986026e-02 -1.034771317305548631e-02 -1.139235472918786046e-01 3.961841291625235045e-02 -3.646681834255337262e-03 -7.344903644299545509e-02 1.981016634773702378e-02 -1.267843849633724929e-01 -4.364284648147458145e-02 -5.998928349848942077e-02 -1.714890505282878341e-01 -1.690822848076740659e-01 -1.488206056241662967e-02 -9.950270941613005571e-02 -5.642943607589212540e-03 -9.741600171763276084e-02 7.305906783631481438e-02 -1.293071132541436519e-01 2.382393392065210169e-02 -1.154466522185199490e-01 8.516887566007041999e-02 -8.251895300819679646e-02 -4.299279714849511824e-02 1.929751471673732399e-02 -4.236468766925687024e-02 -1.442410607698637048e-01 -2.288369394081699731e-02 -5.228631759682749597e-02 -2.737001172464077065e-02 -1.049470727080103472e-01 -1.045024112103153519e-01 -6.615711215412473090e-02 -1.260965820720456598e-01 -1.299795334135716296e-01 -1.307133330515801439e-02 4.970270357685020041e-02 -1.221366405497767149e-01 -1.080765629749566997e-01 -8.132057314355857491e-02 -1.037181815895804882e-01 -2.453901730112405949e-02 -3.753112369551723365e-02 -5.502750883826612593e-02 -1.710788729886313780e-02 -3.104152011950097462e-02 -7.792567319764992506e-02 6.557689929872209667e-02 -3.546452554930235729e-02 -9.155848239754904583e-02 2.299647395055431920e-02 -6.112695332511582091e-02 -7.382130072909887097e-03 -2.230733073453800702e-02 -1.692855432534381976e-01 -8.359250038193727361e-02 3.925842667658311497e-02 8.128826499718730392e-03 -1.581222026776468725e-01 1.604732405319576893e-02 -6.527458005864857082e-02 -3.473675057051926751e-02 1.858246278047501199e-02 -1.304568848231350553e-01 1.705775305068817083e-02 -1.451800704028265443e-01
-8.704877448408945839e-02 -2.855789364851883325e-02 3.366851515075765244e-02 -1.192000011313902458e-01 -8.507332542198962899e-02 -2.230902444424340270e-02 -7.923588146271903776e-02 -6.275166939918117026e-02 1.940692894654915193e-03 4.804429551098555323e-02 -1.014800661137066906e-01 -1.255954002935103786e-01 -4.920916090356802081e-02 -8.581364507059813240e-02 6.456607222122738576e-02 1.537844676118479970e-02 -2.331866599842184404e-02 7.632483990634292281e-03 -8.290135752807171327e-03 6.525623904408668630e-02 -1.333350435835530153e-02 -9.166797845916872800e-02 8.628299072458407715e-02 -1.082621021746325157e-02 -5.298499218251094545e-02 4.159955850625843277e-02 -1.058909824321198623e-01 -8.947476101194259956e-02 2.827080807849740446e-02 -1.819834329139997584e-02 3.227136814695333311e-02 -4.701314534416287799e-02 2.839218434424016502e-02 4.461997875961230819e-02 -1.054570248572894026e-01 -9.227656391276425202e-03 -3.317902556965010574e-02 2.478231094090399544e-03 -7.017449147019966249e-02 -3.729444338124882768e-02 -8.947982117552694126e-02 4.738633172741042732e-03 -5.936649619615125967e-02 -7.505644053066554133e-02 -7.490288986338268507e-02 -1.188257169991763229e-01 8.086153197478136712e-04 -3.716337425085407958e-02 7.273298166398184383e-02 9.333696914380917864e-02 -1.008819435710904405e-01 3.905424275601179773e-02 -2.504338872721515591e-02 4.513865219546754626e-03 -1.005076882838162183e-01 -5.619070508116488089e-02 -1.151277592292085233e-01 -2.065865690718968889e-02 -4.978536180684629137e-02 6.587328965218838817e-03 -5.554710134525024656e-02 -1.046472874414543230e-01 5.715165355273423009e-02 3.339291760533064785e-02 8.040931582561626489e-02 -1.497033386367432883e-03 -2.662827991293454863e-02 6.251309449312965338e-03 8.933653281116367417e-02 -1.217412530094790640e-02 -3.839662059487439910e-03 5.399058325149802551e-02 -4.502571535695376603e-02 5.197449680498019559e-02 -5.642889906777168174e-02 -2.942529068445896845e-02 -6.945351351865058920e-02 7.583409071675129010e-02 2.500765732621224383e-03 -6.683240487029230847e-02 -6.910543473201083420e-02 4.958688411837839510e-02 6.491525100366418721e-02 -5.956884168384506129e-02 5.201720551128624463e-03 -1.842628108099088335e-02 8.768192486052768519e-02 2.491371958578307566e-02 6.252869811599012784e-02 -7.603355775153075591e-02 -7.646563267283656984e-02 7.955130492962116107e-02 5.037454848381160005e-02 4.389726144035886041e-02 -3.721453284036704140e-02 -9.027956326531016984e-02 -7.353409913587836966e-02 -8.106715869799116514e-02 -6.090299779617992099e-03 -4.236774670970182288e-02 2.994141644660833212e-02 -5.389112788280618627e-02 3.963491241403839516e-02 3.524910515077829543e-02 2.191579644117734593e-02 -1.187397966294888169e-01 4.720586111777383409e-02 -1.282982828294778055e-01 -1.550702576186246268e-02 3.773080110496090933e-02 4.802755705583914431e-02 -1.049074258657218921e-02 2.103846726725023403e-02 -1.866981600070950764e-02 4.820142173820998743e-02 -1.230462499308744850e-01 -3.854826836142340174e-02 5.825089979197026202e-02 -9.045864032061619320e-02 -5.491034390026992146e-02 1.352865284721916847e-02 5.925515727150022782e-02 -3.213766536180743399e-02 6.103244094989579427e-02 -1.741547460897975574e-02 -5.714982199075561986e-03 -4.699732034680708520e-02 -4.956244069271857622e-03 -8.265683690842394460e-02 1.585306938954753747e-02 -6.025207868872330119e-02 -2.250236917513832868e-02 -6.241560704854134944e-02 -7.015899857322153987e-02 -6.703673247277627811e-02 -1.674242571511763700e-02 -2.796718693073201728e-02 5.381954875161634733e-02 -4.199401265121509297e-02 1.585786756878908646e-02 -8.815592059319445062e-02 4.494724102607634830e-02 -7.747079162325423707e-02 4.507113036814670154e-02 -4.909366577972633372e-02 8.063131212688227911e-02 4.830325750709563853e-02 -1.186955751839159079e-01 -6.547163456323190633e-02 -1.047190379270141608e-01 2.610475395378319269e-02 -6.962583830281588327e-04 3.174081305023145755e-02 -5.443156437727146579e-02 -5.476284482263233527e-02 1.918348147796438558e-02 -5.998978360467576570e-02 -6.553522850867439520e-02 1.080524575925357472e-02 -4.643414901881595669e-03 3.579950624030293904e-02 6.998719352341646605e-02 7.260619981099528109e-02 1.247625340670917293e-03 2.452023228797391152e-02 -6.515531833674649553e-02 -2.563873672046120336e-02 3.976533624829060865e-02 -2.820952702599787559e-02 -2.447779864797741678e-02 -2.248257426887749141e-02 3.751304012880263272e-03 1.088517982340566487e-02 -4.173123653016706791e-02 -2.319064485431354683e-02 -1.218083272345200363e-01 -3.273241516397898399e-02 5.188039030805913221e-02 5.385417455742301518e-03 1.436118303904969015e-02 -1.763618984060202899e-02 2.530376877211895636e-02 3.006713802053238849e-02 -7.660731701037631902e-02 -6.374343397219678353e-02 2.725685561732181170e-02 5.252644732162651403e-02 2.816836838320976172e-02 -7.698952478573223290e-02 -1.570500210000547181e-04 -6.792568351653811842e-02 -1.148296058552487203e-01 -7.271773318820177329e-03 -5.858263806028367326e-02 -1.104537420423608307e-01 1.181467881316421165e-02 -3.015812065011935078e-02 1.738729005328795013e-02 -6.813665771081590938e-02 -4.247936764121126862e-02 -1.135143111522840947e-01 6.414532189650609673e-02 -2.273264107860664338e-02 -7.375398499987928513e-02 -1.004858937510084704e-01 3.899565670399397083e-02 -5.633484161861035400e-02 6.675055102185506462e-02 2.244432621067990810e-02 -5.130183134367760633e-02 2.844446508372566740e-02 -8.229959929207966707e-02 -4.768627993324736809e-03 5.117828922388177604e-02 -5.146544247146919715e-02 -9.588317952280329959e-02 -1.054365208547537736e-01 -6.346713043525122055e-02 1.647549711868231265e-02 1.485662718256507142e-02 -2.156939140965588239e-03 -3.517816210127126808e-02 5.359011031797936836e-02 -4.281289364078431914e-02 -1.139444763607172229e-01 6.452097178712999648e-02 2.289733426464413135e-02 -1.043226808800957750e-01 -4.540204668489901396e-02 -5.756863883512548796e-02 -4.555728449964400323e-02 2.045911315390414389e-02 -1.296378500882260087e-02 -6.019689674419384517e-02 -3.795620662430744530e-02 -3.590205096741608259e-02 5.741780788116215839e-02 3.055690405133238557e-02 -1.229042426479409061e-02 -2.609960977259458484e-02 -9.944111698522484222e-02 6.547200560100768785e-02 1.038393138198279858e-02 -1.021389802400453212e-01 7.489020350825355277e-02 3.930593708063959135e-02 -4.072732964173565728e-02 -1.124863098666704919e-01 -1.623597296236568843e-02 -1.155508422789406769e-01
