-4.210000000000003184e-01 2.359999999999965237e+00 -1.500000000000009312e-02 -1.070000000000000812e-01 -4.240000000000003766e-01 -7.000000000000000146e-03 -4.200000000000003175e-01 -6.000000000000003941e-02 6.294999999999941309e+00 3.074999999999950884e+00 -2.310000000000001774e-01 2.995999999999920504e+00 2.680999999999946315e+00 -3.540000000000002589e-01 -7.610000000000005649e-01 -5.890000000000004121e-01 -3.350000000000002420e-01 -3.490000000000002545e-01 -1.180000000000000909e-01 7.999999999999996697e-03 1.865999999999972569e+00 -6.380000000000004556e-01 -3.790000000000002811e-01 -8.990000000000009095e-01 -6.800000000000004652e-02 -1.081999999999998074e+00 1.288999999999988155e+00 2.224999999999962785e+00 6.710000000000005960e-01 -3.100000000000000672e-02 -4.430000000000003380e-01 -2.000000000000001221e-01 -3.980000000000002980e-01 2.537999999999962064e+00 -2.870000000000001994e-01 1.862999999999985334e+00 4.993999999999958916e+00 5.736999999999955691e+00 -2.800000000000002140e-02 -2.300000000000001488e-01 -6.360000000000004539e-01 -1.840000000000001079e-01 2.730000000000002425e-01 2.455999999999948002e+00 4.890000000000004343e-01 -6.100000000000004724e-02 -3.930000000000002935e-01 3.397999999999926857e+00 -2.260000000000001452e-01 -5.240000000000003544e-01 3.130999999999941608e+00 1.480000000000001037e-01 2.720999999999963226e+00 -3.900000000000002770e-02 2.218999999999966111e+00 1.140000000000000874e-01 4.400000000000003353e-01 9.900000000000102052e-01 -2.080000000000001570e-01 -3.600000000000001810e-02 -2.199999999999999872e-02 -3.800000000000001293e-02 -3.610000000000003206e-01 -2.530000000000001692e-01 5.804000000000011816e+00 -2.500000000000005690e-02 -1.125999999999994561e+00 4.420000000000003926e-01 -3.760000000000002784e-01 -1.160000000000001030e-01 -6.170000000000004370e-01 1.150000000000001577e-01 -1.450000000000001010e-01 -3.640000000000002678e-01 -2.820000000000001950e-01 -4.860000000000003761e-01 -3.170000000000002260e-01 2.878999999999958259e+00 -1.285999999999988708e+00 -4.660000000000003584e-01 3.300000000000002931e-01 6.335999999999949672e+00 4.171999999999954412e+00 -8.300000000000005984e-02 -4.140000000000003122e-01 -3.370000000000002438e-01 -5.500000000000004191e-02 -2.460000000000001907e-01 -4.140000000000003122e-01 -2.070000000000001561e-01 2.930999999999957861e+00 6.881999999999964146e+00 -3.760000000000002229e-01 -5.120000000000003437e-01 2.257999999999968477e+00 -1.440000000000001001e-01 2.587999999999957002e+00 -1.820000000000001339e-01 -2.510000000000001674e-01 -1.400000000000000203e-02 -5.420000000000003704e-01 -2.640000000000002345e-01 5.520000000000003793e-01 -1.090000000000000829e-01 -2.800000000000001099e-02 9.690000000000007496e-01 5.404999999999974492e+00 -1.240000000000000824e-01 -2.550000000000001710e-01 4.400000000000002520e-02 3.038999999999957957e+00 -1.030000000000000360e-01 -2.600000000000001754e-01 2.977999999999963343e+00 -3.780000000000002802e-01 -1.440000000000000724e-01 -1.200000000000000719e-02 1.068999999999998396e+00 1.339999999999997859e-01 3.430000000000002491e-01 -1.130000000000000865e-01 3.070000000000002727e-01 2.309999999999964970e+00 3.870999999999935604e+00 1.009999999999996900e+00 -1.230000000000000954e-01 7.130000000000006333e-01 -1.500000000000001055e-01 -1.230000000000000815e-01 -7.000000000000004829e-02 7.260000000000005338e-01 -3.040000000000002145e-01 -6.100000000000004308e-01 1.014000000000000234e+00 6.000000000000003941e-02 -1.170000000000000900e-01 1.848999999999974442e+00 -1.190000000000000918e-01 -6.530000000000004690e-01 -2.480000000000001648e-01 -3.450000000000003064e-01 -7.670000000000006812e-01 7.612999999999970235e+00 -3.140000000000002234e-01 -2.630000000000001781e-01 8.182999999999939433e+00 1.760000000000001286e-01 -3.730000000000002758e-01 2.106999999999966455e+00 -8.100000000000005806e-02 -2.630000000000001781e-01 4.960000000000004405e-01 -1.410000000000000697e-01 -8.999999999999997585e-03 -3.820000000000002838e-01 -3.700000000000002731e-01 -2.130000000000001337e-01 -3.191999999999934445e+00 -2.930000000000002047e-01 3.882999999999944052e+00 -2.940000000000002056e-01 -4.380000000000003335e-01 -1.158999999999996700e+00 2.268999999999968598e+00 -8.450000000000006395e-01 -1.300000000000000877e-01 -8.400000000000006073e-02 -1.558999999999987951e+00 -2.140000000000001623e-01 -3.130000000000002225e-01 -8.180000000000007265e-01 1.947999999999973975e+00 -8.100000000000005806e-02 3.259999999999941611e+00 2.343999999999972772e+00 -3.330000000000002403e-01 -2.660000000000001807e-01 -5.000000000000004441e-03 -1.003000000000000780e+00 -4.070000000000003060e-01 -9.350000000000008304e-01 -8.400000000000006073e-02 3.060000000000001608e-01 -1.260000000000000842e-01 -3.970000000000002971e-01 4.272999999999934850e+00 -1.610000000000001152e-01 1.197999999999981080e+00 -2.310000000000001774e-01 -3.990000000000002989e-01 -3.160000000000002252e-01 -1.560000000000001108e-01 -5.500000000000003497e-02 1.574999999999975753e+00 -3.270000000000002349e-01 -5.780000000000005134e-01 1.727999999999984881e+00 -2.330000000000001514e-01 -1.180000000000000909e-01 -9.999999999999826736e-04 2.288999999999963730e+00 6.400000000000005684e-01 -6.900000000000003353e-02 -5.360000000000003650e-01 -2.380000000000001559e-01 2.600000000000001754e-01 -9.000000000000005218e-02 9.699999999999997513e-02 -3.900000000000002076e-02 -8.450000000000006395e-01 1.612999999999968459e+00 -2.530000000000001692e-01 3.209999999999953779e+00 2.850999999999940915e+00 -4.860000000000003761e-01 -3.900000000000002076e-02 3.663999999999905999e+00 1.243999999999992889e+00 -5.800000000000005151e-01 8.020000000000007123e-01 2.357999999999962792e+00 7.770000000000005791e-01 3.040000000000002145e-01 2.334999999999962661e+00 2.043999999999974726e+00 2.998999999999974797e+00 -1.030000000000000498e-01 1.746999999999982123e+00 -1.740000000000001268e-01 -2.960000000000002074e-01 -8.500000000000006162e-02 2.680000000000001825e-01 -6.070000000000005391e-01 -2.250000000000001721e-01 -3.960000000000002962e-01 -6.200000000000002731e-02 -3.850000000000002864e-01 -5.830000000000005178e-01 -9.700000000000007228e-02 -3.920000000000002927e-01 -6.800000000000004652e-02 5.790000000000004032e-01 -3.620000000000002660e-01 -1.610000000000001152e-01 -5.080000000000003402e-01 1.470999999999984542e+00 -2.940000000000002056e-01 -4.690000000000003610e-01 5.332999999999961993e+00 2.832999999999953999e+00 2.630000000000001781e-01 3.720000000000003304e-01 -4.680000000000003602e-01 2.636999999999952493e+00 -3.980000000000003535e-01 3.342999999999968885e+00 -2.490000000000002212e-01 -3.300000000000001543e-02 -7.880000000000005889e-01 4.544999999999970619e+00 2.927999999999971514e+00 7.280000000000005356e-01 3.974999999999932587e+00 -5.400000000000003408e-02 -1.070000000000000534e-01 -3.900000000000002909e-01 -2.020000000000001239e-01 2.448999999999956323e+00 -1.012000000000000677e+00 2.562999999999957534e+00 2.373999999999975685e+00 2.932999999999937657e+00 -2.370000000000001550e-01 -1.640000000000001179e-01 -4.320000000000003282e-01 -2.590000000000001745e-01 -5.910000000000005249e-01 2.095999999999974328e+00 -4.300000000000003125e-02 2.740999999999936598e+00 -5.570000000000004947e-01 -4.400000000000002520e-02 3.030000000000002136e-01 7.360000000000005427e-01 1.494999999999989670e+00 -2.290000000000001756e-01 -7.100000000000006306e-01 1.635999999999977916e+00 7.439999999999996616e-01 -5.300000000000003320e-02 2.288999999999958845e+00 2.019999999999974261e+00 2.568999999999942663e+00 -1.050000000000001599e+00 2.170999999999949637e+00 1.222999999999991205e+00 -4.690000000000003610e-01 -3.210000000000002296e-01 -2.920000000000002038e-01 -4.980000000000003868e-01 -3.200000000000000761e-02 -2.800000000000001446e-02 -1.700000000000000469e-02 -3.900000000000001382e-02 -1.030000000000000637e-01 -1.200000000000000025e-02 1.373999999999984567e+00 -1.760000000000001008e-01 -5.250000000000003553e-01 -2.480000000000002203e-01 1.687999999999982181e+00 1.660000000000001474e-01 2.467999999999975103e+00 -6.770000000000004903e-01 -7.200000000000005007e-02 -2.500000000000001180e-02 2.881999999999953488e+00 -6.700000000000004841e-01 -1.980000000000001481e-01 3.140000000000002234e-01 2.006999999999965034e+00 2.313999999999946766e+00 4.400000000000001826e-02 -2.780000000000001914e-01 6.660000000000004805e-01 3.281999999999946738e+00 -1.050000000000000794e-01 -5.440000000000004832e-01 -7.750000000000006883e-01 1.570000000000001117e-01 -6.200000000000003425e-02 -7.700000000000005451e-02 -5.110000000000003428e-01 2.634999999999957154e+00 -2.720000000000001861e-01 -2.030000000000001525e-01 -3.700000000000000511e-02 -5.790000000000004032e-01 2.216999999999984983e+00 -6.500000000000004385e-02 4.575999999999959655e+00 1.150999999999996248e+00 -1.042999999999998373e+00 -5.160000000000003473e-01 -4.990000000000004432e-01 1.555999999999993832e+00 7.840000000000006963e-01 -3.090000000000002189e-01 -5.060000000000003384e-01 1.051999999999998936e+00 2.801999999999952973e+00 4.059999999999933884e+00 -5.240000000000003544e-01 6.810000000000006048e-01 1.095999999999994756e+00 3.305999999999974737e+00 2.845999999999941021e+00 -4.150000000000003131e-01 -7.900000000000004241e-02 2.198999999999971866e+00 8.330000000000006288e-01 -2.110000000000001597e-01 -2.530000000000001692e-01 -2.699999999999999276e-02 3.171999999999945530e+00 6.900000000000006128e-01 1.168000000000001704e+00 2.145999999999963936e+00 -4.710000000000003628e-01 -1.300000000000000877e-01 -1.500000000000001055e-01 -1.654999999999980265e+00 3.210000000000001741e-01 -5.190000000000003499e-01 9.100000000000006972e-01 3.035999999999939192e+00 2.718999999999955897e+00 4.764999999999937508e+00 -8.200000000000004508e-02 -8.800000000000006428e-02 3.020000000000002682e-01 5.834999999999987530e+00 -6.110000000000004317e-01 3.867999999999930161e+00 -5.450000000000003730e-01 2.390000000000002123e-01 -1.340000000000000913e-01 -7.100000000000004918e-02 -2.800000000000000405e-02 2.924999999999945643e+00 -3.500000000000001027e-02 -1.270000000000000573e-01 2.540000000000001701e-01 -6.920000000000005036e-01 3.080999999999932459e+00 -2.700000000000001704e-02 3.937999999999947764e+00 4.680999999999948535e+00 1.038200000000000678e+01 2.029999999999970939e+00 -4.900000000000003797e-01 -2.470000000000001084e-01 -8.810000000000006715e-01 -6.710000000000004849e-01 -1.830000000000001348e-01 1.422999999999994269e+00 2.787999999999951406e+00 2.725999999999935586e+00 2.179999999999980176e+00 -5.050000000000003375e-01 -1.080000000000000682e-01 1.655999999999975714e+00 1.048999999999999710e+00 -3.650000000000002687e-01 -1.500000000000000291e-02 -1.800000000000000558e-02 2.079999999999981863e+00 -6.100000000000004030e-02 -1.115999999999997883e+00 4.316999999999947768e+00 2.418999999999955630e+00 1.002999999999998781e+00 7.026999999999965496e+00 2.255999999999970029e+00 -4.760000000000003673e-01 2.347999999999957232e+00 -2.940000000000002056e-01 -2.090000000000001579e-01 -3.550000000000002598e-01 -2.035999999999975163e+00 -1.900000000000001410e-01 3.530000000000002580e-01 -7.500000000000003886e-02 4.999999999999996635e-03 -5.380000000000004778e-01 -1.450000000000001010e-01 -7.900000000000005629e-02 7.190000000000005276e-01 -1.014000000000001123e+00 -8.400000000000004685e-02 -7.480000000000005533e-01 -6.400000000000002909e-02 -2.660000000000001807e-01 5.190000000000004610e-01 8.080000000000007176e-01 -1.120000000000000856e-01 -5.260000000000004672e-01 1.519999999999974927e+00 -4.350000000000003308e-01 -5.890000000000004121e-01 -3.390000000000002456e-01 -2.710000000000001852e-01 -6.050000000000004263e-01 -3.150000000000002243e-01 2.044999999999965290e+00 3.717999999999946237e+00 2.204999999999967208e+00 -2.190000000000001668e-01 3.200000000000001454e-02 -7.200000000000005007e-02 -3.399999999999999550e-02 -1.150000000000000605e-01 -6.900000000000004741e-02 2.520999999999959051e+00 3.271999999999951836e+00 2.812999999999965972e+00 -2.780000000000001914e-01 2.578999999999947779e+00 1.851999999999975000e+00 7.910000000000005915e-01 1.611999999999981004e+00 3.100999999999940471e+00 -1.370000000000000939e-01 -5.700000000000003952e-01 7.580000000000006732e-01 -3.420000000000001927e-01 -3.400000000000001632e-02 -9.500000000000007050e-02 1.803999999999974957e+00 1.933999999999970409e+00 -2.560000000000001719e-01 -9.950000000000007727e-01 4.999999999999995767e-03 -4.360000000000003317e-01 1.120999999999991781e+00 2.130000000000001892e-01 6.760000000000006004e-01 -1.851999999999987434e+00 -1.890000000000001401e-01 2.272999999999954390e+00 6.300000000000004208e-02 -4.630000000000003557e-01 -5.500000000000005579e-02 -3.220000000000002305e-01 1.001999999999997115e+00 -3.630000000000002669e-01 -1.910000000000001419e-01 1.982999999999975671e+00 1.000000000000013899e-03 3.525999999999927415e+00 -1.940000000000001446e-01 -6.580000000000005844e-01 -4.300000000000003125e-02 -9.200000000000007061e-01 -3.940000000000002944e-01 8.240000000000007319e-01 2.023999999999981370e+00 8.000000000000004330e-02 -1.360000000000000930e-01 -6.280000000000004468e-01 -5.130000000000003446e-01 -2.600000000000001615e-02 -9.800000000000005929e-02 -3.470000000000002527e-01 -6.200000000000004813e-02 1.141999999999997684e+00 2.440999999999943437e+00 -6.870000000000006102e-01 2.061999999999973632e+00 5.480000000000004867e-01 -5.340000000000003633e-01 -3.100000000000001713e-02 4.040999999999939973e+00 1.153000000000001801e+00 2.030000000000001525e-01 -1.390000000000000957e-01 -1.480000000000001037e-01 -7.400000000000005185e-02 -1.033999999999998476e+00 3.293999999999931205e+00 1.710000000000000409e-01 -9.200000000000002620e-02 -2.440000000000001612e-01 3.199999999999950884e+00 2.012999999999971923e+00 -6.590000000000005853e-01 -3.570000000000002616e-01 2.437999999999956646e+00 -7.600000000000005362e-02 -3.000000000000002665e-03 -1.010000000000000481e-01 -2.930000000000002047e-01 -1.130000000000000449e-01 -1.139999999999997904e+00 2.276999999999983260e+00 -4.000000000000003553e-03 -1.130000000000000865e-01 2.278999999999969273e+00 -3.310000000000002385e-01 -2.970000000000002083e-01 2.190999999999979853e+00 -3.270000000000002349e-01 1.440000000000001001e-01 -1.670000000000001206e-01 -4.040000000000003033e-01 -5.290000000000004698e-01 -4.540000000000003477e-01 -8.300000000000004596e-02 -7.300000000000005096e-02 9.850000000000008749e-01 -5.160000000000003473e-01 6.590000000000004743e-01 -5.260000000000003562e-01 -4.130000000000003113e-01 -1.110000000000000847e-01 -3.490000000000002545e-01 3.116999999999941373e+00 -2.430000000000001881e-01 -4.410000000000003362e-01 1.890999999999972037e+00 -5.100000000000003836e-02 -9.500000000000005662e-02 3.880000000000002891e-01 -6.000000000000005329e-03 -2.010000000000001508e-01 -4.310000000000003273e-01 -1.770000000000001295e-01 -1.700000000000001232e-01 9.080000000000006954e-01 -4.200000000000003036e-02 -4.000000000000001471e-02 1.349999999999991207e+00 1.789999999999971170e+00 -2.010000000000001508e-01 -5.700000000000003675e-02 -6.100000000000003336e-02 -4.000000000000014828e-03 4.255999999999947825e+00 -5.690000000000005054e-01 1.219999999999999973e-01 -3.800000000000001987e-02 6.660000000000004805e-01 -2.900000000000001882e-02 -7.440000000000005498e-01 -4.130000000000003113e-01 1.800000000000000905e-02 2.196999999999960984e+00 -1.980000000000001481e-01 -1.859999999999997766e-01 1.282999999999985707e+00 -2.900000000000002021e-01 -4.200000000000003175e-01 -1.030000000000000776e-01 -2.090000000000001579e-01 2.270999999999972374e+00 1.487999999999980005e+00 -4.860000000000003761e-01 -1.670000000000001206e-01 2.613999999999962132e+00 -1.400000000000000966e-01 2.800000000000001099e-02 -7.720000000000005747e-01 -2.560000000000001719e-01 -5.600000000000004280e-02 9.899999999999965494e-01 3.912999999999965617e+00 -1.314999999999993285e+00 2.973999999999956678e+00 -7.000000000000004829e-02 -5.150000000000004574e-01 -9.510000000000008447e-01 -8.000000000000005995e-01 6.430000000000005711e-01 -7.780000000000005800e-01 2.784999999999928644e+00 -1.760000000000001008e-01 -2.150000000000001632e-01 2.670000000000002371e-01 1.510000000000001341e-01 -3.170000000000002260e-01 -1.200000000000000927e-01 3.170000000000002260e-01 -2.210000000000001685e-01 -7.500000000000002498e-02 2.112999999999969347e+00 -4.270000000000003237e-01 -5.580000000000003846e-01 -5.680000000000003935e-01 5.320000000000004725e-01 -4.190000000000003166e-01 -1.300000000000000461e-02 2.480999999999950134e+00 -2.460000000000001630e-01 -9.200000000000005396e-02 1.070000000000000673e-01 1.034999999999997922e+00 3.585999999999921695e+00 -2.950000000000002065e-01 2.670999999999954966e+00 -5.500000000000004885e-01 1.760000000000001563e-01 -1.320000000000000895e-01 -4.190000000000003166e-01 -5.540000000000003810e-01 2.648999999999966271e+00 -4.550000000000003486e-01 -8.400000000000003297e-02 -3.410000000000002474e-01 -2.740000000000001878e-01 -4.880000000000003779e-01 -8.300000000000004596e-02 5.490000000000003766e-01 1.068999999999997286e+00 -7.100000000000002143e-02 -9.300000000000006872e-02 -5.220000000000003526e-01 -4.300000000000002431e-02 1.307999999999988727e+00 5.884999999999990905e+00 2.682999999999945206e+00 -8.800000000000006428e-02 5.108999999999963570e+00 2.169999999999965734e+00 1.390999999999980030e+00 -2.370000000000001550e-01 4.180000000000003713e-01 -5.140000000000003455e-01 -3.470000000000002527e-01 -6.980000000000006199e-01 -1.258999999999995234e+00 5.020000000000003348e-01 -1.275999999999990031e+00 -3.400000000000001632e-02 -1.100000000000000561e-01 2.710999999999970989e+00 1.726999999999973001e+00 -3.890000000000002900e-01 -6.740000000000004876e-01 3.094999999999971330e+00 4.073999999999934118e+00 -5.000000000000003053e-02 -8.460000000000006404e-01 -1.230000000000000954e-01 2.396999999999966047e+00 4.499999999999959144e+00 2.965999999999958447e+00 -2.550000000000001710e-01 -4.390000000000003344e-01 6.600000000000005862e-01 2.314999999999972413e+00 -5.080000000000003402e-01 -5.180000000000003491e-01 2.419999999999982609e+00 -2.700000000000000316e-02 4.297999999999937870e+00 -6.320000000000004503e-01 -7.300000000000005096e-02 -5.910000000000004139e-01 -1.940000000000001168e-01 6.040000000000004254e-01 -4.490000000000003433e-01 -1.083999999999997410e+00 -5.400000000000002714e-02 -4.440000000000003388e-01 2.779999999999968274e+00 2.700000000000001704e-02 -1.140000000000000874e-01 2.119999999999962359e+00 2.238999999999967461e+00 -5.200000000000003231e-02 9.519999999999978479e-01 -1.490000000000000768e-01 1.386999999999984023e+00 -3.110000000000002207e-01 2.788999999999950408e+00 -3.840000000000002855e-01 -5.000000000000001839e-03 1.736999999999986999e+00 -2.100999999999975110e+00 -4.020000000000003015e-01 -4.470000000000003415e-01 1.053000000000000602e+00 -5.980000000000005311e-01 -1.200000000000000372e-02 1.222999999999989873e+00 2.537999999999979828e+00 -3.660000000000002696e-01 -9.500000000000007050e-02 -3.800000000000000600e-02 -3.020000000000002127e-01 -8.800000000000006428e-02 2.930999999999959194e+00 -4.310000000000003273e-01 1.577999999999983416e+00 -1.020000000000000767e-01 -3.610000000000002651e-01 -2.410000000000001863e-01 2.012999999999977696e+00 3.117999999999952809e+00 -1.702999999999982084e+00 -4.670000000000003593e-01 5.090000000000003411e-01 -3.400000000000000938e-02 -2.850000000000001976e-01 3.323999999999927013e+00 -2.990000000000002101e-01 3.547999999999957410e+00 -3.110000000000002207e-01 -5.100000000000002448e-02 -4.300000000000002431e-02 -3.060000000000002163e-01 -1.020000000000000628e-01 -4.230000000000003202e-01 1.788999999999994817e+00 -9.470000000000007301e-01 2.011999999999981803e+00 -2.810000000000001941e-01 3.601999999999940361e+00 -2.370000000000001827e-01 -3.600000000000002642e-01 -2.360000000000002096e-01 -1.020000000000000767e-01 1.139999999999994129e+00 -4.910000000000003806e-01 2.301999999999956081e+00 -3.520000000000002571e-01 -2.060000000000001275e-01 -2.390000000000001568e-01 3.202999999999941227e+00 -8.300000000000008760e-02 3.403999999999953285e+00 -3.460000000000002518e-01 -1.670000000000000928e-01 2.929999999999938876e+00 3.055999999999970296e+00 -2.770000000000002460e-01 -2.760000000000001896e-01 3.790000000000003366e-01 -2.800000000000001932e-01 1.693999999999984407e+00 -8.000000000000003636e-03 -3.480000000000002536e-01 -2.540000000000001701e-01 -1.720000000000001250e-01 -3.080000000000002180e-01 -8.110000000000006093e-01 -3.950000000000002953e-01 4.565999999999962533e+00 -5.240000000000003544e-01 -4.640000000000003566e-01 1.607999999999979446e+00 9.450000000000007283e-01 -1.860000000000001374e-01 2.481999999999973561e+00 -5.800000000000003764e-02 6.712999999999961886e+00 -2.400000000000034397e-02 -8.100000000000003031e-02 2.001999999999973134e+00 3.800000000000000600e-02 -7.800000000000005540e-02 1.237999999999988221e+00 5.334000000000007624e+00 -3.100000000000002198e-01 -6.170000000000005480e-01 -3.970000000000003526e-01 -2.850000000000001976e-01 1.921999999999982833e+00 8.640000000000006564e-01 2.001999999999974911e+00 -1.060000000000000803e-01 -1.930000000000000882e-01 -5.630000000000003890e-01 -1.151999999999996360e+00 -2.520000000000001683e-01 -1.160000000000000475e-01 9.560000000000025144e-01 1.063000000000001055e+00 1.662999999999982270e+00 4.201999999999932456e+00 -6.000000000000004635e-02 -1.200000000000000372e-02 4.700000000000003064e-01 -6.700000000000004563e-02 2.145999999999965269e+00 -4.960000000000003850e-01 -2.380000000000001559e-01 3.528999999999940851e+00 2.965999999999938908e+00 2.651999999999947732e+00 -5.580000000000003846e-01 -8.000000000000002942e-02 -9.700000000000005840e-02 8.000000000000005371e-03 -1.210000000000000936e-01 2.945999999999951324e+00 -1.840000000000001357e-01 8.119999999999965468e+00 2.299999999999955858e+00 -1.260000000000001397e-01 3.500000000000003109e-01 -6.720000000000005969e-01 1.925999999999972179e+00 -1.428999999999993387e+00 -3.240000000000002878e-01 1.270999999999982810e+00 4.007999999999947605e+00 -4.999999999999994033e-02 -2.000000000000001776e-03 -3.000000000000000062e-03 -3.670000000000002705e-01 3.005999999999941164e+00 2.448999999999937227e+00 3.555999999999944983e+00 -3.760000000000002784e-01 -3.610000000000003206e-01 -6.300000000000002820e-02 2.782999999999948404e+00 1.181999999999997497e+00 -1.380000000000000948e-01 1.959999999999969100e+00 -3.300000000000002237e-02 -4.620000000000004103e-01 -7.700000000000005451e-02 2.522999999999996579e+00 -8.300000000000005984e-02 9.150000000000008127e-01 -3.660000000000002696e-01 -2.200000000000001676e-01 -2.100000000000001518e-02 -2.000000000000000736e-02 2.530000000000001692e-01 2.417999999999967731e+00 -2.960000000000002074e-01 -7.910000000000007025e-01 -1.080000000000000820e-01 -4.690000000000003610e-01 3.183999999999933994e+00 -3.640000000000002678e-01 -3.840000000000002855e-01 -4.700000000000003481e-02 -4.830000000000003735e-01 3.035999999999954735e+00 1.934999999999981402e+00 2.295999999999982943e+00 -1.076999999999999957e+00 8.380000000000006333e-01 -3.450000000000003064e-01 -5.280000000000003579e-01 3.620000000000002105e-01 2.480000000000002203e-01 2.652999999999947622e+00 -2.130000000000001614e-01 -3.380000000000002447e-01 8.790000000000007807e-01 -1.440000000000001279e-01 -4.000000000000002859e-02 -1.680000000000000937e-01 4.221999999999965780e+00 -5.299999999999999156e-02 -1.690000000000001223e-01 -1.220000000000000945e-01 8.870000000000007878e-01 -5.830000000000004068e-01 -2.770000000000001905e-01 -5.500000000000004191e-02 2.571999999999963649e+00 7.650000000000005684e-01 1.660999999999973387e+00 -7.720000000000006857e-01 -9.900000000000007405e-02 -4.700000000000002787e-02 -4.110000000000003095e-01 -1.220000000000000945e-01 3.400000000000009959e-02 -6.360000000000004539e-01 5.830000000000004068e-01 -3.900000000000002076e-02 1.677999999999983949e+00 -7.200000000000005007e-02 5.590000000000004965e-01 7.080000000000005178e-01 -4.650000000000003575e-01 -2.280000000000001747e-01 -2.610000000000001763e-01 -8.130000000000006111e-01 -1.180000000000000770e-01 1.192999999999986294e+00 -4.100000000000003642e-01 -5.370000000000004770e-01 3.646999999999943842e+00 -3.320000000000002394e-01 -1.920000000000001428e-01 2.773999999999954280e+00 2.536999999999955069e+00 2.046999999999965514e+00 5.887999999999956380e+00 -8.500000000000006439e-01 3.774999999999943956e+00 -7.980000000000007088e-01 -8.940000000000006830e-01 1.220999999999997421e+00 3.170999999999944308e+00 -6.060000000000004272e-01 -2.330000000000001792e-01 -6.000000000000002554e-02 -3.750000000000002776e-01 -5.740000000000003988e-01 -6.200000000000004813e-02 -8.300000000000005984e-02 3.160000000000002807e-01 -2.000000000000001082e-02 4.687999999999955314e+00 2.710000000000001852e-01 2.197999999999973308e+00 -4.600000000000003531e-01 -4.210000000000003184e-01 -6.070000000000004281e-01 -7.640000000000006786e-01 1.136999999999994237e+00 -3.150000000000002243e-01 -9.000000000000005218e-02 -6.700000000000004841e-01 1.733999999999976005e+00 -5.730000000000005089e-01 -7.890000000000007008e-01 -5.520000000000003793e-01 3.572999999999938670e+00 -1.460000000000000742e-01 7.479999999999977334e+00 -1.210000000000000797e-01 -6.600000000000004474e-02 1.670000000000001483e-01 -7.000000000000004829e-02 1.462999999999983647e+00 -2.400000000000001854e-01 -2.780000000000001914e-01 -4.800000000000002875e-02 -4.720000000000004192e-01 8.820000000000017826e-01 -1.000000000000000749e-01 -6.000000000000003941e-02 2.371999999999954589e+00 -9.600000000000007139e-02 -5.030000000000003357e-01 -6.230000000000004423e-01 -1.210000000000000936e-01 5.070000000000003393e-01 -1.510999999999990351e+00 -1.800000000000000558e-02 4.405999999999946404e+00 -9.500000000000004274e-02 -1.480000000000001037e-01 -1.160000000000000614e-01 -7.200000000000003619e-02 -2.430000000000001603e-01 -4.960000000000003850e-01 -4.000000000000000777e-02 -2.380000000000001836e-01 -9.000000000000006606e-02 -3.450000000000002509e-01 1.511999999999984912e+00 4.120000000000003104e-01 3.333999999999943231e+00 1.978999999999977888e+00 -7.920000000000007034e-01 -3.370000000000002438e-01 -2.370000000000001827e-01 -9.600000000000007139e-02 -5.550000000000003819e-01 -3.460000000000002518e-01 -7.000000000000004829e-02 -1.440000000000000724e-01 3.637999999999931511e+00 -8.500000000000006162e-02 -3.620000000000002660e-01 -3.370000000000002438e-01 9.020000000000008011e-01 -2.520000000000001683e-01 3.307999999999935437e+00 1.700000000000000816e-02 -3.100000000000002059e-02 -8.100000000000005806e-02 -2.170000000000001650e-01 -3.870000000000002882e-01 -1.661999999999974165e+00 1.173999999999995936e+00 -2.480000000000001648e-01 2.178999999999975845e+00 -3.610000000000002651e-01 4.030000000000003579e-01 3.370999999999940933e+00 -7.800000000000006928e-01 -1.050000000000000794e-01 2.031999999999979600e+00 2.589999999999964331e+00 -3.600000000000002642e-01 -1.326999999999997293e+00 1.732999999999981000e+00 -1.680000000000001215e-01 -4.200000000000002343e-02 -1.140000000000000735e-01 2.324999999999953104e+00 -6.180000000000004379e-01 -2.590000000000001745e-01 -2.440000000000002167e-01 -3.890000000000002900e-01 -2.900000000000002021e-01 3.955999999999955552e+00 -2.120000000000001605e-01 -2.230000000000001703e-01 -9.200000000000006783e-02 -1.460000000000001019e-01 -3.720000000000002749e-01 8.440000000000006386e-01 -1.380000000000000948e-01 -6.530000000000005800e-01 -5.720000000000005080e-01 1.342999999999985761e+00 -3.900000000000002076e-02 1.630999999999968253e+00 -2.199999999999999872e-02 -2.540000000000001701e-01 -2.960000000000002074e-01 -3.600000000000000422e-02 -1.080000000000000820e-01 -3.210000000000002296e-01 2.558999999999965524e+00 2.912999999999974499e+00 -4.900000000000000189e-02 1.435999999999985732e+00 2.137999999999980805e+00 -1.480000000000001037e-01 2.706999999999940343e+00 -2.440000000000001890e-01 -3.050000000000002154e-01 -2.070000000000001561e-01 -5.440000000000003721e-01 3.395999999999944841e+00 2.947999999999940446e+00 6.827999999999934566e+00 -4.260000000000003229e-01 5.200000000000003231e-02 1.945999999999973529e+00 -3.500000000000002554e-01 -3.780000000000002802e-01 -3.720000000000002749e-01 -2.940000000000002056e-01 6.711999999999949118e+00 1.054000000000000270e+00 3.704999999999944116e+00 5.690999999999983849e+00 1.800000000000001599e-02 3.101999999999948798e+00 1.880999999999964700e+00 -4.050000000000003042e-01 -5.100000000000002448e-02 -1.054000000000000714e+00 -2.080000000000001570e-01 -3.600000000000002642e-01 -9.700000000000007228e-02 1.777999999999981817e+00 1.274999999999993472e+00 2.505999999999970029e+00 2.760000000000001896e-01 -6.000000000000004635e-02 -2.149999999999999134e-01 1.688999999999975854e+00 -7.400000000000005462e-01 -9.700000000000004452e-02 -1.471999999999990649e+00 -5.390000000000004787e-01 -2.110000000000001597e-01 -4.980000000000004423e-01 -6.700000000000004563e-02 1.842999999999975103e+00 5.570000000000004947e-01 -2.710000000000001852e-01 1.677999999999981728e+00 -9.000000000000001055e-03 -8.510000000000007558e-01 -4.630000000000003557e-01 -5.000000000000003053e-02 3.391999999999963933e+00 -5.600000000000003586e-02 -6.850000000000006084e-01 2.120000000000001883e-01 -2.410000000000001863e-01 -9.000000000000005218e-02 5.326999999999947555e+00 1.421999999999991715e+00 -1.030000000000000776e-01 1.800000000000004027e-02 -4.480000000000003424e-01 -4.340000000000003300e-01 2.380000000000002114e-01 -1.020000000000000767e-01 -3.510000000000002562e-01 3.320000000000002394e-01 -3.000000000000001797e-03 -3.000000000000000583e-02 -8.970000000000006857e-01 -1.960000000000001463e-01 -8.520000000000006457e-01 -2.500000000000001527e-02 -5.790000000000004032e-01 -3.180000000000002269e-01 -1.950000000000001454e-01 -6.000000000000002554e-02 -6.600000000000003086e-02 -4.880000000000003779e-01 1.179999999999997051e+00 -1.030000000000000637e-01 -5.290000000000003588e-01 -3.930000000000002935e-01 -7.000000000000003442e-02 -3.400000000000002326e-02 2.517999999999978922e+00 -1.505999999999995342e+00 -7.300000000000005096e-02 -1.320000000000000895e-01 3.515999999999961378e+00 -4.950000000000003841e-01 1.380000000000000671e-01 -2.370000000000001827e-01 -1.180000000000000770e-01 2.407999999999963947e+00 8.400000000000006073e-02 -4.100000000000002254e-02 2.306999999999966189e+00 2.914999999999945857e+00 -7.600000000000005640e-01 2.449999999999933564e+00 3.549999999999934541e+00 -3.660000000000002696e-01 -3.880000000000002891e-01 -2.550000000000001710e-01 2.542999999999954852e+00 2.210000000000001685e-01 6.737999999999962242e+00 -4.110000000000003095e-01 -3.630000000000002669e-01 1.745999999999989338e+00 -3.910000000000002918e-01 -3.700000000000002731e-01 1.064999999999998170e+00 2.710000000000001852e-01 1.707999999999983309e+00 -4.390000000000003344e-01 -3.880000000000002891e-01 -8.900000000000005129e-02 1.025000000000001243e+00 2.971999999999948017e+00 2.114999999999975344e+00 -3.060000000000002163e-01 -8.520000000000006457e-01 -1.670000000000001206e-01 -1.060000000000000525e-01 -2.370000000000001827e-01 -9.200000000000005396e-02 1.163999999999989710e+00 -1.999999999999972286e-03 -7.710000000000005738e-01 -3.200000000000002148e-02 1.126999999999995783e+00 -3.560000000000002607e-01 -1.090000000000000829e-01 2.900999999999970491e+00 -2.800000000000001932e-01 3.056999999999961748e+00 5.418999999999967621e+00 2.613999999999976342e+00 -1.370000000000000939e-01 -4.000000000000002998e-01 -6.850000000000004974e-01 -7.200000000000003619e-02 3.053999999999975845e+00 1.175999999999999490e+00 1.347999999999990983e+00 -1.220000000000000667e-01 2.114999999999978009e+00 1.487999999999980005e+00 -2.320000000000001505e-01 -1.110000000000000708e-01 -6.400000000000004574e-01 -7.600000000000001199e-02 -9.800000000000005929e-02 1.511999999999984468e+00 -1.099999999999998895e-02 6.190000000000004388e-01 2.058999999999967301e+00 4.180999999999952088e+00 7.760000000000005782e-01 3.210000000000002296e-01 -2.280000000000001747e-01 4.100999999999938694e+00 -7.300000000000005096e-02 -5.200000000000003231e-02 2.615999999999961467e+00 -4.630000000000003557e-01 1.432999999999978735e+00 -6.100000000000004308e-01 -2.970000000000002083e-01 2.765999999999955161e+00 2.470999999999959673e+00 -4.170000000000003149e-01 3.188999999999936996e+00 -8.180000000000006155e-01 -3.640000000000002678e-01 -6.770000000000004903e-01 2.532999999999950180e+00 -2.300000000000001765e-01 4.368999999999943817e+00 -3.490000000000002545e-01 4.200999999999947221e+00 -3.400000000000000938e-02 -8.600000000000006251e-02 3.110000000000002207e-01 -4.040000000000003033e-01 1.086999999999999078e+00 -1.680000000000001215e-01 1.583999999999986752e+00 -5.750000000000003997e-01 -3.200000000000002287e-01 2.448999999999956767e+00 2.327999999999966096e+00 4.960000000000003295e-01 -3.720000000000002749e-01 -5.430000000000003713e-01 -1.980000000000001481e-01 -5.100000000000002448e-02 -8.350000000000007416e-01 -3.780000000000002802e-01 3.844999999999937579e+00 2.738999999999968793e+00 4.280000000000003801e-01 -7.100000000000003531e-02 1.190000000000001057e-01 -6.340000000000004521e-01 9.750000000000008660e-01 4.846999999999949793e+00 -1.400000000000000966e-01 -9.700000000000003064e-02 1.370000000000000939e-01 -8.900000000000006517e-02 9.240000000000007097e-01 -2.490000000000001934e-01 -6.200000000000003425e-02 4.550000000000004041e-01 -6.100000000000003336e-02 -1.290999999999986603e+00 -2.010000000000001508e-01 -3.600000000000002642e-01 -1.200000000000000025e-02 -3.450000000000002509e-01 -2.500000000000001665e-01 -1.870000000000001383e-01 2.260000000000001730e-01 -1.545999999999990271e+00 -4.900000000000002964e-02 1.749999999999984457e+00 3.970000000000003526e-01 6.000000000000004219e-01 -1.880000000000001115e-01 1.147999999999992804e+00 -6.520000000000004681e-01 -9.300000000000006872e-02 -4.160000000000003140e-01 -2.150000000000001632e-01 1.664999999999976943e+00 3.140999999999935177e+00 -3.920000000000002927e-01 -4.240000000000003211e-01 -5.600000000000004280e-02 -7.700000000000004063e-02 -1.910000000000001419e-01 2.773999999999967603e+00 -1.780000000000001303e-01 -7.200000000000005007e-02 -2.130000000000001337e-01 3.659999999999948628e+00 3.846999999999933806e+00 -2.040000000000001534e-01 4.470000000000003970e-01 -2.099999999999999784e-02 -7.210000000000005294e-01 3.119999999999944595e+00 -1.482999999999998320e+00 -5.700000000000003675e-02 -1.000000000000000749e-01 3.341999999999965887e+00 -6.420000000000004592e-01 -8.900000000000005129e-02 1.270999999999988805e+00 -1.170000000000000762e-01 -9.800000000000005929e-02 2.599999999999967226e+00 -1.099999999999999936e-02 -1.120000000000000717e-01 -2.700000000000001843e-01 2.745999999999963581e+00 3.600000000000002642e-01 6.650000000000004796e-01 -2.260000000000001730e-01 -1.520000000000001072e-01 3.117999999999954586e+00 6.930999999999992056e+00 5.810000000000004050e-01 -5.000000000000003331e-01 2.713999999999952006e+00 2.263999999999978030e+00 -2.370000000000001827e-01 3.013999999999947832e+00 4.520000000000004015e-01 -3.100000000000002198e-01 4.699999999999993072e-02 3.669999999999959517e+00 1.815999999999970083e+00 -2.600000000000001962e-02 3.300000000000008482e-02 -6.100000000000004724e-02 1.899999999999999606e-02 -2.900000000000002021e-01 6.368999999999949146e+00 -3.000000000000002109e-01 -6.240000000000005542e-01 2.051999999999961410e+00 2.458999999999971209e+00 -2.230000000000002536e-01 -7.400000000000005462e-01 -1.600000000000000380e-02 -1.120000000000000856e-01 -4.410000000000003362e-01 1.080000000000001376e-01 -1.130000000000000865e-01 -8.800000000000005040e-02 -3.460000000000002518e-01 -6.600000000000004752e-01 -7.450000000000006617e-01 4.925999999999967294e+00 2.070999999999978858e+00 3.231999999999936257e+00 -1.990000000000001490e-01 1.667999999999988159e+00 -3.540000000000002589e-01 1.930000000000001159e-01 -2.590000000000001745e-01 1.046999999999996600e+00 1.501999999999989788e+00 -1.010000000000000758e-01
