2.140000000000000790e-01 2.220000000000000862e-01 1.490000000000001046e-01 2.340000000000001523e-01 2.700000000000001843e-01 3.370000000000001883e-01 2.000000000000000666e-01 1.680000000000000937e-01 2.740000000000001323e-01 -5.000000000000001665e-02 -5.400000000000007572e-02 8.000000000000071290e-03 4.410000000000002252e-01 -7.400000000000024614e-02 1.550000000000001377e-01 2.260000000000001452e-01 2.770000000000001905e-01 1.920000000000001150e-01 -1.070000000000000256e-01 3.870000000000002327e-01 1.480000000000000759e-01 2.200000000000000844e-01 1.080000000000002069e-01 5.399999999999996469e-02 1.900000000000002381e-02 2.350000000000001532e-01 3.290000000000002367e-01 -2.000000000000037512e-02 1.760000000000001563e-01 -2.310000000000001497e-01 1.050000000000000655e-01 1.680000000000001215e-01 3.270000000000001794e-01 1.590000000000000857e-01 -9.399999999999993083e-02 2.500000000000001665e-01 3.190000000000002278e-01 -3.899999999999999994e-02 1.799999999999999656e-01 7.700000000000006839e-02 -5.000000000000003331e-01 2.390000000000001013e-01 -4.160000000000002029e-01 2.340000000000000968e-01 2.200000000000001399e-01 4.190000000000002611e-01 2.050000000000000711e-01 1.910000000000000309e-01 3.700000000000002176e-01 2.180000000000000826e-01 -3.160000000000002252e-01 4.390000000000003344e-01 2.199999999999989464e-02 -3.999999999999885592e-03 3.870000000000002327e-01 1.100000000000000422e-01 1.699999999999998040e-02 5.600000000000006362e-02 1.700000000000000400e-01 -4.200000000000003730e-02 -2.100000000000000477e-02 -4.700000000000004174e-02 5.100000000000007999e-02 1.210000000000000520e-01 5.599999999999991790e-02 2.760000000000001896e-01 2.570000000000001172e-01 -1.430000000000000715e-01 2.370000000000001550e-01 -1.249999999999999584e-01 4.300000000000002431e-02 4.000000000000002442e-01 4.180000000000003157e-01 2.680000000000001270e-01 -1.980000000000000093e-01 -3.600000000000000422e-02 -3.000000000000006134e-02 3.580000000000002069e-01 2.320000000000001505e-01 6.300000000000011147e-02 -7.000000000000003442e-02 -1.649999999999998967e-01 1.530000000000001359e-01 3.020000000000002127e-01 2.040000000000000979e-01 2.450000000000001343e-01 4.240000000000002656e-01 1.880000000000001115e-01 1.690000000000000668e-01 1.109999999999999043e-01 -4.700000000000005562e-02 -6.399999999999994582e-02 2.400000000000008377e-02 8.200000000000014222e-02 2.430000000000000493e-01 1.300000000000014165e-02 1.140000000000000457e-01 -2.100000000000009498e-02 3.999999999999999389e-02 2.880000000000002003e-01 1.199999999999981984e-02 1.139999999999999902e-01 4.599999999999975636e-02 1.240000000000000407e-01 2.799999999999994160e-02 4.899999999999993944e-02 -8.000000000000001554e-02 3.300000000000001543e-02 -3.230000000000001759e-01 1.899999999999998357e-01 3.500000000000012823e-02 3.420000000000001927e-01 5.000000000000002359e-02 -6.500000000000011324e-02 2.000000000000002470e-02 3.120000000000001106e-01 8.899999999999999578e-02 4.000000000000001471e-02 2.160000000000000808e-01 4.180000000000002602e-01 -1.720000000000000695e-01 1.250000000000000555e-01 -2.200000000000000844e-01 1.040000000000000646e-01 -8.000000000000012310e-03 1.570000000000000839e-01 3.490000000000002545e-01 2.220000000000000862e-01 -1.630000000000000338e-01 1.420000000000000706e-01 -5.499999999999997252e-02 8.700000000000006339e-02 9.000000000000129424e-03 1.130000000000000449e-01 -7.399999999999985756e-02 -8.200000000000016998e-02 2.200000000000001399e-01 -1.260000000000000286e-01 2.490000000000001656e-01 -3.799999999999971456e-02 1.530000000000000804e-01 2.610000000000001208e-01 4.700000000000002787e-02 7.500000000000009437e-02 -4.100000000000011968e-02 -7.800000000000001377e-02 3.300000000000001821e-01 -5.000000000000051278e-03 -9.200000000000005396e-02 2.820000000000001394e-01 2.580000000000001736e-01 3.299999999999987665e-02 -6.500000000000002998e-02 -1.850000000000000533e-01 3.750000000000002220e-01 -1.209999999999999964e-01 -8.100000000000014133e-02 2.050000000000000988e-01 -3.480000000000001981e-01 3.810000000000002829e-01 1.420000000000000706e-01 5.899999999999983730e-02 1.950000000000001454e-01 4.800000000000003153e-01 1.050000000000000377e-01 2.890000000000002567e-01 8.400000000000026890e-02 4.070000000000002505e-01 -2.020000000000000684e-01 2.800000000000001932e-01 1.540000000000000258e-01 3.230000000000001759e-01 -1.030000000000000082e-01 1.910000000000001141e-01 1.200000000000001343e-01 -6.900000000000000577e-02 1.400000000000000688e-01 1.410000000000000975e-01 -6.799999999999992162e-02 2.500000000000001665e-01 2.850000000000001421e-01 4.110000000000002540e-01 -2.450000000000000511e-01 2.700000000000012113e-02 6.899999999999981148e-02 -3.160000000000001141e-01 2.399999999999995887e-02 2.460000000000000797e-01 -1.400000000000000133e-01 1.690000000000001501e-01 -5.099999999999990652e-02 1.650000000000000078e-01 2.900000000000001465e-01 2.520000000000001128e-01 6.000000000000076453e-03 -2.170000000000000262e-01 3.590000000000002078e-01 2.740000000000001323e-01 -2.029999999999998472e-01 1.550000000000000266e-01 2.640000000000000679e-01 1.099999999999997161e-02 1.800000000000000558e-02 9.400000000000001410e-02 1.410000000000000697e-01 4.100000000000005723e-02 3.099999999999995814e-02 -1.039999999999998426e-01 -1.010000000000000620e-01 9.000000000000002442e-02 4.370000000000003326e-01 2.350000000000001532e-01 2.150000000000001354e-01 2.680000000000001825e-01 1.290000000000000313e-01 5.099999999999979550e-02 2.280000000000001192e-01 -1.499999999999998279e-01 7.300000000000003708e-02 -8.599999999999999312e-02 1.030000000000000360e-01 2.180000000000001381e-01 9.500000000000002887e-02 8.399999999999983868e-02
