3.502447340483433313e-01 1.279574466387385645e-01 -5.951052847655007028e-02 -3.730111707414827116e-01 -2.453075009163343811e-01 4.580278300693280125e-01 1.973718051457027667e-01 1.297218420476722034e-01 3.053431673510452124e-02 4.701668311148040624e-01 -3.102627710548164566e-02 -1.496790548617262517e-01 -9.008478315223217292e-02 2.125916738391133431e-01 -7.219384263160933714e-03 6.266468881084429066e-02 1.278339270668421915e-02 1.267132504634729540e-01 1.165734630158228764e-02 2.696893560027488479e-01 1.931430725931362544e-02 1.689727843515162475e-01 -4.099118368449994332e-02 -5.496368692337115780e-01 3.265525935754772235e-01 -1.724619819764708351e-01 1.421145563300806047e-01 5.932177218602644464e-01 -2.181021422747170535e-01 4.921053711457712976e-01 -2.024933728427362190e-01 9.701136416517171235e-02 -7.930341847215990891e-02 7.876897776551454455e-02 1.566269529234093350e-01 -1.822785222805796135e-01 1.685886931595230454e-01 8.366543802714174194e-02 5.618050139175830016e-02 -3.015720124032503571e-02 -1.379938078963482452e-02 1.303600306365762518e-01 5.134936938955544372e-01 -1.059814194758168168e-02 2.045112067070469497e-01 7.436964386177344344e-02 -1.058224300016749331e-01 -6.584076992318916854e-01 1.640304640636451317e-01 -1.692397565407718629e-01 8.441608917920498389e-02 3.975827037554342802e-02 4.014959349130162169e-01 -1.620408029705670827e-01 -6.626561872830587230e-02 2.465538079289247009e-01 2.530287712776950748e-01 2.544158048520274162e-01 1.725281984845941918e-01 -4.309645490375575705e-02 -1.968655875842574843e-01 -1.018688475129315291e-01 -5.084549475009000341e-01 -9.941365089933859589e-02 1.741020852158055299e-01 -8.179742205416468126e-02 -1.062270049455613374e-01 1.062206479679922606e-02 2.272567303835225372e-02 2.514551816148776764e-01 -1.326377147447892479e-01 2.238138262891702368e-01 2.449883495368708475e-01 2.934670521160293380e-02 1.703928021360509582e-01 -3.329694077515075734e-01 3.631457823065514096e-02 1.000761954688915781e-02 -3.112620643244264906e-01 -1.691678920444894541e-01 2.535347839619808696e-01 1.783435235614694581e-01 -4.478924459924395196e-02 -7.717074729668813027e-02 4.779004196540749538e-02 3.543126530763137522e-02 -8.538208913483273654e-02 -2.631758785901108788e-01 2.310427298924655481e-02 -7.033161189229231169e-02 6.383285103418444295e-02 -4.577677044899117198e-02 1.239398295717744070e-01 -1.434937715404376035e-01 -2.249782629465120476e-01 -3.783398024878089072e-01 -3.430862449570876715e-01 1.579689889759074706e-01 1.189305000825505859e-01 1.755802114795571023e-01 9.338827131718524521e-02 -1.029069678638432489e-01 8.618280954073209710e-02 -1.896712738968102663e-01 4.512799854935508059e-01 2.027276811052040884e-01 3.840485454083185091e-01 -5.034823798009815388e-01 4.667558464714498256e-02 -1.569536830205733868e-01 -6.596184133926572546e-01 -1.037586920359980791e-01 -4.873206098419862603e-02 4.050841658767480036e-01 1.633781024550897132e-01 4.484921386641886609e-02 -1.959461779395436920e-01 -3.711974256429095842e-01 -9.751992086853462915e-02 1.333230547346641315e-01 -6.221958603943071875e-01 -7.599777240496213837e-02 -2.216152296074587122e-02 -1.368793995274769915e-01 -1.145037291516368405e-01 -2.526514556244356391e-01 1.340962299557565129e-01 -1.003763027836268723e-01 -2.271757427105083604e-01 -8.700996012832164228e-02 -9.427308159594725012e-01 1.921785816258328727e-01 -7.408898135633633364e-02 -1.975276962366965261e-01 3.975178305010940161e-01 1.404873417620368103e-01 2.497151922070313668e-01 2.142857208263369007e-01 1.577556905366342063e-02 2.226561929515693747e-02 1.451404105795582322e-01 2.074706177511585758e-01 -3.597762260134046430e-01 -2.747014109378062563e-01 8.792942885538594655e-02 -2.850485945382605357e-01 -7.021790102426322955e-02 -6.539357769930388697e-02 -2.251839775336967331e-01 4.860875552485847267e-02 1.389653167007870449e-01 1.073889544855314293e-01 6.513929550244072775e-02 1.155407421465217688e-01 3.375289770778105991e-02 -4.177603424659994680e-01 -3.325306382474420008e-01 3.196721112720318347e-03 8.832432817011576232e-02 -5.863734383503481362e-02 2.743971761046414826e-01 -3.244168028047461072e-01 -7.859978098230242793e-02 -2.304906008886756924e-02 3.833353745123699863e-01 4.192806555695466342e-02 -2.992221710981847818e-02 6.789686987105662819e-02 -1.067093434066636870e-01 -4.750408610545796273e-02 -3.311708564256724552e-01 -9.313346758475254950e-02 -4.937092925936137355e-02 -5.669329342484977913e-02 3.201917438057736431e-01 -3.160180055270434690e-02 -3.924258795380324710e-02 -1.042526628957768722e-02 -2.784898420967574784e-01 -6.354903025200701883e-02 -1.113202532758875846e-01 -2.589057855231012215e-02 8.786161249749545321e-02 -7.048085908161778879e-02 1.660635365981804057e-01 3.671028119012944013e-01 4.292884321895689553e-02 2.872227769504713812e-01 2.434868304218095469e-01 6.944534216101490298e-02 3.547861347272745491e-01 -4.335849763364867382e-01 -3.050311256577579178e-01 1.567066217489958002e-01 3.639874343140987734e-02 6.631180528473652747e-02 6.041797834588272936e-02 -1.236280986188306383e-02 -3.024225303104927098e-01 9.685121009277440629e-02 1.693831536326010842e-02 -5.534495692729728827e-02 -3.157990293066408327e-01 -4.136542413645789007e-01 -3.219148691166785481e-01 -2.138525547496192558e-01 3.638606985326135468e-01 1.366633250360116403e-01 -2.467953069113346665e-01 -6.463757482253856823e-02 1.729341226510409391e-01 -9.711275138306264820e-02 -3.162257793686151786e-01 9.812046527503164028e-03 5.088790089349840562e-01 4.170733279545394551e-02 -3.383318909423346232e-01 1.750193504977831105e-01 -1.077028500343444883e-01 -4.032521728640533348e-02 1.654184441210258816e-01 -3.097136373614439026e-02 -2.604010972353812403e-01 6.089121222653114812e-02
1.419750803809448070e-01 2.582134132370969004e-01 -3.544041472961318578e-02 1.284674057616704002e-01 8.901978715568201195e-02 2.690503720360838402e-01 3.195325235017684729e-01 2.435253212784058985e-01 2.784961925293747975e-01 1.371951258258325423e-01 -1.522241006703511923e-01 -5.997545643459931131e-02 8.149618305356436110e-02 -2.450103844692592403e-01 1.737552577251910424e-01 3.268578845531210919e-01 1.222539511070048351e-01 1.984566119829343500e-01 2.608730848838772820e-01 5.299347324341781296e-02 2.329066603490324849e-03 3.900327315195483563e-02 1.656680955261148891e-01 9.862724961075687580e-02 2.542468807839619593e-01 3.157608731890000908e-01 2.583795499642357885e-01 -8.602470582569590740e-02 -1.764555128456325450e-01 2.358935168477384325e-01 2.013700219308848238e-01 3.569592606900125475e-01 4.193138888727022118e-01 -2.279835661565922655e-01 3.815182937877127922e-01 3.718065356280879641e-01 4.249153201677045161e-02 2.197942582435561953e-01 -2.497878238721247812e-01 3.921887323136551973e-01 1.025665421352178613e-01 -1.434659782561757135e-01 3.471073371913413474e-01 7.480503819328737647e-02 1.311247215691482004e-01 1.978372874536409587e-01 2.949257851083130211e-01 1.446694102879999833e-01 2.145553868527324270e-01 -1.739176189944497686e-01 -2.258672306836914945e-01 7.417293889157805520e-02 -1.431059522841393594e-01 1.016769540037086444e-01 1.380637847815851249e-01 1.712894341285135791e-01 1.611874993106827691e-01 1.568261098275748056e-01 2.191505159043695139e-01 2.341954785097070113e-01 1.039146331505432508e-01 1.039198769970016978e-01 1.399674491802423495e-02 -2.094740575770764612e-01 -4.643023850057093754e-02 2.334016990075105935e-01 2.767237493048097519e-01 1.578592242909914733e-01 -2.473044049228523365e-03 2.806711497941906108e-01 2.165086222608436639e-01 2.805636134538387894e-01 1.525333827166004130e-01 1.201817867375657711e-01 3.114706765555518841e-01 4.887117666129568022e-02 -2.273893188616400440e-01 2.584016439292080580e-01 -2.915173732426274561e-02 1.819290094332633445e-01 -2.588739487984343945e-01 4.225503443230926859e-01 -1.892356828009207625e-01 2.530198257331459644e-01 2.110936984091301150e-01 -1.329726705286999600e-01 2.566287524138659015e-01 2.931786877241125966e-01 -2.728698129418856769e-02 -7.716159832638548599e-02 -2.026013613613676378e-01 2.924687624456147050e-01 -9.380005582365100875e-03 1.791704625350211966e-01 3.182070381064041609e-01 -1.029271581209685316e-01 4.164544303516942714e-02 2.491578868222765752e-01 1.542930911006621664e-01 3.546748979948137204e-01 1.383824965537061025e-01 -1.395631777489671488e-01 3.457905478141728994e-01 2.079001367551251978e-01 1.231058649220098944e-01 -1.736808579906161665e-01 -1.212962485274135249e-01 -8.960078278564053561e-03 2.895002175609401873e-01 -7.292815971587618407e-02 1.068624066124456012e-01 -1.153399400281977967e-02 2.371072153805160176e-01 -7.288170788073247697e-02 -1.553249654011053527e-01 2.882838082342580877e-01 2.000090053711520155e-01 1.137307415828544832e-01 -5.820674046023591175e-02 1.107134231539531055e-01 2.566275651039635064e-01 -1.435863242387793448e-01 -1.891062335997500676e-01 -1.654573287664089509e-01 1.786794463551945045e-01 -1.994946448987424542e-02 4.021191944942396068e-01 1.770434127050873885e-01 4.247136462476047702e-01 8.680804613063461406e-02 2.534815773276312134e-01 -1.567781433469435937e-01 -8.884249577884387183e-02 2.724243983816264647e-01 1.667946630441718980e-02 -5.978833401713180840e-02 2.178823086202870130e-01 -4.975505610003644330e-02 5.572501846985238733e-02 4.694672544917053991e-01 2.400152864373565342e-01 2.750580917361628575e-01 1.673536391964875469e-01 -8.517411760621031169e-02 2.070456126506233230e-01 -2.441468986174770706e-01 3.459023213507015360e-01 -2.006824018507273877e-01 1.320573181464479717e-01 3.641979266732928155e-01 2.678087918826607683e-01 -4.710106092844865144e-02 3.781251267629944790e-01 -3.197841470775028561e-01 1.511001493224673753e-01 3.346435958788849391e-02 5.329367476735347164e-02 2.264445084482090420e-01 -2.115742697506973746e-01 3.020122224588345783e-01 2.332408304911098573e-01 -2.991336262553976888e-01 4.534638931068570300e-01 5.652008058408213714e-02 -2.444780182807606769e-02 2.920738883549833242e-01 -1.226709941469911469e-01 2.207543913249363499e-01 -3.079492695023308135e-01 3.274888992669053867e-01 -1.919683993281172674e-01 5.959665229659008578e-02 -2.344591799953820443e-01 2.146794273331099207e-02 -1.434027988414522392e-01 2.826075459096568862e-02 1.079683019897751360e-02 -1.914123779551913374e-01 1.745879642996756298e-01 1.726007432373757033e-01 2.695673892155764362e-01 -1.368633091124164258e-01 2.161163180553044849e-01 -1.461946341257867599e-01 2.292056796935861285e-01 4.042902305047216815e-01 3.403912351308948092e-01 -2.589804959320569575e-02 1.526314087683589282e-01 -1.800351068393996057e-01 -9.136457166112253725e-02 1.029030289953082253e-02 -6.276362286932168910e-02 3.568409519482473313e-01 7.745514114702582720e-02 -1.424724316925543299e-01 -3.966138569135722186e-02 4.208762355156145385e-02 -4.713099041406505069e-02 2.106216482632994047e-01 -1.625504626841864086e-01 -1.163692326187317112e-02 1.167657663511573879e-01 3.652632088284278600e-02 7.558676145272509583e-02 4.686398903514200909e-02 -7.336751240085036263e-02 -2.583453442446853598e-01 -3.384686082615889213e-01 4.196137055087779955e-02 7.839761242200116165e-02 2.311991973362737818e-01 3.607629611195311559e-01 2.285197488085190520e-01 -3.050183750802346050e-02 9.039471072957938613e-02 1.938987855932572946e-01 -2.320209396383272199e-02 1.536544570460887937e-01 3.099740617900568207e-01 2.162021438642970639e-01 -1.307371239440960065e-01 -1.812053516196795999e-01 2.065476747535711366e-01
-9.924872805384522823e-02 -8.131905455033677441e-03 -1.977949799870554748e-01 -1.767866353416445990e-01 1.940804259302499890e-01 3.208155724973480588e-02 -2.271067115594953556e-01 -2.308928362320497585e-01 -2.232463950677374964e-01 8.427540604078959108e-02 -8.858681522573766398e-02 9.935952188016658471e-02 1.103823799461024213e-01 1.796630610244579276e-02 -1.939588168433754312e-01 2.696865403953876625e-02 3.301664108695697569e-02 -1.007357684806245712e-01 8.909094685638978273e-02 1.259091815739732112e-01 5.397108994499578982e-02 -1.563129354282997152e-01 1.751140727928285623e-01 1.179721384613607871e-01 1.572399265757875308e-01 8.200634963866142157e-02 -7.243869620981004467e-03 -7.364839802852730932e-02 -1.163945103926118801e-01 9.923845417148399739e-02 -3.608362707109565304e-01 -8.615516404043398191e-02 -1.483699210050619388e-01 -2.369704808669927665e-01 2.192922857219538890e-01 4.693951629176012358e-02 -2.290580802687520734e-01 9.182478664200571794e-02 -2.373451434816657435e-01 1.541887982781198485e-01 -1.262380390654647966e-02 -1.296541727995388082e-01 1.012977856089055523e-02 -7.306107557773798555e-02 -2.453873095010602190e-01 -2.079569845865645583e-01 4.597916969948968174e-02 2.327482494430083426e-01 -5.014264137144437694e-02 -3.268323191915060988e-02 8.411784376828990162e-02 -1.676101861286968808e-01 -2.344306082318916018e-01 3.175094265560616247e-01 -1.814144966232064948e-01 2.712284362281838085e-02 1.811405663458796056e-01 -7.067838439149783103e-02 2.263790181352839936e-01 -8.649548744475737960e-02 1.068005040499449831e-01 -2.214885997252284411e-01 -9.845948916588666278e-02 -1.300225782301744071e-01 3.233630430785475185e-01 -1.308986019033615833e-01 -1.500435771466960555e-01 -6.728058983880363941e-02 -1.522801930657491920e-01 2.950986322879023405e-01 3.761862017188201401e-02 -1.088907510057632588e-01 -8.849178763555105853e-02 1.710921732161283654e-02 1.220958730598319386e-01 -4.295525471125283962e-02 -5.059294083948196602e-02 2.521429043974476522e-02 9.287127746959721042e-02 -1.459196914349452090e-01 -1.166070854285751884e-01 1.001591199907568563e-01 -1.686399603045747597e-01 -1.256874221626608779e-01 -1.737294831026199859e-01 -1.189039734065203135e-01 5.851225769771528640e-02 -5.946553761584665726e-02 -3.426613318816956189e-01 1.965887856185707105e-01 -1.043675798478271577e-01 -1.297053950599252881e-01 6.736064053500610826e-02 4.580740910426459034e-01 -1.228898999136188719e-01 -1.263762406716865960e-01 1.347849892439257069e-01 -1.447721375901573904e-01 -9.429837330038920440e-02 1.770318297131810020e-02 1.147373564539840574e-01 -1.365873262917970121e-01 1.799495364714010504e-01 -7.910968431560620739e-02 1.362352671492410017e-01 -3.033639440778360119e-01 -1.336752951379939769e-01 -1.072855381985703821e-01 1.555363380818806374e-01 -9.797242004716903707e-02 -1.813724237709628262e-01 -1.522946914522832762e-01 -4.771349305787234152e-02 -4.422066140672702844e-02 -1.236053582310603499e-01 8.400546731995138516e-02 8.852861071166796825e-02 -4.916831692974173162e-02 -3.930683696210224287e-01 -1.961242010647997469e-01 4.918216299436683342e-02 -3.819937327394792165e-02 1.339960485742948404e-01 -1.339778523012694067e-01 2.228663546144215094e-02 -9.192238265890456672e-02 1.129921979471992279e-02 1.818149600356271794e-02 4.309038915783933166e-02 4.067459921419582652e-02 3.533054103579990057e-01 -1.653943386113452541e-01 -3.349394941804709758e-01 -4.638186097911831812e-02 2.958712171668477775e-01 2.669397546109144037e-01 3.437295069773576173e-03 3.352049384995219733e-02 7.235847902044185986e-02 1.565990756514734905e-01 -7.962484007775802453e-02 -8.176293261837375148e-02 -1.875288770169426245e-01 3.689568274905281053e-01 -4.621498923044971979e-03 3.284514112580707579e-01 -1.560488703668861388e-01 2.279320096932385686e-02 2.937113320461091220e-02 5.999148629712731245e-02 -2.629633191606302600e-01 -1.696042594143133131e-01 9.312361545110288408e-03 -4.100473338539596668e-02 5.173754104501813479e-03 -4.352049895440442129e-02 -1.916762434902015699e-01 1.054961933831324444e-01 4.723452572652408338e-02 3.662576245657780255e-02 1.792827127828151845e-01 -6.175534395014167788e-02 -1.682257641050535768e-01 4.651737082182322118e-03 -1.081630965294842067e-01 -1.877476009993199121e-02 1.361145309867919651e-01 5.602492484460801919e-02 5.076006572834442648e-02 -1.615407099159040238e-01 3.262455376175065203e-01 -1.761342982794061041e-01 -6.930602936188734464e-02 -1.674945347302268239e-01 -5.539827860615903488e-02 -2.728882183503456016e-01 -1.566511575331276662e-01 4.980902852981222706e-02 -2.040116545920212243e-01 5.750204812051019215e-02 3.896349025607073746e-02 -2.135333855397004155e-01 9.265313382577435031e-02 -8.208638286999647704e-02 -2.432969683839007746e-01 -1.033324270980438657e-02 -8.226655384248629521e-02 -8.218967158774770354e-02 -1.327886924682571967e-01 -2.124987489060020385e-01 1.660637714235803086e-01 -1.015276774287450917e-01 -2.166224610845757237e-01 -2.699564659797902832e-01 -3.057812445380284072e-02 -7.973756737231110781e-02 -3.311295946054067518e-01 -1.595934741395340639e-01 -8.225112594241923425e-02 -8.273268511528802244e-03 -2.313527290998344255e-01 2.326646955544189876e-02 -1.169608697489903509e-01 -4.470137765743167901e-01 -2.765601521490873016e-01 1.141495487942095349e-01 -4.930056037413458880e-01 2.951436264625438913e-02 -2.089862439676463124e-01 4.071839069461547639e-02 -8.553995314250700810e-02 -2.768551182882095923e-02 1.053430168873880080e-01 -4.242066862730834581e-02 -2.376551724123814324e-01 -2.367208309703961455e-01 1.049879961550663071e-01 2.571042529945682942e-01 -1.367370927953773241e-01 -1.041947454847728591e-02 1.085071280452400144e-01 2.708291337974992885e-01 -6.238941915629037105e-02 -7.803017003958583053e-02
1.085479486848602293e-01 -3.251640027618910023e-02 -1.529325065176620757e-01 -2.333444202539812495e-01 1.399850699380452701e-01 -2.276265900990289137e-01 2.001673841456149891e-02 1.906317628642145989e-01 2.345843322399176478e-01 -2.966892799591497668e-02 8.067052718066781980e-02 -1.995671030883428565e-01 -4.354849873406563959e-02 2.098286488227723012e-01 3.965812518121727970e-02 -1.453584590540943910e-01 5.058409840328469825e-02 -8.806161745054333356e-02 -1.544959244377738239e-01 4.687958902077221657e-02 -3.591366016049399312e-02 -2.829083922641529858e-01 3.246274421582505676e-01 -3.619689898158014868e-02 1.689266549209957058e-01 5.444602797674182038e-02 -1.225416857377675979e-02 1.395713103393073640e-01 -4.883423957408609441e-03 -2.482316381826384089e-01 -1.686157737120491107e-01 -4.647026401466811812e-02 4.839841510540370678e-02 1.459231879914044128e-01 1.130124152795446840e-01 1.625389562172659119e-01 1.307375895155773668e-02 -1.565656030037159141e-01 -7.888426744102042254e-02 4.436071031921705043e-01 -4.404928351550955676e-03 5.656394359256044363e-02 -1.212786592749681702e-01 1.625507066011912943e-02 3.941514757210125980e-02 -5.673019590205995860e-02 -1.006384679037811425e-01 -2.922534552900132310e-01 -1.996434112803484595e-01 8.509889496378927887e-02 1.719500480310197921e-01 3.210832547912088192e-02 3.468862191774360615e-01 1.508498741136610199e-01 -1.627893919096309872e-01 -1.313373203168950176e-01 -3.601288423204068168e-01 -3.993230106676908253e-01 -4.831769121415305929e-02 -2.220304377338243040e-01 -9.776522613146360237e-04 -2.673232666504140043e-01 -3.296422028906821344e-01 4.726468375575229031e-01 3.805960064163166900e-01 1.762986229706524355e-01 -3.601640027784363401e-02 7.871627768628482180e-02 -8.991673900848038900e-03 1.410328977448912016e-02 9.063364783810552716e-02 -2.110243719581298416e-01 -2.168075000979591549e-01 9.680581620387654351e-02 2.473099171460367909e-02 -2.328753683319066126e-01 2.161582559044482876e-01 -1.570294063344197799e-02 -4.019468348690744541e-01 -9.633726970234139653e-02 1.711155774201592317e-01 3.998776979703713014e-02 -3.810341376831216653e-02 -4.713019552035106752e-02 2.985919802888348795e-01 -1.834345442181098962e-01 -1.744731013032876921e-01 -1.635721425883292501e-01 -2.926683880664134041e-02 1.038019093565172996e-01 -2.281472204517701885e-01 -1.792171484151377503e-01 -1.351099210150684682e-01 3.098906906493119062e-01 3.532592241668215671e-02 1.533011415880206063e-01 -8.006213149367859966e-03 -3.814939496921034845e-01 -2.960160779223887095e-01 6.073537686646838379e-02 -2.065420390721926236e-01 -4.082803608189862488e-02 1.736803214241793569e-01 7.788492864032559027e-02 -1.024447393798704892e-01 8.428882460330362758e-02 1.280971737243779274e-01 1.630073226633166061e-01 8.740002406415809180e-03 -9.426417369609176033e-02 -5.454639842307885678e-01 -1.273437740558405751e-01 1.807890603629272730e-01 3.114953499877800569e-01 -3.050094050039993676e-01 -5.280756704981805910e-02 -1.063264357879559058e-01 1.758991379184194626e-01 1.393597327283088889e-02 -1.181759571379584622e-01 2.695376974039144780e-01 1.187644517821733470e-01 -4.358826026433820777e-02 3.939097229215547946e-01 4.810411140387966383e-02 -7.701569444535644182e-02 2.599477722528821255e-01 3.588018367104874734e-02 5.043520183982113519e-02 -2.375909202818600185e-01 8.212644523923477713e-02 6.263548942553824606e-02 9.072489565486328844e-02 1.153067840176073000e-01 -2.661515251583163599e-01 2.467068815489977252e-01 -3.331311855991058724e-01 -2.088102032067173652e-01 -3.347899972468889040e-01 1.271770101954131094e-01 2.289943793123583315e-01 -2.600395642186296707e-01 -4.130261320788899404e-01 2.919792079640809446e-01 -1.005013596897142286e-01 -1.900313014811107759e-01 1.457301163362197671e-01 7.473712579982860760e-02 8.043145977299534510e-02 8.466143059181386113e-03 -1.892297505237824362e-01 6.110856639340440932e-02 1.762544622128917604e-01 1.347183258745368040e-01 -1.401465272147353058e-01 4.342010418548730016e-02 9.896153950641160824e-02 -1.950636321001122248e-02 1.740754519382028687e-01 2.665252803212707078e-01 1.007440750587124123e-01 1.200408659097532832e-01 -3.447998333249427949e-01 -1.379569027257224467e-01 1.884928425988605660e-01 2.988234380582808214e-01 -1.668099240276662565e-01 -2.029070923827452910e-01 8.931501303849867512e-02 1.316338910363836628e-02 1.930597263363747207e-01 2.822915123064768939e-02 2.522943357427960553e-02 -2.691392774875608906e-01 2.641912303423380251e-02 5.327197956469750112e-02 1.586085009186777584e-01 -1.314757200194287823e-01 -1.789196364610792234e-01 3.749950350683385614e-02 -3.170023329712302884e-02 -2.040585724162042106e-02 1.279558050118837498e-01 1.644219715128868164e-01 2.948924712734083547e-02 -9.201528473093316396e-02 -1.792058060098351557e-01 -4.383695227715903586e-01 -2.433110513147901388e-01 1.379739140719382362e-01 3.215178452933843967e-01 3.941292559648500171e-03 1.820383209267615807e-02 5.716986040890245646e-02 1.962167301648886641e-01 2.966935695585576904e-01 -2.573072846776634504e-01 -3.060521273906420259e-01 -8.039058646352525983e-02 -2.910274693182394179e-01 -7.132556239165693812e-02 9.106093028097107800e-02 -1.517216943598476142e-01 5.339853406251190981e-02 -1.408174071550015172e-01 4.880799359344053373e-02 3.696935963422078725e-02 1.624399265429693484e-01 1.995442152900872013e-01 -1.630491282555820154e-01 -6.840761209189347158e-02 6.663847204032202765e-02 3.254138703649743225e-01 -2.297862374834246657e-01 1.267507628977476986e-01 -1.254258501017511407e-01 -1.854281213964624198e-01 1.405786593945487772e-01 -2.721389509700528064e-01 2.575232057606561056e-02 5.253303511756193811e-02 2.979742945698636847e-01 -1.170164810678889639e-01 -7.505724238505935564e-02
-1.042183892643049892e-01 -2.718977740395067122e-01 8.028014551380074915e-02 -1.414893119973682778e-01 1.795077008188820933e-01 5.379960253963392280e-02 2.387281694856575182e-02 -3.198077931729252643e-02 8.626389072944495862e-02 -1.360581926073770598e-01 -9.947703837958257744e-02 -1.870880301036637050e-01 -2.506049029292136132e-01 1.267438365881172757e-01 1.531644547554702751e-01 -2.431928106349759700e-01 1.061145074658660092e-01 1.625354420523784926e-01 -2.267978263166267883e-01 1.693690041647115674e-01 -5.768369209342286141e-02 1.160775905485917497e-01 1.580230954454790726e-01 9.020585847813406000e-02 -1.714239099019692902e-01 8.420454594362768164e-02 -1.673051009201415584e-01 -1.181893497228471285e-01 3.953171647779117615e-02 -1.694303174771097376e-01 5.321603602715432868e-02 -2.905329789047067512e-01 -8.870587505255868310e-02 -3.947460066430215631e-01 -4.192325321822456055e-04 6.805175721021437807e-02 -1.355631869634198183e-01 -3.809642062218053238e-01 3.566137658090910018e-02 3.296321876786664773e-01 2.858553640605352997e-01 -2.610728743495030826e-02 1.504084477126512998e-01 3.329372737641488750e-02 1.913532269227881388e-02 -9.561513286460346372e-02 -2.503992607473227716e-01 2.175195977021478211e-01 1.293152708998834832e-01 -1.854498181244900734e-01 1.482745316992100937e-01 -1.204422566888776677e-02 -4.499552703627259231e-01 -1.321421084055355022e-01 -1.668451730529465216e-01 -1.454289636843716094e-01 -1.138735250318158657e-02 -1.966471473182076213e-01 -5.628421018515201713e-01 3.836558439254628833e-02 2.282356774535146959e-01 2.339958210588318540e-03 5.958182327300514530e-02 -1.027030292582490623e-01 2.208266205877211785e-01 8.833810400109162048e-03 2.285923082982042887e-01 -6.626275583590668372e-02 5.020732436192965747e-02 -1.079017038590612820e-01 -1.339920899274771662e-02 -1.052693867756446244e-01 -5.367637502161712315e-02 1.431364175544496131e-01 1.262150821802592582e-01 -2.601490997984017839e-01 -2.676127868783676478e-01 1.538104063862420247e-02 8.580576234711766170e-02 4.760306753632629478e-02 -6.530994611650502157e-02 8.924091147385052047e-02 -1.969852213842679389e-01 1.308534767540995847e-01 -4.781129886946805518e-02 -4.149631681476258493e-01 3.004722005356752837e-02 -2.965379255546939374e-01 -1.574405395148301690e-01 -1.807090980687942883e-01 -7.200837282772704073e-02 -2.947033767742414032e-02 -1.498721813701432426e-01 1.385150189225981265e-01 7.304075714204077974e-02 -2.019555128195450189e-01 -8.528641976665911340e-03 -5.214010162800313680e-02 -1.224386472417417770e-01 4.828758812304723147e-02 -1.195591173003772711e-01 -1.757506695386720497e-01 1.787756097534992650e-01 3.194382346105213016e-02 -1.439122493850154005e-01 -1.863809944355924453e-01 -2.174078204075149609e-02 1.270977042696413428e-01 1.675888992628881968e-01 -3.033257478393294390e-02 3.321478225713207777e-02 -1.446267720942894242e-01 -8.152106539506619176e-02 3.666082957425931960e-02 -1.781032708037004197e-01 6.837931076187535664e-03 -1.390712875278831417e-01 2.313225595385767427e-02 -1.499786082535695675e-01 -5.334076493888227632e-02 6.920983260361605882e-02 -9.071427241119578433e-02 3.450046946890115707e-01 1.378655491876979722e-01 7.371776787520105401e-02 -1.870976254290352692e-01 1.117101774154541892e-02 7.848001356787009941e-02 3.308266530626310375e-01 4.329077917853408480e-02 3.477768718959562411e-01 2.535092414598811295e-01 -2.672297726613482444e-02 2.063827939347128923e-02 -1.319196511398595673e-01 -2.045433182884826007e-02 -3.395557376076370482e-02 -5.191631867665320588e-01 -1.416169055076508809e-01 1.003453299509580315e-01 -7.510878719010516402e-02 -2.811266559165683798e-01 -2.180060613259542646e-01 3.530698875723838337e-01 -1.451536376981047705e-01 9.159518385369835869e-02 4.395397797562055481e-02 7.381151486982200083e-02 -4.109891055711716035e-02 -3.533243066375306440e-02 1.097885076353386641e-02 7.958834398921078856e-02 1.771928409457244891e-01 2.566528405595791540e-01 1.586464257303487613e-01 -2.289117481200829418e-01 2.408984570270680456e-02 9.001809795490696431e-02 1.395008458457273892e-01 -2.436292938002667524e-02 -1.982868853286961219e-01 -1.249941291457550979e-01 -1.323853909738979262e-01 -1.494748691704760324e-01 -2.042298006355819928e-01 -2.325743515653181104e-01 7.460143746069608506e-02 9.827657935078881746e-02 2.433958024447015756e-01 -8.366451302140358315e-02 -5.863545491944287258e-02 -1.832572314485349241e-01 4.499427337439180774e-01 1.268756411509079085e-01 1.093512398206163277e-01 -1.716108686592952154e-02 -1.395877170713587800e-01 -1.660863869464907494e-01 -4.896810148795706363e-02 -1.450528169211848517e-01 1.391368498119747998e-01 -1.138072642165953718e-01 5.764181077400794967e-02 3.489094498705934411e-02 2.475706367354428006e-01 2.755128476282503458e-01 -2.904702278706122187e-01 2.246594830221266409e-02 -1.828023663631923312e-01 6.688418375794620563e-02 -1.632174438354406509e-01 8.163119894540236954e-02 -6.958195666770880528e-02 -2.232615067128800312e-01 -5.462590764551692596e-03 1.758707316910886609e-01 -2.598699769761795841e-01 2.787446891295468354e-02 1.623014243855758487e-01 -2.036894624339272708e-01 -3.783091084602618337e-01 2.043922548464245995e-02 -4.940100194124810024e-02 2.767585060012119416e-02 2.443166922812783359e-01 -1.931857361089695524e-01 1.204806315265617850e-01 2.991854120174329834e-01 -5.457775783461783076e-03 -9.426053975814635555e-02 -1.320293398968681586e-01 -1.433905150734461620e-01 -3.165270313623761919e-03 -8.763470915188668886e-02 5.363440516082355197e-02 -2.485124166731329520e-01 1.522016123014382355e-02 1.445929861065161637e-01 -6.302138117435701625e-02 -1.923936674837529309e-02 4.248707318281378514e-02 1.515344776304700658e-01 2.907688508424260410e-01 -2.026834122921389036e-01
5.106498453140579930e-01 3.270348945323465761e-01 2.000757540342950058e-01 4.075790412502974802e-01 3.241610380417441206e-01 3.421131392588281361e-01 2.319127494731728356e-01 2.451363635665905205e-01 4.488228288780815034e-01 2.885696925235060606e-01 4.427462996587264166e-01 2.459740159939813875e-01 5.702077815541424233e-01 -2.193514561347887082e-01 3.260938078608121571e-01 3.471896888036000717e-01 3.344463184399040223e-01 2.569416815556093137e-01 2.116241191922249021e-01 3.196817001863508922e-01 3.153316715727306346e-02 1.900073148532046563e-01 -5.977419755477018058e-03 1.736155920893455440e-01 3.131023133780991841e-01 3.117070089356533402e-01 4.028001837994492629e-01 1.964950242805342528e-01 3.806723545710422041e-01 2.512631598836734259e-01 2.516244447597238421e-01 2.896484464524619051e-01 5.437576435740376635e-01 4.343828729806451516e-01 7.630220479728246075e-02 3.807156844987220068e-01 2.862647903353833789e-01 3.152431961856750342e-01 3.907650972275934498e-01 -2.293041113720759028e-01 -4.685550782298525396e-01 2.799605689888174931e-01 -3.676164976300439480e-01 5.032897491320469374e-01 3.959125236424637651e-01 4.392132079482167772e-01 2.488803524512043785e-01 1.663160738140372907e-01 3.894849193552171740e-01 3.335871473277435828e-01 -1.664099772715263437e-01 3.874008309947693518e-01 2.960729716505807185e-01 1.266774845047269060e-01 5.440580493371829363e-01 3.100542381756462018e-01 1.936403787318099479e-01 2.180357872219105264e-01 2.116673187137735612e-01 2.487519814503781068e-01 -7.730501202230987898e-03 1.738986206081533648e-01 7.797713117150090190e-02 3.202018069270968770e-01 -1.664345123800406792e-02 2.606239514702926585e-01 2.690699080738158111e-01 1.917568359939854361e-01 3.496906262252911235e-01 -3.468349683910346704e-01 2.513714409179995668e-01 2.576294766836636496e-01 4.417673393864601228e-01 1.941036405537804321e-01 -2.626941263625520162e-01 2.392975677081311536e-01 3.729437871074907096e-01 4.841202106466931387e-01 2.662797813049811446e-01 6.885847415107318459e-02 2.901447563708976496e-01 -3.343194023133783110e-01 4.114159332302201322e-01 3.158841558993674692e-01 2.967084890600842351e-01 3.641011494558872852e-01 4.998287583561332736e-01 3.735893741713669503e-01 3.135740863147109536e-01 2.637539092547612762e-01 1.329091841225155113e-01 1.781036135335945514e-01 1.159449262250842466e-01 1.270369472596405425e-01 3.423823243927228699e-01 2.643246277259206356e-01 3.359463570162291024e-01 2.391711604371450084e-01 1.457697563573650545e-01 2.408041535536708522e-01 -3.367568270326961599e-01 1.845457444990511731e-01 -1.561574818549414101e-01 7.446239410055710550e-02 9.989654326727631650e-02 2.042288335682006517e-01 1.909207245743395065e-01 -2.012647490183049059e-01 -3.358566593065324679e-01 3.516859701922804837e-01 8.621579564856496347e-02 4.013344059742360304e-01 1.645355638916633223e-01 1.281557447899011881e-01 1.711385458510162050e-01 2.491188093354648192e-01 3.173098827417070722e-01 -2.756652068790934468e-02 3.710880830921735041e-01 4.766499497957584208e-01 1.476579898279015146e-01 3.115287511327772818e-01 -2.564909604209607563e-01 4.060117677402000913e-01 -1.062341605340638290e-01 3.125137620643991809e-01 4.204673552093394773e-01 5.597904016534398230e-02 -3.130764934237887931e-01 2.394318860174105834e-01 2.288135370948695957e-01 2.350486294464346759e-01 2.500690990255047819e-01 3.040312483159413603e-01 1.484604699051028376e-01 1.119234901825891942e-02 9.666953905168014505e-02 2.879802992960397989e-01 4.290347505122435456e-01 -3.413945999683010157e-01 2.311323573755727223e-01 5.059710590297422650e-01 2.062734663510034094e-01 7.813955062847122157e-02 -1.076650448601747072e-02 6.877430764870909319e-02 4.204317433643657842e-01 -2.566490507920311109e-02 1.996220872368361099e-01 3.194330097697221649e-01 3.847841475410577194e-01 1.012369795119388155e-01 -1.924296021902760501e-01 -3.250141069866857579e-01 4.188779095598683111e-01 1.738521333196178242e-01 2.270712160638421184e-01 4.380200854452281356e-01 -3.790914577162664001e-01 4.896252710726236579e-01 2.054868559386964777e-01 1.852313794285120052e-01 3.022641204013543081e-01 4.091691468141244736e-01 2.515824907424711321e-01 4.038030897419369603e-01 2.033210821498935283e-01 4.124007765055820451e-01 -2.337335010971858529e-01 3.738465386500781085e-01 1.818624344861389797e-01 4.513910373003818810e-01 1.704254928544488012e-01 3.028711818822005797e-01 2.230761969057958594e-01 1.051126023615692323e-01 1.935788902038803605e-01 1.701054724113360006e-01 6.233289591178650668e-02 3.279399706027943395e-01 3.609881387320214574e-01 2.005557687441444914e-01 -3.028213854609133060e-01 2.181213681367271118e-01 1.693936861654425641e-01 -3.384438072391222074e-01 3.106958857661516471e-01 1.937311361713061342e-01 3.060580424899821961e-01 3.199592505914111706e-01 9.275186198145148053e-02 -6.848545183027598959e-02 5.991043113992020608e-01 2.041621359124716761e-01 5.783962962646748557e-02 -1.299027116237583823e-01 3.129733597803711631e-01 3.611016041753167261e-01 -8.068686630760213419e-03 2.099558340436310233e-01 3.696175010760949231e-01 2.136280180624112179e-01 1.660154773690251245e-02 1.596236203753839122e-01 3.539903860892310572e-01 2.179617493086813684e-01 -3.758571023166830394e-02 -2.247688570223811688e-01 3.324581889758041475e-01 2.652497547776718201e-01 4.074632851883590035e-01 3.377916460425989253e-01 3.126943451325199796e-01 3.700199927625753005e-01 2.793412574079645050e-01 1.601846272766440926e-01 3.661474051110534811e-01 -2.960384341405585262e-01 1.320790559723256097e-01 -2.904952212582177784e-02 1.711912880986614371e-01 3.095735176677727463e-01 2.828936696218952163e-01 2.903638585546914896e-01
1.149624501115031061e-01 6.770346131852800209e-02 3.460433402106402601e-01 -1.418640141514807551e-01 6.487284543398640600e-03 2.043506299455356001e-01 2.833192988901440112e-01 1.756073569546891533e-01 2.317026279459065696e-01 -1.742588051441528729e-01 2.655987234252648599e-01 1.981214500357289243e-01 1.791354812317866863e-01 2.173449910010741559e-01 2.975358610719178731e-01 5.463709489179018747e-02 1.481403772533983199e-01 1.462304148901397149e-01 -1.580124753746185717e-02 -5.784982835983200344e-03 8.030679811005800306e-02 3.648537517582550738e-01 -8.243103149814801078e-02 4.731431467897918158e-02 -1.628462840937718314e-01 1.735759907992149020e-01 1.440369182526875513e-01 3.589802124248769877e-01 3.613747645761724581e-01 -7.738948373702105032e-02 -7.400488698555311717e-02 -7.457929400298848877e-02 -5.434869815526798160e-03 2.576222750159040120e-01 4.812839807527674596e-02 -9.537259540248348155e-02 3.815411008125361159e-01 -1.186681014956278701e-01 1.736670407784059456e-01 -2.658944590218682569e-01 7.663550573126924614e-02 2.948587680826056379e-01 6.465010931367722036e-02 2.771320275421045309e-01 2.460454570681702702e-01 6.258781920161966827e-02 2.150597665833924588e-01 2.278818979040086179e-01 1.006628583566195889e-01 2.821108105543589928e-01 4.395518656958082720e-02 1.368116722684185327e-01 6.680434441104229903e-02 8.986027212730318681e-02 2.535995096269587634e-01 1.577014470837760085e-01 -1.581798195622209358e-01 -1.549106019357669173e-01 -3.589547572008317672e-02 -1.185877798439105846e-01 -4.036767106896160806e-01 2.410509888577696547e-01 -1.804849431544756355e-01 1.275600107574583753e-01 -4.435678762007042031e-01 -8.222355682953675152e-03 6.812811546948897845e-02 -2.305718512810880916e-01 2.946323809006835548e-01 -2.942842722940021138e-01 2.682390941467263992e-02 1.991235492578954380e-01 2.267844275415054900e-01 1.554022886394066660e-01 -1.308813860778446914e-01 9.098446408936686214e-02 2.626791764597665169e-01 2.557008177251263517e-02 2.576002522353231239e-01 1.184869738383445420e-01 1.920672811709188965e-01 -2.281741618357588097e-01 2.219202697475577690e-01 3.352270665484109458e-01 1.933733517938815705e-01 8.079637579911924661e-02 1.170339556422496513e-01 -6.867791600564741861e-02 1.594149173866823699e-01 1.824517691857701907e-01 1.541075536094960174e-01 1.076703058856308820e-01 2.119098541887420861e-01 3.452725079110388062e-01 -9.031703842225444201e-02 -5.506411359982758130e-02 2.351341527622753322e-02 8.392430236546868233e-03 1.233792037757046739e-01 -4.937821743805035496e-02 4.216757290255041674e-02 -6.424280282799854636e-02 -2.925654638412200637e-01 -5.251528139204676010e-02 -1.800364355578960018e-01 2.661459555674558497e-01 3.808381679189695723e-01 7.654645794300110606e-02 -2.828664178150023245e-01 2.631445176931027086e-01 5.870052662819303518e-02 3.950855407468985003e-01 -1.959845602188232394e-01 4.065877532800272198e-01 2.089177501370733381e-01 -2.883984037693382296e-01 -1.179943075669614011e-01 2.763973126253900167e-02 1.972346917310943415e-01 9.188021654957458095e-02 -1.147773373931842561e-01 1.533837187196364082e-01 -5.547657376960506148e-02 3.082599978512348682e-01 -4.336663520194218302e-01 -7.796337365966406023e-03 6.699824387048466945e-02 -2.637450409760867462e-02 -2.802578851799276682e-01 -1.977649552511434039e-01 2.873061696540391563e-01 2.129755819391793148e-01 -8.910674624818885892e-02 2.583424635751259760e-03 -1.175318522248392505e-01 4.852566450925770158e-02 2.386193948209621996e-01 1.892174994632227908e-02 -2.330372846817324595e-02 -1.433494360245590182e-01 1.177950285697029476e-01 7.153194619326214143e-02 1.739441399276530908e-01 2.062185437725281567e-01 -2.772905176078114819e-01 -1.234730871851077300e-01 2.676666571985412135e-01 6.447971033439709593e-03 1.241346680134606945e-01 -1.382351697877231556e-01 3.616272936402744054e-01 -1.745252114770371732e-01 -2.094514818642461695e-01 7.791215773206447426e-02 6.691525910667663057e-02 1.394148693984278986e-01 1.313716711700508855e-01 7.492676686376399664e-02 1.351606040373387330e-01 1.451140602148697986e-02 2.732818960244745021e-01 2.487304981923991465e-01 2.939904324648866529e-01 9.168405079576386063e-02 -1.601726635051533010e-01 -1.360670714844598450e-01 7.767517947110991194e-02 2.058625065267878917e-01 1.287053988003056260e-01 1.305013693483551007e-01 8.336045103140429791e-02 4.038292393442555195e-01 2.311805542644515890e-02 3.600028368359754483e-01 5.737418088875022582e-01 4.567214079521365183e-02 -9.686984261539996477e-02 3.101692811283785975e-02 -1.943558692578425257e-02 -6.433636942000182934e-02 -1.012784883093907351e-01 2.159733907533116226e-01 -1.515908487149392470e-01 6.934615467252476517e-02 2.969007932402909500e-01 -1.906803316569666285e-01 -1.772593264479749575e-01 1.206023900945809163e-01 -8.129483650201614620e-02 1.572075548871738893e-02 1.250796518589787909e-01 -2.422307724582255795e-01 3.527120025387892044e-01 -9.038541213833059529e-02 -2.180154368983681368e-01 2.780832136273649891e-01 -2.028116334079962391e-01 2.728031730740034799e-01 -1.759716731164364945e-01 1.296638649846572067e-01 2.574914233935265417e-01 1.554084228966724213e-01 -1.970825661147108665e-01 3.445701371634044691e-02 3.152273506748481391e-01 -1.001195558430337668e-01 9.977976058853856023e-02 2.178066838175679865e-01 1.478017329547893777e-01 3.291440983850495994e-01 2.304220404402070738e-02 4.753679352964229610e-02 -2.228125599427818182e-01 9.335410048383507853e-02 2.743924035822379870e-01 1.406108031739660802e-04 -7.270684456829570874e-02 -1.746919002489124018e-01 3.466975813055151456e-01 -2.518506836152554218e-01 -3.906616643737801375e-01 -8.799805210120234533e-02 2.878301268640017785e-01 -1.538770576918188082e-01
1.259988680293714913e-01 -1.851530181329573421e-01 -1.779207424171417584e-01 -5.346256732309676712e-02 -7.566499601432155608e-02 7.719096736816694407e-03 -2.839747633144402705e-01 -1.343482318815079624e-01 -1.944224462601334968e-01 5.605362169083590029e-02 7.994283731818388472e-02 -8.283750881142554201e-02 -1.730774876179830557e-01 2.027204902603004649e-02 -1.292013585467236270e-01 1.531982074018515549e-01 -4.575221645241389634e-02 -2.674487137555068283e-01 1.432162460009759331e-01 -1.093507667854486248e-01 2.215492452190429354e-02 -3.502591941671733822e-01 -1.815328433180835588e-01 1.171894361950376745e-01 1.680592404187858935e-01 -1.471593097275536166e-01 -1.447037111330757020e-01 -1.789893153944928372e-01 8.932046775588488308e-02 2.461021479893921726e-01 2.606801236611514319e-02 9.919283955524466068e-02 8.349643887068410042e-02 -1.449723708817443613e-01 -3.704556034823829336e-01 -5.302203140935858594e-02 -2.675029485733966816e-01 -1.528186702224446428e-02 -1.302837508080548212e-01 -2.042475510153760748e-02 -1.057223961409891055e-01 -2.534470871526057212e-01 -1.541498931404555184e-01 -2.643941292351525418e-01 -8.235681336586360424e-02 -5.285687727004668990e-03 -2.682024602782435152e-01 -4.239176516825221008e-01 -1.995907677711454276e-01 -2.246782372718828247e-01 -1.037706368239391941e-01 -1.380188798684380269e-01 -9.784744042955642596e-02 1.849449235504835309e-02 -2.298863973305730890e-01 2.177691318101540041e-01 7.610674678733566310e-04 2.171425828653726978e-02 1.297377190989473239e-01 -7.039366625623013490e-03 5.107569066255909784e-02 1.114383283893705529e-01 1.133568662131941435e-01 1.606254667354924115e-01 -1.099908734452237219e-01 -9.887474248511095298e-02 2.571850774051043786e-01 1.119532470426982396e-01 -1.846585862601188011e-01 2.036187638672380396e-01 1.074109122382445741e-01 -2.010609750538185914e-01 -2.384766302740040089e-01 -2.405340708071258826e-01 7.786095884873456274e-02 2.783004806778447814e-03 2.023056507153541198e-02 -1.420164447821507803e-01 -1.795465243845740244e-01 2.470469328835941392e-01 -1.726979765577655035e-01 1.106559347111859826e-01 -2.762778819678690101e-01 -2.596110575918030294e-01 -1.983605795151356099e-01 1.044269295420330035e-01 1.401722272913944745e-01 -3.790700087265563845e-02 1.251172174456857966e-01 2.127769035485855276e-01 -8.124079293212249642e-02 -1.358755584768987779e-01 -1.024650486055400378e-01 1.504728359829441420e-01 2.155235177757935106e-01 1.708582058666140713e-01 5.796711265259745643e-02 1.089905926291222064e-02 8.679479463334428477e-03 -1.615508637073706788e-01 -1.728791255714824115e-01 -5.971342379693345137e-02 6.657705457393833792e-02 1.543172725286093838e-01 1.594137803215706639e-01 -1.466722074631731099e-01 -4.869687443387805958e-02 -3.223623790724169380e-01 1.063363520370884385e-01 -1.985881542985672432e-01 3.048907608427476323e-01 -3.755853233154375359e-01 -8.143354745323667931e-02 8.624908233567947502e-02 -8.990954618592078562e-02 9.103379627110969041e-02 -7.684658281970908889e-02 -7.953891362122589986e-03 -1.770963959279103217e-01 -3.081570033715426704e-01 3.045790704285120457e-02 1.333257815080814424e-01 4.582692195854114886e-02 -7.495883843153414161e-02 -9.721326143772852924e-02 1.944885709866158927e-02 -1.647988044630428472e-01 -3.472763880563622951e-01 7.149417218310208377e-02 -6.142724914979530958e-03 1.406762302222593630e-01 -1.904367186139777623e-01 4.007771225098958334e-01 -1.583530781215734540e-01 3.509002946994831951e-01 -2.768887025263105373e-01 -6.949928645131191185e-02 -9.945870147263924377e-02 -8.980975264571229490e-04 1.426274530330423340e-01 -6.771243408002172726e-02 -1.214045376819967298e-01 1.373941254067048701e-01 1.199179776776064937e-01 2.041861057573596538e-01 -9.046950974803059931e-02 -2.630137366433085155e-01 -3.117692063986928219e-01 2.855657214743758110e-01 1.076918877213427217e-01 -3.369792064140328391e-01 -2.493895957340127034e-01 1.677552435030749689e-01 -6.061522550950006888e-02 -1.231839744614956073e-01 4.033679614571143018e-02 -2.005094635228296951e-01 8.707758613879881815e-02 1.118392765519067716e-01 -1.880858002275238861e-01 -3.079870881127922191e-02 -1.393068315754375230e-01 3.252016316385700212e-02 -7.524103165133022575e-02 6.527850629220383061e-02 -7.199701722912574611e-03 -1.194977616319246594e-01 -1.154655947220882689e-01 -1.193735287557498026e-01 -6.462882058941356311e-02 1.219050509959425654e-01 -1.749571826006900976e-01 -2.066525729716429949e-01 -2.230735756407672965e-01 -1.900819251980195856e-01 -1.519074528097492383e-01 4.543461809219888625e-01 -3.504873890243598994e-02 2.499331900261508588e-01 9.325058423562063159e-02 1.283292229788119687e-01 -2.648110061449459596e-01 1.349865929188270308e-01 -1.980845769410808921e-01 -2.691288638784948284e-01 -2.978841194654310506e-02 8.075321537066864827e-03 1.372418845782522601e-01 1.409090770996749287e-01 4.841256662260034344e-02 -1.550764622555337036e-01 -1.385413687917033676e-01 -1.329041403652319875e-01 -9.562972895584037625e-02 9.763373685933873780e-02 -1.859401702526779221e-01 -1.355741957944959011e-02 -2.896418319479036052e-01 -1.913474683405522181e-01 1.962745371427606911e-01 -1.973884412038184044e-01 1.696077888128082467e-01 -4.450194206395694518e-01 -3.007403468600009996e-02 -9.240785864426050156e-02 1.082172243743712153e-01 1.539552846906360462e-01 -1.432153306273908563e-02 -2.363335456764489306e-01 -1.479719758276872854e-01 8.354848295341593678e-02 1.853309174685723038e-02 -5.671952205587849766e-03 -2.559567705665957149e-01 -1.016509699024871483e-01 1.057935690008962731e-01 9.120423848404124456e-02 1.015973538615330546e-01 1.977949192571322456e-01 2.442434826804550790e-02 8.970810481920778179e-02 1.950382879026680769e-02 -8.574619205489819596e-02 1.364477140781613085e-01
-1.941480861653512024e-01 -4.191463163547453491e-02 -2.169323314538766645e-01 -2.216384577103246989e-01 6.292053922202960059e-02 -2.501659916175495435e-01 1.095441550192545119e-02 -1.757551037808317007e-01 -6.309508750656533937e-02 1.918756689231681904e-03 4.166681800236157751e-02 -1.241967326900154517e-01 -1.364987512774754330e-01 1.461839985829231359e-01 -1.173937101630668361e-01 -2.636228229894561625e-01 -7.909939845571221928e-02 -1.291059929824658892e-01 -2.298141187247396133e-01 -3.044592677014500842e-02 3.780995620694373172e-02 3.331831269589614897e-02 1.214077570793967165e-01 9.429152496826560814e-02 -1.963713955228688357e-01 -1.124636919382710973e-02 -1.484012320253628447e-01 2.125968749749362896e-02 3.371824806506773520e-02 -1.926085142312858323e-01 -1.273829974339477644e-01 -2.051368592611984010e-01 -1.489987840577904898e-01 -8.340644847522775407e-02 -4.320972751857395794e-02 -1.196542756181077360e-01 -1.981587960803735393e-01 -9.679891275239706216e-02 -6.507819657221380893e-02 1.058584726555702321e-01 3.235792390413926856e-01 -2.471045761104860294e-01 1.734754790401075442e-01 -1.549307527995345823e-01 -1.045774225012014724e-01 -1.997268372000399750e-01 9.911399139050307283e-02 3.812964223769262778e-02 -2.309965787974502527e-01 -7.643000346564526870e-02 1.025294864203529499e-01 -2.049247185997334630e-01 -1.244233257556294631e-01 1.671666976393903006e-02 -1.874085875146830893e-01 -2.310694869521728312e-01 -2.021119767205842022e-01 -3.529525525819720566e-01 -2.443678438246020199e-02 -7.258008831084705736e-02 1.548263231858592048e-01 -1.564537515478499619e-01 4.485636349911141518e-02 7.700170007440508557e-02 4.561388583308207539e-02 -4.130688920738363745e-02 -1.203615584520098952e-01 5.106120096029322791e-02 -7.556263237518940842e-03 3.349554094508413460e-01 -2.150804148366433910e-01 -1.662214001762207238e-01 -2.306938766944812980e-01 -1.260604883808977561e-01 2.429119677218265771e-01 -6.760575792907834447e-02 1.012208083262081115e-01 -1.385640444152559936e-01 -1.012374892074971233e-04 1.353456715751217947e-02 -3.282944676943675977e-01 1.302886438808818492e-01 1.822055553284167642e-02 -1.780478725425565373e-02 1.973542619148203545e-02 -9.036736771555670122e-02 -2.591002582059683812e-01 -1.107719792555132698e-01 -1.822125378159241138e-01 1.339197520967252975e-01 1.374666825496950219e-02 -2.789821609699861399e-02 1.840253233439472780e-01 -8.698945561221735345e-02 -1.920593907738093742e-01 -3.982284070882417815e-02 7.488922253291472285e-03 -3.789596413442432310e-02 7.042587299183500349e-02 -1.436816777867436223e-01 1.826798386689541809e-01 -2.375972672822606324e-01 1.672452627180445652e-03 -2.131374820960978134e-01 -1.521549869908894459e-01 -8.332740764921305054e-02 2.748678237923420434e-02 -2.560392058913552593e-01 1.630876715244925224e-01 -1.147194205357866814e-02 1.505194847529363056e-01 -1.697716457176564053e-01 5.055379559585270605e-02 1.057807268574746939e-01 -4.018113540102198622e-02 5.572892863374264739e-03 2.599813536499195627e-03 -6.589823385125076483e-02 -1.408386590226279600e-01 -1.400665672648350735e-01 -6.222378816824519765e-02 -5.293027118175561846e-02 1.973773954426058796e-01 4.618029591352949131e-02 1.911401060469479496e-01 -1.141494552369477361e-01 -1.968771833782566871e-01 -3.419354564674203546e-03 1.778745286300485173e-01 -1.496343329769025676e-01 1.320216086350724412e-02 -1.656364545128612142e-01 -1.973669292543830389e-01 -6.666179886403046650e-02 -6.925449954550311205e-02 1.224431642421049821e-01 1.432215132266887181e-01 -2.240061311941325128e-01 -1.839448570849457065e-01 1.228109247082022626e-01 -3.567038426385051031e-02 -2.006442145672394095e-01 -2.416698309762422281e-01 -1.249255855339902327e-01 -1.432015971738163918e-01 -7.888265412248508801e-02 -6.373338431679727301e-02 -5.287285930250948396e-02 3.924072573881601939e-02 -1.960450929746981319e-01 -8.827491764975424482e-02 -1.434636062344899488e-01 1.426244928784757005e-01 2.961995891235996714e-01 -6.483676328782032872e-02 -1.397440750273030718e-01 -3.222651498056237906e-02 -1.016074748954079038e-01 2.939116421677743785e-01 1.590195770843721643e-02 9.617751742478237650e-03 5.372563407748614378e-02 5.729305682913155007e-02 -2.143718250185057683e-01 -1.290040927234709089e-01 -1.029475130797286586e-01 -7.543193049307513054e-02 -9.835926820260733339e-02 1.175471782518576758e-01 -1.453322714450515918e-01 -1.989633680595889395e-02 -1.031443473868524363e-01 -4.431221676186142960e-02 -1.538853269773388655e-01 -2.869310709988890165e-02 -1.848968790047585686e-01 3.358648880175647139e-02 -1.150985228067656074e-01 -2.003235038696118686e-01 -5.551039864823346243e-02 -7.853520034609678957e-03 -1.242238189258631081e-01 1.464279983974483001e-01 -4.120106993469344059e-02 -6.912240136427566517e-02 2.726343325455215030e-02 -7.426753750954218081e-02 -2.906335121505627672e-01 -6.225507957905875023e-02 -3.433672628750755185e-01 1.119153795175272664e-01 7.753216758718367574e-02 6.831233615472347143e-02 -4.870506543283908973e-02 8.621190896959322891e-02 2.394269858071410573e-01 -1.156501080002404758e-01 -1.699218968072128411e-01 -6.545197651175656793e-03 -2.174348522750766677e-01 -2.235123402429018968e-01 4.285232703217425193e-05 1.435286717660121895e-03 -1.323199215380645513e-02 -7.511575345639352752e-02 -1.971262910280248415e-01 -4.046659410279656449e-02 8.844037396943876805e-02 -1.395341956118397453e-01 5.696776027175488866e-02 -1.426964994668654119e-01 -1.818600056869863202e-01 3.879937543717945636e-02 -5.926387698214938965e-02 -1.428722774939478191e-01 -1.510258200564964237e-01 -1.624620956221867751e-01 1.023969336231024402e-01 -1.562533653443381743e-01 8.349940972387165719e-03 6.037877331256623348e-02 -7.891919158543650448e-02 -2.179447903250369689e-01 -3.448132158306511097e-01
1.564473478686635721e-01 -3.490112443612330972e-02 1.151217840147221450e-01 3.372323369906669588e-01 -7.564765933472147874e-02 -3.524454268068474838e-01 1.650167989529282009e-01 -5.141771047899527936e-02 1.575314227412429047e-01 1.825703675077362809e-02 2.295595799236542778e-01 -2.297108361492602724e-01 1.593470562550009656e-02 -2.283358804084633653e-01 2.253806006130868247e-02 -1.925760097605006826e-01 -2.241119018289046139e-01 2.391188966642728564e-01 -3.874994262353388952e-01 -3.703625678931373733e-01 -4.240917123477599970e-01 1.974277450766183661e-01 7.719550796926087644e-02 -1.895509902028539861e-01 -4.920865612673237799e-02 7.735696057160194872e-02 -1.551761393714349777e-02 -3.415007309224173809e-02 -7.099497176211271021e-02 -1.663209131031293808e-01 1.839078609598944203e-01 -2.260195314141022205e-01 1.449806939636006653e-01 -1.356594704509978822e-01 9.095874431305091268e-02 -5.460584683888983909e-02 1.780555692177032689e-01 -1.635756126213262218e-01 5.628664778852617012e-02 2.705208297653594052e-01 1.911951645687056389e-01 6.246839229751823680e-02 7.901635447505132859e-02 8.859843779688933441e-02 -3.030048819445845323e-02 6.600477357662389022e-02 2.226350718358043046e-01 -1.147682630174332204e-02 1.946106645500412374e-02 -9.825056658913523810e-02 9.954747683489756360e-02 2.773940326556630174e-03 -4.930586884378863367e-03 -4.075048457760287457e-01 8.404953707978964073e-02 -2.080706468441441137e-01 -1.292635369257912059e-01 -1.926154700722676749e-01 2.004857553014056382e-01 1.655226518135749225e-01 5.849863889385331639e-02 -1.243427228950800406e-01 1.930443423885364607e-01 -1.947283547490164801e-01 2.213121734306650878e-01 -1.881944586537249164e-01 2.366279892689373832e-01 5.593326414721754708e-02 1.055341707457040229e-01 -1.605168220749909613e-01 -5.029811241886723572e-01 -4.284051432550992945e-03 2.767274892150545784e-01 -8.240404989363007970e-02 -2.383408013276180348e-01 -2.136489383648988438e-01 1.850363238153610590e-01 4.165581405004761817e-02 3.133741413373460766e-02 -3.119333341516363212e-01 1.266142038840639417e-01 8.544813773285138414e-02 2.854644872832348690e-02 1.389560367216869652e-01 4.494837351911856044e-02 -2.346865289075724670e-01 -4.498081939645490190e-02 -7.747755925178589909e-02 -1.200206861713959579e-02 -3.120133800462238094e-01 -8.073381274925864326e-02 9.748303727439615318e-02 2.774089432481011142e-02 -5.885009543781769548e-01 -2.515478266005352626e-02 -9.713287552738002206e-02 -4.597264028748598852e-02 -7.700886327337005954e-02 -2.733741275608236321e-01 4.509704259257898973e-02 -1.063741285042620194e-01 -1.119316526565550113e-01 7.002704765552894561e-02 1.531814730339311204e-01 4.364005552097249135e-02 -7.598045267961731075e-02 -2.898223663082652446e-01 2.105402066848717502e-01 2.281737951365857275e-02 1.200894371096205976e-01 6.733186249843936544e-02 1.465106445399245449e-01 1.836536588746586485e-01 -3.148524959841865756e-01 -1.020871267322823461e-01 -8.832081987094729525e-02 2.710096782918252137e-02 -4.890107363850970668e-02 1.697177846428575554e-01 -6.688529234086942887e-02 6.832206703555944449e-02 3.615150505300238765e-02 1.076990627287161134e-01 3.446775697088365065e-01 6.171263741890519253e-03 -1.969564372447205614e-01 2.892027974687934322e-02 1.679883268749735314e-01 5.481780079127327454e-01 -2.701191370511824008e-01 1.375525368543144000e-01 1.980727591229863305e-01 1.360124229728028600e-01 -1.428651499687764448e-01 -4.267323436158236838e-01 -1.348007852418036390e-01 4.806729072150701249e-02 -4.648309866703384530e-01 -4.475190295399578827e-02 -4.282197363242344623e-02 -2.083818104314467679e-01 7.186567549350028616e-03 -2.537978371956949863e-01 -4.965349010489720216e-01 -1.736377624461430680e-01 -2.858700315112894796e-01 2.299501409983529254e-01 1.525114432857543056e-01 3.922225899504986901e-01 -6.680685983722199628e-02 5.558309888687851946e-02 1.063711209216534892e-01 4.603863737989372096e-01 5.023242678370320666e-03 -7.571190695772926638e-02 -2.451390084080026233e-01 7.566250122694878621e-01 -1.934070153088227606e-01 -8.793750693420009090e-02 -4.405477006047288369e-02 -1.155818113574152151e-01 -3.101079044933721107e-01 -1.809417303492844367e-02 -5.082268311650654097e-02 -4.385266818397519084e-01 -9.834921570837558413e-02 -3.529744919503091660e-01 -7.479014761449742643e-02 5.868603546776021695e-02 -2.688739919360308255e-03 -3.758233400934823942e-01 7.387622971999929788e-02 -2.369682289517048568e-01 7.640046367644667824e-02 -1.084859645211424251e-01 -1.130064508794407924e-01 3.106999907292475743e-02 -5.146391967015465641e-01 9.679903506539232205e-02 2.205649626182996231e-02 1.256683470603794373e-01 -4.069142855820975790e-02 -2.381898366547106072e-01 -1.417641927818665826e-01 4.290523348645657042e-02 1.795586888740489384e-01 -2.076150572510503459e-02 -2.068402011576526145e-01 -1.239083332457620729e-01 -5.525843223438733909e-02 -4.898640530852917396e-01 6.496623315045589597e-02 1.088920136516908221e-01 1.239340579883194474e-02 2.047513992503291747e-01 -3.340797699109302604e-02 -3.223163749837692355e-02 -2.125620278361552845e-02 1.057766862930754198e-01 -3.074429781755663171e-01 1.001214520108617001e-01 -1.793565418852771931e-01 1.355539611473268458e-01 5.627213784332812940e-01 2.503060949285365600e-01 -1.286332134761810075e-01 -3.179656500240484740e-01 1.508508150176886276e-01 -2.785107766201277979e-01 1.942619971878625229e-01 -9.316801435077385132e-03 3.519907088099204912e-02 6.262639370125705658e-03 6.818830041969400901e-02 1.227539123314638492e-01 5.798214696400266766e-01 1.138280387329996118e-01 1.790016527247749734e-01 -1.143899038096132387e-01 4.518450160161836815e-02 -3.191462511282180947e-01 -4.806691659369471403e-01 1.914858626198474856e-02 3.178599876835289106e-02
-2.918720170626552118e-02 -1.679960064635223349e-01 5.694246827013063617e-02 -3.969833162206437005e-01 -2.004492200206474117e-01 1.442403218105763399e-02 -1.327318533362609743e-01 -1.198456474523554721e-01 -4.847199949647163636e-02 -3.541848611333908714e-02 4.583812601861025210e-02 2.957251416840046554e-01 -2.521243425882063183e-01 2.348693574653266669e-01 -7.411806248667397734e-02 6.080606693466424767e-02 -8.579932353143204793e-02 -9.285228191658670416e-02 -6.369982237466044819e-03 -3.800465236426330828e-01 2.266403172535790822e-01 -1.030862132270402298e-01 -1.548048156953819310e-01 1.446587676914491954e-03 -1.993739116876785608e-02 -2.103828742329207357e-01 -1.310653279031387120e-01 3.112906200534675677e-02 -1.315245035774482985e-01 -3.638222684913207383e-02 1.297184162757490100e-01 -1.616316766333976418e-01 -1.783888651904111111e-01 -1.625910203105626964e-02 -3.265245330314509586e-01 -1.022619629570855337e-01 2.610759340231228950e-02 -8.442383886275954541e-02 -3.639324055242526557e-02 3.677037145200915541e-02 1.994569861133419497e-01 5.699040357864759709e-02 -8.313376661039961757e-02 5.259163906175277903e-02 3.862330634390608031e-02 -1.604374780002360001e-01 2.240598918823097363e-02 -5.662375560639056893e-01 -8.900277634795147885e-02 -2.584747528383116513e-02 2.588739660367192497e-01 -1.174651684444242283e-01 9.371498447644351082e-02 -2.354376875112914325e-01 -8.467034493304091691e-02 1.354206606269614810e-01 -8.228113859957958409e-02 -5.649470710128468715e-02 9.500617306978013932e-02 2.322034980622111888e-03 -1.472618064794777304e-01 2.267477641384560982e-01 -1.876470613080234440e-01 3.397049920563585679e-02 -2.611390516737892575e-01 -1.169438104776241855e-01 -1.134413415429018079e-01 1.018457350856887267e-01 -1.285264646815135470e-01 1.880425614776320975e-01 2.938649737160857478e-02 -3.147590645382193908e-01 -1.080226258081350005e-01 -3.319956691089631651e-01 -4.246172096311774669e-02 2.073181994753053176e-02 -1.320586794992285595e-01 -1.114176801363107733e-01 -3.217459797200193650e-02 7.855984367176196970e-02 -7.079909440595590076e-02 7.039996020815067479e-02 -2.594442741632363783e-02 -1.025249720704420747e-01 -5.296341629807301693e-02 1.104394521435813209e-01 -2.024560622881052263e-01 -1.383305377219171961e-01 1.357329035426210403e-02 -1.601872444898802539e-01 2.805432306447532276e-01 -1.175628038038390583e-01 1.348302929727468458e-01 3.624264538125194224e-01 1.194546156339907073e-01 -5.071501064562174144e-02 -2.049592065017769305e-01 -1.132163588219378542e-01 1.674263943753728431e-02 -1.756199941645335272e-01 -3.381496327661254794e-03 1.520023145302508774e-02 -5.341483827544653978e-02 3.155830618274270416e-02 7.273058319490036637e-03 -1.150817704777890860e-01 2.514093858105613810e-01 -2.251345135006446174e-01 2.081454788069735662e-01 -2.312390420383901406e-03 2.078873886867959320e-01 -6.658877185364275864e-02 -2.535238937776830292e-01 -3.681269534908374053e-02 1.285523585982475958e-01 -2.885985467455449149e-01 -8.317483878672134179e-02 3.042014828011816996e-01 -7.480515829061537558e-02 -4.273826964334269548e-04 -1.618767167038316912e-01 -1.325029764407072708e-01 2.839891895939063438e-01 -1.312310350506897816e-01 -3.883068053008499332e-01 -1.885302709791289444e-01 -3.034108077337153639e-02 -2.169803386528021127e-01 -2.933236196203137247e-02 -2.159357021089322592e-01 -1.182839599797951002e-01 3.972368928176608222e-02 2.183749637023016665e-01 2.738695331210279707e-02 4.528758091680132325e-02 4.059276758542425170e-04 -1.359921374035787632e-02 1.744208722370509113e-02 2.964673546327457193e-02 2.366932483248471997e-01 3.436068560539187050e-02 -8.136306764030513949e-02 1.582576086633555312e-01 3.001295316041383346e-02 8.947630714546730979e-02 -3.302910781762913306e-01 -3.041956218767015788e-02 -2.041638786748606604e-01 7.207947285406966775e-02 -1.397167114884703687e-01 -1.873668176349352343e-01 -5.226657245937161855e-01 1.054358478603506372e-01 2.395972296924624156e-01 -3.982110810153016711e-01 -7.082033979743239394e-02 -5.089355910866511651e-02 6.410881819634460521e-02 1.930147118739591605e-01 -2.017631860330571791e-01 1.420864261785813598e-01 3.096741540158086670e-01 1.558136404171468481e-01 1.305001670646948331e-01 -1.710377364186363991e-01 -1.599135042321003508e-01 3.655878042364313352e-02 -9.220385808966750571e-03 1.492411920182982188e-01 -2.328765071657698804e-01 4.206767142493127165e-02 1.037071893509255022e-01 -1.732814681971382165e-01 -1.736709654078324727e-01 6.119962577378511293e-02 2.648851720418447520e-01 -2.090595304522559553e-02 -3.754447295498635623e-02 8.412611483671386670e-02 -6.789929139895850563e-02 -2.685470741655373583e-01 5.182816961595867328e-02 -5.688212664788226680e-02 -1.375731067934117813e-01 1.748571667234050109e-02 1.362399078885032644e-01 9.282879433342755560e-02 3.783919794386234048e-02 2.882599314584856354e-02 -5.655621973175750661e-02 1.003009975346632610e-01 -3.693108184256604920e-01 -7.170918185357183505e-02 -2.361357826552525768e-02 -1.234822275035649640e-02 1.289723176448779041e-01 -2.987960537818197815e-01 -1.438871238234204486e-01 -2.294624454181599105e-01 8.820704688056599241e-02 4.056865808246575000e-02 -4.951605922998802978e-02 -6.419450234551357104e-01 4.125558957210440775e-02 -5.981891516304121970e-02 -2.100091675458070350e-01 6.619691595489662905e-02 1.634740432818416744e-01 8.394116767566485449e-02 5.117820380982954220e-02 7.180129855408350081e-02 -1.295433631549598175e-01 -2.533628999369763601e-01 -1.314257096639480094e-01 7.836075235387618410e-02 -3.501634397004749766e-01 -1.584514517166150938e-01 1.769333783108930358e-01 1.933917890720917021e-01 4.726609669030878980e-02 -7.160296048785649847e-02 4.514196573864996676e-02 1.320172141752343486e-01 -2.353903516802361828e-03
-8.086704109619824443e-02 -8.362701712446042601e-02 -4.189743629617211085e-02 -7.397427657849023341e-02 -2.233012909952359071e-01 1.192221832544499843e-01 -4.480884287418844536e-02 -1.555376177023214956e-01 -7.498111706276187893e-02 -1.569967381250894078e-01 -3.632554240461003392e-01 -7.881777864108335807e-02 -3.732085929524417423e-01 2.417104819067207033e-01 -1.411844710696391614e-02 1.220832350480334505e-01 -1.842401582015236738e-01 -5.924824730311373938e-02 1.989797189499209751e-01 -9.205634430618148123e-02 -2.224986862603347409e-02 -4.995948421551878876e-02 -1.327898500981576635e-01 1.253116436381525589e-01 -8.866556130326523621e-02 -1.746377867554959884e-01 -7.482649746346028974e-02 -4.807836263849159936e-02 -1.363777067643534013e-01 1.710203195481514726e-02 2.385441781522597976e-02 9.700474618104802660e-02 -2.555451656951090444e-01 -4.332590651362814849e-01 -7.316155628601807293e-02 -2.881689776694823513e-01 -1.253445450141644213e-01 2.084751838157721249e-01 -3.403140338885370930e-01 1.492234262463886241e-01 1.144717959944976937e-01 -2.607157980075505144e-01 2.850232772464424968e-01 -2.302083808549013622e-01 -1.092926473087982298e-02 -4.439802100277378399e-02 -4.002058983950947807e-02 -5.348180780084850483e-02 -1.938682200012792345e-01 -4.575388224935327819e-01 1.439897812133180133e-01 -1.158695557365702899e-01 -2.420704225247999886e-01 -1.111700702724744833e-01 6.512997707422502058e-02 9.541945534895776571e-02 8.701424360250750722e-02 -2.684935527933554958e-02 -1.955505042078326539e-01 -1.794409126035636515e-01 -1.921526536457581757e-01 1.833925139687589412e-01 1.551294111775042561e-01 -5.873953562874949935e-02 -1.769316442843682502e-01 8.669084806032370527e-02 -1.913682490680329584e-01 -1.304727296369053158e-01 -1.364914011569373642e-01 1.818744065098246154e-01 1.210073177863252164e-01 -1.896365786948369658e-01 -3.222839359923734270e-01 4.503378304270828913e-02 2.637421679675585606e-01 7.704536473069539815e-02 -1.065958804165415552e-01 -1.695531347239871978e-01 -8.132450790032877408e-02 1.938857835002368579e-01 -3.935574248418448329e-02 2.389530753226223048e-01 -4.308111830696369493e-01 -2.283975394024937225e-02 -1.208551504834313728e-01 -3.947644912239726273e-02 -1.079036871920736884e-01 -5.376864668450592050e-02 2.206225781761566584e-01 -2.219034333951918903e-01 -8.248497476270111317e-02 -8.280386467496590741e-02 8.925301018157334731e-02 -2.842214716242787154e-02 -1.239113572862468420e-02 -2.572391758352665092e-01 1.182544870700260597e-01 3.835675438936160531e-02 1.858783047850019743e-02 -1.875682386550091008e-01 -7.049836379000067044e-02 -1.412829675708964783e-01 2.225413725763474293e-01 1.938349203933029119e-02 -2.015461686250509532e-01 -1.660001547092565810e-01 -1.040663357550993401e-01 1.763317995604165855e-01 9.594545980255160533e-02 -9.432674867838045096e-02 1.689341173754536629e-01 -3.384187259900630629e-01 3.437136175777708719e-02 -3.518252564536031995e-02 -3.677411444840628096e-02 -1.201936795780250838e-01 -6.926073837882873452e-02 2.185143926884198784e-01 -2.001764402137203858e-01 -1.911803135585972979e-01 2.168271830056900662e-01 -3.014226358430263097e-01 2.344344433774029901e-01 -2.851591221342593685e-01 -2.270442609241956899e-01 1.946748288862409637e-01 -6.613464609498542757e-02 -1.018865258488804298e-01 2.302198069845854400e-01 4.120698649653622980e-02 1.275711282648822331e-01 -1.334080437743157543e-01 -9.965449756541747139e-02 -5.765495800808372040e-02 -2.906951284946861919e-02 -7.947467157672108429e-02 -3.548548632486295956e-02 6.965472216957162288e-02 2.849996817627480084e-02 2.899836522473116518e-01 -6.611372591955765043e-02 -1.327376914220062543e-01 2.269910674110743598e-01 1.276482960848861724e-02 -1.624031257655586882e-02 9.407760481425690800e-04 1.661243273082099433e-03 2.996206225797816078e-02 2.749304303410631672e-02 -1.508467311492896479e-01 -1.864893526994054196e-01 4.164314338384231262e-02 8.340378058151591556e-02 5.239968921983059573e-03 -1.788736913965707775e-01 -1.764822347611495201e-01 -1.643929988464995773e-01 1.258400259350136996e-01 2.221154284464848250e-01 -1.657494562180656383e-01 -1.591687987398525683e-01 -1.741395129781380668e-01 7.417268831898593540e-02 -5.992559229915333380e-02 2.602785951085183069e-01 -1.508305231256674983e-01 3.673238566091847901e-02 -1.956514854846562110e-02 1.194093187296209613e-01 -8.285898243735967394e-02 -8.333703486850045639e-02 -9.278858335238113209e-02 -6.074093121192612049e-02 -3.908158464803537790e-03 -5.341420341870783267e-02 2.442592195520134346e-01 -4.843598615554293996e-02 -1.031066299998223135e-01 -7.541501198710226506e-02 -6.094800377486084969e-02 -1.207814231516470410e-01 -1.524010021648374846e-01 1.386602784757738904e-01 -2.918407653632333273e-02 1.172858223629192134e-02 4.759559106257575944e-01 8.813050405526264008e-02 1.422220865337107398e-01 -3.488227135972903764e-02 1.400702492350065775e-01 8.496015398138935526e-02 -3.297129829660003231e-02 -2.402826347682058550e-01 -9.007069334473923050e-02 -2.805504822628198114e-01 -1.586949941351723826e-03 4.140783127974551406e-03 -2.776489055920574045e-01 2.035887902873457223e-01 1.634296568744519063e-01 -1.131144844536394051e-01 -1.132635898344495906e-01 -8.313692116779872188e-02 8.134530544884036041e-02 -2.450572840257077278e-02 -5.540690892328733325e-02 3.690670100583548496e-01 9.238689057431265228e-02 -2.083171354775907869e-01 -6.691609655813125779e-02 -7.051868694571097884e-02 5.519035229213749977e-02 -1.846514320495833139e-01 -2.144557032010918352e-01 -1.673603484090205318e-01 -2.408455968001189593e-02 -4.210727729477827253e-01 2.062477257238532757e-01 8.642398220188163283e-02 -6.140550951478643271e-02 -3.094269659011877893e-01 9.978656568341295885e-02 -8.163264920558668813e-02 1.146784401539353675e-02
-9.505417050072527407e-02 -1.051585339534159974e-01 -1.412009529570372179e-01 4.787118464370810483e-02 -2.168482579765845242e-01 -1.880879188359909082e-01 -8.977185764468958995e-02 -8.954142843604732949e-02 2.211051954170737115e-03 -1.801606236237161124e-02 1.631548705408701894e-01 -2.947198750795844771e-02 1.393071661961444718e-01 1.399532716329100479e-01 -1.894347358912366608e-01 -1.588003787820715940e-01 3.966621858730140504e-02 -5.788306133986335922e-02 -1.196330702867278994e-01 -2.362826937010084893e-01 -6.345421598963364718e-02 -2.496381141424393602e-01 -3.950006472977944383e-01 -7.170211500265953608e-02 -5.082683104236956906e-02 -1.848452625856909781e-01 -1.407251023913964338e-01 1.683441500715995021e-01 2.179386492273427400e-01 -1.781008641631530720e-01 -1.835849590508314144e-01 -1.228063218378867283e-01 -2.339937948249114219e-01 1.804307124671937490e-01 1.593898307961844618e-01 -5.161273018660528927e-02 1.409444238317802689e-01 9.284288685492999085e-03 3.298490643779060372e-02 -1.442643132481091772e-01 -7.442669714174073026e-02 9.985279660920835798e-02 4.987809506894848310e-02 -5.321790343947644525e-02 1.880849229620430718e-02 -1.926728255529255307e-01 -3.169920486857770170e-01 -9.779662566755474573e-02 -1.468097677012722979e-01 2.102682428266977599e-01 2.793379522038909046e-01 1.050461653122330002e-01 9.499215858460204054e-02 -1.255144964783427158e-02 -2.321237002372677008e-02 -1.217113652635187920e-01 1.062418010307627537e-02 -2.069371115421283006e-02 -3.321013239531492994e-02 -1.594040102246360724e-01 -1.638240302616759680e-01 -3.490145695076236898e-02 -3.033759905996837314e-01 4.115039231334606806e-01 -1.588790887298808727e-02 -4.877129175280205814e-02 -3.746211910195148542e-01 -1.729213425188501074e-01 1.358711513984024177e-01 -6.976994768309915940e-02 -1.933275244534666815e-01 -4.649383541391987618e-01 -2.295806898074114477e-01 -4.064739665670188962e-01 -2.825146654511873079e-02 9.073047905363078314e-02 2.119235322719109915e-01 -1.472036646019259098e-01 9.224193320238324723e-02 -4.422415624396075495e-02 1.313498764935623342e-01 -2.173475856526900230e-01 5.225382385368400329e-02 -7.984514578593726597e-02 -1.141578659275125640e-01 1.219506576998186514e-01 -3.210926428373696018e-01 -9.492246619061887880e-02 1.001424078281144131e-01 -1.792506011285394801e-02 8.343550450819106623e-02 -1.924593925377502679e-01 -6.756874765852492748e-02 -1.557392476526000546e-01 -3.408160531179439956e-01 2.344835250214512279e-01 9.055248693026209106e-02 -4.704307014831038414e-02 3.778775235427078022e-02 -2.336861599196040917e-01 -9.262921881105916008e-03 1.174071341337585006e-01 -1.851162256402620609e-01 -2.006577666690878003e-01 -1.051720523040202138e-01 1.311135066177315789e-01 2.552003085899899326e-01 8.521135501108076382e-02 -4.528883148888702276e-02 1.500831122142183838e-01 -1.627403012064188303e-01 1.143448988021375096e-01 -2.068751854030670689e-01 5.620979100521928534e-02 2.601341029278566447e-02 -3.602458084139483763e-01 -1.072516371041737498e-01 -8.104858221655739103e-02 8.013539994797840016e-02 -1.270094399027592857e-01 -1.443671804768887623e-01 2.950140989356521692e-01 1.274863410012172793e-01 6.496794585937575028e-02 -5.294462310273496675e-01 2.808368720538508695e-02 -1.885503696388588224e-01 -2.230799436924415236e-01 -3.923816997875512191e-02 -2.494825141609950669e-02 9.919632082109117177e-02 -3.522212307379490870e-02 8.790922510807243351e-02 -1.784793225574468067e-01 -1.908304147612837065e-01 2.614030340893231941e-01 -1.869134317345283458e-01 8.552812762935593782e-02 -1.043616280406676061e-01 -5.334743327118857820e-02 -8.651812257179589127e-02 -2.430519663178943024e-01 -1.647746271627388293e-01 8.735812949884985690e-02 -1.300762871119225117e-01 -2.919005241664076808e-02 -2.094115510951822523e-01 -1.080306301890283233e-01 -3.052205671107327545e-01 -1.966919990131328622e-01 -3.518712834650402493e-02 1.736948417765578345e-01 -5.637684271103992478e-02 3.019358798801090593e-01 -2.158275853451996074e-01 1.414200929272078043e-02 2.554667312278285224e-02 3.468513363735290476e-03 3.050507493184538288e-01 -8.810410358724166113e-02 -3.555678850236153044e-01 1.059662021854434616e-01 -1.427728623290018539e-01 -9.468135512616997207e-02 4.505571702549297092e-02 -2.010060491203034538e-01 -9.350172187967616122e-02 -2.711464620753198211e-03 2.753471805130263128e-01 -6.970265018557383896e-02 1.174559896650002322e-01 1.808412680524506058e-02 2.228576470252839180e-03 -1.201305246360962475e-01 1.405135035944696520e-01 1.174950874502125042e-01 -2.903730730747228761e-01 3.556735563127798316e-02 -2.078460016110998676e-01 8.882312412129245507e-03 -4.756732665524927017e-01 8.207886068202896457e-02 -5.113310864883832685e-02 1.723512534006149399e-01 -2.384836798526975554e-01 -1.101434837373772430e-01 -5.131850525853826062e-02 1.127791014542947612e-02 -4.644538112097668786e-02 -2.539934254501342858e-02 2.438474313623095469e-01 -3.621116313554927912e-01 1.114451499039526977e-01 -1.602475399734919204e-01 -8.667366895159739348e-02 1.326277538504218589e-01 -6.662603154441897046e-02 3.977322610729144836e-02 -6.248271481584237452e-02 -1.552840960896926248e-01 1.256089855084124296e-01 3.762140517375228352e-03 -1.701894450642067042e-02 2.654340058185007678e-02 1.565274443537914839e-01 -3.437073737850317862e-02 1.166058894187063655e-01 1.849887977420551499e-01 1.472013986834207477e-01 1.449718350763303243e-01 -8.613283270460583840e-02 -1.952051730263744400e-01 -1.421640549012726240e-01 1.422971540169517494e-03 1.619078762092888146e-01 -3.423765280559366159e-02 -2.126355758985675193e-01 2.036565646315338929e-01 -2.365274985076731840e-01 -2.027377212096807269e-01 -2.281027427586110046e-01 -3.459340424638152056e-02 1.207635638439714387e-01 -6.525869526330245474e-02
1.416950705684446310e-01 1.720294262433839649e-01 -3.473114042610287444e-01 8.694115163317336914e-02 -6.046253430185581645e-02 2.707580203998390458e-02 -2.801722056473809550e-02 -8.450186978214828393e-02 -6.237592014758550421e-03 4.333428767437348672e-02 -1.089879263965163048e-01 -2.698291876229779729e-01 -6.859092890106242846e-02 -2.104698628170952046e-01 -1.487774762895114622e-01 2.137213901699561991e-01 -5.533147746727824084e-02 -1.783049459196126840e-01 3.260511072388445897e-02 -1.007435202083116314e-02 -1.658936134299472398e-01 -1.758707421912191760e-01 -1.103140458500107141e-01 8.392058920642964104e-02 1.454000757664432875e-01 -1.102272776228759993e-01 5.189326468266076964e-02 -3.563450087094580665e-01 -1.617974749425743763e-01 1.230856923445288881e-01 1.673921712790721328e-01 3.684644650435336261e-02 1.807317298399196970e-01 -3.055880049501967233e-01 -2.548683502375974075e-01 1.383347148401960491e-01 -1.482927793851812059e-01 4.346247223599789683e-02 -2.626503269651198624e-01 -1.433855709384742466e-02 -1.616115481567541590e-01 -8.025477767086273972e-02 -2.528284390009964411e-01 -1.624185303562655780e-01 -7.467905535882604640e-02 1.321113239246868645e-02 -2.021043434676388431e-02 -3.453692066220912654e-02 -5.152198866628360935e-02 -2.572093964386703013e-01 -1.813727056286166262e-01 7.021642127180101334e-02 -1.220894463073483871e-02 1.072440540447191643e-01 1.047700285481836663e-01 1.326717303223273747e-01 4.363906419986096109e-03 2.647317627267370965e-01 -5.479207786243210643e-02 -1.861501054255966514e-01 -2.086337668170297477e-01 6.264801952412328567e-02 -3.286516270779534649e-02 -1.408652798903053394e-01 4.892570975843309883e-02 5.099804341856133127e-02 4.281707347919632700e-01 3.041717604531455482e-02 -1.629455348252127345e-01 2.528943766751481220e-02 6.929633133500606723e-02 -7.928083145609846061e-02 8.004064532521558417e-02 -2.873681040664554098e-01 2.024711967907287247e-01 5.988370585367809584e-02 -9.844914044321523283e-02 1.083676561962851892e-01 -2.228054934223733241e-01 3.206068206834272738e-01 -3.913713528276392406e-01 1.513673327208512887e-01 5.855434646043432972e-02 -1.865039978444828217e-01 5.250026765648711791e-02 8.589239053403907587e-02 1.706673075378035698e-01 2.284727524538935836e-02 -2.749156014209529902e-02 -2.256896103217649885e-01 -1.528170679788231068e-01 -1.746290884012302036e-01 -3.341341052288123725e-01 5.912056742615993260e-02 4.130887672168931379e-01 1.328135695029250551e-01 -2.773019263918366159e-02 2.072387209650061735e-02 -6.373237183381533222e-02 -6.319267135338059449e-02 -1.947049837444480569e-01 -6.613591338995382374e-02 1.710412449714077132e-01 4.993437129481960168e-01 -4.504695564530719620e-02 -2.334665351619182316e-01 -1.479801065511956171e-01 -2.808044056900443342e-01 1.212776924619463070e-01 -4.250834639974999107e-01 5.308017560523159428e-02 -2.003068271697862057e-01 2.182929685131394446e-02 -2.591825964096809987e-01 -7.571750581279851344e-02 5.915620576906101963e-02 1.055308623267600752e-03 1.424878339215370215e-01 -1.316095249772950559e-01 -1.488736963257416002e-01 1.400245109251550824e-01 -1.789560645923226334e-01 -2.665474916315383087e-03 -1.239029720968478215e-01 -5.839698325591099332e-02 1.084479066077533721e-01 9.537017379315960997e-02 -1.349855857793987313e-01 5.194702495041786383e-02 8.944010072019586977e-02 -2.983926233965579489e-02 -3.905233398273237344e-01 6.926323090443677055e-02 2.673466161234275273e-02 3.786026172952005053e-01 -6.217861612128458004e-01 -3.869233618723902923e-01 1.512815056954047721e-01 -7.962063933149261807e-02 1.028570834248326571e-01 -7.441077238873233801e-02 8.469897985750295122e-02 1.729688751098940602e-01 4.786419629959894062e-02 2.564043862521925288e-01 1.050292744460760846e-01 -1.717523012120787673e-01 -2.700607828724268522e-01 4.174122746684437724e-01 1.562265760078199728e-01 -5.413365512657490088e-03 5.984430900521030272e-02 4.550236162901729470e-03 -3.658437886023270802e-01 6.985697138228220970e-02 1.643182453066022175e-01 -2.176417986780635749e-01 1.587836453946696036e-01 -1.859566777475721300e-01 2.608752591558520170e-02 -1.298418493084819991e-01 -1.037598340650598278e-01 7.836463389914882782e-02 3.978226511918774716e-02 1.412188701416106917e-01 9.285383657450686778e-02 -9.896470344328715807e-02 2.175908729175404094e-02 -1.209862176936681716e-01 1.053964589579802907e-01 1.100400353667789835e-02 -8.998577003922314521e-02 -1.700321932925430435e-02 -1.569153024519470419e-01 -4.084729887743325794e-01 7.604854461588771847e-03 3.154842879531223887e-01 8.631741049178066894e-02 3.274668073311682304e-01 -6.225426120932123740e-03 -4.987592525459418058e-03 -2.670016163577089152e-01 3.348412180665805149e-01 -7.461359928381031126e-02 -1.877671945120578945e-01 6.202413650384062949e-02 1.029458022153951074e-01 9.653379419936494732e-02 1.501442727875835215e-01 2.010156297969801359e-02 -3.782020956605587902e-01 -1.120374983270581298e-01 -4.437202473312769624e-01 6.669408993946336628e-02 1.860807628487219298e-02 -3.581532940626286354e-01 7.383330107159611494e-03 -7.583311573746576162e-02 -1.380180624495340458e-01 4.346734760802606345e-01 -1.017072280170048942e-01 -2.643443328209949539e-01 -2.996168269905359893e-01 -8.551975981354112410e-02 -2.135528869902441618e-01 4.537213882313890362e-02 -9.367626080101555675e-02 -2.036181504292273736e-01 -1.222603322116181113e-01 -1.394165164977502758e-01 2.061900975538600786e-02 1.283074686865285918e-01 4.218324343359126233e-02 -1.652826192226468718e-02 -2.551472512360499212e-01 -2.800761892164170194e-02 -6.014164258107449618e-02 -6.131257276430806397e-03 9.284052314735326272e-02 1.802593714554301951e-01 -5.921813602348303777e-03 1.232370288971888495e-01 -1.090829548945191352e-01 1.185326627292563606e-01
-1.076104949338623079e-01 -2.691742407285558150e-02 -1.479737845319367001e-02 5.138929929331084168e-01 6.792093232554005655e-02 -2.937819875650358736e-01 1.785555616006844482e-01 5.451615153428171143e-03 1.560216750715295309e-01 2.388163471645332603e-02 1.629080255161037827e-01 -1.969612708840133841e-01 1.201470686024031093e-01 -9.303300310299565667e-02 2.823649625989188561e-02 -1.483639352391271336e-02 -1.642206601487384288e-01 9.318733805557539995e-02 -4.529585681343819004e-01 -1.209518116558230549e-01 -3.536097279778808722e-01 1.261884248282585941e-01 -3.113941222142923015e-01 8.164115820607899254e-02 -2.414192437931579061e-01 -1.218816263180307474e-01 -1.184408187515600813e-01 1.481973474178727461e-03 2.480844155122893246e-01 2.601177837820057293e-01 1.536089312606016277e-01 -2.158764231081164164e-01 -4.831585075474505858e-02 -2.470575266395035607e-01 3.379555416771791165e-01 9.885140204239176165e-02 3.153243496227500220e-01 -1.554378202982554524e-01 -1.272054483913707679e-01 7.672265867635952308e-02 2.361479546934462659e-02 -1.415465779168688376e-01 1.373120861240467727e-02 4.725798030249812876e-02 -2.716998674034240002e-01 1.873068189695164254e-01 -4.462734605910602392e-03 2.030512739471728445e-01 -5.080504448585696636e-02 8.427355722377161129e-02 7.590493148642274424e-02 -3.481993806601791069e-03 -4.532919604730901719e-01 -1.797766280054403087e-01 1.623499324094888896e-01 -1.347837239101645490e-01 -3.658177059548042148e-02 -1.963172929661541610e-01 1.102442285212150430e-01 1.480263286850067583e-01 1.901649247181298741e-01 -3.999153313387623365e-01 2.431210097737706577e-01 -7.267038134367594104e-02 -2.011089229704107473e-01 1.922641077141740151e-01 4.223719835525559241e-02 -9.796475436625581845e-02 1.005871424841587175e-01 -1.102073550705825050e-01 -4.203916270887352868e-01 -1.637068975580212860e-01 9.582244631691951009e-02 -1.318468541431200292e-01 -9.767504459157433372e-02 4.804918090498087185e-02 1.002618243379081869e-01 -6.718438350712889473e-02 7.498964249176143237e-02 -8.058854362178734243e-02 -1.746818314997923283e-01 6.287679972490273217e-02 -3.456214861521667708e-02 1.296734775082227509e-01 1.183082559850437421e-01 2.645648816017528993e-01 -2.570846689464619840e-03 4.309106225223185982e-02 1.895456776781429264e-01 2.057104273219705626e-01 -2.082169366834968061e-01 5.587442085494340183e-02 1.238481760917451158e-01 -8.193903907867478020e-01 -7.518965095928737026e-03 -1.623651566241249566e-01 4.649842256239082872e-01 2.863965250332014545e-01 1.890459457304847490e-01 8.161322868581022405e-02 -1.938640343005222921e-01 -2.963420484073126526e-01 -1.483060768418289488e-01 -6.386306366363594944e-02 3.878254805436281427e-01 -1.435399411897980426e-01 -3.287608721244111853e-01 -9.097386947437320626e-02 -9.193518990960970749e-02 5.050919352454581734e-02 1.185353012460106936e-01 1.168391425674284445e-01 2.328524016481415757e-02 -1.232582682563324872e-01 6.080451261679569591e-02 9.329551504717738253e-02 -3.845079549005221697e-02 -2.480700914380714051e-01 -1.082849408542881503e-01 6.544838011095945041e-02 -3.901339186087883770e-01 3.614103370052713232e-02 -3.228342625550298384e-02 8.484071012037504300e-02 2.260943620311892388e-01 -3.669844258303953805e-02 -1.816512184773358130e-01 2.451793559296657210e-01 2.461006369746031319e-01 -2.864940821193477927e-01 2.201740805765688980e-01 -2.515022808880318927e-01 -1.778999111247276110e-01 -2.216763059631396970e-01 3.233666647073359102e-02 1.350859445938088765e-01 1.521604712486139370e-02 -8.593972839798472152e-02 1.975466827117282331e-02 -2.271682180968004339e-01 -1.125284953953467892e-01 -7.520028031321135398e-02 4.135820501694699725e-01 -7.393840252227131815e-01 -2.630471880097293713e-01 2.094210049736395240e-01 9.240565112709485385e-02 1.646248477599791815e-01 9.780266643134019611e-02 -1.883454052501796483e-01 -4.925938000894825031e-02 5.764897682521510358e-01 2.203900744988349925e-01 1.031169630485193750e-01 -2.326093655338414695e-02 2.001338060212911885e-01 3.456887473053512627e-01 -4.122755356994366877e-02 -6.178585701764710558e-02 3.626097158368151926e-03 -4.510120680937375059e-01 -3.708557319883102887e-01 1.972435297522463771e-01 -1.665796779229869184e-01 -4.277268137990384300e-01 -1.199069198976428496e-01 -4.072926234571932480e-01 -3.041876410509777515e-02 2.463488727762691011e-01 8.497145621472819432e-02 -2.860001998069598428e-01 8.391348186888995808e-02 4.094110894985259277e-03 -6.518233869838116479e-02 8.041132983141661972e-02 -4.624167465147414058e-01 1.432063732903931241e-01 -1.973368593773258683e-01 2.198344940973734063e-01 6.648211176806234635e-02 -1.075703833756185175e-02 4.606418242540909376e-03 -4.378818817016569970e-02 9.784925591733169281e-02 -1.807542793761462707e-01 -4.634234896015927696e-02 -4.724478373592362612e-02 -3.231874075621378184e-01 -1.724823495727742795e-01 -6.352425383697569983e-02 -2.649169799579227935e-01 2.650353623428587935e-01 9.988372007193345448e-02 2.032881690359561733e-01 3.439849988756637500e-01 1.593858732297530681e-02 4.501164641220388452e-02 2.123611009834693863e-01 5.748637195672795693e-03 2.653051483022706922e-02 2.278110648659192883e-02 7.537949953660656732e-02 3.802838751186203847e-01 3.279528239757399655e-02 2.603327452695498589e-01 5.654959353691452195e-02 -6.115054385478254639e-01 -4.835877270026075342e-02 -4.337464163263350936e-01 3.019984813292582726e-01 4.713091572376158084e-02 -6.816394443525604363e-02 -2.919678502351003360e-02 -2.104356033388216085e-02 2.394144753472827319e-02 3.262388393470505576e-01 1.110893108019713055e-01 1.311813369438242886e-02 -2.038903184256846413e-01 -2.396550160426337908e-02 -1.766761617553911090e-01 -1.159070893296034604e-01 -7.656891779037415524e-02 6.780395446367355750e-02
-2.648958285271910129e-03 -1.280992051418511635e-01 1.217223964252276275e-01 1.831951998485606978e-03 6.090286671519216932e-02 -2.198828428627418452e-01 -1.299486182436101478e-01 -1.239265384839288858e-01 -3.463747900221937626e-02 -2.210634155147364055e-01 4.675245983205384981e-01 -2.901628023252254829e-02 1.305577387416980428e-01 2.410285749228766039e-01 -9.814637703775197161e-03 -4.860708475774684900e-01 -1.019459946110777698e-01 -1.848427238462996974e-02 -3.432436115328777460e-01 -3.706693228577571247e-02 1.352432896162008846e-01 5.295865533788615687e-02 -3.139889411462783858e-02 -2.103812976101944801e-02 2.109772530020159395e-02 -1.442660353319410310e-02 -1.079229559390445028e-02 1.026386269115706074e-01 4.935786069065848936e-01 -2.182801072809299747e-01 -6.404670315881821896e-02 -2.881321029547825319e-01 -7.989142926965196734e-03 3.026753785547707243e-01 -1.972194319248210537e-01 -3.659234832755057232e-01 -5.764366401081402053e-02 -3.055848358548637900e-01 2.903634663281552952e-01 -5.061201797291159377e-02 -2.107658023148052673e-01 1.072660227792117532e-01 -1.313346641292728600e-01 1.549887098983016853e-01 3.433116144617424752e-03 -1.021097101172473293e-01 -1.803858271053158380e-01 2.693456594669942777e-02 6.801907670448380239e-02 1.781819722718569476e-01 7.701743044692091478e-02 8.746483557032264100e-02 -1.032990659518628063e-01 7.068831100099443043e-02 1.718711960327474336e-02 -5.014808955318987849e-01 1.050139281207730993e-02 -2.561621722989352312e-01 1.482397883824807527e-01 -1.265494715727650821e-01 -1.070168938986910540e-01 -8.273118665809783834e-02 8.384828775581007823e-03 2.168395212559581231e-01 5.130562774816514043e-02 -1.625202920320800715e-02 -1.081405177644548521e-01 -2.602642126887700358e-01 3.740070561692868806e-02 -1.302485539560329364e-01 -8.250701162927380483e-02 5.316075410146791497e-02 1.101533680809539117e-01 1.302993833645907651e-01 -4.248325873949164722e-01 -4.274198836751524205e-02 2.900356480903394929e-01 1.457720660286648470e-02 -9.673527950749016835e-02 -1.871730169318596149e-01 2.186687102511936376e-01 -3.445577286199571487e-01 8.607063734851022607e-02 6.064667637535416100e-03 -1.061165535900265855e-01 -4.011909811120761837e-02 5.574289986570454131e-02 -2.808024796504837162e-01 8.981784156465089097e-02 2.636152708667264810e-01 2.039018637852424154e-01 -1.717658283921346951e-01 1.825927641973571769e-01 -4.390149173649690595e-02 -2.392975124398640518e-01 2.777248727511515969e-01 1.481344134324048649e-02 -1.230276845233234662e-01 -2.076571466617650741e-01 -2.575828880563363343e-02 -1.796490956865460786e-01 -3.036608285294661175e-02 -3.257872402207230844e-01 -9.331520525588828108e-02 -1.425813591003099179e-01 1.597770778040389361e-01 2.123417024095444194e-01 -1.581516380508561082e-01 -1.302758980508972042e-01 2.145008926950394135e-01 1.775598480382973091e-02 2.133422300397139759e-01 -9.386745716179012433e-02 3.759898106319407018e-01 3.142851484233029069e-01 -2.324899938734911742e-01 -2.749689779102047482e-01 -3.480813354643284563e-01 1.060778172617326681e-01 2.035053389743382846e-01 -3.927957099372277050e-02 2.228018028787311089e-01 -2.601457482260319254e-02 1.127592104292203523e-01 4.973301392317878988e-02 -2.775484660677956378e-02 -5.978803340581448356e-02 1.500780954339404061e-01 -1.015745232478109383e-01 -1.622818689938451339e-02 6.675814231462305626e-02 -2.999438737192253526e-02 -1.535317165100324732e-01 -1.090604743947597849e-01 -3.830361337152293766e-02 4.690243624838620617e-02 1.309673063402547466e-01 7.012993715440779541e-02 3.538663374102944681e-02 -6.361217722422506382e-01 -1.470806981848804262e-01 -1.178243090652879993e-02 -9.408902316360139712e-04 -9.169061161868020948e-02 -2.513037272602294259e-01 -2.759621052603790717e-02 -1.407391312552646635e-02 -5.947856207387352406e-02 -4.918909726716882980e-02 -1.938805386875659398e-01 2.339878598043520011e-02 1.521733568510852397e-01 -1.647289960251281382e-01 8.887769785657037569e-02 5.747789241309810004e-02 4.074985374817372691e-02 1.903639574447704708e-02 -1.080579021939712253e-01 -3.428519540507291019e-02 -2.627920298697739715e-02 -1.177428623637309796e-01 1.426070646763467897e-01 4.376847030148495188e-02 7.845413122668159350e-03 -8.259455059964200888e-03 -2.591215343062102106e-01 -1.021609991097442438e-01 4.229087748965329463e-02 1.486929407576251805e-01 -6.865613854392641283e-03 -3.635570260873419862e-02 3.522065111565830797e-01 7.281925111689226127e-02 2.228647266087548373e-01 2.258326784993312242e-01 1.448706303117412372e-02 -2.499848048968736913e-01 -5.760501683764758518e-02 -2.014312137569010397e-01 -2.091613732631366629e-01 7.647721679144382778e-02 2.282715370691496548e-01 -3.651802311816358948e-01 1.171208248877441543e-01 -5.053491409034220616e-02 -4.140570551099528873e-01 -1.717293133236485747e-01 -6.459146550865715875e-02 -2.759222155028822066e-01 1.490911429491186269e-01 2.019985776676810722e-03 8.458998324919317358e-02 4.585862235649720287e-01 -1.226311085222463043e-01 -2.204399624012275127e-01 2.800878715244872197e-01 1.817665021641743928e-01 1.245349443718058308e-01 -2.732448080154592507e-02 -2.139573633323335333e-01 9.453589499368546256e-02 2.983540215791280481e-01 -1.831720787136286166e-01 -4.237179901139201399e-02 1.514190146763809940e-02 -4.969991244055513291e-02 -9.437254784653083262e-02 5.439392455311230223e-02 8.391986922860143056e-03 1.291218538375677460e-01 -1.215435414137149422e-01 -6.128946912954762183e-02 -2.613284175237247653e-01 -8.691002374814379983e-02 4.734171308252019261e-02 7.111149194223438663e-02 -1.456085689489718671e-01 2.557543239088175963e-02 -1.658563384560189646e-01 -5.464461190610458985e-01 -1.766844292158067653e-01 8.472443274099139554e-02 7.175568790620991642e-03 -3.233151841491542777e-01
-2.384601125616332140e-01 -8.401267146659725793e-02 5.962407110361323676e-02 -1.300469116120057250e-02 1.944043420131877642e-01 -3.087374238239088409e-01 1.101598597991403639e-01 -5.929971037926198146e-02 -2.817973291899328325e-01 1.280106614525094444e-01 2.920358061860904575e-02 -6.614017237274458227e-02 1.748414948202765551e-01 -2.138846769846751150e-01 -4.516372848908069976e-02 -2.749000439590852940e-01 -3.699830633178502470e-01 5.783734096527379199e-04 -1.853983545317813841e-01 -1.883101013578754312e-01 -5.542997435601762501e-02 1.099653329656372219e-01 4.474489744891646525e-02 -6.845101832053709923e-02 9.687807675384402240e-02 3.839200278408603367e-02 -1.133820526002607409e-02 1.481786131069378343e-01 6.631092237515104348e-02 -3.954575820868202335e-02 -2.070220003076802054e-02 9.284310961111019722e-02 -7.031792545505835546e-02 -2.363401494768454514e-01 -1.069072375021194593e-01 -8.879207296684879860e-03 -1.434186825464610522e-02 2.686361612784635144e-01 8.718456196220750187e-02 4.171746537327731819e-01 1.852442157525811817e-01 -1.417605426036024352e-01 1.734925436235914276e-01 1.159458381117912940e-02 -1.263422842229024734e-01 -1.770250074730065903e-01 8.236347508494128167e-02 3.307536800154199375e-01 -1.169274349145718291e-03 -5.451756814887941810e-02 1.440986905402867960e-02 2.904926425169766790e-02 -2.099747881896236179e-01 1.840645079673837448e-01 1.231166558796987082e-01 -2.873440092196573037e-01 -5.120897930747286830e-02 -3.087144294712808601e-01 3.120814826834076849e-01 -1.923367283490945989e-01 1.731194669525045957e-02 -5.590171172610560735e-01 7.927048147452350757e-02 -1.204860293602535853e-01 2.035270672202030007e-01 -1.559563496705620722e-01 -1.361794878035907097e-01 1.123322120429053744e-01 -3.217106415838888456e-01 1.584223108302006688e-01 -1.654082630720720148e-01 -1.713568276169411819e-01 -1.406469190645064926e-01 -9.574705635429095474e-02 -1.875705338091234464e-01 -3.194478475838543607e-01 4.162280306433888827e-02 1.265020337055084050e-02 1.354229335616310426e-01 -1.583669399380866205e-01 -6.933994548471228425e-02 9.631056490634350153e-02 6.330047221325929563e-02 -1.190492164035393680e-01 -9.868404250258318300e-02 -2.404848521405661965e-01 3.831748959673972332e-02 1.234413344607522139e-01 -4.149524101510602692e-01 1.126856272323619040e-01 -8.710621433430131011e-02 -7.943688730583817192e-02 2.263131839615526997e-01 -1.942404008308137031e-01 -1.538237339048692809e-01 3.321979570246930691e-01 -3.037179264234536602e-02 2.498715357182478003e-01 -2.076583226046007091e-01 2.436783187783411186e-01 1.324273145320074008e-01 -2.407647308729930768e-01 9.792709504595784042e-02 -6.082744931900565394e-02 -1.068362593135435412e-01 -1.679810043270226205e-01 -2.069030169840725686e-01 -9.049327842299738356e-02 3.770839453281905618e-01 5.054202368870904655e-02 2.030659780218342647e-01 1.160978290035727389e-02 1.611332520494745679e-01 2.306374803631223991e-02 -9.996654167612896436e-03 -8.171590125693016515e-02 -2.011656412119016690e-01 3.931514692888819079e-02 -2.267824824298656228e-01 -9.294181404387454049e-02 2.763153617345488477e-01 7.582346619440535895e-02 3.045115797141044744e-01 1.846084310930260625e-02 -5.383543058311541368e-02 1.089289340348123941e-01 5.784034582372102329e-03 7.623795577917669153e-02 -1.754780581051689631e-02 -1.961414801879811098e-01 3.563051275599139756e-02 -7.187527545137430141e-02 -1.724301336599795842e-01 -2.981290401540599433e-01 -3.571808488895472644e-01 2.420857190270896409e-01 2.997893033047672739e-01 -1.401484881761579093e-01 -6.349570589651780395e-02 -8.983464823180122016e-02 -2.497655770572971001e-01 -9.485810000522505725e-02 7.713496292914392982e-02 1.832581514452366056e-01 -7.119719169793421731e-02 3.229941511871727289e-01 -1.119069358761649001e-02 1.902833905240379209e-01 1.559990295960977588e-02 1.673783592259648068e-01 -2.223253563524468443e-02 -6.447649927216640708e-02 1.688509789139085449e-01 -6.701959402269497268e-02 5.106939763680421428e-03 -3.999099955018029506e-01 9.658887003944958971e-02 -6.900268650382752889e-02 8.388085661373764768e-02 -6.618751961140091622e-02 -2.861323212735765106e-02 2.587922023782226327e-02 -1.066147502281954013e-01 -9.325438018389127504e-02 -7.448149280064549072e-02 -5.347548276906994441e-02 -1.323632842784468744e-01 -7.143223434192241816e-02 -2.246302280709155941e-02 1.218316599290608510e-01 -1.854903596811337818e-01 6.642971084847791585e-02 -1.282383097939021090e-02 -7.569023868077542905e-02 8.579881143021778067e-02 -2.146229276471156577e-01 -1.625345392031000702e-01 -3.065610035515353160e-01 7.755767942223984468e-02 -7.418987925085863966e-02 -6.585417553966281534e-02 -1.262496517461517143e-01 -1.409949536990946217e-01 -3.613224692292057449e-01 -2.992846915002551900e-02 9.242316267195782586e-02 -2.313364927050551301e-02 2.112737701195609337e-03 -8.934469971067618421e-02 -3.825795671731460068e-01 -6.195794185143324584e-02 -1.057233999143272346e-01 1.936246850182387347e-01 3.089182380592607469e-02 3.258101279269571826e-01 -7.997099783090962088e-02 9.948930336228825611e-02 -1.268937830134316547e-01 1.020155096012478196e-02 -8.914474587038551112e-02 6.794959744719832051e-02 1.995608276004652570e-04 9.426613218012666606e-02 2.630466827390138818e-01 -4.159105257331226387e-03 -6.200310101818615714e-03 -3.282857306036848222e-01 3.482238518231339230e-01 -9.926916793135943939e-02 1.951171903182396389e-02 4.303626187643962847e-02 9.823820107700721727e-02 -3.814336647245537143e-02 -2.251685506098809464e-01 -1.595175185908974391e-01 2.398247263759919756e-01 8.171564708944867306e-02 1.406407173970986857e-01 -2.222975272477322184e-01 -3.027186495570096531e-02 -1.981537811967501173e-01 -7.274555196864208872e-02 -6.297000945132939786e-02 2.013194119748584199e-01
