-9.100000000000006972e-01
3.214999999999968328e+00
-1.005000000000000560e+00
-2.150000000000001632e-01
-1.400000000000000966e-01
1.739999999999988223e+00
7.039999999999901448e+00
-4.050000000000003042e-01
-1.250000000000000000e-01
-3.800000000000002820e-01
-1.700000000000001232e-01
-1.150000000000000744e-01
-4.800000000000003708e-01
4.264999999999948166e+00
-6.650000000000004796e-01
-1.550000000000001099e-01
2.999999999999971134e+00
-7.500000000000003886e-02
-4.150000000000003131e-01
-1.300000000000000877e-01
3.509999999999959819e+00
-1.149999999999998246e-01
-1.100000000000000699e-01
6.700000000000004841e-01
-2.550000000000001710e-01
-3.400000000000002465e-01
1.759999999999987352e+00
-8.800000000000006706e-01
-5.000000000000001665e-02
-5.000000000000002220e-01
-8.000000000000004330e-02
3.574999999999959321e+00
3.084999999999967990e+00
3.304999999999967741e+00
-6.600000000000004752e-01
-5.450000000000003730e-01
-1.150000000000000744e-01
-7.500000000000003886e-02
-2.700000000000001843e-01
-1.250000000000000833e-01
-3.200000000000002287e-01
3.724999999999954348e+00
2.284999999999981934e+00
-5.250000000000003553e-01
-1.000000000000000611e-01
-8.000000000000004330e-02
6.489999999999908731e+00
3.169999999999965734e+00
-3.950000000000002953e-01
-6.000000000000002554e-02
-1.300000000000000877e-01
-7.100000000000005196e-01
-2.300000000000000100e-01
-6.000000000000002554e-02
-3.650000000000002687e-01
1.345000000000004858e+00
8.900000000000006795e-01
-7.350000000000005418e-01
3.900000000000002909e-01
1.009999999999999343e+00
-4.950000000000003286e-01
-1.400000000000000966e-01
-1.050000000000000655e-01
-9.950000000000007727e-01
-1.800000000000001321e-01
-1.950000000000001454e-01
-8.750000000000006661e-01
2.369999999999978790e+00
-6.800000000000004929e-01
-6.000000000000004219e-01
2.499999999999981792e+00
-5.950000000000004174e-01
-8.300000000000006262e-01
-1.350000000000000921e-01
3.244999999999965912e+00
-1.450000000000000733e-01
-2.850000000000001976e-01
-4.950000000000003841e-01
2.914999999999972058e+00
1.319999999999992291e+00
-8.300000000000006262e-01
-4.850000000000003753e-01
-6.900000000000005018e-01
1.209999999999998188e+00
-8.000000000000004330e-02
-4.500000000000001221e-02
-6.200000000000004396e-01
-6.100000000000004308e-01
-5.500000000000002109e-02
4.059999999999956088e+00
5.214999999999933245e+00
-3.350000000000001865e-01
-1.500000000000000777e-01
-4.000000000000000777e-02
-5.450000000000003730e-01
2.709999999999972431e+00
-5.350000000000003642e-01
9.400000000000007239e-01
2.494999999999975682e+00
-1.750000000000001277e-01
-8.500000000000004774e-02
-3.800000000000002820e-01
-4.700000000000003619e-01
5.500000000000003775e-01
-1.300000000000000044e-01
-4.000000000000002442e-01
-9.450000000000007283e-01
6.009999999999916298e+00
-9.600000000000007416e-01
-5.050000000000003375e-01
-4.200000000000003175e-01
-9.500000000000005662e-02
-8.000000000000004330e-02
-1.900000000000001132e-01
-1.000000000000000611e-01
8.000000000000005995e-01
5.637851296924623057e-17
-3.000000000000002109e-01
8.199999999999977307e-01
3.929999999999953531e+00
-1.150000000000000744e-01
-3.700000000000002176e-01
-1.000000000000000611e-01
1.379999999999996341e+00
-1.000000000000000611e-01
2.164999999999984048e+00
-3.650000000000002687e-01
-3.800000000000002820e-01
-7.650000000000005684e-01
3.579999999999961435e+00
-7.500000000000003886e-02
-4.700000000000003064e-01
-7.000000000000003442e-02
2.694999999999974527e+00
-8.300000000000006262e-01
-9.000000000000003830e-02
7.154999999999891891e+00
-1.129999999999997673e+00
-3.900000000000002909e-01
-1.000000000000000611e-01
5.264999999999928626e+00
2.499999999999982236e+00
-2.200000000000001676e-01
-1.100000000000000422e-01
-8.000000000000004330e-02
1.544999999999989937e+00
2.704999999999974758e+00
-2.700000000000001843e-01
6.644999999999901874e+00
-5.900000000000004130e-01
2.989999999999969127e+00
-5.300000000000003597e-01
2.779999999999970939e+00
3.654999999999960725e+00
6.550000000000004707e-01
-3.750000000000002220e-01
-5.600000000000003864e-01
-4.350000000000003308e-01
4.500000000000003997e-02
-2.300000000000001765e-01
-9.500000000000005662e-02
2.284999999999981490e+00
-5.150000000000003464e-01
-1.850000000000001366e-01
3.389999999999961489e+00
-2.850000000000001976e-01
-3.000000000000003220e-01
1.629999999999992788e+00
-7.050000000000005151e-01
-3.650000000000001577e-01
4.114999999999950475e+00
-9.500000000000005662e-02
3.574999999999961542e+00
2.800000000000001377e-01
-1.250000000000000555e-01
1.409999999999994369e+00
-4.500000000000001221e-02
-6.050000000000004263e-01
-1.050000000000000655e-01
-1.000000000000000611e-01
-2.600000000000001754e-01
-6.400000000000004574e-01
4.650000000000003020e-01
-3.600000000000002087e-01
-9.000000000000005218e-02
5.000000000000004441e-03
-3.100000000000002198e-01
2.749999999999973799e+00
3.734999999999959019e+00
1.719999999999989981e+00
-1.250000000000000833e-01
5.609999999999923048e+00
2.354999999999980442e+00
3.004999999999967475e+00
-1.350000000000000921e-01
6.064999999999908908e+00
1.349999999999996314e+00
4.359999999999959464e+00
-3.200000000000002287e-01
2.489999999999977121e+00
-2.400000000000001854e-01
1.984999999999985221e+00
2.050000000000001266e-01
-2.100000000000001588e-01
-5.600000000000003864e-01
2.250000000000000888e-01
2.289999999999980052e+00
-4.300000000000003264e-01
2.024999999999990141e+00
-4.200000000000003175e-01
-3.000000000000002109e-01
2.309999999999980069e+00
4.264999999999952607e+00
-5.350000000000003642e-01
7.000000000000006217e-01
-7.050000000000005151e-01
-7.000000000000006217e-01
-8.450000000000006395e-01
3.900000000000002354e-01
6.519999999999910756e+00
2.174999999999982947e+00
-6.850000000000004974e-01
-3.350000000000002420e-01
-1.000000000000000666e+00
2.584999999999974651e+00
-9.150000000000007017e-01
1.539999999999989821e+00
-7.750000000000005773e-01
6.750000000000004885e-01
-5.000000000000001665e-02
2.439999999999981739e+00
4.214999999999953673e+00
-3.200000000000002287e-01
-5.050000000000003375e-01
1.724999999999985656e+00
-4.200000000000002620e-01
3.739999999999954472e+00
7.244999999999889972e+00
-4.300000000000002709e-01
-5.650000000000003908e-01
-5.650000000000003908e-01
5.924999999999912781e+00
-1.300000000000000877e-01
1.750000000000000999e-01
2.379999999999978577e+00
-3.650000000000000466e-01
-9.000000000000005218e-02
1.554999999999989946e+00
-5.300000000000003597e-01
-1.400000000000000688e-01
-1.104999999999998206e+00
-2.500000000000000486e-02
-5.800000000000004041e-01
3.604999999999959126e+00
-4.999999999999993339e-02
1.334999999999996412e+00
-4.750000000000003664e-01
-4.500000000000001221e-02
1.884999999999989129e+00
-1.600000000000000588e-01
-5.900000000000004130e-01
-3.800000000000002820e-01
-1.000000000000000472e-01
-1.000000000000000611e-01
1.069999999999997842e+00
-4.300000000000003264e-01
2.419999999999979945e+00
-4.650000000000003020e-01
-4.500000000000001221e-02
-6.500000000000002998e-02
-1.200000000000000788e-01
-3.600000000000002642e-01
-1.950000000000001454e-01
-3.800000000000002820e-01
1.650000000000000910e-01
-4.400000000000003353e-01
9.650000000000008571e-01
2.874999999999971578e+00
-6.850000000000004974e-01
-1.500000000000000291e-02
1.450000000000001843e-01
-9.900000000000006573e-01
2.394999999999981366e+00
3.679999999999960636e+00
7.549999999999975620e-01
-7.500000000000005551e-01
-7.150000000000005240e-01
-8.050000000000006040e-01
-8.000000000000004330e-02
-1.050000000000000655e-01
-9.000000000000005218e-02
2.044999999999984386e+00
-6.500000000000002998e-02
-5.200000000000003508e-01
2.619999999999974793e+00
-2.450000000000001621e-01
-8.800000000000006706e-01
5.164999999999933422e+00
3.824999999999957989e+00
-1.200000000000000788e-01
-4.650000000000003575e-01
-5.200000000000003508e-01
3.689999999999957314e+00
-2.500000000000000486e-02
6.700000000000004841e-01
1.579999999999992522e+00
-4.500000000000001221e-02
-5.000000000000001665e-02
2.389999999999978364e+00
-1.650000000000001188e-01
2.364999999999984226e+00
-4.700000000000003064e-01
-1.250000000000000833e-01
1.674999999999991163e+00
3.184999999999968523e+00
-9.300000000000007150e-01
-6.050000000000004263e-01
-5.000000000000003331e-01
3.599999999999959233e+00
-3.400000000000001910e-01
-8.400000000000006350e-01
-6.500000000000004663e-01
-8.350000000000006306e-01
4.504999999999947491e+00
-4.700000000000003619e-01
-6.550000000000004707e-01
-4.950000000000003841e-01
-4.650000000000003575e-01
-7.350000000000005418e-01
-6.450000000000004619e-01
3.900000000000003464e-01
-6.800000000000004929e-01
-9.500000000000005662e-02
-4.050000000000003042e-01
3.089999999999967439e+00
-2.750000000000001887e-01
-8.400000000000006350e-01
-8.500000000000004774e-02
9.300000000000081535e-01
-6.999999999999995115e-02
-3.650000000000002687e-01
2.794999999999973284e+00
-4.600000000000003531e-01
-8.850000000000006750e-01
3.800000000000002265e-01
-3.250000000000001776e-01
2.969999999999973106e+00
1.054999999999999716e+00
1.269999999999994689e+00
-4.200000000000003175e-01
-6.500000000000002998e-02
3.604999999999970228e+00
3.419999999999959961e+00
-4.650000000000003575e-01
-1.450000000000001010e-01
-6.800000000000004929e-01
1.309999999999996056e+00
-5.950000000000004174e-01
3.500000000000010741e-02
2.200000000000001399e-01
-2.950000000000002065e-01
-1.500000000000001055e-01
-4.800000000000003708e-01
-1.550000000000001099e-01
3.764999999999956160e+00
-6.400000000000004574e-01
2.579999999999975202e+00
-3.500000000000000333e-02
-6.500000000000002998e-02
-3.150000000000002243e-01
-2.200000000000001676e-01
4.750000000000003109e-01
-6.200000000000006617e-01
-8.250000000000006217e-01
2.004999999999989679e+00
-4.500000000000001221e-02
-1.750000000000001277e-01
5.250000000000003553e-01
-1.150000000000000744e-01
-2.500000000000001665e-01
-9.350000000000007194e-01
5.150000000000003464e-01
-9.550000000000007372e-01
3.064999999999969305e+00
-3.950000000000002953e-01
1.260000000000004672e+00
2.789999999999971614e+00
-8.250000000000006217e-01
-5.500000000000002109e-02
-4.100000000000003086e-01
-5.000000000000001665e-02
-1.350000000000000921e-01
-5.750000000000003997e-01
1.159999999999996367e+00
-2.950000000000001510e-01
2.949999999999971312e+00
1.294999999999995710e+00
5.259999999999932285e+00
8.850000000000006750e-01
3.984999999999953246e+00
7.950000000000005951e-01
2.864999999999967351e+00
2.139999999999990798e+00
-8.000000000000004330e-02
-1.069999999999999174e+00
1.914999999999984936e+00
-4.500000000000002887e-01
-3.450000000000002509e-01
1.284999999999995701e+00
-1.150000000000000744e-01
-6.950000000000003952e-01
-1.550000000000001099e-01
4.150000000000003131e-01
2.579999999999976534e+00
4.750000000000003109e-01
3.054999999999969518e+00
-4.650000000000003575e-01
-1.015000000000000568e+00
1.600000000000001421e-01
-1.250000000000000833e-01
-5.000000000000001665e-02
-1.600000000000001144e-01
-1.104999999999998650e+00
-3.950000000000002398e-01
-2.200000000000001399e-01
1.010000000000000231e+00
-9.900000000000006573e-01
5.534999999999921982e+00
-5.000000000000003331e-01
1.874999999999988232e+00
-6.000000000000004219e-01
5.109999999999933706e+00
-2.200000000000001676e-01
-5.750000000000003997e-01
-1.200000000000000788e-01
2.294999999999981721e+00
-5.550000000000003819e-01
4.669999999999941309e+00
1.900000000000001132e-01
6.300000000000004485e-01
-1.384999999999996012e+00
1.304999999999995497e+00
9.499999999999996225e-01
-8.500000000000004774e-02
-7.050000000000005151e-01
6.950000000000020606e-01
-6.750000000000004885e-01
-1.000000000000000666e+00
-3.150000000000002243e-01
-3.850000000000002309e-01
-2.300000000000001488e-01
-2.900000000000002021e-01
-9.000000000000005218e-02
4.249999999999949374e+00
-2.450000000000001621e-01
-3.499999999999999639e-02
-4.050000000000003042e-01
-1.700000000000001232e-01
1.169999999999997264e+00
3.734999999999958131e+00
-4.350000000000003308e-01
1.092875789865388469e-16
-7.750000000000005773e-01
-4.850000000000002087e-01
4.349999999999950795e+00
4.489999999999940705e+00
5.204999999999930793e+00
6.309999999999908127e+00
-8.500000000000004774e-02
-2.950000000000002065e-01
-4.500000000000001221e-02
-6.000000000000002554e-02
-6.000000000000002554e-02
1.549999999999994715e+00
-5.600000000000002753e-01
-2.200000000000001399e-01
3.019999999999969820e+00
-1.200000000000000649e-01
-8.500000000000006439e-01
-5.750000000000003997e-01
-3.499999999999999639e-02
-1.084999999999999520e+00
-8.000000000000004330e-02
-1.250000000000000555e-01
-4.700000000000003619e-01
4.449999999999940670e+00
-5.750000000000003997e-01
-1.950000000000001177e-01
-1.200000000000000788e-01
-3.500000000000002554e-01
-1.150000000000000605e-01
-6.650000000000004796e-01
-6.550000000000004707e-01
-1.750000000000000999e-01
7.449999999999989964e-01
5.550000000000003819e-01
2.184999999999984510e+00
-1.600000000000001144e-01
3.309999999999962750e+00
-9.650000000000007461e-01
2.019999999999983586e+00
-9.700000000000007505e-01
2.229999999999981775e+00
-4.100000000000003086e-01
2.834999999999970210e+00
2.709999999999972875e+00
-4.850000000000003753e-01
1.800000000000001321e-01
-4.000000000000000777e-02
-1.650000000000001188e-01
-1.200000000000000788e-01
-2.500000000000001665e-01
-8.500000000000004774e-02
1.519999999999993801e+00
-9.950000000000008837e-01
-4.350000000000003308e-01
8.050000000000006040e-01
-6.600000000000004752e-01
-2.500000000000001665e-01
-7.500000000000003886e-02
-3.300000000000002376e-01
-3.000000000000000930e-02
-3.250000000000002331e-01
8.299999999999892353e+00
1.329999999999994298e+00
-1.060000000000000053e+00
-1.384999999999996234e+00
-9.500000000000005662e-02
-1.200000000000000788e-01
2.044999999999984830e+00
-2.850000000000001976e-01
2.734999999999969678e+00
4.319999999999946994e+00
-8.000000000000002942e-02
-2.150000000000001354e-01
-2.450000000000001898e-01
-9.500000000000005662e-02
-6.500000000000004663e-01
-3.050000000000001599e-01
1.684999999999989395e+00
-1.650000000000001188e-01
-6.500000000000002998e-02
-1.025000000000000133e+00
-4.950000000000003841e-01
-1.900000000000001132e-01
-5.000000000000004441e-03
-4.950000000000003841e-01
-5.500000000000003775e-01
-2.250000000000001443e-01
-2.800000000000001932e-01
-6.100000000000004308e-01
-5.000000000000003331e-01
3.034999999999968612e+00
1.539999999999995595e+00
-3.759999999999960707e+00
1.994999999999985008e+00
-8.000000000000004330e-02
8.950000000000006839e-01
3.739999999999957581e+00
-4.850000000000003753e-01
3.639999999999963709e+00
-7.500000000000003886e-02
-8.500000000000004774e-02
-5.100000000000003419e-01
-3.800000000000002820e-01
-5.150000000000003464e-01
-9.100000000000006972e-01
1.874999999999988232e+00
-3.300000000000002376e-01
7.150000000000005240e-01
2.200000000000000844e-01
-3.950000000000002953e-01
-1.400000000000000966e-01
-5.550000000000003819e-01
2.809999999999975184e+00
-3.350000000000002420e-01
8.800000000000006706e-01
-3.750000000000002776e-01
-9.000000000000005218e-02
-3.000000000000000583e-02
1.389999999999998348e+00
-3.000000000000000583e-02
3.469446951953614189e-18
-3.250000000000002331e-01
-1.250000000000000833e-01
-4.600000000000003531e-01
-9.350000000000007194e-01
-4.450000000000002842e-01
-7.500000000000003886e-02
3.550000000000003153e-01
8.000000000000005995e-01
-2.550000000000001710e-01
-9.200000000000007061e-01
-1.150000000000000466e-01
-2.600000000000001754e-01
-2.000000000000001221e-01
4.799999999999937650e+00
2.279999999999979821e+00
-7.550000000000004485e-01
-8.000000000000004330e-02
1.189999999999994840e+00
2.049999999999986500e+00
2.199999999999991962e-01
-3.550000000000002598e-01
-8.200000000000006173e-01
-1.250000000000000833e-01
-3.550000000000002598e-01
1.044999999999999929e+00
2.829999999999972538e+00
-9.700000000000007505e-01
-3.250000000000002331e-01
5.550000000000002709e-01
-3.350000000000002420e-01
-2.500000000000000139e-02
-1.300000000000000877e-01
-7.450000000000005507e-01
-1.650000000000001188e-01
5.600000000000003864e-01
2.899999999999971045e+00
4.000000000000002442e-01
-8.000000000000004330e-02
-3.850000000000002864e-01
-6.600000000000004752e-01
-5.950000000000004174e-01
-5.250000000000003553e-01
-1.650000000000001188e-01
-2.300000000000002043e-01
-6.500000000000002998e-02
-8.050000000000006040e-01
-2.100000000000001588e-01
-3.350000000000002420e-01
-7.700000000000005729e-01
-2.300000000000001765e-01
-1.700000000000001232e-01
1.350000000000000644e-01
1.750000000000001554e-01
1.094999999999996199e+00
-8.100000000000004974e-01
-3.350000000000002420e-01
-1.500000000000001055e-01
-5.800000000000004041e-01
-5.000000000000001665e-02
5.400000000000003686e-01
-6.150000000000004352e-01
-1.000000000000000611e-01
1.984999999999981668e+00
-7.800000000000005818e-01
-5.700000000000003952e-01
1.354999999999995097e+00
-1.000000000000000472e-01
1.234999999999994769e+00
-5.000000000000003331e-01
2.379999999999975469e+00
-2.250000000000001721e-01
3.150000000000001688e-01
-3.050000000000001599e-01
4.894999999999945395e+00
-3.100000000000002198e-01
3.989999999999954028e+00
-1.300000000000000877e-01
7.300000000000005373e-01
3.174999999999966516e+00
-4.300000000000002709e-01
-2.600000000000001754e-01
2.669999999999976836e+00
-1.250000000000000833e-01
1.554999999999991722e+00
1.100000000000000699e-01
-5.000000000000001665e-02
-3.400000000000002465e-01
-4.850000000000003197e-01
-1.900000000000001410e-01
-1.099999999999999867e-01
-1.300000000000000877e-01
-2.500000000000000486e-02
2.569999999999975859e+00
-1.650000000000001188e-01
-4.600000000000003531e-01
-2.700000000000001843e-01
8.250000000000005107e-01
-6.900000000000005018e-01
2.954999999999970317e+00
-2.200000000000001399e-01
-1.050000000000000655e-01
-1.250000000000000555e-01
-1.050000000000000655e-01
-4.500000000000001221e-02
-2.200000000000001676e-01
-1.300000000000000877e-01
-6.550000000000004707e-01
-5.050000000000003375e-01
-1.274999999999995470e+00
-6.350000000000004530e-01
-1.250000000000000833e-01
1.269999999999994689e+00
6.800000000000004929e-01
-7.450000000000005507e-01
-6.150000000000004352e-01
9.400000000000007239e-01
-1.150000000000000744e-01
-2.100000000000000755e-01
3.184999999999967191e+00
-4.200000000000003175e-01
3.269999999999965823e+00
-1.700000000000001232e-01
8.050000000000007150e-01
4.100000000000003086e-01
-7.050000000000005151e-01
-5.200000000000003508e-01
2.724999999999970335e+00
-8.650000000000006573e-01
-2.850000000000001421e-01
-1.025000000000000355e+00
-3.550000000000002598e-01
-6.500000000000004663e-01
-2.800000000000001932e-01
-6.400000000000004574e-01
1.849999999999985434e+00
-1.650000000000001188e-01
2.799999999999973621e+00
2.574999999999981082e+00
-3.800000000000002820e-01
-1.200000000000000788e-01
-7.450000000000005507e-01
-5.500000000000003775e-01
-7.000000000000003442e-02
-4.450000000000003397e-01
-5.000000000000000971e-03
-1.300000000000000600e-01
-5.500000000000003775e-01
1.650000000000000910e-01
-3.000000000000000236e-02
2.499999999999981348e+00
-7.650000000000005684e-01
-7.700000000000005729e-01
-9.500000000000005662e-02
-1.214999999999996971e+00
-3.200000000000002287e-01
2.429999999999981064e+00
-3.950000000000002953e-01
-2.050000000000001543e-01
-2.000000000000000042e-02
-1.250000000000000833e-01
-5.300000000000003597e-01
-6.000000000000002554e-02
-5.499999999999996558e-02
3.229999999999965343e+00
-1.250000000000000833e-01
1.604999999999997762e+00
-2.550000000000001710e-01
-3.999999999999999389e-02
-4.050000000000003042e-01
-7.450000000000005507e-01
-3.750000000000002776e-01
-3.650000000000002687e-01
-8.700000000000006617e-01
-9.500000000000005662e-02
2.389999999999980140e+00
-1.900000000000001410e-01
4.404999999999947846e+00
-1.850000000000001366e-01
-1.050000000000000655e-01
-2.550000000000001710e-01
-1.394999999999993801e+00
-2.150000000000001632e-01
-1.154999999999997140e+00
-8.350000000000006306e-01
-1.950000000000000899e-01
-1.700000000000001232e-01
-1.100000000000000699e-01
-2.700000000000001843e-01
-3.600000000000002642e-01
-1.450000000000000733e-01
-3.650000000000002687e-01
-1.450000000000001010e-01
-7.300000000000005373e-01
-1.050000000000000655e-01
-7.350000000000005418e-01
-4.050000000000003042e-01
-3.750000000000002776e-01
-1.300000000000000877e-01
2.519999999999981366e+00
-4.500000000000001221e-02
-8.500000000000004774e-02
4.049999999999950973e+00
-6.150000000000004352e-01
-1.314999999999997504e+00
-3.850000000000002309e-01
1.950000000000001177e-01
-1.200000000000000788e-01
-9.100000000000006972e-01
-3.250000000000002331e-01
-3.000000000000000236e-02
-7.250000000000005329e-01
-1.000000000000000611e-01
9.199999999999958211e-01
5.264999999999933067e+00
-3.800000000000002820e-01
-8.999999999999984401e-02
2.119999999999983231e+00
-9.450000000000007283e-01
6.950000000000005063e-01
-1.400000000000000966e-01
1.074999999999999067e+00
-7.150000000000005240e-01
-4.950000000000003841e-01
3.794999999999955964e+00
-4.000000000000000777e-02
-6.950000000000005063e-01
3.284999999999977494e+00
1.600000000000000311e-01
2.589999999999976321e+00
-5.850000000000004086e-01
-3.700000000000002176e-01
-4.150000000000003131e-01
-1.999999999999999695e-02
-3.850000000000002864e-01
3.384999999999964704e+00
-4.500000000000001221e-02
-3.300000000000002376e-01
-1.600000000000000588e-01
1.949999999999983968e+00
6.200000000000004396e-01
-3.800000000000002820e-01
7.774999999999884004e+00
-4.450000000000002842e-01
4.084999999999953779e+00
4.929999999999932214e+00
-2.900000000000002021e-01
-5.000000000000001665e-02
2.214999999999982538e+00
4.324999999999945999e+00
2.064999999999985736e+00
2.684999999999978737e+00
-7.500000000000003886e-02
3.859999999999955467e+00
-7.500000000000003886e-02
-1.350000000000000921e-01
3.009999999999969145e+00
1.584999999999985754e+00
8.150000000000006128e-01
-3.750000000000002776e-01
4.100000000000003086e-01
-3.750000000000002776e-01
-4.900000000000003797e-01
-1.450000000000001010e-01
3.599999999999957900e+00
-5.500000000000002109e-02
2.564999999999984404e+00
-3.150000000000002243e-01
-4.500000000000003442e-01
-9.800000000000007594e-01
-8.500000000000004774e-02
1.020000000000000462e+00
1.749999999999985567e+00
-2.850000000000001976e-01
-1.300000000000000877e-01
-1.450000000000001010e-01
-1.250000000000000833e-01
2.819999999999973639e+00
-1.224999999999998312e+00
-7.500000000000003886e-02
-3.600000000000002642e-01
3.729999999999956017e+00
-2.550000000000001710e-01
-1.150000000000000744e-01
2.900000000000002021e-01
-3.250000000000002331e-01
2.124999999999984901e+00
-1.100000000000000699e-01
-9.850000000000006528e-01
-1.100000000000000699e-01
9.250000000000008216e-01
1.579999999999989857e+00
-1.300000000000000877e-01
-7.150000000000005240e-01
-6.050000000000003153e-01
-6.700000000000004841e-01
-9.999999999999911737e-03
-2.200000000000001399e-01
-1.500000000000001055e-01
-2.700000000000001843e-01
-4.000000000000002998e-01
4.574999999999945111e+00
-1.800000000000001321e-01
1.944999999999986073e+00
-5.000000000000004441e-03
2.749999999999974243e+00
-2.050000000000001266e-01
-1.999999999999999556e-01
-5.100000000000003419e-01
-5.050000000000003375e-01
-3.850000000000002864e-01
-5.650000000000003908e-01
-4.300000000000003819e-01
6.400000000000004574e-01
-4.000000000000000777e-02
-7.200000000000005285e-01
-1.700000000000000400e-01
5.574999999999923794e+00
-8.150000000000006128e-01
-8.150000000000006128e-01
-5.500000000000002109e-02
3.329999999999962768e+00
-1.500000000000001055e-01
5.650000000000003908e-01
-5.150000000000003464e-01
4.704999999999940563e+00
1.744999999999990559e+00
-1.750000000000001277e-01
3.459999999999961773e+00
4.200000000000003175e-01
2.784999999999975717e+00
-4.350000000000003308e-01
1.264999999999996572e+00
-6.500000000000001610e-02
1.959999999999986198e+00
-4.100000000000003086e-01
-1.750000000000001277e-01
4.214999999999948344e+00
-7.900000000000005906e-01
4.600000000000001865e-01
-1.099999999999999201e+00
-1.200000000000000649e-01
1.200000000000001205e-01
-4.500000000000001221e-02
1.589999999999992308e+00
1.989999999999986446e+00
-2.550000000000001710e-01
-5.300000000000003597e-01
-1.200000000000000788e-01
-1.600000000000001144e-01
-2.050000000000001543e-01
3.350000000000001865e-01
6.834999999999894271e+00
-4.650000000000003575e-01
3.859999999999959908e+00
-7.150000000000005240e-01
1.979999999999983773e+00
-2.200000000000000844e-01
-9.300000000000007150e-01
-3.550000000000002598e-01
-6.500000000000004663e-01
-2.000000000000000736e-02
-5.650000000000003908e-01
-1.114999999999998881e+00
-1.500000000000001055e-01
-1.060000000000000275e+00
-1.950000000000001454e-01
-4.000000000000000777e-02
1.194999999999998730e+00
1.304999999999995053e+00
-5.250000000000003553e-01
1.929999999999984839e+00
-5.400000000000003686e-01
-8.200000000000006173e-01
-7.950000000000005951e-01
-8.500000000000004774e-02
-5.200000000000003508e-01
-8.700000000000006617e-01
2.539999999999976055e+00
-1.350000000000000644e-01
-1.079999999999999183e+00
-6.750000000000004885e-01
2.749999999999973355e+00
-1.100000000000000699e-01
-4.500000000000001221e-02
-6.350000000000004530e-01
-1.600000000000001144e-01
1.005000000000000560e+00
3.254999999999961702e+00
-5.050000000000003375e-01
-1.150000000000000744e-01
-6.550000000000004707e-01
-9.000000000000005218e-02
-2.500000000000001665e-01
-5.000000000000003331e-01
-1.150000000000000744e-01
3.789999999999958735e+00
-3.350000000000001865e-01
-2.800000000000001932e-01
-6.400000000000004574e-01
-1.419999999999995932e+00
-5.500000000000002109e-02
-3.650000000000002687e-01
7.600000000000005640e-01
-1.850000000000001088e-01
2.779999999999974047e+00
-5.450000000000003730e-01
1.914999999999988933e+00
-3.500000000000001027e-02
-8.100000000000006084e-01
5.384999999999923403e+00
6.949999999999898037e+00
-4.950000000000003841e-01
4.269999999999948059e+00
-9.000000000000003830e-02
-3.250000000000002331e-01
-7.000000000000003442e-02
3.224999999999965450e+00
-1.200000000000000788e-01
2.319999999999977192e+00
3.829999999999952554e+00
-2.000000000000000042e-02
3.734999999999969233e+00
9.250000000000027089e-01
3.504999999999959481e+00
-9.000000000000005218e-02
2.809999999999971632e+00
-6.900000000000003908e-01
1.909999999999985931e+00
-5.500000000000002109e-02
2.754999999999973248e+00
-1.700000000000001232e-01
1.849999999999990319e+00
4.094999999999950013e+00
-7.750000000000005773e-01
5.000000000000000971e-03
2.254999999999982574e+00
1.984999999999984110e+00
-4.550000000000003486e-01
-6.800000000000004929e-01
-5.350000000000003642e-01
-1.300000000000000877e-01
3.100000000000002198e-01
-5.450000000000002620e-01
-2.850000000000001976e-01
-8.200000000000006173e-01
4.584999999999942233e+00
-8.500000000000004774e-02
1.949999999999984635e+00
5.779999999999917648e+00
-5.000000000000001665e-02
-3.650000000000002687e-01
2.604999999999976001e+00
2.734999999999973230e+00
-5.300000000000003597e-01
-5.650000000000003908e-01
-1.450000000000001010e-01
1.174999999999996492e+00
3.559999999999957865e+00
-2.150000000000001632e-01
1.669999999999993712e+00
-5.850000000000004086e-01
-2.800000000000001932e-01
-9.500000000000005662e-02
-8.000000000000004330e-02
-7.000000000000003442e-02
6.000000000000006023e-02
-3.550000000000002598e-01
-1.050000000000000655e-01
-7.500000000000003886e-02
-1.100000000000000699e-01
-1.500000000000001055e-01
-1.000000000000000611e-01
-9.000000000000005218e-02
3.474999999999961453e+00
-6.000000000000004219e-01
-3.800000000000002820e-01
-4.500000000000003442e-01
-1.254999999999997673e+00
5.834999999999920917e+00
-6.600000000000004752e-01
-8.250000000000006217e-01
4.279999999999947846e+00
-1.450000000000001010e-01
-3.050000000000001599e-01
5.400000000000003686e-01
-3.850000000000002864e-01
2.299999999999983835e+00
-1.200000000000000788e-01
-1.000000000000000666e+00
6.824999999999900702e+00
-1.005000000000000560e+00
-2.900000000000002021e-01
-7.050000000000005151e-01
2.569999999999978080e+00
-9.500000000000005662e-02
-2.750000000000001887e-01
1.165000000000000036e+00
-5.900000000000004130e-01
2.739999999999974456e+00
4.134999999999949161e+00
-5.950000000000004174e-01
-6.050000000000004263e-01
4.150000000000003131e-01
5.519999999999926743e+00
-1.100000000000000699e-01
-1.250000000000000833e-01
-5.100000000000003419e-01
-1.134999999999998455e+00
-3.500000000000002554e-01
-6.300000000000004485e-01
-1.500000000000001055e-01
-1.050000000000000655e-01
1.035000000000000364e+00
7.254999999999897753e+00
-1.199999999999999678e-01
1.139999999999998126e+00
-5.100000000000003419e-01
-1.350000000000000921e-01
-1.700000000000001232e-01
-8.400000000000006350e-01
-6.850000000000004974e-01
2.589999999999975877e+00
2.194999999999982521e+00
-4.600000000000003531e-01
2.039999999999984936e+00
5.029999999999931859e+00
-4.100000000000003086e-01
-6.050000000000004263e-01
-4.000000000000000777e-02
-6.000000000000004219e-01
-6.999999999999999278e-02
-2.850000000000001976e-01
2.484999999999979448e+00
-8.550000000000006484e-01
3.250000000000001776e-01
-7.000000000000005107e-01
-8.000000000000004330e-02
-3.050000000000002154e-01
3.164999999999966729e+00
6.400000000000005684e-01
-5.800000000000004041e-01
-4.400000000000003353e-01
2.824999999999970868e+00
-3.400000000000002465e-01
-4.100000000000003086e-01
-9.500000000000005662e-02
-6.500000000000002998e-02
-3.350000000000002420e-01
-1.250000000000000833e-01
-8.100000000000006084e-01
-1.250000000000000833e-01
-4.700000000000003619e-01
-1.950000000000001454e-01
3.739999999999957581e+00
-3.850000000000002864e-01
-5.100000000000003419e-01
4.039999999999956515e+00
5.164999999999928093e+00
-4.500000000000001221e-02
1.479999999999990656e+00
3.889999999999950830e+00
-1.009999999999999343e+00
-5.500000000000003775e-01
-4.350000000000003308e-01
8.550000000000012035e-01
3.274999999999964384e+00
8.300000000000006262e-01
-1.254999999999997451e+00
-7.500000000000001110e-02
4.949999999999938005e+00
-4.500000000000001221e-02
1.789999999999987157e+00
2.619999999999976126e+00
-2.000000000000000042e-02
-2.550000000000001710e-01
-6.450000000000004619e-01
-1.005000000000000560e+00
5.200000000000003508e-01
-1.350000000000000921e-01
-1.264999999999995683e+00
5.200000000000003508e-01
-1.300000000000000877e-01
3.499999999999961364e+00
-7.000000000000003442e-02
-3.800000000000002820e-01
6.000000000000002554e-02
-3.300000000000002376e-01
2.069999999999984297e+00
2.154999999999984706e+00
-6.200000000000005507e-01
-1.700000000000001232e-01
-1.150000000000000744e-01
2.899999999999975486e+00
-5.450000000000003730e-01
-2.950000000000002065e-01
-1.850000000000001366e-01
-8.000000000000004330e-02
8.200000000000006173e-01
-2.700000000000001843e-01
-4.400000000000003353e-01
-1.550000000000001099e-01
-1.500000000000001055e-01
-5.700000000000003952e-01
-1.150000000000000744e-01
-7.500000000000003886e-02
-6.450000000000004619e-01
-5.400000000000003686e-01
1.569999999999995399e+00
-5.700000000000003952e-01
-1.500000000000000500e-01
2.509999999999980247e+00
-3.550000000000002598e-01
-1.400000000000000966e-01
3.250000000000002331e-01
-1.850000000000001366e-01
8.129999999999894200e+00
4.114999999999951363e+00
-1.650000000000001188e-01
-7.450000000000005507e-01
-7.500000000000003886e-02
1.900000000000001132e-01
6.900000000000005018e-01
-4.900000000000003242e-01
-7.200000000000005285e-01
3.654999999999959392e+00
-4.400000000000003353e-01
1.908195823574487804e-16
2.899999999999970157e+00
4.350000000000002753e-01
5.904999999999916760e+00
-3.500000000000000333e-02
-9.500000000000005662e-02
-5.150000000000003464e-01
-6.400000000000004574e-01
-1.150000000000000744e-01
-7.250000000000005329e-01
-9.950000000000007727e-01
1.904999999999985150e+00
-1.000000000000000194e-01
-3.450000000000002509e-01
-3.450000000000002509e-01
-1.100000000000000699e-01
3.104999999999969784e+00
-5.050000000000003375e-01
4.279999999999943405e+00
-8.900000000000006795e-01
-2.400000000000001577e-01
-4.750000000000003664e-01
-6.500000000000004663e-01
8.889999999999940172e+00
-5.999999999999976880e-02
-1.300000000000000600e-01
-6.000000000000002554e-02
-1.114999999999999103e+00
1.184999999999995612e+00
-1.200000000000000788e-01
2.854999999999971116e+00
1.204999999999997851e+00
-9.450000000000007283e-01
-6.400000000000004574e-01
-2.250000000000001443e-01
-5.450000000000003730e-01
2.629999999999975024e+00
-3.850000000000002309e-01
-2.350000000000001532e-01
-3.750000000000002776e-01
-1.099999999999999201e+00
-8.000000000000004330e-02
4.219999999999948237e+00
-4.150000000000002021e-01
-9.000000000000005218e-02
-1.000000000000000472e-01
7.150000000000005240e-01
-4.000000000000000777e-02
-6.500000000000004663e-01
-1.000000000000000611e-01
-9.100000000000006972e-01
4.034999999999963727e+00
-7.400000000000004352e-01
-1.550000000000001099e-01
-2.500000000000000833e-02
-9.250000000000007105e-01
-1.000000000000000611e-01
-3.250000000000002331e-01
-5.100000000000003419e-01
-3.350000000000002420e-01
2.649999999999974154e+00
-7.050000000000005151e-01
-8.350000000000006306e-01
-5.300000000000003597e-01
-1.500000000000000777e-01
-6.000000000000002554e-02
3.679999999999960192e+00
-4.850000000000003197e-01
-9.850000000000007638e-01
-6.800000000000004929e-01
-2.100000000000001310e-01
-8.450000000000006395e-01
-1.314999999999996838e+00
-7.700000000000005729e-01
3.800000000000007816e-01
3.674999999999957190e+00
-5.550000000000003819e-01
-6.000000000000002554e-02
1.250000000000000555e-01
-1.350000000000000921e-01
-8.500000000000004774e-02
1.014999999999999458e+00
5.289999999999935199e+00
-3.600000000000002642e-01
-1.400000000000000966e-01
-5.750000000000003997e-01
-1.450000000000001010e-01
-9.000000000000005218e-02
-6.500000000000002998e-02
-1.429999999999994165e+00
-8.750000000000006661e-01
3.784999999999960618e+00
1.679999999999989946e+00
-6.000000000000004219e-01
-1.250000000000000555e-01
2.744999999999973905e+00
-7.000000000000003442e-02
9.300000000000010481e-01
9.649999999999995248e-01
-2.700000000000001843e-01
-3.100000000000001643e-01
-2.400000000000001577e-01
-1.450000000000001010e-01
-6.500000000000002998e-02
-4.950000000000003841e-01
1.604999999999992877e+00
-3.500000000000002554e-01
2.639999999999977920e+00
-1.050000000000000655e-01
4.189999999999944436e+00
-2.500000000000001665e-01
-7.700000000000005729e-01
1.799999999999998268e-01
2.084999999999983977e+00
-2.250000000000001443e-01
-1.800000000000001044e-01
4.474999999999945466e+00
-7.300000000000005373e-01
4.524999999999942624e+00
-4.100000000000003086e-01
-5.200000000000003508e-01
-2.650000000000001799e-01
-4.750000000000003664e-01
2.399999999999978151e+00
-1.050000000000000655e-01
-7.000000000000005107e-01
3.649999999999959499e+00
-1.850000000000001366e-01
-7.300000000000005373e-01
-1.750000000000000999e-01
2.429999999999979732e+00
-7.050000000000005151e-01
-1.050000000000000655e-01
-2.750000000000001887e-01
-6.000000000000002554e-02
-6.400000000000004574e-01
-3.650000000000002687e-01
7.950000000000005951e-01
-7.000000000000003442e-02
7.600000000000005640e-01
-9.500000000000004274e-02
-8.000000000000004330e-02
-2.250000000000001443e-01
3.024999999999970601e+00
1.839999999999991420e+00
0.000000000000000000e+00
-7.500000000000003886e-02
3.474999999999963229e+00
-7.450000000000005507e-01
3.814999999999955538e+00
-1.504999999999994342e+00
-4.650000000000003575e-01
-2.450000000000001898e-01
-4.000000000000002998e-01
4.559999999999941878e+00
-1.000000000000000611e-01
3.239999999999970903e+00
2.829999999999973870e+00
2.154999999999983817e+00
-2.500000000000001665e-01
-5.800000000000004041e-01
3.900000000000003464e-01
-8.000000000000004330e-02
-6.000000000000000472e-02
-1.850000000000000810e-01
-4.750000000000003109e-01
3.349999999999964118e+00
-1.450000000000001010e-01
3.704999999999958771e+00
-6.400000000000004574e-01
-7.750000000000005773e-01
-2.300000000000001765e-01
1.319999999999994511e+00
-4.750000000000003664e-01
-1.100000000000000699e-01
-7.750000000000005773e-01
2.739999999999978453e+00
-8.550000000000006484e-01
3.584999999999960441e+00
-8.500000000000004774e-02
-6.300000000000004485e-01
-1.074999999999999289e+00
-7.250000000000005329e-01
1.039999999999995373e+00
-6.300000000000004485e-01
-3.000000000000000236e-02
-1.200000000000000788e-01
3.269999999999963602e+00
8.000000000000002942e-02
-3.700000000000002731e-01
2.459999999999979092e+00
