3.500000000000001998e-01 -8.470000000000006413e-01 4.370000000000003881e-01 -5.010000000000003340e-01 8.640000000000007674e-01 5.700000000000005063e-01 5.890000000000004121e-01 -3.160000000000003917e-01 4.870000000000003215e-01 -8.499999999999989508e-02 1.507999999999991791e+00 5.840000000000004077e-01 6.360000000000005649e-01 2.270000000000001461e-01 2.250000000000000888e-01 7.950000000000005951e-01 3.970000000000002416e-01 1.030000000000000637e-01 5.110000000000003428e-01 2.360000000000000986e-01 5.370000000000003659e-01 1.460999999999991417e+00 8.199999999999987854e-02 1.210000000000001075e-01 2.280000000000001747e-01 3.599999999999994177e-02 8.190000000000006164e-01 -2.650000000000000688e-01 3.910000000000002918e-01 8.970000000000006857e-01 2.830000000000001403e-01 8.250000000000006217e-01 -9.700000000000004452e-02 1.899999999999991279e-02 -4.010000000000000231e-01 7.130000000000005222e-01 8.560000000000006493e-01 7.130000000000005222e-01 3.640000000000002123e-01 -6.130000000000004334e-01 1.330000000000000071e-01 -5.860000000000002984e-01 -6.810000000000003828e-01 -2.539999999999997815e-01 -1.700000000000002898e-02 9.710000000000007514e-01 7.750000000000005773e-01 -9.900000000000000466e-02 5.410000000000003695e-01 8.120000000000006102e-01 4.699999999999988909e-02 -5.350000000000004752e-01 1.480000000000000759e-01 7.490000000000004432e-01 3.650000000000002132e-01 1.370000000000000939e-01 8.360000000000005205e-01 -5.360000000000003650e-01 8.670000000000006590e-01 1.004000000000000670e+00 1.200000000000001413e-02 4.930000000000003268e-01 7.200000000000005285e-01 -8.480000000000006422e-01 -9.260000000000007114e-01 3.810000000000002829e-01 5.140000000000004565e-01 2.590000000000001190e-01 2.100000000000001310e-01 1.402000000000000135e+00 1.031000000000000583e+00 1.219999999999996865e+00 -5.340000000000002522e-01 3.699999999999938061e-02 1.769999999999998797e-01 7.770000000000005791e-01 -4.160000000000003140e-01 3.520000000000003126e-01 -1.570000000000001394e-01 6.350000000000004530e-01 -9.960000000000007736e-01 4.430000000000002824e-01 1.950000000000000622e-01 7.360000000000005427e-01 -1.079999999999997906e-01 1.040000000000000480e+00 8.330000000000005178e-01 7.590000000000005631e-01 4.050000000000003042e-01 -1.550000000000003320e-01 -2.729999999999996319e-01 8.760000000000005560e-01 -1.048999999999999932e+00 1.063999999999999613e+00 4.340000000000002744e-01 2.580000000000001736e-01 2.470000000000001084e-01 -1.032000000000000473e+00 8.830000000000006732e-01 1.190000000000000502e-01 2.320000000000001505e-01 -2.700000000000015582e-02 3.970000000000002971e-01 -9.290000000000006031e-01 7.660000000000005693e-01 -2.940000000000002056e-01 1.319999999999995621e-01 3.170000000000001705e-01 4.930000000000003824e-01 -6.870000000000004992e-01 7.820000000000005835e-01 -3.380000000000001892e-01 -4.660000000000001918e-01 -4.920000000000002149e-01 2.480000000000001092e-01 6.210000000000003295e-01 7.370000000000005436e-01 4.900000000000003242e-01 5.130000000000003446e-01 6.850000000000004974e-01 1.028000000000000025e+00 8.780000000000006688e-01 1.830000000000001625e-01 1.079000000000001069e+00 7.590000000000005631e-01 8.420000000000006368e-01 -4.240000000000002656e-01 1.151999999999999913e+00 3.450000000000001954e-01 2.300000000000006206e-02 1.083999999999995856e+00 8.340000000000005187e-01 9.150000000000007017e-01 1.290000000000000591e-01 2.100000000000046968e-02 7.600000000000005640e-01 1.327999999999993630e+00 -6.100000000000003197e-01 9.350000000000007194e-01 5.690000000000003944e-01 -1.185999999999997279e+00 2.210000000000001408e-01 8.550000000000006484e-01 2.900000000000002576e-01 -5.120000000000002327e-01 2.990000000000002101e-01 -1.190000000000001751e-01 6.620000000000004770e-01 2.510000000000001119e-01 1.499999999999988232e+00 -3.660000000000002696e-01 -8.230000000000006199e-01 8.930000000000006821e-01 -6.490000000000005764e-01 6.070000000000004281e-01 4.390000000000002789e-01 5.350000000000003642e-01 2.040000000000000702e-01 1.840000000000000524e-01 7.180000000000005267e-01 4.280000000000003246e-01 7.420000000000005480e-01 1.700000000000000677e-01 -6.620000000000004770e-01 9.190000000000007052e-01 -3.839999999999999525e-01 4.910000000000003251e-01 7.360000000000004317e-01 5.150000000000003464e-01 -8.900000000000002354e-02 5.680000000000003935e-01 2.039999999999999591e-01 9.420000000000007256e-01 2.550000000000001155e-01 1.041000000000001036e+00 4.270000000000003237e-01 1.287999999999990042e+00 2.399999999999989295e-02 1.590000000000000580e-01 1.640000000000001457e-01 1.720000000000000695e-01 1.840000000000000524e-01 5.130000000000003446e-01 3.290000000000002367e-01 1.012000000000000455e+00 7.790000000000005809e-01 1.000000000000233341e-03 4.570000000000002949e-01 -5.970000000000005302e-01 -5.970000000000005302e-01 -2.689999999999997948e-01 7.560000000000005604e-01 7.799999999999990274e-02 -7.999999999999934247e-03 4.100000000000002531e-01 -1.580000000000000293e-01 -4.310000000000002718e-01 -1.012000000000000455e+00 9.240000000000007097e-01 -3.019999999999998797e-01 -2.970000000000001528e-01 9.340000000000007185e-01 6.020000000000004237e-01 4.470000000000003970e-01 6.199999999999977751e-02 2.200000000000000289e-01 5.210000000000003517e-01 -1.910000000000002252e-01 3.700000000000013695e-02 2.700000000000001288e-01 -1.259999999999998621e-01 -4.780000000000003135e-01 2.380000000000001004e-01 -1.129999999999997673e-01 7.830000000000004734e-01 -9.099999999999999756e-02 2.520000000000002238e-01 1.900000000000000300e-01 6.999999999999986788e-02 5.999999999999724304e-03 3.040000000000002700e-01 6.730000000000004867e-01 -1.940000000000001168e-01 1.344999999999991314e+00 -1.510000000000005782e-01 5.110000000000003428e-01 -1.020000000000004237e-01 4.500000000000017875e-02 7.370000000000005436e-01 8.150000000000006128e-01 -8.020000000000006013e-01 8.630000000000006555e-01 1.393999999999991246e+00 4.570000000000002949e-01 8.720000000000006635e-01 7.900000000000007017e-02 -6.699999999999989297e-02 -2.380000000000002947e-01 -4.390000000000002789e-01 -2.500000000000000000e-01 1.155999999999997030e+00 4.890000000000003233e-01 7.740000000000005764e-01 7.800000000000070766e-02 6.220000000000004414e-01 -6.900000000000005018e-01 -4.360000000000003317e-01 6.040000000000003144e-01 4.980000000000004423e-01 -1.439999999999999059e-01
