2.740000000000001323e-01 8.060000000000006048e-01 5.400000000000003686e-01 -4.199999999999996791e-02 -2.369999999999999052e-01 8.600000000000006528e-01 -5.500000000000013212e-02 3.410000000000003029e-01 3.870000000000002882e-01 4.650000000000003020e-01 4.090000000000003078e-01 1.999999999999989980e-02 6.080000000000004290e-01 6.370000000000004547e-01 4.590000000000002411e-01 -7.700000000000001288e-02 -8.199999999999996181e-02 -9.300000000000007150e-01 -7.430000000000005489e-01 7.480000000000005533e-01 9.310000000000007159e-01 4.200000000000003730e-01 8.199999999999996181e-02 6.990000000000005098e-01 -2.040000000000000702e-01 2.590000000000001190e-01 4.060000000000002496e-01 2.000000000000548214e-03 5.350000000000003642e-01 4.960000000000003850e-01 -7.500000000000003886e-02 1.750000000000000722e-01 5.470000000000003748e-01 4.250000000000002665e-01 -7.310000000000006493e-01 5.320000000000003615e-01 2.800000000000001932e-01 -7.030000000000005134e-01 -4.500000000000003997e-01 3.060000000000001608e-01 3.340000000000001856e-01 4.550000000000002931e-01 -5.710000000000003961e-01 2.060000000000000997e-01 1.730000000000000704e-01 -2.029999999999999027e-01 7.899999999999986200e-02 1.900000000000003769e-02 -2.220000000000000306e-01 -3.410000000000000808e-01 -3.320000000000002394e-01 7.510000000000005560e-01 5.860000000000005205e-01 -1.820000000000000229e-01 -3.600000000000000422e-01 8.430000000000006377e-01 -3.870000000000002327e-01 -1.609999999999999765e-01 5.599999999999935585e-02 9.500000000000008438e-02 1.640000000000000902e-01 -5.430000000000002602e-01 7.730000000000006866e-01 -6.599999999999994760e-02 -3.010000000000001563e-01 6.460000000000005738e-01 6.370000000000005658e-01 -5.000000000000033584e-02 -2.290000000000002589e-01 -2.170000000000000817e-01 -3.230000000000000648e-01 -2.669999999999997931e-01 2.610000000000001208e-01 -1.390000000000001235e-01 5.240000000000004654e-01 3.170000000000000040e-01 3.250000000000001776e-01 -5.600000000000002198e-02 -7.500000000000005551e-01 4.030000000000003024e-01 -8.800000000000005040e-02 -8.200000000000004508e-02 3.230000000000002314e-01 4.900000000000003242e-01 -2.750000000000000777e-01 4.700000000000003064e-01 4.510000000000003451e-01 1.510000000000001619e-01 -7.030000000000004023e-01 2.870000000000004770e-01 2.680000000000001270e-01 2.510000000000002229e-01 -1.609999999999998932e-01 8.310000000000006271e-01 6.160000000000004361e-01 -1.800000000000003680e-02 2.250000000000001443e-01 4.180000000000003157e-01 2.260000000000001452e-01 -1.749999999999998779e-01 9.999999999999986677e-02 1.900000000000001132e-01 -2.700000000000000178e-01 -3.850000000000001754e-01 4.220000000000003193e-01 1.789999999999997704e-01 -5.099999999999980937e-02 -1.200000000000008005e-02 -4.700000000000000011e-02 3.300000000000001821e-01 -3.370000000000001328e-01 1.149999999999999772e-01 -3.390000000000002456e-01 -5.260000000000003562e-01 4.920000000000003815e-01 5.800000000000004041e-01 -1.349999999999998979e-01 4.450000000000003952e-01 9.000000000000028810e-02 -1.809999999999997444e-01 -4.670000000000003038e-01 5.040000000000004476e-01 -1.950000000000001177e-01 -1.220000000000001639e-01 1.190000000000002028e-01 4.000000000000002442e-01 9.999999999999020089e-04 2.110000000000001319e-01 5.600000000000004974e-01 5.750000000000005107e-01 9.400000000000033329e-02 7.900000000000005906e-01 9.010000000000006892e-01 4.420000000000003371e-01 -2.510000000000001674e-01 -5.920000000000004148e-01 -8.799999999999995326e-02 7.060000000000005160e-01 -1.659999999999999809e-01 1.309999999999999776e-01 3.890000000000002345e-01 -4.700000000000003619e-01 3.100000000000011774e-02 3.999999999999987593e-02 -5.830000000000004068e-01 7.470000000000006635e-01 8.670000000000007701e-01 -3.320000000000002949e-01 4.770000000000003126e-01 1.449999999999999900e-01 5.550000000000003819e-01 -2.039999999999999036e-01 3.790000000000002811e-01 2.910000000000001474e-01 2.229999999999999760e-01 2.270000000000000906e-01 4.020000000000003015e-01 9.410000000000007248e-01 -2.830000000000000848e-01 3.270000000000001794e-01 8.150000000000006128e-01 -1.700000000000001232e-01 -1.189999999999998836e-01 -7.300000000000028688e-02 -3.540000000000001479e-01 9.840000000000007629e-01 3.050000000000002709e-01 3.840000000000003411e-01 -5.900000000000003020e-01 -4.500000000000002331e-01 -4.480000000000001759e-01 8.700000000000002176e-02 4.100000000000002531e-01 5.700000000000010614e-02 -1.100000000000004793e-02 1.470000000000001028e-01 2.690000000000002389e-01 9.999999999997992266e-04 6.020000000000005347e-01 -3.600000000000015687e-02 -1.200000000000014770e-02 2.070000000000001839e-01 1.410000000000000420e-01 4.320000000000002727e-01 7.980000000000005977e-01 -1.940000000000002278e-01 -2.080000000000000182e-01 4.530000000000004023e-01 5.640000000000003899e-01 -5.900000000000026751e-02 7.360000000000006537e-01 7.780000000000005800e-01 -2.190000000000002500e-01 -1.190000000000001890e-01 1.580000000000001681e-01 2.299999999999994410e-02 2.260000000000000620e-01 9.500000000000020928e-02 -9.000000000000019096e-02 1.400000000000000966e-01 3.580000000000002625e-01 7.020000000000006235e-01 -7.340000000000005409e-01 -1.009999999999999232e-01 -2.800000000000002487e-01 5.130000000000004556e-01 4.899999999999993944e-02 1.277000000000000801e+00 1.320000000000002005e-01 -4.800000000000027855e-02 -4.670000000000003593e-01 3.630000000000002669e-01 4.400000000000007377e-02 -4.400000000000002798e-01 -1.170000000000001039e-01 4.999999999999944593e-03 1.990000000000001212e-01 4.790000000000003144e-01 9.720000000000008633e-01 -1.560000000000001941e-01 8.480000000000007532e-01 -1.389999999999998737e-01 2.240000000000001157e-01 -3.699999999999999123e-02 -2.580000000000000626e-01 2.990000000000001545e-01 -2.410000000000002141e-01 2.560000000000001164e-01 8.890000000000006786e-01 1.280000000000001137e-01 -2.529999999999998916e-01 4.430000000000003935e-01 -3.650000000000002687e-01 3.550000000000003153e-01 3.199999999999973005e-02 -2.200000000000001399e-01 7.020000000000006235e-01 9.000000000000001055e-02 8.540000000000007585e-01 -3.240000000000002878e-01 1.820000000000001061e-01 4.360000000000003317e-01 5.250000000000003553e-01 2.840000000000001967e-01 2.210000000000001963e-01 3.810000000000002274e-01 3.380000000000003002e-01 1.399999999999972274e-02 -5.440000000000002611e-01 1.999999999999992756e-02 -7.450000000000005507e-01 3.490000000000002545e-01 6.130000000000005445e-01 -3.250000000000000666e-01 3.950000000000002953e-01 -3.390000000000002456e-01 5.090000000000003411e-01 -1.879999999999999449e-01 3.380000000000002447e-01 -3.320000000000000728e-01 4.310000000000002718e-01 1.100000000000000144e-01 -2.640000000000001790e-01 5.560000000000003828e-01 4.630000000000003002e-01 -8.599999999999996536e-02 1.700000000000001787e-01 -1.780000000000001026e-01 9.300000000000027689e-02 -5.850000000000004086e-01 1.900000000000001410e-01 5.000000000000131943e-03 2.670000000000001261e-01 1.065999999999994508e+00 4.999999999999917705e-03 4.640000000000003011e-01 2.400000000000001577e-01 -4.270000000000003793e-01 9.180000000000008153e-01 3.460000000000003073e-01 -1.880000000000001115e-01 5.470000000000003748e-01 -8.660000000000006581e-01 -1.600000000000064565e-02 4.620000000000001328e-01 3.260000000000000675e-01 -3.999999999999986899e-02 8.820000000000006724e-01 4.770000000000003681e-01 -3.080000000000001070e-01 4.620000000000004103e-01 9.100000000000013634e-02 7.530000000000005578e-01 5.190000000000003499e-01 3.680000000000002158e-01 -6.300000000000011147e-02 -2.309999999999997611e-01 -1.379999999999994287e-01 1.610000000000002540e-01 9.500000000000007327e-01 -5.699999999999998124e-02 1.370000000000000662e-01 3.490000000000002545e-01 -2.200000000000000844e-01 3.660000000000002141e-01 7.550000000000005596e-01 1.509999999999999121e-01 6.510000000000004672e-01 2.700000000000001288e-01 -4.950000000000000511e-01 8.799999999999991163e-02 3.280000000000002358e-01 5.190000000000004610e-01 -3.160000000000001696e-01 5.870000000000002993e-01 1.310000000000001996e-01 -4.300000000000024636e-02 -5.560000000000003828e-01 5.040000000000004476e-01 1.200000000000000233e-01 -2.680000000000000715e-01 4.260000000000003784e-01 4.390000000000003344e-01 -2.190000000000000280e-01 7.090000000000005187e-01 7.800000000000018030e-02 -8.100000000000001643e-02 1.990000000000001767e-01 4.220000000000003748e-01 1.300000000000059094e-02 5.800000000000005151e-01 6.500000000000004663e-01 -3.199999999999965372e-02 5.010000000000003340e-01 8.400000000000006350e-01 1.180000000000001048e-01 8.510000000000007558e-01 -1.339999999999999525e-01 7.900000000000005906e-01 6.420000000000004592e-01 -1.270000000000002516e-01 6.570000000000005835e-01 6.110000000000004317e-01 -1.559999999999997500e-01 -4.350000000000003864e-01 -4.110000000000002540e-01 3.250000000000002331e-01 4.500000000000002887e-01 2.750000000000001887e-01 -1.180000000000000354e-01 -2.109999999999998543e-01 4.530000000000002358e-01 -2.960000000000000409e-01 5.820000000000005169e-01 7.180000000000006377e-01 -2.160000000000002474e-01 5.080000000000003402e-01 -3.199999999999948719e-02 1.000000000000000333e-01 5.730000000000003979e-01 7.770000000000005791e-01 2.810000000000001386e-01 3.680000000000002158e-01 2.440000000000001612e-01 4.660000000000003029e-01 1.340000000000000357e-01 3.000000000000000999e-01 2.270000000000002016e-01 1.380000000000000948e-01 2.300000000000005512e-02 7.310000000000005382e-01 -1.199999999999997423e-02 -2.570000000000000617e-01 2.469999999999999973e-01 5.680000000000003935e-01 2.030000000000001248e-01 4.500000000000003442e-01 2.450000000000001066e-01 5.930000000000005267e-01 -2.560000000000001719e-01 8.550000000000006484e-01 1.560000000000001386e-01 6.070000000000005391e-01 4.030000000000003024e-01 -1.420000000000000984e-01 5.190000000000002389e-01 4.110000000000003650e-01 3.050000000000002709e-01 2.570000000000001728e-01 1.059999999999998443e-01 5.230000000000004645e-01 1.590000000000001135e-01 -1.660000000000001197e-01 2.710000000000002407e-01 -2.600000000000016881e-02 -2.940000000000001501e-01 5.950000000000004174e-01 8.400000000000006073e-02 3.990000000000002989e-01 4.700000000000003064e-01 8.030000000000006022e-01 -1.800000000000000488e-01 -1.450000000000000733e-01 -7.200000000000009170e-02 1.119999999999999746e-01 -9.799999999999998990e-02 -2.670000000000000706e-01 8.030000000000006022e-01 -2.470000000000001084e-01 6.510000000000005782e-01 1.440000000000000724e-01 4.599999999999986044e-02 4.650000000000003020e-01 -5.530000000000003801e-01 8.120000000000006102e-01 4.360000000000003872e-01 -2.380000000000001559e-01 7.200000000000017497e-02 4.710000000000003073e-01 8.400000000000018563e-02 5.580000000000004956e-01 2.680000000000001270e-01 -1.410000000000001252e-01 -1.609999999999998099e-01 7.480000000000006644e-01 2.820000000000001950e-01 -3.100000000000005876e-02 7.999999999999996003e-02 -2.280000000000002580e-01 1.080000000000002069e-01 4.650000000000003020e-01 5.320000000000004725e-01 -3.400000000000003020e-01 -8.730000000000007754e-01 4.000000000000019512e-02 1.510000000000003284e-01 2.210000000000000575e-01 -5.820000000000004059e-01 3.690000000000002167e-01 -6.040000000000003144e-01 4.499999999999978323e-02 8.360000000000006315e-01 4.220000000000002638e-01 -4.620000000000002993e-01 5.350000000000003642e-01 2.590000000000003966e-01 -3.830000000000003402e-01 4.380000000000003335e-01 2.680000000000001825e-01 4.890000000000003788e-01 4.040000000000003033e-01 -9.000000000000080852e-03 6.700000000000033706e-02 5.730000000000005089e-01 -5.400000000000009653e-02 7.570000000000006724e-01 1.023000000000000131e+00 8.070000000000007168e-01 1.390000000000000679e-01 -2.470000000000000251e-01 -9.700000000000000289e-02 3.160000000000001696e-01 4.540000000000003477e-01 1.760000000000001008e-01 1.210000000000000797e-01 3.350000000000002975e-01 -1.499999999999997342e-02 3.500000000000002554e-01 4.740000000000003100e-01 1.390000000000002067e-01 3.820000000000002283e-01 3.200000000000001732e-01 4.490000000000002878e-01 5.040000000000003366e-01 3.910000000000002918e-01 -3.360000000000001874e-01 4.670000000000003038e-01 -1.310000000000000053e-01 3.450000000000002509e-01 8.590000000000007629e-01 -2.120000000000000773e-01 -5.160000000000003473e-01 1.950000000000000344e-01 1.040999999999999925e+00 -3.100000000000002198e-01 -1.740000000000000158e-01 1.910000000000002252e-01 -2.100000000000001865e-01 4.770000000000003126e-01 2.510000000000001674e-01 4.600000000000002975e-01 4.280000000000002691e-01 3.399999999999986366e-02 3.950000000000002398e-01 2.330000000000000127e-01 -4.100000000000003086e-01 3.800000000000002265e-01 1.560000000000003328e-01 -2.670000000000001816e-01 -2.440000000000000502e-01
