-9.772425160468947714e-02 1.397957716985523922e-02 1.178373186716711318e-01 -1.210785266665601601e-01 -4.458812376865287780e-02 2.496627679425373562e-03 7.758671207999156064e-04 4.306407770288586678e-02 -4.406188573394855153e-03 -1.386643886296698436e-02 5.733457576495883112e-02 -2.808130276767302480e-02 -5.016797184226763628e-02 -1.019412130286137183e-02 -3.489275167510749731e-02 -1.139844890418810347e-01 -1.035069371268064198e-01 -8.252660385498586382e-02 -1.933501327972955985e-01 -2.857058590938834144e-02 -6.457010518645663749e-03 1.008679835497228432e-03 -1.458096647703991874e-02 3.166730455411595133e-03 -1.141591235829956669e-01 -8.107255193950435590e-02 -3.181981807801039647e-02 -8.244072643387169441e-02 1.897251408165817957e-02 4.999721182904921790e-02 -8.682218073299793892e-02 -1.091407466029169632e-01 -1.337537437927529826e-01 6.131056973310925091e-03 -1.122035932350363974e-01 -2.402078708919535774e-02 -3.929083323726549615e-02 -7.102148753113320112e-02 -8.894241565472167654e-02 -4.913735555262488397e-02 -7.218543997467137541e-02 -8.522575278938529508e-02 -1.891469897793912058e-01 -7.534507843586320773e-03 -1.292076753034491696e-02 -1.129200508336233172e-01 -1.051123662894246774e-02 -6.554107004212131327e-02 -8.297565636903264652e-02 -1.875398069672656876e-01 -8.339235337689671068e-02 5.852478423471766528e-02 -4.595857277903420829e-02 -5.924627841904670650e-02 -1.080958315283667287e-01 -4.843209048138673312e-02 -1.722911550118499391e-01 -4.621727491086956990e-02 -2.191799507054542281e-02 -4.561081572291766917e-02 -8.484930997773027297e-03 -1.362907870761768114e-01 1.227282303653419622e-02 -2.677043190190983579e-02 -1.066626698429359449e-01 -1.223873406532728983e-02 1.697430559755450097e-02 -2.134324759568102109e-02 -1.004967042456684778e-01 -1.772734901760794624e-02 -6.325497300063589665e-03 -7.470443947426107234e-02 2.927268851376966033e-02 -6.524748792540972786e-02 -4.447274092545834556e-02 -1.380712111044286481e-03 1.231265092649875929e-02 -5.095651006960055102e-02 -1.951368193552040498e-01 -7.931158126907705830e-02 -1.116344520003049456e-01 -7.126363387703128771e-02 -5.304880025478256322e-05 -8.054761705431298657e-02 -9.805049641440653774e-02 -7.905112121284264826e-02 -1.419363025610841933e-01 -3.695516095800704948e-02 -1.181979232321566931e-01 -6.182837855862618331e-02 -4.914086570269592807e-02 -2.548351253191314184e-02 -1.054651494100751485e-02 -2.427346352696004711e-02 -5.103503120453982411e-02 -7.741600134141431167e-02 -6.508024586531727107e-02 5.440503375155387317e-02 -2.188994929737287862e-02 4.274953682410228759e-03 -8.735794246026785947e-02 3.387873337753124353e-02 -5.887130971686886649e-02 -9.775139904949151082e-02 5.144583769331827899e-02 -1.004222542312529776e-01 -1.189050754683438488e-01 -5.548392109554060869e-02 -3.951412236730805078e-02 -1.234564722998721387e-01 -5.188261421485644564e-02 7.789175714116111648e-02 -2.132883611827973008e-02 -8.669118753858681692e-02 -6.818813404816253393e-03 -3.123163768896607129e-02 -8.490635117055922443e-02 -8.696898486394298577e-02 -1.157666095206479201e-01 -6.715956618004620404e-02 -2.803163646439770992e-02 7.703888599958040595e-03 -1.069233486041225867e-01 -4.927655885592254620e-02 -6.719051424082920013e-03 -1.593266201696241086e-02 3.463970900642714124e-02 2.006868825600597803e-02 1.466319068425217531e-02 4.592018434953944184e-02 -2.488614754245985564e-02 5.706065768500087620e-02 -4.629194300747922763e-02 -6.500208976612438516e-02 -8.262666844354023266e-02 -4.530381952508662213e-02 -1.640626090344148302e-01 5.013941430867288954e-03 -8.158077631296115073e-02 5.123817231277681683e-02 -1.485905515575662757e-02 -1.138411722341331478e-01 5.926992018024154762e-02 -2.494023132800052625e-02 -9.112156641729961259e-02 -2.303148957616068995e-03 8.894716134845510186e-03 -6.620981480088672377e-02 -3.282277482086447956e-02 -2.487357779373109909e-02 -1.580683777301274684e-01 -8.887756821138627361e-02 -5.001766756502751266e-02 -1.028908764936519588e-02 -7.906112759200471796e-02 5.477154795327987200e-05 -5.633307473989936087e-02 2.119665931902823749e-03 -6.433486640315473626e-02 -8.864724232869244935e-02 5.859021530303582664e-02 -7.018830024792267752e-02 -1.144288252759998181e-01 -6.513204075617437527e-02 -1.192894443263029791e-01 4.644624521422812020e-03 -9.700977532989253638e-02 -3.096277420426153670e-02 -1.202894401544588737e-01 -1.759459876773797060e-01 -1.174543535476231387e-01 -9.647648945392732836e-04 -1.743428537621706867e-02 -3.094419274605759301e-02 -1.103340418988022070e-01 -2.882397021450732941e-02 3.226343722142543252e-02 -3.638919118412782538e-02 -2.349493095885631794e-02 -1.320123205669047617e-01 -1.006175679669765177e-01 -8.640981729038854295e-03 -1.973465275452286269e-02 -4.166918266385313124e-02 -2.503866890411092505e-02 1.412978031164859559e-02 -5.509333848048337395e-02 1.775523548533669907e-02 -2.380005004100547994e-02 -9.857642627921898992e-02 -3.318434657094731371e-02 6.103518118477791604e-02 -1.201410517634393382e-01 -3.915453250011776548e-02 -1.055944899431403572e-01 -2.838648313487552102e-02 -2.698284909184219676e-02 -8.018136330119311761e-02 -7.697065339581071752e-02 -9.819943921454847569e-02 5.303988848865408973e-02 4.045537810523297528e-02 -1.347122902084691987e-01 1.889946432878801194e-02 -3.832778378677322018e-02 -1.949812239659401425e-02 2.915889230668886750e-02 7.949768641965518357e-02 -1.794396079973928273e-03 -1.101768045132630602e-01 -7.309324872296932285e-02 3.259699936228867972e-02 -1.078635684559363650e-01 -1.465612944571173248e-01 -6.329085641654118299e-02 -6.880775492097347679e-02 1.056540711547563835e-02 3.196233923154355189e-03 1.375659007536469969e-02 -1.506971987092055043e-01 -5.234481477352467133e-02 -1.011688847835778282e-01 -9.301911336508907058e-02 -7.035497121979258917e-02 -8.765318888734326130e-02 -8.681471633921068742e-02 -1.228867165585820487e-01 2.047176958243528133e-02 -4.006126531892419823e-02 -5.720877734361660277e-02 -3.114940228027960473e-02 -9.749077421054012926e-03 -9.965324605354843046e-02 -5.913984929049736355e-02 -8.621457760157701100e-02 -8.024321205887641195e-02 6.762516123543814602e-03 3.910039637051081901e-02 -4.838072607722591900e-02 -1.316222308212570691e-01 7.838314922406819374e-02 2.112405616206650821e-02 -9.318353981350337156e-02 -7.114209310272702480e-02 -5.164262524953140004e-02 -3.580150582794483505e-03 -3.725748427111687244e-02 -8.107596318796025936e-02 -8.698667772164654644e-02 -2.860085746680583393e-02 -2.323255956316452181e-02 -6.228632732353594006e-03 -6.219372395620913208e-02 -8.730378471411098795e-02 -4.542436167741460001e-02 -5.033622411777038258e-02 2.542809054069974234e-03 -1.272901809490895042e-01 -2.076604323333226462e-02 -9.334297061421609198e-02 -2.312081773995310757e-02 -6.932758778534281463e-02 -3.916633008434072805e-02 -7.840006186146757095e-02 -2.566039624948184689e-02 -2.052565569202276577e-02 1.477422785666515290e-02 -8.805714506680412113e-02 2.414948139410378301e-03 -6.072345237547694535e-02 2.984389708553874913e-03 -5.417550942088702332e-02 2.132346166875982024e-02 -3.731621642071283190e-02 -1.184189090013791912e-01 3.451449962051744702e-02 -7.889796118964695348e-02 -1.015904604399141126e-01 -4.156000612462360314e-03 1.071489055869774554e-02 -1.138138799687811731e-01 7.827785241048113019e-02 -2.287692397261887611e-01 -3.260326601660806095e-02 4.291950278657590684e-02 -1.449013304140357727e-01 -1.269043417524502448e-01 3.395942902714510665e-03 5.350501212616540908e-02 -1.226861333327683434e-01 -9.679548788115825697e-02 -3.325217565747150966e-02 -2.664315976929434657e-02 6.854461363283557984e-02 -6.119450676883259749e-02 -2.643292786688406990e-02 -1.144375188942667321e-01 -7.276175698802556102e-02 -6.583362532700308412e-02 -5.610075379908228965e-02 -1.199975257935314565e-01 5.367855194476375477e-03 -2.704749369390692382e-02 -6.541942946257923996e-02 7.961838085075595428e-02 -1.885167612427413042e-02 -1.633965000246483806e-02 -1.451251276489876410e-02 3.010369835572491645e-02 -8.595739838958657564e-02 -4.184703783481176498e-02 -7.348134718594171236e-03 6.883634802587034612e-03 -1.143193639515900917e-01 -3.893851253727440009e-02 -4.550331113828506163e-02 -5.311882447257016554e-02 -1.186082292876375482e-01 -7.238623982136350998e-02 -1.680929949761750253e-02 -8.767628381520302383e-02 2.619714844850342186e-02 2.574418867155267923e-02 -3.186388727228760785e-03 2.008171179575777773e-02 -6.588552219083509964e-02 -1.382912065383346337e-03 -2.289501193717244018e-02 -6.964511432229461563e-02 4.761173270355092274e-02 -3.649705965230503474e-02 -2.500740765164138207e-02 5.787263916039423958e-03 -1.431720144034423752e-03 -3.861303915843799367e-02 -6.861993192255880225e-02 -9.467115871597653332e-03 -7.729338891503458042e-02 -7.368574409181852594e-04 6.208034192581108474e-02 -3.315080234530142639e-02 -2.118057076208604284e-02 -7.698126589503805073e-02 -1.407755635643939129e-01 -8.767392618573216501e-02 -1.317591331206346417e-01 -6.766420373392961762e-02 -1.520127259922893215e-01 -8.327739701172480122e-03 -7.258679593929148743e-02 -9.336699828506602253e-03 2.189110715521189882e-02 -3.689408900449946821e-02 -1.222638098975999121e-02 2.904720436895078667e-02 -1.435279334161659037e-01 -7.304531208313869151e-02 -1.263243765975523569e-01 -1.074787322616949647e-01 1.946108055511056034e-02 4.939352019218967715e-03 -6.070929378700048312e-02 -2.040935244733076484e-02 -9.607663146446952795e-02 3.048151005795136231e-02 -1.184154932924354892e-02 -4.909318082737593181e-02 -4.465384381381355683e-02 1.341701859828471448e-02 -7.745066150840197727e-02 4.002096424477508824e-02 -3.166840911214688359e-02 -9.512516600681937551e-02 4.740205172432437192e-02 -7.746107777786338799e-02 -4.537875063948356574e-02 -3.161097311936886950e-02 -5.968762606782331698e-02 1.063564548854761260e-01 -4.277201092274991734e-02 5.786557089893487951e-03 -1.150477073219858537e-01 2.689928466811270305e-02 2.041777233166172656e-02 -1.106462809933639602e-01 -4.736146024526946552e-02 1.369922573189782944e-03 -9.652852347143494466e-03 -3.627144782878130927e-03 -5.720669507866058684e-02 -7.707843778029266693e-03 -7.665670148391362515e-02 -1.116224194987859575e-01 -6.218563730574863668e-02 -3.911441174247554109e-02 -1.250850979580332145e-01 9.731583360017205531e-02 -4.746282539378803011e-02 -5.649033807339714358e-02 -2.088809522197204727e-02 4.973261868645097866e-02 -1.294490759146056102e-01 -1.036041200332998014e-01 -6.606116565495825932e-02 1.962636713540776359e-02 -5.009230088901219652e-02 -1.320794514531341834e-01 -2.917727014293678214e-02 -1.173772382738281495e-01 -1.586713860101919560e-02 -7.062663314345506496e-03 -1.246222236146631163e-01 -4.143860428036659493e-02 -2.619942505771986896e-02 -6.722721975127035621e-02 -3.258946546924362808e-02 -1.628402955994810164e-01 -9.708021124385275702e-02 -4.238301626519676291e-02 -6.092829002918898756e-02 1.190029691176421045e-02 -1.149415823004904802e-01 -1.205085636021794443e-01 -4.285174273064593087e-02 -6.523731131723541077e-02 -4.004180650750942955e-02 -1.324940301144497123e-01 -4.774192584474357126e-02 -5.229474180941352107e-02 4.139823548579781715e-02 5.212158512976998448e-02 3.407918317327653795e-02 -9.822155006806239548e-04 -1.321188830881897813e-01 -4.354630116591664407e-02 -3.357311271280018911e-02 -4.052911129525930967e-02 -9.359089923096571006e-02 -5.070858432301242336e-02 -5.246150120116331583e-02 -4.654088874211333160e-02 -2.528405026103288863e-02 2.033964359758334839e-02 -8.802915952938387967e-02 -5.877416757844901307e-02 6.508749790534010260e-02 -1.135236006341842907e-01 5.365624720073165765e-02 -4.087518332232326079e-02 3.475621671617284969e-02 -6.540211275716079076e-02 -1.457380251425528794e-01 -4.095823107773118033e-02 -4.563836264145498811e-02 -1.590539896203797127e-03 8.357091035136632318e-02 -2.169117003056364977e-03 4.991116753330428896e-02 -8.146705705827780863e-02 -1.076414014825067406e-01 -1.772986982400744094e-01 7.271565310609477695e-02 -2.495444504557953885e-02 -1.004193174937853886e-02 -3.558351469913514226e-02 6.814851476193780830e-03 -1.708682437120228811e-02 -3.794719135374966662e-02 -7.114287070267920343e-02 -1.317897690581081582e-01 2.103884664363603677e-02 1.173988079935258874e-02 5.097646433933432364e-02 -1.292995367314433153e-01 -3.312751750010870661e-02 -7.409954417979702779e-02 -6.369126738495672901e-02 -1.496002695809138805e-01 1.170795281144166450e-02 2.283299885219673697e-02 -2.950639593357582899e-02 -7.856803405045525990e-02 -3.632764184241835895e-03 4.175085623158188153e-02 -1.357878684023267613e-01 -8.087428294295727349e-02 -6.912462603494028135e-02 -9.599090680116205421e-02 -2.779228808850490659e-02 -7.004158315131524259e-02 2.787220304308971747e-02 -7.341134351445942341e-02 -1.385138222621887759e-02 3.604759751703372900e-02 -1.395115767061770318e-01 -7.818700230287452257e-02 -3.849621899718717877e-02 -2.691958049683510629e-02 1.070347830612594989e-02 -8.888258168605232823e-02
