-6.420004978937166040e-02 -5.577268186049065546e-02 -4.003575856047698195e-02 -1.625820380140545821e-03 5.890286418438644978e-02 8.648817912677836395e-02 1.498389779043480252e-01 3.274147747078466619e-02 4.837280194302743391e-02 -1.543785810348264897e-01 4.382999316056497563e-02 -8.100072920482402627e-02 -1.652698903710747014e-01 -9.433503660057200590e-02 7.984859169383286270e-02 -1.225472743122190400e-01 -1.553543776124855225e-01 -5.675149063235586377e-02 1.727670569781168675e-02 1.767571778314963940e-02 -8.169431979874197669e-02 1.450410239065005533e-02 5.327660305769231497e-02 -6.252750004467554079e-02 1.648593043037333006e-02 -6.644618109725097810e-02 -1.390208669360633864e-01 -5.077097926581165821e-02 -1.278388542420681728e-01 -6.458330473152977536e-02 -5.124976429262367156e-02 3.995123859137401923e-02 -2.573777336970365856e-02 -1.185652895062940665e-01 2.074613994857059732e-02 9.869779015034917113e-02 -4.922531855425888933e-03 -1.181682556545470691e-01 2.935064942398451365e-02 -1.758956458487772601e-01 6.560541094027203153e-03 -5.114440970605777653e-02 -8.529483726858540227e-02 -2.168881337011344668e-01 1.509605686658474456e-03 4.580766805954845401e-03 -4.360732729771664429e-02 -1.984016973597927669e-01 4.612142246347199215e-02 3.370847135767075786e-02 -1.334401447429820198e-01 4.236084143113839212e-02 -1.674495942752393662e-01 -1.331518396605691490e-01 2.872699173566067854e-02 3.898745368969742248e-03 1.694783375902247924e-02 -7.759295746526863324e-02 -4.505195644125453008e-02 -9.413502448337532358e-02 -6.358382141599856763e-02 -1.318151514030884708e-01 -4.256004952818010639e-02 -8.875320226007071822e-02 -1.128565675703023935e-01 -1.244166438197578939e-01 -8.388799887474389372e-02 -1.049816432751830425e-01 -8.126498708749223254e-02 -8.796278699415553681e-02 -2.568977668907738727e-03 -2.705805660452249503e-02 -4.096288246100556613e-02 -3.296751907700057327e-02 3.914196490855477439e-02 -4.335315417508654040e-02 -1.187666695340013068e-01 -8.900736646580589828e-02 -3.166584114252703197e-02 -5.120596219888885747e-02 -1.634565932238939145e-01 -1.786782957214388123e-01 8.349868681825230177e-02 -1.015783841969830070e-01 -1.060506242074936781e-02 -4.535253589657518847e-02 -1.277692322657012769e-01 9.363085305067304909e-02 -3.144868232200324909e-02 -1.174341293953532761e-01 -1.506409150530536867e-02 -5.224710014971852001e-02 -1.274540243325641142e-01 4.075007670543195903e-02 5.634595780333283288e-02 -7.174767376540588937e-02 -5.892631300157750995e-02 -5.746749728543296132e-02 1.801388148312995253e-03 -2.668975519738346625e-02 -7.983406879035996606e-02 -2.735652026536207568e-03 -1.852123877557219633e-01 -9.158212208278201927e-02 -1.419970984851212734e-03 -5.763259212657112496e-02 -4.443998795529122137e-02 -1.244764823217835575e-01 -9.106692060984360182e-02 -1.326615477088460004e-01 -9.661245262736643802e-02 2.452690017487771032e-02 1.860708363792922329e-02 7.002097182487795890e-02 -2.991028807097702649e-02 -1.034862814235576467e-01 -7.675776375185265621e-02 -9.881401888504297293e-02 2.407969325859330659e-03 -3.021657380398116641e-02 -1.618294850844201327e-01 -3.665386127965839652e-02 -1.401858880944935604e-01 4.665888539692607945e-02 -2.963208229451285564e-02 -1.126858082700332025e-01 -5.221393459874218435e-02 -5.980909779136276555e-02 2.997717845503604026e-02 2.081669244403275970e-02 -1.622681560040219739e-01 1.084203539018827392e-02 -5.990855615985504756e-02 6.543939229154608836e-03 -9.168349902387566697e-02 -7.230384793056608694e-02 -6.442356387010436669e-02 -1.040733930692593345e-01 -1.218005898716201657e-01 -3.993940631921882520e-03 -2.071435730148305648e-02 -1.603121330366290564e-01 6.798024385006022630e-02 -4.053830443028888508e-02 1.017942750516979446e-02 -2.529642572495601274e-02 -9.473654670009791501e-02 5.264427239711039555e-03 3.217982280940504675e-02 -1.016921640911148533e-01 -4.760297895355003472e-02 -1.015136015567542904e-01 -6.520143595985151974e-02 -1.939247662540340422e-01 -1.612559435095066718e-01 -8.147159479005544602e-02 -1.462936026894684320e-02 -1.227885771998255271e-01 -5.130453022252973172e-02 -1.734453044110180198e-01 7.435381250276439091e-02 -1.740593114570972710e-01 -1.066081302489100824e-01 -2.000778239340015099e-02 -7.187942075523054419e-02 -8.800337332596096240e-02 2.345072281552330190e-03 -1.174106553141939513e-01 -4.916497886904212800e-02 -5.211652809219077809e-03 -1.578775314051882317e-01 -1.019344923170553557e-01 4.321652383953594051e-02 -4.820538354108443169e-02 7.701600448960278789e-02 -7.166418360456623671e-02 -1.584276737079747411e-03 -6.157809444414238942e-02 -7.770796076244748662e-02 -1.448224802911664555e-01 5.379697145267870600e-02 -1.590329689463881313e-01 -1.575729479286171464e-01 2.759419359584969916e-04 8.975721241184532722e-04 -1.194643940411312388e-01 1.727100384924000823e-02 -1.649578548113306287e-01 2.579043893906254881e-02 -8.509675378493204712e-02 -1.187233443170583602e-01 -6.301927097338426431e-02 -1.430156917089276669e-01 -1.289524781101881179e-01 -1.264176669314662493e-01 -8.350239272141123104e-02 -8.259003819732360641e-02 -8.248639406169371024e-02 -3.482070612839870127e-02 -9.735242376501705708e-02 1.644493081694865105e-02 -1.653405550602662644e-01 -6.922415877264055661e-02 -1.353006953690253922e-01 -3.072107572878402318e-02 -8.773432254641580497e-02 3.737499977028234388e-02 6.637541907090972748e-02 -1.409332479927314641e-01 1.567309741665551259e-02 -8.092153659402424870e-02 8.880503552686168367e-02 -5.999535556216413490e-02 8.236893469207239027e-02 -1.247220129402607930e-01 -4.008436147428127289e-02 -5.053529221551031347e-02 3.463695879517875859e-02 -1.411557740101922753e-01 -2.102238776304546641e-01 -3.346136612562247703e-02 -3.734519616129753500e-02 -3.196748953586742853e-02 -1.495095702925222647e-01 -4.933761362164807568e-02 -1.484776947529494462e-01 -8.859230861831782211e-02 -8.253964157453701211e-02 -9.716107893093231529e-02 3.121335677106802653e-02 -1.803954319523126126e-01 -9.867833968393577293e-02 -7.588243101488280178e-03 -7.864126055859774200e-02 -3.422159448045659913e-02 -1.075924155114772740e-01 -5.562821900048893833e-03 -3.296663383478913578e-02 -4.903675808350546617e-02 -1.343538721226808508e-02 -8.849091769367989357e-02 -1.061138576454823679e-01 5.214720833476917637e-03 4.422905086496921323e-02 1.526936997088276099e-03 -2.810574688911274613e-02 1.186924528004326684e-02 1.042698974609806289e-02 -7.998738195544011220e-02 4.730021393296935522e-02 -1.589935220739560062e-01 -8.634474682486731334e-02 -1.457406803459914413e-01 4.355485552365533780e-02 -1.349091629081107524e-01 -8.637813690483545082e-02 -8.292669032804697582e-02 -1.730361781774968633e-01 -4.349504355534283828e-02 -1.358946152410333841e-01 -1.233223165193564758e-01 -3.655595659005847486e-02 5.122866602412922722e-03 -4.548336918376463811e-02 2.279524021041129996e-03 -1.145455887140942597e-01 5.731269064332915331e-02 -5.137048013326822593e-02 -4.460463416655216506e-02 1.644113294883217669e-02 1.996654296830438491e-02 -1.672030357024280600e-01 -6.887855050681353231e-03 -1.054340172018160826e-01 -9.581119352219318042e-02 2.933297560364454826e-02 -9.223922458662839330e-02 -7.992814593119308697e-02 -1.412172084710462683e-01 -1.574256396989019424e-01 -1.151408472899759922e-02 -8.519197746389724213e-02 -4.589034880817013939e-02 -1.185784212555104772e-01 2.781503839735578049e-02 -8.705687367483644357e-02 3.124462216416177412e-02 -7.928883105975886858e-02 -4.230504737672530907e-02 -1.107873228227475443e-01 -6.996042179009324957e-02 -5.916367184580518385e-02 4.571572425844215581e-02 -2.673116490433961531e-02 1.480095277686674926e-01 -9.057525995578061262e-02 -3.683509967136427282e-02 -4.664253897743032840e-02 7.773579027183414886e-04 -5.240942154324498142e-02 -8.383093566891886006e-02 4.223470896061451429e-02 3.784265175893127692e-02 -5.014163988144836048e-02 -2.753327474585662293e-02 -6.438849809156750592e-02 -1.345697578942108563e-01 3.979859778215533855e-02 -9.857747681173838206e-02 -5.711061305885117845e-02 -8.626679085415801806e-02 -1.069008352148864086e-03 -1.380657583886328310e-01 -1.251164673932934068e-01 -7.667712153153805749e-03 -1.263418194670064831e-01 -1.081086839141547629e-01 7.133250457281456458e-02 2.395907020071694205e-02 -8.192330437529493636e-02 -1.198621387424979728e-01 -6.322775388615149705e-02 -6.469767973223244928e-02 -1.721106053714090700e-01 -2.328158534200971096e-03 6.003607014093353261e-02 -2.477428130969734979e-02 -1.553530965556505772e-01 -1.242853558321281304e-01 6.620707820530279120e-02 -1.878009775555815331e-01 -2.871299420933553712e-02 1.260982514306756563e-01 -2.500510152832085761e-02 -3.159395202605710939e-02 7.745884742691290514e-02 -2.821479493410108605e-02 -6.825253906967207462e-02 -4.051272034744243800e-02 -6.939963728615035354e-02 5.261709985001097184e-02 -1.679317208858556454e-01 -6.308765303438329530e-02 -4.099555840537374291e-02 -1.110818505289738189e-01 2.484063290027488727e-02 -1.150413258719312076e-01 3.043397391494879686e-02 -1.727110692324452731e-02 -9.994514159252303187e-02 5.006995661894170224e-02 -1.365220280233221950e-01 4.591114754122268410e-03 -1.827590571466160552e-01 4.525130265098643162e-02 -7.560162098949527176e-02 -5.247488694142023180e-02 -5.269068245767901532e-02 -1.888574410275006554e-01 4.154014203829912988e-02 5.495358595873796326e-02 -9.416024333956119971e-03 -1.910094189632826900e-01 -1.696087676194332483e-01 -6.414170063952207013e-02 -6.951643103002782056e-03 -9.211094364563794656e-02 3.206628425869441357e-02 -5.819616117324278443e-02 -1.414872447395594361e-02 -1.324961756399363477e-02 2.306961935559555255e-02 -1.532274301446183429e-01 1.333154426189439058e-02 -1.112839730582013686e-01 -4.017729603916959935e-02 -1.309034645499157767e-01 9.657422605740944091e-03 -4.581800907847520532e-02 -1.144217620304525951e-02 2.593579583521875634e-02 -5.825104760142256477e-02 -1.558810609015922055e-01 -6.866481653407947860e-02 -1.209158787424472470e-01 7.592485100083351535e-02 -1.651495102461595921e-01 -1.122800730002263547e-01 -5.294482899521994745e-03 4.922450481383248977e-02 -9.601862255799192836e-02 -5.045852656357326105e-02 -3.953584624860853602e-02 -1.180977003451003510e-01 -2.569138202344533120e-02 -5.945729664257626973e-02 -9.376192622920473396e-02 -1.629542253488451206e-02 -1.460711348311228841e-01 8.717150231824619122e-02 -4.756022264256042770e-03 -4.316746774782541374e-02 3.176681974571663597e-02 -2.807091528033890671e-02 1.337472254351354702e-02 -4.576401988073596633e-02 -1.633930048243237565e-01 -1.413340996389274573e-01 -1.334968877127609699e-01 2.974814747311107024e-02 -1.269580315149720917e-01 1.342038599134640596e-02 -2.067037950558900106e-01 -6.660924896220743463e-02 -8.741450388014550266e-02 9.878424698515106406e-02 -9.248299238200158312e-02 -1.953293702748644389e-01 -8.265658925372966481e-02 -9.796369012968873802e-02 -8.179725401739726398e-02 3.783054088910255131e-02 -2.147308409830455955e-01 5.992064036688038095e-03 -9.284654520074021866e-02 4.149608720973525788e-02 -2.316650238400571465e-02 3.215331594497903428e-02 6.604800297062166613e-03 -1.365455012870089302e-01 -9.260615241194140868e-02 -1.702403268993064878e-01 -5.275923295760991810e-02 -1.262490927455424961e-01 -7.330457664392514561e-02 -5.777440552152137559e-02 2.730376585012126225e-02 -1.510040546439454789e-01 -4.921321044783944637e-02 -1.963104841671457594e-03 -1.313095539486991425e-01 -1.006209114043763869e-01 -6.627468324588504933e-02 9.760340152082701629e-03 -1.351462204369916764e-01 -2.347995082298489078e-01 -8.057158812855622076e-02 -1.257453128578989721e-01 -8.395320685741021471e-02 -1.099316630659232935e-01 -1.842825158780992678e-01 -1.807904937842446658e-01 -4.990166247610297590e-02 -5.942727498117954948e-02 -1.041425738379082588e-01 -5.755303363543160661e-03 -4.176747499849060158e-02 2.094168337112995576e-02 -1.251883551991840871e-01 -8.037709453900870882e-02 -9.461856464142731626e-02 -7.110075739742691137e-02 -1.350603163141751717e-01 -2.530101763923577052e-02 -1.661314465138463425e-01 4.779868802595802803e-03 7.374470983593425788e-02 -4.468407015950034283e-02 2.927584574517568330e-02 -1.207343440240907922e-02 -4.046321708609039794e-03 -9.541587709189618127e-02 -8.543116595980209532e-03 -5.887773722259573989e-02 -1.036139020107579023e-01 -1.029055839765899705e-01 -2.231415766878664352e-03 -7.222296695938588973e-02 -9.962502654089828991e-02 8.045534593283115710e-02 7.276304225692571334e-03 3.019690190843753175e-02 -2.849455922154880624e-02 7.667970258849335363e-02 -4.619364449584740379e-02 -1.371339447212131246e-01 7.442464506371994359e-02 3.177712491267486311e-02 6.679766421722285741e-02 5.897777869831027919e-02 1.790127109187042431e-02 -1.143386147874240200e-01 6.746707827723192295e-03 -2.652794639394658732e-02 2.228932951993110867e-02 -1.574446678132448429e-01 -7.095535010651474184e-02 2.456012743645214630e-02 -5.081637996969858018e-02 7.576587386594700602e-02 -9.626237597040418481e-02 -1.464164098804689451e-01 -1.368935224834831599e-01 8.381119397734146381e-02 3.530551455582663090e-02 -1.872664889669055921e-01 -1.368458583448355359e-01 -1.467973025808051446e-01 -1.098308764322059455e-01 -1.602853494490235897e-01 -1.156674341114307253e-01 -6.837372179715653364e-02 -4.768811536009674723e-02 5.391358735629731350e-03 2.189860859002245100e-02 6.548151237684315951e-02 -4.664590718582919265e-02 -9.465862840875839679e-02 -1.285198573607474748e-01 -4.318087105376613999e-02 -2.626096889634454284e-02 -2.829084597737768769e-02 -1.440720506185962091e-02 -1.897362210429163198e-01 -4.146987126602069001e-02 -1.382192731835052424e-01 -1.955538746582082682e-02 2.059253453276871024e-02 -7.677234596915064047e-02 5.443597627386741189e-02 -1.046970899478334716e-01 -1.212704753346865311e-01 -1.320946438663992417e-01 -1.327486591376275671e-01 -7.175004987541666601e-02 -5.261031405458311411e-02 1.003850728718048285e-02 6.311508032960148895e-02 -1.524417564579325923e-01 -6.450128279297290441e-03 3.592777194258298806e-03 3.961372983421971791e-03 -6.491801350046091934e-02 -1.487453893501704261e-02 1.572558960891936447e-02 -7.776426570698047325e-02 8.082524541444206789e-02 -1.425988176235616911e-01 3.311991363469278526e-02 -1.012158528292753101e-01 -3.398356173442323384e-03 -1.213959047473114339e-01 2.772836439120118096e-02 3.864542453104045060e-03 -1.449479596248541280e-01 -6.105736908238214300e-02 -1.127313290926769823e-01 -6.738697366711088321e-02 -8.242326526097501493e-02 -8.253047253875317457e-02 -5.297960884552427308e-02 -7.320818916565149936e-03 4.760391657913766450e-02 -8.788348620301485170e-02 -1.569198375612036456e-01 -1.233608070030764448e-02 -3.982143043741196570e-02 -3.646328011016117254e-02 -3.457612583365378411e-02 -1.131362083437693943e-03 5.318164306407919401e-02 -1.094770800232398450e-01 -1.365386000641620190e-01 -4.386465982830543842e-02 -5.429612129056855113e-02 -1.472717300419139896e-01 2.571809145214305065e-02 6.175701921762963287e-02 -1.277458288274496145e-01 -7.203045667829890975e-02 -6.381021871127416645e-02 -1.531858771777717398e-01 -8.805319922517465536e-02 -1.916643518239482397e-02 2.701441940096233063e-02 -3.041364799704292590e-02 -1.914374766345321166e-01 -2.440804305599404353e-02 -1.527355630823281404e-04 -4.104285565123869800e-02 -6.175837070963382386e-02 3.279406548123962872e-02 2.674054450310760223e-02 -5.934192175954890180e-02 -1.400396375582320385e-01 3.672269449286823945e-02 1.920183557709511518e-02 -1.432223714621689570e-01 -1.945312449060321025e-01 -1.210315288255596894e-01 -1.242162969691628094e-01 -1.739036717773493335e-01 9.987127307324435155e-03 1.982561403678460496e-02 -9.267114723256305447e-03 -1.708310064263855177e-01 -4.138477400032522513e-02 -6.027034374749543066e-02 9.235478421287076495e-03 -7.029223598657156902e-02 1.276234589964286015e-01 9.575967887192482486e-02 1.240537822816415239e-02 -4.680695097475749689e-02 -1.474259616275123697e-01 -1.504129112588333539e-01 9.349962175100712258e-02 -9.645707822836568912e-02 -6.511123823234581109e-02 -3.649770015908352511e-02 -1.136276009976174839e-01 -3.961975850877806626e-02 -2.015571801689296921e-02 -4.048291136721866162e-02 2.173594429791201807e-03 -1.906814319630583676e-01 -1.546340489932185591e-01 -1.076482908754456680e-01 -1.406145849548813831e-01 4.665618626166068150e-02 -1.345061700806002014e-01 3.227616372988193622e-02 -9.077764343624136756e-02 6.830230906166173677e-02 -9.950605043160923313e-02 -2.599131558296749120e-02 -6.739507001893439708e-02 -3.726484598759170763e-02 -7.935969539579104670e-02 3.525072509573953794e-02 5.987701709436233505e-02 1.921817552926530920e-02 -2.316785991097787545e-02 -1.729454026672993389e-02 -1.529347117619406782e-01 -1.920607218498456836e-01 -3.723939521447856144e-02 -1.021892672540905128e-01 -1.007628514591282429e-02 -1.039790698528979540e-01 4.688385506531252134e-02 -7.642003324476000226e-02 -2.062003207580905342e-02 -1.277451304015835565e-01 -5.790590049969424058e-02 1.512569218526215245e-02 1.414618994022811410e-02 -1.143385131670794086e-01 4.776726051729492106e-02 -7.435989117998502429e-02 6.390265989593815754e-03 -9.818045529259424031e-02 -1.096981349010310719e-01 -1.022387133089470990e-01 4.361846341129464733e-02 3.449727668346248832e-02 -1.530829939776589543e-01 -3.993480924251739672e-02 -1.174614346805345350e-01 -9.773250405162157983e-02 -5.426712396324739895e-02 1.244341636281282859e-01 -1.648887560885979875e-01 2.846016891525509837e-02 -1.581623459092471734e-02 9.509509284926645836e-03 -3.363227113329430445e-02 -1.017412515067313561e-01 -9.591274975851557527e-02 -7.758694027130276505e-02 -8.127942917063717132e-02 -1.192000870007939722e-01 -2.385392951030775380e-02 8.200183729866538512e-03 3.017580802271548415e-02 -2.264390587527831053e-02 -1.072550513847252418e-01 -3.227746126013341516e-02 -4.717677749131878040e-02 -1.582871170464651145e-01 -4.723931463819405763e-02 -5.703003376070584288e-03 -4.031254780252874204e-02 -1.900764633588140906e-01 -1.419849928774901959e-01 2.475260099052432883e-02 -1.841577437266445905e-01 -1.070433569608420232e-01 -1.618858149096814511e-02 -1.526726729994212772e-02 -8.820721989585370015e-02 -6.126869824137013559e-02 4.938257355190986408e-02 8.592847563595801264e-02 -8.146544590595986013e-02 -7.504069614432690161e-02 -3.042704050634930865e-02 -2.155713242618339728e-02 -3.832203551877046838e-03 -6.014871157334725910e-02 -2.974562582037180644e-02 -8.790100969819579502e-02 -1.530935131441482078e-01 -1.400841625255561940e-01 -1.216077543499013563e-01 -3.581135643829658211e-02 -1.431482288573213968e-01 -1.913931436953877074e-01 -2.031716544780639289e-01 -1.406307628025960099e-01 -1.301592237605735669e-01 9.312872646387343467e-02 -1.062875615913924793e-01 -6.938206631941880309e-02 -1.105522823611380934e-01 -1.136143389515303498e-01 1.045425543067477619e-02 1.083395454827953443e-02 -1.436589494752841534e-01 6.518635124439371405e-04 -4.859347016954743137e-02 -5.658299615183230019e-02 -1.456466661131817775e-01 -1.790554392031045716e-01 -1.004441441626201525e-01 -7.751025795322767642e-02 -1.163717247243165470e-01 -2.025440062367264982e-01 1.479466292625033347e-02 -9.551830464905834706e-02 -8.450282705621483051e-03 -6.950572828917392365e-02 -8.117711855086832962e-02 -9.820038197793042045e-02 -1.771631447001092248e-03 -6.275476800048560011e-02 9.176932898143639813e-03 -1.075939124393890112e-01 6.142475981164243620e-02 -1.054722565156673286e-01 7.729620759882012415e-02 -3.550483379307391163e-02 9.256547834792456034e-03 -4.849561549477839073e-02 -7.624970706817697785e-02 -7.235669024680611849e-02 -6.024568177685516585e-02 -1.896321149482087937e-02 -1.918789987816475751e-02 -5.885766112250305493e-02 -1.603437445703900510e-01 -7.398074035760783540e-02 -8.222611223443229700e-02 1.026336338377800000e-02 -2.556767433299104303e-02 -1.332739688461601624e-01 -5.892699537351061417e-02 -7.488224623768000021e-02 -8.907783663549827258e-02 -3.717063970387964045e-02 -1.600684530264919192e-01 -6.047236040321102291e-02 -2.208113066732525151e-02 -1.757159305670553673e-01 -1.360904960505931460e-01 1.315370466174885927e-02 -1.326234556263991005e-01 -9.942967381763600371e-03 -4.054469527260008699e-02 -6.380316711205620550e-02 7.827112315420584054e-02 -9.975069190114772832e-02 -5.063475267954443970e-02 -5.388575863205644773e-02 -1.221935434163754497e-01 -1.907210843603473205e-01 4.406401884642913158e-02 -5.530167894071972602e-03 -4.080767590889419760e-02 -1.385438257513527394e-01 -1.106380532311728587e-01 -6.080385781282549723e-02 -1.466069878495686596e-01 -1.414043148213430245e-01 -8.828825874295645471e-02 -7.662549577001794010e-02 -8.906278477129675464e-02 3.872131654750663593e-02 4.996181723140033504e-02 -1.955142639864731746e-01 -7.077158722883614139e-02 -1.527465930312034148e-01 -5.522971902291896190e-02 -7.721827478272272338e-02 -1.385613898730869153e-01 -2.778119131437288558e-02 9.751296371042916800e-02 -6.159476741200624328e-02 -9.194345948670440416e-02 -2.878570403945292580e-02 5.495776801805159206e-02 4.081208575142647454e-02 -4.493699726699219160e-02 1.168601822402817562e-02 -5.448846967144351655e-02 1.952136358474006531e-02 -2.702519397901603608e-03 -8.398171979280547039e-02 -9.035212683815549428e-02 -6.278925503911853001e-02 -4.452084712514636777e-02 2.558971690466446333e-02 4.629985236667025217e-02 -1.105547765566834012e-02 3.954209264726136347e-02 -6.713311195541800391e-02 9.509883410598247988e-02 -9.370154790291185254e-02 -8.274933687700007645e-02 -3.097784220222001006e-02 -1.121631196609806647e-01 -1.055453219558981220e-01 -9.970641564948465319e-02 -9.509046987576919019e-02 -1.439843160375761395e-03 -3.161283219240434983e-02 -1.171950781063319930e-01 -1.337913847740471729e-01 -4.659026126864947159e-02 -5.968890578832593968e-02 -1.328548775212353428e-01 -1.336470563269058220e-01 2.882504446237550699e-02 -9.217286737720266354e-02 1.650357105992006912e-01 -1.930266396707437659e-01 -9.218015675179995483e-02 -9.799384167372662824e-02 -3.113682837359882383e-02 2.118347706133348260e-02 -3.999196909708124109e-02 -1.647112122649537283e-02 9.744051337919965028e-02 2.685646826098548115e-02 -1.120449824350597257e-01 -3.583155763220112304e-03 -3.895036180495922012e-02 -1.074044677956951382e-01 -5.946746095894302891e-02 1.256839573312130628e-02 7.960029527594445972e-03 -6.543002543660327019e-02 8.406306943092667003e-03 9.385972690302482602e-02 -1.673414159902821829e-01 -5.963789329303992304e-02 4.404552175273907313e-03 -1.002444323912439900e-01 -2.995897354671256396e-02 -1.015463013716758067e-01 -5.156337209204794880e-02 -9.805472919098058918e-03 -1.137554062658263226e-01 -2.902523495873755421e-03 -5.803550113104218033e-02 -2.454583978335479408e-02 -1.171004295880801252e-02 9.932757361242842975e-02 -6.634014579082376378e-03 2.667463246270706384e-02 8.170930575630859505e-02 6.241429397086149106e-02 -1.621502365256695666e-01 -6.445667944228222757e-02 -4.369943663521969057e-02 -6.207977113479595799e-02 -9.414247300567726850e-02 -1.061596137117544296e-02 -4.077279377023054069e-02 -9.520062472596450831e-02 -5.696610346804250463e-02 -5.726186383802862184e-02 -4.976412964047032678e-02 1.052189552928454834e-02 -6.997719990820834568e-02 -2.540897105822285951e-02 -5.173865136148832894e-02 9.612653879279837998e-02 -9.924503517653822382e-02 8.818927514100720344e-02 -1.861308172692864027e-01 -9.484164912910339473e-02 2.980526370766326677e-02 -9.732196952780594601e-02 -3.291579664435081987e-02 7.812042539427225922e-03 -6.214030395137538909e-02 -9.314335479673779838e-02 -6.245662706268217956e-02 -4.766176595290074619e-03 -3.110732534952845643e-02 -9.539714972527871262e-02 -1.076939379480337522e-01 -1.341452663401566589e-02 1.881609492609590938e-03 -1.739766475446997418e-01 -2.564323220275802062e-02 -5.401479533246480308e-02 -5.306675209594575310e-02 1.687927534243383737e-02 8.594377345626039166e-02 1.215694130896885841e-02 -2.367291935130511754e-03 -1.003511675936571423e-01 -8.894031763121335032e-02 -1.122631094192236278e-01 -1.526537473174036791e-02 -1.760470962375298709e-01 8.571446999841874151e-03 -1.143000872660284439e-01 -7.415834460869054345e-02 -4.743919423761574355e-02 -9.914843393992725518e-02 -6.636971327433861811e-02 3.453019303655992245e-02 -1.038047288379489869e-01 -1.756725070609122669e-02 -1.793845607932452457e-02 -6.396235124015760276e-02 -1.382740699199299372e-01 -1.490566333525795983e-02 4.515434098455729101e-02 -1.269009415326610157e-01 -1.183657194941108021e-01 6.611833786182455541e-02 -3.586438524961078900e-03 2.814672375067574575e-02 -3.293423641565771526e-02 5.821840397774692005e-02 4.635434227178814731e-03 -1.196000325479759652e-01 -1.196301353684167549e-03 -1.000624241465469973e-02 -6.996703640779003419e-02 -2.053763988348835112e-01 -7.861831110799440137e-02 -5.794438676753031758e-02 -9.785495370231225842e-02 -1.016847725731064161e-01 -3.107871432106576112e-03 3.205885031533607654e-03 -1.323827691393715533e-01 -1.274806106836207653e-01 2.220965560372228226e-02 3.509886532997792859e-03 8.501919807563042275e-02 3.906009729157328136e-02 -8.847064229371837119e-02 -4.954308556565793081e-02 -8.245615102365334848e-02 1.010067076081552773e-02 -1.554796499054821313e-01 -1.174345001887152351e-01 -3.549938261178984394e-02 -3.319982203586218511e-02 -1.062378017291243509e-01 -3.471253829589810574e-02 6.262042076326526652e-02 1.984301317132015907e-03 -5.639476368851648741e-02 -8.810628220638645758e-02 -1.326733369093836823e-01 -1.034721323469522253e-01 -4.176089362695128288e-02 -3.986697995659509858e-02 -2.760356784838961883e-03 -8.825168616200824295e-03 -9.010011034971388000e-02 -1.519730759715953727e-01 2.674062981669558456e-02 -1.381910148955957374e-02 -8.020429680787100057e-02 -3.883289776769909690e-02 -5.641467630782427689e-02 -1.104577602681638820e-01 -1.086784930914704711e-01 -1.309196343170135335e-01 -1.328112070085667451e-01 -2.768867661725275126e-02 -1.257358861302055458e-02
