-3.088047927648963076e-01 3.737847830256211257e-01 -3.946136452156327468e-01 -3.234764390708390058e-01 7.524705088245189910e-02 2.048818259778566742e-01 -2.076747408786869531e-01 1.887344097208718680e-02 6.483313092779027231e-01 -3.692151537916536497e-01 5.782928669258919907e-01 -1.583478485508342248e-01 1.043950394757537509e-01 1.123345187702018549e-01 -9.830610242815718269e-02 1.273060536424231587e-02 -1.046564232163114949e-01 -4.041019492213233089e-01 2.667808625854431459e-01 3.556815658946430037e-02 -8.522446538692286799e-02 5.802461222756003512e-01 -2.297918613512090757e-01 -3.714397855705617868e-01 2.154421962423736236e-01 -2.397015237799975385e-01 -1.531902683061660319e-03 -1.614221404888229461e-01 -4.454827860735933176e-01 1.308381547506412557e-01 7.143581107700180954e-02 -8.079458555199342529e-02 2.292080276261410365e-01 9.651056601356616804e-01 5.167516010910166296e-02 -3.673649545975299913e-01 2.458626631034621368e-01 1.210264477859862749e-02 2.972334300062222101e-01 -4.805717719844478930e-01 -5.103216239092115414e-01 2.676494346700585281e-01 -2.341375948092417614e-01 4.602549958883807024e-01 1.101647176919715310e-01 1.899874033385578476e-01 2.173025846209318823e-01 -1.885261315875630950e-01 -3.928692653956962488e-02 4.635693017186414688e-01 6.108778567502429757e-01 5.756918559298863647e-01 9.287397259771758978e-03 -5.515819137714954579e-01 -2.443299610913739206e-01 2.157863130729677226e-01 -4.600148934496935960e-01 -2.349495595731644904e-01 4.705887254965459010e-01 -1.769289346463795987e-01 -3.422485604290303844e-03 -3.769459481207874246e-02 7.616230750174594055e-01 -1.610651804396230277e-02 1.762121010928196785e-01 -1.566862508172544577e-01 -1.259249213617290308e-01 -3.300738819010767822e-01 -9.819901161001952372e-02 -5.527582550223239521e-02 1.457390682039588214e-01 3.265149927168217170e-01 -8.635207342172903505e-03 -4.135800388899180113e-01 -1.934018722926285627e-01 -3.607470998777201343e-02 4.288006268155807876e-01 4.058862769202372517e-02 -1.354433149823032825e-02 1.798076006875039268e-02 -1.452553655554601475e-01 -8.653686609175920141e-02 -2.043432219156995078e-01 -1.884858677712939468e-01 -2.414146335838567720e-02 3.835304457543287082e-01 -1.888048110093422660e-01 -2.579933275213895927e-01 -1.821281217545990191e-02 1.607444312970729081e-02 -3.312822392665238369e-01 3.421882452014236575e-01 1.683476960726047744e-01 1.761579482299872323e-01 1.564405971282621099e-01 1.547314691401430464e-01 -2.793739132856817853e-01 -5.044679077416571733e-01 2.081458002028758192e-01 3.148726887095544824e-01 6.625165569810055333e-01 2.890578672234407898e-01 6.105439197012162422e-01 -5.895847289733502361e-02 1.311034018113556021e-01 -1.159618444471949700e-01 -2.319466573078712013e-01 1.936618340900812807e-02 -4.991286185613493798e-01 8.727440265666235042e-02 -4.137534870165653911e-01 3.934097163050302715e-02 -2.250415787713866966e-01 -2.134396929522482667e-01 -4.246058945235121618e-01 1.078402507850908798e-01 -4.860610064243995991e-03 4.058162561174451510e-01 2.284152210923224291e-01 -1.125162100318035097e-01 2.323249207788271598e-01 -2.367189168810557021e-01 -1.047728508059743435e-01 -7.434595377706963715e-02 1.790810246356200619e-01 3.952233310502431540e-01 1.828095927420325117e-01 1.873855529674188780e-01 2.389380895170394592e-01 3.333343323028032934e-01 -7.321390426896012826e-02 2.268859046414034297e-01 2.735617964698371929e-01 1.023833204873690061e-01 2.099309150598168416e-01 -8.735898418863494164e-02 1.925595445557725383e-01 -5.732149357951865642e-01 1.550694982875532313e-01 4.864521820560768067e-02 1.411354373037182301e-02 2.339812925527397780e-01 -1.283509432025378150e-01 3.867684935896679721e-01 -4.849993018607454132e-02 1.422470949517541938e-01 4.748484037451032869e-01 4.148079808624514225e-02 6.091544718417780946e-02 1.599932108362366323e-01 2.749641497878702046e-01 6.180027973042606648e-02 2.721908552801300951e-01 -1.577701737843739682e-01 8.974281027957671519e-02 -2.777669742233252470e-01 -3.602908988726197803e-01 3.692851907657693222e-02 3.562460250096728398e-01 -1.962992004169021587e-01 -2.176062047644146125e-01 2.246964408218448533e-02 -1.652369054746092303e-01 -1.164374542136517865e-01 -2.624586418536271060e-01 -3.611763211253133932e-01 3.534750065693152005e-02 -1.979972940785112434e-01 2.777033223115110139e-01 -2.231617650695095767e-01 1.255356768529372787e-02 1.604362995339826403e-01 -1.035444344899732055e-01 2.869145889716762654e-01 -1.750157192917106419e-01 -6.863124488462156725e-01 5.720650996357501405e-02 -1.991655092605716382e-01 -3.234593180679802282e-01 9.432280112710587916e-02 -2.134811697310641798e-01 -7.451245858696826652e-01 7.191691030346027136e-02 3.306120025247856198e-01 -3.753669971741998568e-01 3.309865643285931913e-01 8.183006704371000029e-02 -2.295998594686819438e-01 2.665775824021354712e-01 -2.744673470521010183e-01 1.211265703884805839e-01 -1.063292196862750116e-02 -4.591330144460680773e-01 -9.702408006625118375e-02 4.087261096594798082e-01 7.350203544361384733e-02 -3.665971307365947229e-01 1.436924810882308501e-01 2.130739995096750938e-01 9.209705801484957544e-02 -8.776348630770471060e-02 -2.620478797046410166e-02 2.375392218314320569e-01 2.289620643410386902e-01 3.096988281535475451e-01 -5.336486127735753371e-01 2.420589465344937657e-02 -2.519928717781698690e-01 -3.594763768234900403e-01 -3.850647547813111360e-01 -4.879470761393225331e-01 -1.426516220326979612e-01 -2.846453844890092788e-01 -6.699429330339422561e-01 -2.504719345930895846e-01 3.089455367984885181e-01 -2.948782923066853301e-01 7.417542497828780723e-01 -3.723735099654816305e-01 3.017556602019840981e-02 -5.458151128803813423e-02 3.073504668680023255e-01 5.527604757266482149e-01 6.952477332827656786e-01 -1.811648865665837771e-01 5.898945161711277238e-03 -2.619149959655893700e-01 1.179106708549826910e-01 2.244544384211178134e-01 4.512375913778201020e-01 -4.490768391984419350e-01 -3.596832772139457735e-01 9.235388555197518445e-02 1.155457456883407091e-01 5.656341725318092539e-01 4.496109300308691603e-01 4.990235330724409057e-01 1.489165462117462146e-01 1.731721518891939371e-01 2.252548120628975956e-02 -5.419012850078828158e-01 2.850323280099816836e-01 -1.450033589971150561e-01 -3.316027949564413074e-02 -1.713766735700179844e-01 -3.261561795461005442e-01 -3.165032022995406535e-01 1.293254017408018153e-01 -3.005254289640434950e-01 -3.104052171640878793e-02
2.262707524046910501e-01 8.715252406118291217e-01 4.150357845494154208e-01 1.393776335469369132e-01 -5.769191654235636957e-01 -4.143799214227430333e-02 1.832104178617485202e-01 4.224925981876047065e-01 7.385506214771082878e-02 3.828364926446179567e-02 2.547223825376221940e-01 -4.537364622048202789e-01 -4.399623888928972937e-01 2.605104982242572795e-02 9.910662538974258640e-01 -8.694687933748312947e-02 -8.079779626548846960e-02 -4.064952082367965791e-01 1.011975620585090357e-01 -9.896290258482934310e-02 2.637452500823197488e-01 -3.351004719148252264e-01 -1.627679396264639367e-01 -3.218043274988181546e-01 1.467326008687087069e-01 3.569777332550398002e-02 1.656945726340216807e-01 3.130327703896630953e-01 -9.082361472203707986e-02 -4.925171066811679932e-01 2.292506803751601929e-01 2.793977249367147753e-01 2.790312424307574979e-01 1.467903723448495124e-01 -4.559041481614260483e-01 -7.647441449036086747e-02 -2.749201401503724163e-01 -4.794421432964198621e-02 9.870267375539716614e-02 3.322058259478207209e-01 7.352529712690687447e-01 3.125277060308915833e-01 -2.306530624936570795e-01 -3.330853520616938179e-01 -5.497592362598480165e-02 2.633547639732715107e-01 -6.180829675464240003e-01 -5.140774140083085308e-01 3.325017135219791864e-02 -3.688439440798023661e-01 -4.482005962505509200e-01 -1.516828674068250171e-01 -1.628565382227109282e-01 8.036821758188469889e-02 1.626530854384408975e-01 7.717497084728468237e-02 -3.833837174846954632e-01 -1.246871755997035376e-02 -3.812392466333079932e-01 -3.837024605596494053e-01 7.261406072518697408e-02 1.522777904885082301e-01 9.851946133337861899e-03 1.901683476284797836e-01 -1.921096229692110524e-01 2.409871844220069503e-01 2.527465356972160571e-01 1.455809495485541061e-01 -5.222650705247230407e-01 -5.699111903387059641e-01 -3.030995439840673544e-01 2.395590648933375311e-01 4.837662115001423180e-01 2.216284377889233409e-02 -1.771214286561879347e-01 3.810866547888413364e-02 4.809919905592849876e-01 1.664738038281534382e-01 -3.425106526719765010e-02 -4.009244778753667249e-01 -1.513937214786248431e-01 6.044707143090057022e-03 -1.296720646214151729e-01 -4.878121204257818144e-01 -1.283498492922295897e-01 -1.196258482515252276e-02 -1.373783359206642019e-01 9.479450135270667266e-02 -3.902456854927099372e-01 -3.177202976385708477e-01 -4.078028310776930787e-02 2.823202011787585564e-01 5.125885761543120395e-02 -6.202091890219688097e-02 -1.726407257734488554e-02 2.570354408523027601e-02 -7.310794344511661880e-02 1.329980529527581556e-01 -2.298338725923728121e-01 2.043507460274075205e-01 -1.901045531413579348e-01 -3.671066790500288612e-01 3.087859425679180259e-01 1.632341561427097520e-01 1.971494607569128366e-02 1.888281422386141606e-01 1.995196523194161797e-01 3.813888291620504134e-01 3.303477376123057363e-01 -1.103616535662408360e-01 2.270840980267720965e-01 -1.921654039687250015e-01 -5.961037363017049895e-01 -1.392125045960330987e-01 4.165895399064427351e-02 -2.406536246592756445e-01 3.192505432577139035e-01 2.879641337101315202e-01 -3.685168342946440467e-01 1.848703051590333546e-01 -2.158080467106207601e-01 -4.519146010207431563e-01 -4.280182308914557421e-01 -4.125520466339013259e-01 4.481864466071596165e-01 6.053748621093631849e-02 8.162637914142358009e-02 1.447045163083124364e-01 2.624384645033457919e-01 -3.269575799838846802e-02 1.747797804252300968e-01 1.664844065937746698e-01 1.099517460968660459e-01 -4.071516029483020493e-01 -8.965186182594922504e-02 4.636427994987278589e-02 -5.621380775902804286e-03 2.484520078830112499e-01 2.168641313584457608e-01 -8.769027958572139791e-02 -2.968472330340786794e-02 3.719724577755612049e-01 -2.262098003243103728e-01 -4.443997891195815009e-01 -3.135108164348758830e-01 -6.004075931348456380e-02 -1.065552561870478782e-01 1.650965993217562988e-01 3.700210097483648264e-01 -1.885108027791689844e-01 5.702961459636002317e-01 2.567356919855200981e-01 -4.405887471886473783e-01 6.750958563019095193e-02 -1.078142009226669695e-01 -7.170408319858781465e-02 -1.963843355036699323e-01 -1.344222544831285282e-01 -2.407361499904481228e-01 2.025124258716912151e-01 1.969804452846682374e-02 -4.667784848712265844e-01 2.914634125081380089e-01 -9.505558238139638627e-02 2.120063410867775444e-01 -2.499675188105305035e-01 9.953183447235816605e-02 4.102297486325765519e-01 -1.856848806295795795e-01 9.344895674711696520e-02 -2.337619580818911247e-01 -1.687658085621397130e-01 3.795247908308525125e-02 -2.316457420207485018e-01 4.204603034225179448e-01 -6.268456760603627331e-02 -1.446408811548814122e-01 -9.706637128822946659e-02 -1.016958056297135315e-01 -2.857591405288316677e-01 1.891282765631935314e-01 1.023638046665450024e-01 -1.652769750045953445e-01 -2.934157211291034684e-01 -2.073704993265440000e-01 -3.575991739127314384e-01 -5.326374789234281648e-01 -1.995313078302860532e-01 1.808976418002310182e-01 4.001027150278209654e-01 -7.006857980820860865e-01 7.615769709668983312e-02 6.510942174496174850e-01 2.596512541144059272e-01 -1.918571458553942621e-01 -4.418409661410516165e-01 -4.551330264607970078e-01 -9.252480539154146755e-02 3.065672133662559196e-01 -2.167158866321289012e-01 4.634067330789074513e-01 2.903859488543182876e-01 4.787501262625358800e-01 9.023967096208714012e-02 1.052118099554438628e-02 -1.717752366398092034e-01 -1.375223888531995342e-01 -1.992632526565577267e-01 3.284492472312139366e-02 4.468171564455730160e-01 1.442075447733109639e-01 -2.253446548044786835e-01 -3.582971780734827694e-01 7.742608120419609830e-02 -2.121562806869245199e-01 -1.229867820256400901e-01 -3.163426771565816531e-01 1.473600803027355632e-01 6.750942950401415121e-01 -4.667424894590742057e-01 -2.587365035170166583e-01 -2.095346904683700606e-01 2.753268138466791748e-01 -2.717273287929051762e-01 2.313568147289976340e-01 -6.703623267972481647e-01 -9.446993298114847448e-02 5.853687846906840964e-01 5.973568258218925342e-01 9.831485563364154856e-02 4.708284136973890643e-02 -4.047997000288955927e-01 1.555550509963002093e-01 -6.644040995506429459e-01 1.717535416479830934e-01 -3.331183900692911704e-01 -2.744059490954222080e-01 -2.034660602118810446e-01 -7.882152883467189453e-01 1.241817495537836796e-01 -1.758803324397613388e-01 -2.930496788395000052e-01 -1.575501639917191166e-01 3.461366137941468413e-02 1.631896576541735644e-01 -2.556848261690267132e-01 1.558890481029790165e-01 -3.798430260258296998e-01 -1.394787724602430667e-01 -2.701511506941891017e-01
-2.311155685841388696e-02 2.767429710207827687e-01 -3.098521793160859961e-01 -1.832938434076062384e-01 -2.197152081282928160e-01 -1.566362624773030843e-01 -4.106671643911984082e-02 1.023141230522069817e-01 -2.972814488430405300e-01 4.674455875538520155e-01 1.144260662952362451e-01 -2.131723673231221416e-02 -1.404339620067605598e-01 1.646446174191851519e-01 -2.410524874030397502e-01 -2.870109878813053017e-01 -1.381183148485990997e-01 -1.395141084806092169e-01 -7.811650651913445431e-01 2.102961204237766280e-01 -2.421534607870263200e-01 2.288889346363398025e-01 2.221018459993994720e-01 3.508556951793281309e-01 -2.178863820312102739e-01 -4.835795342538459773e-02 -4.828712390855107173e-01 -1.420086888676369737e-02 1.158872020651268153e-01 -2.420730313884017493e-01 -4.089563711824391046e-01 -3.269302342640391101e-01 3.033161674684549738e-02 3.378182618083112876e-02 4.642638895520195819e-01 -3.537244429284578939e-01 -9.282435198897097395e-02 1.211011047461301865e-01 -1.223457266435270946e-01 3.233100094053213969e-01 -1.509400783217115516e-01 -6.198497729800592909e-02 8.109190823280343352e-02 4.403368503865445205e-01 2.336748054532989671e-01 1.630368170507106307e-01 -4.471927817222787205e-01 1.161669735427552780e-01 -2.324631863438233748e-01 -2.566182121733382449e-01 -1.503547978610519364e-01 2.160615640075079849e-02 -1.556556179124863604e-01 -2.525583543528355651e-02 -1.350260027292234377e-01 3.668541517115445627e-01 3.951848220293155411e-01 1.159385821715659126e-01 -2.060742399446301165e-01 1.926329995419268915e-01 -3.479841177906879413e-01 -2.314478875486107035e-01 -8.022238109297620545e-02 4.264386506457713000e-01 2.094575066144243047e-01 -4.642312499134099713e-01 6.302847770546751716e-02 1.442141865480052465e-01 6.527973459197454476e-02 -2.791381927364268711e-01 2.994920855861758491e-01 1.199589642632907863e-02 2.594813877401322411e-01 2.151866001604010037e-01 -3.796630273292563307e-01 1.209210108526566352e-01 -1.395914747213450602e-01 -4.851844993458495625e-01 1.933741841783535864e-02 1.764272438972702139e-01 2.676427400844542670e-01 -2.746069999127552230e-01 8.940966875082505261e-02 6.776632635219179135e-02 2.231908742507308085e-01 3.482951895945320953e-01 -4.485692511965457818e-01 -2.283641794372115452e-01 1.742106056799855585e-01 3.126010656462328147e-02 3.347869569220165292e-02 -3.329324067555070044e-01 -1.218202927033448374e-01 2.223517596807811636e-01 2.208917692972770241e-01 -2.885950852112248097e-02 1.223217478007841280e-01 2.521300266054937178e-01 -8.538941297157476296e-02 -2.131558996485069524e-01 1.037702680870212363e-01 7.089759986361687805e-02 1.512619314764737655e-01 -5.075948987661592360e-02 -1.391349661812058269e-01 2.540104771400810701e-01 6.033894412708882271e-01 8.772643786019240775e-02 -1.325811342685476527e-02 -9.339147302423715657e-02 -4.782723565386451381e-01 -9.567736710563347347e-02 5.675301595693583306e-02 1.073062133053611228e-01 2.229780800401984925e-02 -2.755623292430975368e-01 -1.063526840182308919e-01 4.079885275532366129e-02 -1.742810816022201392e-01 8.576333342722203702e-04 -2.016803109331546384e-01 -2.320314744159184539e-01 1.619300033707156139e-01 1.931904541973473721e-01 -2.910144854071529119e-01 5.109263138771444890e-01 1.149084552278275828e-01 -3.289032194964147671e-01 3.000005714891590958e-01 2.211159214183437416e-01 -2.666055940203409559e-03 -3.242082546833442436e-01 -3.075979856610196461e-01 4.425984530974741427e-02 4.849297892195051363e-01 -2.754552846905632957e-01 -1.231437635294404392e-01 2.768621484210702088e-01 -4.883350406467011351e-01 1.713037903787699781e-02 4.111740946840460320e-01 2.326324156629673012e-01 -3.832182958061038439e-03 -1.184875728034421975e-02 -1.449169712686017575e-01 -1.274287440632815849e-01 -1.155824565247125235e-01 1.989003630730489802e-01 -3.379644834692021454e-02 1.591924008339399010e-01 6.024529912987183072e-02 2.291248290598261461e-01 -7.986780640307024337e-02 2.515623540455662610e-01 7.693122670634913729e-02 -2.628309205946772753e-01 -8.518117090258080920e-03 -2.088302804033010662e-01 4.869114605685198605e-02 2.764412527804598896e-01 -2.945333485296782183e-01 -4.470207001993277141e-01 2.843025876917865818e-02 -9.249516406454606765e-02 -4.582814727789615850e-01 4.472812098723175783e-02 -7.429024564933707497e-02 -4.826991897297073231e-01 -2.086604443829628008e-01 -3.315230466079684968e-01 -4.177774969056362031e-01 -5.343081582302013077e-02 -2.204523864972490477e-01 1.421906000595714592e-01 -3.412581622543571225e-01 -4.824529039164549560e-01 -1.728046244574254764e-01 2.799201688787270048e-01 -2.358137205779283971e-02 2.518181939387078572e-01 -3.602290351974948845e-01 -2.856070449177658954e-01 -1.661259346508076051e-01 -2.175790123153696354e-01 3.195009618517499067e-02 -4.835232784600128619e-01 1.244555131335821352e-01 -9.331544887823203793e-02 2.603043141325580082e-02 4.796047550732262382e-02 3.076700015057183893e-02 -1.635583901032042486e-01 -3.429593403512082306e-02 -1.373710544180726245e-01 1.218423334025637017e-01 -1.264226570121483595e-01 9.081315622789425113e-02 3.170231170042950852e-01 1.298643532423792435e-01 2.238792501531399609e-02 1.567763504259639673e-01 -4.371532259710101953e-01 1.909770373251314657e-01 -1.894172432697945052e-01 -2.314351127031464561e-01 -1.352017150002022931e-02 7.953412341075830061e-02 5.784822269938225126e-02 1.198070287556043806e-01 -3.277346733650553512e-01 -2.821102986263056556e-01 3.047472512304953418e-01 2.647846605056525249e-01 1.985194517517332724e-01 1.174052045974247893e-01 -8.505137680145959111e-02 -1.726504064318573617e-01 -3.642052751266177113e-01 2.914993918398929851e-01 5.672116494031292921e-01 2.806171402806726389e-01 3.448827771237568673e-01 1.696810139551578264e-02 -2.232531566739656692e-02 2.753062420881221065e-02 2.143612189259373191e-01 -2.896523293814268554e-02 -3.478487887721896099e-01 1.398912849366832911e-01 3.730813887824884628e-02 -2.375416324017146641e-01 -6.800480875238748557e-02 -1.911665098300122934e-01 -4.886794271156565117e-02 -4.881149571671913184e-02 -1.880906642809546808e-02 7.055787055226950266e-02 2.996996887172870827e-01 1.472063870050332735e-01 1.807603222808117083e-01 -5.613754850025779453e-01 -2.734174763249223594e-01 1.642483641192022947e-01 3.355975858799808368e-03 2.484291302374539226e-02 1.690112620947178124e-01 1.405057160631838220e-01 -6.781881644712899337e-01 -2.285672554960215680e-02 4.273966779325500398e-01
-2.673355282752172823e-01 7.546442979958777331e-01 8.250174940732202256e-02 -1.729449808704894287e-01 2.142884728419605089e-01 1.193806817688348836e-02 1.736192233310995814e-01 -3.924078280731973511e-01 -2.387188128788945429e-01 1.867133612476092400e-02 3.354153331507753015e-03 -1.945375378013223244e-01 3.326715216283290810e-01 3.964025557949930195e-02 -2.475218613468395043e-02 -3.173131607178913960e-01 1.403772802292863331e-01 -4.527483894070970516e-01 -2.349616934848097749e-02 -5.522126207022607369e-01 5.280777307016647909e-02 -5.999912032082775626e-02 -2.960658013559234192e-01 2.206592533984154114e-01 -1.502087125798780842e-01 1.141761375327289829e-01 1.270399380832509251e-01 -1.234937999339799919e-01 -1.283545541578069438e-01 -3.769790037293364038e-01 6.930571256547320147e-02 -3.641132730860138778e-01 3.328169286922527115e-01 4.320684141357767349e-01 -2.131651462559786547e-01 -1.677059171084155365e-01 -1.614269034461211783e-01 1.212188550650727809e-01 -2.576218366440147234e-01 2.853313137152466705e-01 1.000671770719324005e+00 -1.496523732502758330e-01 4.723686069252245878e-01 1.475773759376363403e-01 3.149973996743083426e-01 5.724689262229250009e-01 -5.101819196635177384e-02 -2.880910862508070380e-01 -7.174841343675174288e-02 2.012378025866036757e-01 5.849166697893703332e-02 -2.072327337092628452e-01 -9.618439247579576579e-01 -4.726138941395433002e-01 -4.851100927395073370e-01 -1.345958434263725412e-01 -3.508126425877359233e-01 1.878835524883773478e-01 3.569258233000979774e-01 1.570080926168712365e-01 3.335423999128194206e-01 2.725665307123056533e-03 3.528194502522481214e-04 -3.717424026847155338e-01 -2.481870853186781689e-01 9.090086945094308368e-02 2.202888756472777820e-01 2.202075051740998712e-01 -1.452872880395776056e-01 -1.378492192499007341e-01 -3.555190265797340543e-01 -2.009127127757297515e-01 3.245854625366557111e-01 -6.829785451254982709e-02 1.085365356515244767e-01 4.382463169290527483e-01 -3.065734738685374494e-01 -1.945890143005131190e-01 -1.851776079179580647e-01 4.710060313726159853e-01 1.734227991249302769e-01 -3.496695163295583386e-01 -1.167631730071749113e-01 9.384682168987423800e-02 4.789647470535462331e-02 8.551650676682568397e-01 -2.451805526305119720e-01 -4.649040512421947352e-02 -3.477000623113252753e-01 -8.273487894265183495e-01 2.568824082832475986e-01 -6.277209204524684949e-02 -3.268039536519561361e-01 2.633917963511201998e-01 3.846780278424151711e-01 -1.988549107088754264e-01 -1.134917180688114896e-01 2.457671503190571038e-01 2.302162944172917169e-01 -6.768080873133561770e-01 -4.046355761420080133e-01 1.178002044080929817e-01 -4.126275360700958073e-02 3.278333658567131326e-01 -2.844648833945280786e-01 1.099691323384067001e-03 -4.779110294913039292e-01 1.326755763989127535e-01 -3.980948352629477133e-02 -1.819505814033759716e-01 -1.055486231289592403e-01 -1.935384524466025047e-01 3.505981524377362046e-02 1.631483176454176232e-01 4.015634689428369541e-01 -8.712266243410529687e-02 -2.681924959302708911e-02 -2.856454975169376784e-02 2.057119316388407726e-01 1.715867232531756992e-01 1.988427486483269058e-01 1.799469805396980149e-01 -6.022057415551580056e-02 1.237199958003944861e-01 3.809519813188197990e-01 5.222638372971508680e-01 3.673630889306872538e-01 4.667242887051047395e-01 2.059487493367536670e-01 -7.365864839544336573e-02 3.662830200108750933e-01 2.784937225517825077e-01 1.685382405945595394e-02 -2.843462392165010399e-01 7.803132821010769771e-01 -1.942905845773827134e-01 6.546038878953640561e-01 -1.161315831778547830e-01 -2.343682268003747030e-02 -1.548315738325036217e-01 8.513363810476401450e-02 1.168708157236742484e-01 2.329253528316056476e-01 1.032102326449575225e+00 -1.886091496938525902e-01 -4.275125712888665913e-02 -2.013937950320590642e-01 2.723744180620557565e-01 -4.404380340094982138e-01 1.486883047088205789e-01 -2.864031304766840869e-01 -1.735103940150521662e-01 7.644963215927856603e-02 -2.052978577154143114e-01 4.982287046831052058e-02 -5.403673732535647645e-01 8.523611120181727452e-02 -2.042341001579548454e-01 -1.374791124678346743e-01 1.471981189598844386e-01 -3.756737648765461346e-01 -2.022232537770521921e-01 1.873254927783825075e-01 -6.080236569463368657e-01 -2.018017402973460439e-01 3.805989975074251797e-02 -3.782917889304779901e-01 -2.003080879293222261e-01 -2.967419793138357798e-01 6.683857619381485815e-01 -4.167155176718218695e-02 5.989192323807664975e-01 2.745882077442317604e-01 -8.408468159345433568e-02 -1.479882564749981089e-01 -8.889814048007372849e-01 -3.188404913482626446e-01 3.239599241654285700e-01 1.610742384593173704e-01 2.295604114224171488e-01 -1.591288495838588390e-01 9.996282855149822566e-02 -1.354970242159135585e-01 -3.595937423815884215e-01 -4.549847521861862254e-01 2.537937826549235831e-01 -4.230120370737859292e-01 2.249660184475934209e-03 -3.759668396512096944e-01 1.926284788803503678e-01 1.706993860780080530e-01 -6.704991327948070512e-02 -8.987184473776687055e-01 -1.237807199751080056e-01 4.444898854233215180e-01 -2.450093522776778110e-01 -4.380255222185661657e-01 1.632036235065280894e-01 -1.826409439723079148e-02 -1.346436716315425053e-01 -1.749115103470109955e-01 -4.090073152364313014e-01 1.516666628088491064e-01 -1.352783091309903429e-01 -3.052708957348395646e-01 8.626755323893351216e-03 -7.083368715551723038e-02 -1.037834195887328776e-03 -9.376453844666018944e-02 -3.377693509584957926e-02 -1.421612380462635231e-02 -1.056341763679789769e-01 4.543832597735600332e-02 -6.081176693595442551e-01 5.300626024174784900e-01 -3.589490127137836412e-02 -2.102832543770253027e-01 6.284208790347479978e-02 -9.001750430850503915e-03 3.106669365719301745e-01 2.238934947764459060e-01 -4.228411208118716957e-01 -5.915821345874714421e-01 4.301848693179320393e-01 3.394191588663064696e-01 5.831403548993802782e-02 4.105246612223278357e-01 4.326415109219000632e-01 4.493201769136739299e-01 3.937155656724687924e-01 -4.697860155164364920e-02 -5.688372192654236881e-02 7.322568007979154414e-01 -2.660164708432696257e-01 2.665833250189925119e-01 3.033479269846212599e-04 3.742257814559269424e-01 5.121643159280013791e-01 -8.966186438595152852e-01 2.099100694606853834e-01 -1.932620978968058734e-01 6.021887841029357341e-02 1.142463943828606748e-01 -2.429088523001156630e-01 -6.167168268477623005e-01 -3.460692594430697655e-02 -9.637819445699866150e-02 -1.197948265208537491e-02 -2.124750922145368995e-02 9.533918527764242978e-02
-2.209529358407750221e-01 1.223684426806057601e-01 -2.675262986662341191e-01 1.953399324037859430e-01 -3.849997389515956159e-01 3.534192426494676131e-01 -8.017939503042907923e-01 -3.154272680969611997e-01 -1.797391424629679602e-01 2.523146937814344515e-01 1.424093972840115296e-01 -2.739275783865053326e-01 -2.418880267123428573e-01 6.035795116915061431e-01 -2.209870187272166830e-01 3.029773128479011923e-01 -1.032554986495083649e-01 -5.266570652565676358e-01 3.694472869961117345e-01 -1.369831145309249043e-01 9.617604549201724806e-02 -1.704287666057686113e-01 -3.438406818991419645e-01 2.300720185044811961e-01 -8.335841961931144128e-01 -5.417365355235145494e-03 1.880819622538322244e-01 5.124320211680141179e-01 -3.894657569784275297e-02 -3.043548326646212249e-02 -1.592108307119876887e-01 6.241820728774193777e-02 3.376461002941690687e-02 1.013824221143731219e-01 -7.448001699044469112e-03 -6.935583297712208384e-02 -1.303784878919346871e-02 -3.425953207401682965e-01 1.643465188201557181e-01 2.791605451725492903e-01 -4.847960616267807388e-01 -3.274896972562689190e-01 -7.173395012845094898e-02 5.171429501069888662e-02 3.451038661274338781e-01 -6.756015339045119694e-02 -2.447540636743142095e-01 9.038635633007273407e-02 -3.249762399089205916e-02 6.160977378287395556e-01 -4.844839500886990447e-01 2.902020101353083859e-01 -8.121494212627422549e-02 -2.046903741225550299e-01 4.376002770386248075e-01 3.048352098360123663e-01 -4.885650994211968579e-01 -1.672237847406272127e-01 -1.051460497557037410e-01 1.203214624748126793e-01 -8.207096513216230460e-03 -4.955128074728980536e-01 -2.791835029642267818e-01 1.562691600417233651e-01 -1.734177861290818468e-01 4.769937966426516240e-01 1.583306433493891496e-01 1.821336439675724089e-02 1.348534314977864468e-01 -1.895559256316145247e-01 1.066058483731516376e-01 -2.687737400706147750e-01 1.013724710107199556e+00 1.905527966580645716e-01 -2.820106619188755270e-01 -4.604764572768380027e-01 2.439849689089358953e-01 2.563981090147106068e-01 -5.975695640287107674e-02 6.760827464530005243e-03 -1.007750090347353245e-01 -6.388049628144988334e-01 4.243850920349885869e-01 2.814671914712262302e-01 3.358967292799520249e-02 5.630587580238997081e-01 1.565185816706807787e-01 -4.012357867456078225e-02 -4.823320664149838843e-01 1.001406879867096644e-01 -3.006088686713571656e-01 -1.703011396001209987e-01 -2.399996358833556692e-02 2.464079176117586201e-01 9.008331637259170410e-02 -4.744128516053112976e-02 -3.819173318694178004e-02 -1.575479314777748496e-01 9.504359914271989784e-02 -2.076739925070054602e-02 5.059810233735537177e-02 -3.086764645977738697e-01 2.246350165192988468e-01 -1.820132854687968038e-01 2.243378224950206556e-01 -8.006425041941842013e-02 1.019440056894669600e-01 1.065394567676445498e-02 3.819622097281485246e-02 3.349146083340117513e-02 5.710956582498694090e-01 6.164473535017932493e-01 -3.321474405870493141e-01 1.788921829781194572e-01 1.506253803283707018e-02 1.057759755342358859e-01 -3.244598482516887206e-01 6.884131266354499845e-02 -4.851349799774705707e-01 4.751930996785032335e-02 -4.744240886957642456e-01 6.637095162558011296e-02 -3.241806256404511921e-01 -1.398567409722774151e-02 -3.562036970007987358e-01 -2.734827647563469744e-01 9.592456923955625103e-02 -6.799392994425730585e-02 3.042312104306840181e-01 -2.001461927249680861e-01 -1.288448678976862605e-01 1.302349267776760633e-01 -3.384890114111395731e-01 -2.493347466830928005e-02 3.439407596362598629e-01 -4.580781684028027018e-02 -2.775636440305604968e-01 2.329794229792264693e-01 -2.599978981439866610e-01 5.452093564245492630e-01 8.959291106102474922e-01 -1.345651495127331287e-01 -1.532733008027314658e-01 -4.362296902393122955e-01 3.619181658024155923e-01 -3.825023007233502859e-01 1.259983160140318859e-01 3.222418092380283094e-01 4.514896488786925288e-01 -1.797160990945964598e-01 2.343139314787591743e-01 5.318489400694130786e-01 -2.724831255279587250e-01 -3.459258185587930218e-02 -1.290618351133277775e-01 -2.312270573239215421e-01 2.280937926593091525e-01 2.716479301433184501e-01 -1.551052929533507652e-01 1.772036612945829814e-01 -1.929359917605265040e-01 -7.894033333600732893e-01 4.567429001534094590e-01 -2.751036624384053941e-01 -7.985394149195040869e-02 -4.187533214598140180e-02 3.080364988866404752e-02 5.245956201015639087e-01 -4.111566322790620176e-01 -4.849173304050560795e-02 -2.558398039722766248e-01 -1.210169734199610797e-01 3.606931479952640851e-01 2.443326676280801329e-02 -5.500144648705355965e-02 -1.379122773777779754e-01 -1.478235351002656350e-01 -1.460418012735304749e-01 2.551983064027496528e-01 -1.603418368877666811e-02 -1.878828043711278095e-01 1.078731239850657248e-01 -7.858449307907011683e-02 2.498725155053648297e-02 -7.365211586303295477e-02 -2.398465229866351967e-01 5.756900218048145029e-02 1.090426072319680834e-01 -2.913568494234078932e-01 -2.577455984471942463e-01 -2.636954003473791427e-02 -3.795643203781999819e-01 2.309778720629712678e-01 -2.017070807705104996e-01 2.067413156250955397e-01 -4.774977762806552339e-02 -1.807632676594720933e-01 2.277596660161802233e-01 -4.342462270787442180e-02 -3.220271792008406325e-02 6.587755275340677341e-02 2.543049262201201310e-01 1.033206827795428578e-01 2.290660929186053296e-01 -3.345884061516090635e-01 4.545788524846872680e-01 -1.665643176336586290e-02 3.116336572853724007e-01 -1.602524020885465195e-01 5.443944594025670880e-02 -6.772112578800203453e-01 4.814047313106058212e-02 1.369477928499973907e-01 -8.307448016674808811e-01 -2.374431343742128275e-02 2.465077221129942653e-01 -5.125534428361155914e-01 -8.609124612400199245e-03 -2.451933848233261992e-01 2.186382808300542657e-01 -1.370095421923396839e-01 2.148459685206239034e-01 5.344463672172855562e-02 -9.649249149556136940e-02 1.133040026197517786e-01 9.763446067461026279e-02 -1.923981275312296527e-02 2.473153397487151961e-01 4.452171990863597328e-02 -3.046919021605131936e-02 5.851927580606704205e-02 -3.327886397479111746e-01 -1.486254300744498935e-01 7.105393995348570357e-02 -8.942349785439195065e-02 -1.754090573075553217e-01 2.401966329761628383e-01 -3.416115819253295882e-02 6.983651429666448696e-02 3.675959649092278569e-01 -5.040860587774329549e-01 -1.422303028534525615e-01 2.241379514205312229e-01 6.282652099130164695e-03 -1.324981217812869483e-01 -2.817053868729871846e-01 1.149491584957090529e-01 -2.469714933702044646e-01 -8.299126710825319164e-03 -4.062522229321712808e-01
-4.848168330600396980e-02 -1.452075911805818242e-01 2.018474037093646867e-02 -7.720563128702850886e-02 -8.877129169160359601e-02 -3.624229205908675033e-01 -2.228320713706174183e-01 3.758677594206676353e-01 9.901346156785101327e-02 2.176112501032656243e-01 -1.339227132968516809e-01 -9.326624357981352920e-02 -1.547094966424602536e-01 -8.805482795232660864e-02 5.161287535470924226e-01 -2.649893045320149132e-01 -3.569443758103155173e-02 -3.747881647059464472e-01 -2.601456136977376987e-01 -3.757571406518512430e-02 6.140028293293952472e-02 -4.372829182200837356e-02 3.696638761638183085e-02 -1.899553656667225809e-01 2.689029570432894256e-01 3.652042477398494830e-02 3.309258503549449282e-01 1.553300102078195152e-03 2.144802516144187210e-01 1.103666460866962323e-01 3.734314003310582747e-02 2.659897624422556395e-01 3.176659944233335003e-02 -1.935361285626370775e-01 2.513937008094307424e-01 -3.508549748233909943e-02 -3.041992388338323194e-01 -3.482311068127580400e-01 -1.266523578783890491e-01 3.126459156335456568e-02 1.254639739247215557e-01 -1.612696086726378986e-01 7.572895513344306273e-02 3.776157673930313763e-02 -3.109161662959583072e-01 -6.193578464565454439e-02 -3.847609077740271055e-01 1.426431937320970511e-01 1.527469427800145834e-03 -9.412843740269259685e-02 -1.595951189559987882e-01 -2.545730640421246527e-01 -2.109091196022157971e-02 1.743751764566703055e-01 -6.702053514693008529e-02 -1.028659830250123058e-01 4.862943681498675952e-01 3.882455003727605103e-01 -2.879002304745404972e-01 -6.621885257036394523e-02 -9.426728008463758357e-02 8.762639698879262640e-02 -3.620807861281458151e-02 1.449371041933863180e-01 1.670286418542407947e-01 1.155177936070223427e-01 -3.289481888002694365e-01 -1.701562191347367192e-01 -1.685213119771645784e-01 1.645265327523289522e-01 -5.718788908550013345e-02 1.419962740101323173e-01 4.543002923191336029e-01 -4.193657409440477157e-01 2.371772535002829307e-01 -1.539604569752141550e-01 -4.496241860024047243e-02 -2.479511607767398429e-01 -1.203648531222286794e-01 -2.632133646722794457e-02 -8.498520740440279608e-02 -2.105248965674217342e-03 5.165091777004385265e-02 6.974152990800543128e-02 1.339412926389799419e-01 4.628129234038907969e-02 1.033747496279244227e-02 -1.159954329589051869e-01 -1.240090198639852842e-01 -1.781344882968404209e-01 -2.913437463548842477e-01 -5.379958327671303074e-03 -1.025890672930874180e-02 -1.533256960394646928e-01 -2.782761411579645072e-01 5.575212413469274875e-01 -1.906931167690228135e-01 3.719688887447637760e-02 -1.235810358921366758e-01 -1.285977436102899163e-01 -2.113836049347691814e-01 -2.862321551249198404e-01 -6.759759673845257104e-03 3.649756538680053175e-02 -4.378979282988711141e-02 2.796814227926299190e-01 4.831323611128483519e-01 5.062186338373563244e-01 -3.392233168067598226e-01 1.793351958529595669e-01 1.956355022563074642e-01 -1.692799576775580739e-01 -1.233023407564091539e-01 5.151328616499587648e-02 -3.527483650313801844e-01 -2.665395922295220599e-01 4.753583067891815894e-02 9.754544289556074665e-02 -3.537557420344871750e-01 -2.084904930734022277e-01 5.915461988216291767e-02 -1.401095172383264864e-01 -1.055954296769380935e-01 -3.869644389729854916e-01 2.952974856490098166e-01 -1.514596435697878885e-01 -3.280333443405891169e-01 5.405197805107071762e-02 -4.367693678348225778e-02 1.110846300018921706e-01 -8.762269296599711765e-02 3.337095995941007087e-02 -3.563523462539302383e-02 -6.609853784615395966e-01 -1.685565629098501605e-01 9.115799948456926316e-02 -4.618807168842496008e-02 -1.037396024222280028e-01 1.834589333510903419e-01 -3.451114629135769718e-01 1.153727711337487402e-02 -3.518019306718855876e-02 -5.568659079660851496e-01 -3.234991564308948298e-01 -1.551161178259557738e-01 -3.054047249804200947e-01 -1.738530128625059290e-01 -6.684020672937485835e-03 -4.279220264563348142e-01 -3.488576293281883678e-02 6.064479272864803025e-03 -4.955708410162358579e-03 -4.845845569168011346e-02 1.320853762390573893e-01 1.105233050841542136e-01 -3.402921403217730179e-01 1.007622587690280569e-01 2.320470402871628590e-01 1.773425230046996037e-02 -2.918714607988581386e-02 2.327116044164558376e-02 -2.861965983994494978e-01 -1.725609050110756826e-01 3.579965129211280100e-02 3.825723937876046032e-01 -2.688281731683788700e-01 -4.123538227001292966e-02 2.088816851518365270e-01 -2.484876741468596828e-01 -1.271693302570343909e-01 2.431269451362425699e-02 -1.247056630253881027e-01 -4.198116405079971303e-03 1.422224575947704239e-01 -7.032310430794587452e-02 -3.237661938052827648e-01 2.059703848050135344e-01 -6.901211446941016292e-02 -3.334215007171402734e-01 2.352036163751503040e-01 3.729144468623738495e-01 -2.969261596997336272e-01 8.720166798694486965e-02 -2.516509357259751403e-03 5.180681830517061548e-02 2.896241221181151959e-02 -5.916454924121630071e-02 -1.391963273661815936e-01 8.030229668899627193e-02 1.958421137944087176e-01 -3.668874243261585621e-02 -3.931004307385200791e-01 -1.239557725551897194e-01 -1.524519154562482270e-01 -6.080877098785402168e-01 -6.261562917199331446e-01 2.963081288217536136e-01 2.115827254292498572e-01 -1.149727409592936761e-01 -2.684774305158298402e-01 4.967093666015918729e-01 -3.092705183257846158e-01 -3.237598350412297932e-01 -1.707425471359583780e-01 -5.903545659328389428e-02 -1.873730282911283129e-01 -3.251767642532452651e-01 -2.078390555500020942e-01 5.621672533635693192e-01 2.795211632519896128e-01 2.630110981056130171e-01 -4.396196380000133019e-01 -3.628372091861437054e-01 -1.580129219220057987e-02 -9.801881833676996669e-02 -1.213901567858321068e-01 -3.088425061907873470e-01 2.884169778397517314e-01 2.153441781240417185e-01 1.041493353679122658e-01 -1.631020469124948025e-01 -1.110739836927198548e-01 3.618858743316153426e-01 -2.885928610603782918e-01 -2.053480882125773288e-01 -1.785268311095652982e-01 5.664223041271112535e-01 5.858900556303705404e-02 -2.885870844035126059e-01 -2.824252548235320903e-01 1.360594495841913661e-03 3.148375597427356416e-03 -4.096343756355561028e-01 -3.727640713210877976e-01 -1.344050139111482300e-01 4.624438497549528404e-01 1.616677264257742608e-01 -9.937055311163436877e-02 -4.424675650998776549e-02 1.103206062822685157e-01 9.917153873118884910e-02 -7.026971606666584935e-02 3.411005804822744292e-01 7.857684429392858272e-02 9.980166486838458473e-02 -1.771546434552445926e-01 -2.335050059496318331e-01 4.897276088263304711e-02 5.526150230769590749e-02 -1.217325285205415608e-01
1.366992453672456476e-01 -9.387672367748851887e-02 -1.439583054201371559e-01 1.521907560252914182e-01 -1.445143590191774741e-01 -3.001380966700478159e-01 4.550189958323471590e-02 -1.290097837147565207e-01 9.705415995848497290e-02 -1.644155262441892862e-01 -2.443063901811643596e-02 -5.386413010662952777e-03 1.479438980160326100e-01 -2.285151087863748209e-01 -7.063935293659756587e-02 3.000924780554703464e-01 2.881881222749269611e-01 -4.125366417908197386e-02 2.906758868183431099e-01 -2.945237286073554631e-02 1.157687772717917729e-01 -3.427505359793119877e-01 4.968075699072896367e-02 1.789045069743597505e-01 -2.038796567398503193e-02 4.494225469410824403e-02 -8.718184206341705877e-02 2.817854063075598270e-01 5.165715817590651321e-02 -2.347433837047041560e-01 5.625678201167157166e-02 -2.612627043368186408e-01 -2.851576112682168707e-01 1.570154688858374503e-01 2.126983368000853192e-01 -1.435315000088650539e-01 -2.200727689212671756e-01 -3.717845919723182235e-01 -1.675985378178161678e-01 2.068742756679069761e-01 2.146539313221244860e-01 2.599838870758447995e-01 3.716947768934328322e-01 -1.774758824832189663e-01 -3.421094192681248813e-01 -5.589420099168298517e-01 -2.215929094914321218e-01 4.008545972468896545e-01 2.154894138669044557e-01 -2.512860872371102446e-03 -4.551305584949118938e-02 -6.755484833932332012e-02 1.545160242651359359e-02 -3.602354047956365379e-01 -4.428657360671005017e-01 -4.365596256630349670e-02 -8.526481440899820463e-02 3.692155610762323098e-02 8.742457923480799128e-03 -3.642823202266280425e-01 6.415483920001352480e-02 -1.890731051767934878e-01 4.585456642223421087e-01 4.696651489137523838e-02 3.450398777471660461e-01 -1.075507346177476398e-01 -2.499024738656631939e-01 2.417721595590582029e-01 9.704023347879864661e-03 -5.281331975573942683e-02 -5.905850744917848782e-01 1.656845904837787042e-01 1.375830485251465229e-01 1.511115691458602972e-01 -7.796254740915832537e-02 -4.621562514523799847e-01 -5.416918865483784096e-01 -5.604344168435809043e-02 1.345901289833978387e-01 5.576990406290583541e-02 7.704851975680301890e-02 3.399183604085837668e-02 -2.529638436074087005e-01 -3.199929806677362376e-01 2.837466400325485208e-02 3.789210656217086304e-01 1.853312208677120876e-01 -1.068839182655919109e-02 -3.920590054589440654e-01 2.076407583564631454e-01 4.216885695210419449e-01 5.006642894173943259e-02 -4.708072775706125673e-02 -3.818437334559511287e-01 2.148110154603911359e-01 3.516902422690598023e-02 1.337513971802534174e-01 3.311947268851786474e-01 -6.046481054117938125e-01 3.274959551547620973e-01 -2.864380672898958480e-01 2.412922375541550479e-01 -1.692689750199004861e-01 1.275612223367880993e-01 -3.281165855283415533e-01 2.678810514702207324e-01 -1.743512617727980413e-02 -1.675018766633909195e-01 -3.362579655007031931e-01 4.419523879387410314e-02 -6.219607472025873857e-02 1.883253591646279479e-01 6.920109531919481360e-02 4.499963962850058730e-01 1.652053201279357897e-01 -3.932811907148494046e-01 3.646705924337413363e-01 3.043845285614471541e-01 2.383161021237795718e-01 -3.528106767929219401e-01 -3.337345085030627989e-01 1.512504310048098932e-01 3.223339803881739019e-01 9.639894153971156898e-02 1.659684557144361639e-01 5.944397953122970008e-02 -2.268880959942272957e-01 -1.733847195235630745e-01 -3.709061586364120755e-01 2.345436550982925861e-01 -2.080880121859897680e-01 -1.339693383071392796e-01 -2.351513399073135724e-01 -8.967973805655458930e-02 -6.360481133999253134e-02 -5.729609504448355400e-02 -3.175665835444088092e-01 -2.929774073332196971e-01 -2.507010404020552086e-01 4.395956616777169090e-02 -1.716194713640899205e-01 -3.334945394704459387e-01 -4.562108571073130725e-01 6.936158628734626075e-02 -1.483912925344157800e-02 2.734909859066441684e-01 4.483132072227972165e-01 -5.057602175466445749e-01 -7.869032681550024166e-02 -1.592075774374542840e-01 -3.901175958394124121e-01 7.189954790009006613e-01 -1.612467247597137443e-01 -5.108438002120058857e-02 1.000520658168113780e-01 2.113699555343724612e-01 -1.299374076350876539e-01 1.092990679911529095e-01 2.055058952053667454e-01 -6.699064576978762398e-02 1.988035853943858899e-01 -2.145676499629224632e-01 -1.112858453831339078e-01 3.170646902840497661e-01 -1.981913053121029389e-01 7.334936254688402546e-02 1.464876621759825803e-01 1.557008651282359643e-02 -7.555982650767301134e-02 4.464102931066331048e-01 -2.523052428799554825e-01 -4.215508566708713878e-01 -4.401553757066508643e-01 -1.230289165271682694e-01 1.038176838018541881e-01 6.343262680380408816e-03 -1.613802139778526545e-01 2.044426022506084240e-01 3.783397148166116331e-02 9.561721073788387315e-02 7.787255991021380108e-02 2.546987320363465757e-01 -1.584462499527845292e-01 1.160964062187370832e-01 -2.008325307371016666e-01 -3.133809642751612667e-01 -1.880990551804462285e-01 2.730709254009849318e-01 8.960373958305718478e-01 1.761796616806185212e-01 8.367276654103249223e-02 7.563344658003622045e-02 -5.233757787655315269e-02 4.377585896732079374e-02 -1.992622298084410215e-01 8.665343785795749654e-02 3.821111467661935102e-01 -1.355288395590580584e-02 -1.093711924902113775e-01 -9.764732677308400610e-02 1.766432501779771069e-01 -8.377853063599739747e-02 1.107008700427141307e-01 -1.161687801700832939e-01 1.992581930222356856e-01 -1.841486522771746126e-01 -3.060735417313545925e-01 9.505250015135882635e-02 -1.891981462774732295e-02 -2.134318457563480764e-01 2.020839030801916125e-01 4.263184655880758456e-01 -1.650395547574816935e-01 4.073512017059271462e-01 -7.471053967311396260e-01 1.278861584305610033e-01 8.349540609711509492e-03 2.500631131995871836e-01 3.335375538372888360e-01 1.587606973945154820e-01 3.024192816702295184e-04 -1.749585584256392601e-01 3.171052170903639333e-01 -1.506307308104000708e-01 2.300931902084729364e-01 8.913994137495810655e-02 -6.937947292081575457e-02 1.217717209024275632e-01 -3.836266164812147106e-01 -4.893154973506988470e-01 -3.175523603459268901e-02 -1.266810066165951210e-01 -2.429830472225255056e-01 4.215640658101123955e-02 -1.827293051889546105e-01 4.984341275593110465e-01 -2.187319060034043361e-01 -1.469043615082399334e-01 -4.172168780705942659e-02 -7.610777648488650793e-02 -1.133075031575011757e-02 -6.794556699966838864e-02 3.594561597338926107e-01 -1.373448496359288562e-01 -3.376010980304698927e-01 -1.270213900639944882e-01 -2.142018572036206436e-01 9.549424678261386745e-02 -8.299024624223304281e-02 -5.859874836961853628e-02
1.245173536501233136e-01 2.770924732116767167e-02 -1.146393946403033992e-01 -1.055264301694366913e-01 -6.177090247595772299e-01 2.824176179163608857e-01 -3.084497313740042559e-02 -3.108883157543770870e-01 -9.418947324434029378e-02 -2.460795749547239619e-01 -1.465618498985004348e-01 -2.481704223261206044e-01 3.473972539657951275e-01 4.361477186583934823e-02 9.753306316473750459e-02 6.973896294432704868e-02 5.195626666775566421e-02 -1.649034565689346254e-01 -1.961971468513953876e-01 1.958552373351871712e-01 -5.577287155407327501e-02 -2.423616326401495658e-01 1.605946664998861573e-01 -1.523472540951872727e-02 3.375878391957723434e-01 -2.065950168210674114e-03 2.399290536376848249e-01 -2.169284803838521514e-01 -6.251953261836069864e-02 -1.960500793123312047e-01 -4.701866792515340121e-01 -3.169560996965447575e-01 1.550991451287679068e-01 2.852307089499570569e-01 2.656669340528930445e-01 -9.304902270480436277e-02 -5.755293249207243250e-02 -2.252375630011401175e-01 -4.997294665460938305e-03 7.266937864024846094e-01 1.149436033179861566e-01 3.368801793852575777e-02 1.148408056001113675e-01 -1.253449022651174083e-01 1.936410267432173496e-02 -2.720724695469237675e-01 -4.620484745300471041e-01 -7.413884270179336988e-02 3.823595229170739795e-01 -1.162482713710096260e-01 -1.973112423946581373e-01 4.645640389429560591e-01 -1.852139563844455161e-01 -5.659872181786970158e-01 4.777807379007301680e-01 3.266820003161873265e-01 2.105400710089673499e-01 1.200444236049683505e-01 5.342336544274535193e-01 -6.625133191350001116e-01 -1.175056948453561678e-01 -4.859459859806850024e-01 5.195573809214266703e-01 4.833136002948802412e-01 -1.114482344637543060e-01 2.240411488033108578e-01 -4.136182108683698622e-01 -3.923732534116829429e-01 -1.261178356092590713e-01 3.968018090015923427e-02 1.857106566330242459e-01 2.412274076396669215e-02 8.517625821745494763e-02 9.409941798569855520e-02 4.356088626926141183e-02 -3.337946794380770021e-01 5.029445083645706777e-02 -1.007713546344640304e-01 1.236860699585047851e-01 2.237326686172355986e-02 4.268812368727813999e-01 -2.981731372999136265e-01 -4.831212971300399839e-01 2.176298416064432195e-01 -5.603626840095657924e-01 3.337016449632900783e-01 -3.782131123272934325e-01 1.251272421386664946e-02 -8.148030591816217416e-02 7.871927943293502428e-02 -3.980365677538599822e-02 -4.335556115148268552e-01 -2.296223264453675639e-01 4.410607905968689374e-03 -1.078735808486340625e-01 1.117602560791914612e-01 -5.737037926246841418e-02 -1.763076437643942007e-01 1.999619526068225628e-01 2.704653008620317434e-01 -2.557216722996279445e-01 -1.747289626461031864e-01 -4.042677436529414775e-02 1.700052575947576250e-02 1.733925545966658044e-01 4.129269271382580118e-03 -8.730489242748708245e-02 -1.444380013450553280e-01 1.046304672390446361e-01 -2.553905513286700013e-01 5.979919929051937671e-02 -1.652727164347172345e-02 3.682539503628569078e-01 -3.460740938771172392e-01 -2.651360116205854142e-02 -3.328541185506461719e-02 -4.626001417933934823e-01 -2.353227790245691897e-02 -1.726439021869305701e-01 -3.039604993586473847e-01 -3.597961754746215601e-01 -4.348731108971541359e-01 -6.043752742271747413e-01 -1.426326848748093179e-01 9.190768375359341033e-03 -6.856137633551028232e-01 -2.643101239106394051e-01 2.430217876638230134e-01 -3.824625498824398284e-01 -3.101487252766643721e-01 3.655385711321875175e-01 1.736893329818004206e-01 2.931236234879723290e-01 2.269051520591563315e-02 3.952162195033340208e-01 -1.660903885017111017e-02 3.625435565649041680e-01 -3.352940158612638388e-02 2.796500759483717680e-01 -4.057456659533781318e-02 6.160557442369223383e-03 4.635691528769503300e-01 -1.068913772296236075e-01 -7.653385750548931388e-02 -4.308096106801505981e-02 1.310842645863961320e-01 4.200864326121931946e-01 -4.262765058658256057e-01 -1.840219772982644997e-01 3.763568806017756896e-01 3.363508630457330284e-01 5.320497269880730684e-01 5.069683612113102811e-01 3.406663803228406340e-01 3.148813080735417547e-01 -1.353836281586185686e-01 8.058751029291545687e-02 -2.155358214046117216e-01 1.411094371204413278e-01 2.059677912351969287e-01 2.631945088737189242e-01 -4.624488188205992389e-01 -1.436312463154371943e-01 4.078722052439121559e-01 -3.377044519123688637e-01 -2.710451107279387983e-01 2.091410293176545476e-01 -3.621347981600346322e-01 9.412860959687588958e-01 2.137835280702683471e-01 -5.094127279892580323e-02 4.517374026525827757e-01 -3.252002175329815059e-01 4.768101895468022100e-01 -7.672782538296138433e-02 5.007074223231365584e-02 -4.807247936033612334e-02 5.903363788173382476e-01 2.933773336194424042e-01 1.740430303315280702e-01 7.909031735775236271e-02 -2.196658863100365566e-01 -9.785306960988704450e-02 1.547893736853961366e-01 -1.092172110467341806e-01 -3.872932501848763143e-01 -3.018479390538686413e-01 -1.541121991191261587e-01 -3.995988516129678897e-02 -2.054147592089666796e-01 -7.057745735780396323e-02 -4.291321027768122964e-01 -4.344373390614454378e-01 -2.360418446196945741e-01 4.132232999971962584e-01 1.556086320705973303e-01 -2.404428204848355066e-01 -2.800835146624094385e-01 2.520561145939264058e-01 4.369553126225806938e-01 1.492751343223914229e-01 -3.022458826067214374e-02 -3.374697493189625364e-02 -3.615304844659808503e-01 4.453439143223712066e-02 -2.491767856414473393e-03 -2.578173723365480008e-01 -3.269092510775236660e-01 4.567495288979432633e-02 -4.248042218603417797e-02 -2.615161662467513533e-03 1.534024373330623581e-01 -2.326540697865819574e-01 4.046092034217809719e-01 -6.053163707224440415e-01 -9.789705218359920358e-02 -2.221078288216396801e-01 -1.786818407655629548e-01 2.650785796840773867e-01 -3.131339086219543377e-01 -4.805777088069891900e-01 -3.255094066882683879e-01 8.974454442196876103e-03 5.223715653605760512e-01 4.477870473302292265e-01 4.867010243561319116e-02 -2.488839410401408325e-02 -6.868703551892381062e-03 -1.679198167436548872e-01 -1.897460732990350896e-01 -3.952722754179235909e-02 2.668890962135316708e-02 1.906042561180187056e-01 4.098543274026048011e-01 -1.151391426783807681e-01 5.055126806475460088e-02 -2.353275105769587483e-01 1.798011999354742485e-01 2.029901831140030685e-02 -3.741694673339535093e-02 -3.971496091636012027e-01 -6.227509752451072800e-02 -1.257026465723587727e-01 -3.259566278702642483e-01 -2.232742819965012615e-01 -4.235148277013425083e-02 1.903617214854965989e-01 -3.819364047616123914e-01 -3.829625482156732152e-01 -1.613955235991957615e-01
3.046657766880015439e-01 -5.051589981442676791e-01 2.828331796822674549e-01 1.750523399608273564e-02 3.528409617279253813e-02 -4.092013888806523420e-02 -8.457686441470928240e-02 1.753445217443249868e-02 -3.446181315808904272e-02 2.339171269928278507e-01 4.047398495792251527e-01 -5.673054657292519315e-02 1.598410961314417345e-01 3.284354110961485995e-01 3.176453188793857407e-01 8.036350506035604135e-02 -1.485975237429859597e-01 6.915705273097151329e-01 2.848239529778046619e-01 -1.257238028991272127e-01 9.869020199067669863e-02 2.053475089111338747e-01 3.619201589056855045e-02 1.139391710989381273e-01 4.310392390172726462e-01 2.721779940483708971e-01 -4.796776459066637854e-01 -3.272910828899650015e-01 -3.089199031471941415e-01 -1.829425884534849334e-01 6.512734323600773839e-03 -3.241746861222524756e-01 3.079342062605329167e-01 -8.961979486214211033e-02 -1.681245902164135719e-01 -2.127207057008895230e-01 -2.072936804550433998e-01 -3.093739879506525181e-01 -2.727406477629617521e-01 1.731078673283859837e-01 -6.933153004868458646e-02 5.081113013253094057e-02 3.882853617197649099e-01 -2.912031895465938894e-02 -1.707610069241139172e-01 -1.298923582695434287e-01 2.576568627431976566e-01 1.625589845387654941e-01 -7.017388456365775129e-02 1.999827423978016439e-02 -3.447226024347784662e-02 3.149535111453447556e-01 -9.051247867082371293e-03 -1.725760959343885514e-01 -1.975320112066093411e-02 1.463937949956208885e-02 -4.331540854436252141e-01 2.416289148965485578e-01 -2.778705220848235458e-01 -3.754117188933425719e-01 4.712246702801683312e-02 -1.743910222840625301e-01 1.442477243188988387e-02 8.574773497301317604e-02 3.859423815770915978e-01 -4.052735719299783157e-01 -1.298441199407447955e-01 -3.623753747944725156e-01 -3.112049571889122929e-02 2.424444472296925779e-01 -2.498089281245823301e-01 2.367048205886374823e-01 5.255485126089015809e-03 4.215292224226569462e-01 2.383516692401969894e-01 -1.288709470019580583e-01 1.251417694864275232e-01 -6.527871979143708148e-02 1.005822650874731439e-01 -8.237478993663028826e-01 -2.510248662637998285e-01 1.328342324502743421e-01 3.061757876000857359e-01 3.121409626969093298e-01 -2.668369504831245576e-01 1.573389683037514780e-02 1.276789253421316550e-01 -3.168668913253819275e-01 3.123272699143235243e-01 -2.098477738556251970e-01 2.775557598507316648e-02 -3.266748955586308845e-01 7.174655092522572719e-01 5.329247513750227927e-02 2.063324837819760504e-01 1.547182975934338900e-01 -3.263694667825431939e-01 6.193239530184897410e-03 1.368971800291861607e-01 -2.657327142676476628e-01 5.531282659535523283e-02 3.478481246237900004e-01 1.206240064573940035e-01 4.506842609579771453e-01 -9.255199083215208400e-02 3.793568208792055807e-02 3.126883042940132862e-01 2.475158897700678595e-01 -2.071072909383742944e-01 1.546000914617868538e-01 7.031768609015232041e-01 -1.713319243993559338e-01 -1.354878785057238855e-01 3.194299665330143645e-01 -4.856675290546762502e-01 -2.616187966281665056e-01 -3.337808344952191697e-01 5.532578831835073263e-01 -6.390380607535114943e-02 4.503789455122904628e-01 -4.327252555020347780e-01 4.878139256711479521e-01 -1.052762424895225118e-01 -2.746131157269357526e-01 3.731288344922555344e-01 -2.609934720765013649e-01 7.463920057319680668e-01 -2.344581089634727167e-01 -5.997191876713544589e-01 5.121481274519602556e-01 8.830831411116797647e-03 6.996115629601958041e-02 -3.671596300829566561e-01 1.310268025753463517e-01 -2.448632489256376832e-01 -3.475283432507293990e-01 -4.576416458539232512e-01 -3.046109318793766962e-03 -8.896199065968122058e-03 -3.518021742104741612e-01 4.660895194169314415e-01 -3.203319477064490162e-01 -4.492751517262776328e-01 -2.045166094137662316e-01 9.863025958061652498e-02 -2.574846845485680991e-01 -8.494805848854504460e-02 5.256136171736721652e-01 -7.580062413418363620e-01 3.471044399813137393e-01 2.514708891556118320e-01 -1.981841436257289479e-01 -1.629564964558451734e-01 4.333635372828142235e-02 7.711574954434276263e-02 1.911180612568059434e-01 4.874838662901611053e-01 -3.338597483412718558e-01 3.550102943572050473e-01 3.348098910853210541e-01 3.380597108989847333e-01 -2.344503920212126225e-01 -1.994437770122265696e-01 8.775989726804510338e-02 -1.387308075408114627e-01 -7.132175579794893805e-01 2.126173729896600473e-01 -5.134198542618996219e-01 -2.811442847718217397e-01 -2.733379519187916218e-01 -4.076414594046067763e-01 3.478772116724894725e-01 3.548239288052321139e-01 2.467432851960084661e-01 -2.305055549463626841e-01 -1.241715483040123358e-01 4.337324747340017828e-01 -8.270704086783624287e-02 -8.298578657471816777e-02 -2.907537670277716146e-01 3.410683022209570064e-02 -8.898178283209656758e-02 -3.586696673564274563e-03 -1.309795111931258416e-01 -3.885184875313720254e-01 -6.888334716623129017e-02 6.512165136538182741e-01 -6.440291564233820987e-01 -1.436740058032777712e-01 -3.760218943587707030e-01 -5.435033293900465301e-01 -1.464355752198647498e-01 -3.211918715348631159e-01 -4.765633296257861806e-01 2.385062117814483740e-01 3.262226556614103989e-01 -2.072144659353142571e-01 -1.080741751590236360e-01 -2.782681533716648281e-01 7.223737525362090572e-01 -8.475846379602701430e-02 5.088733244398221389e-01 -1.965707060207305679e-01 -1.010734170061869802e-01 -1.321034574451021570e-01 -2.795350257086224866e-01 -1.633329475941890097e-01 9.679436592052234611e-02 2.755590918399363209e-01 7.736371824557496391e-01 -2.167388243720682617e-01 6.021248821436329113e-01 1.604122838822387709e-01 2.602656989812333066e-01 -3.625768691696922286e-01 -5.953366203610233748e-02 -5.545238694800491697e-02 -5.060709324570928334e-03 -3.623024264922538595e-01 -9.850159860564436376e-02 -8.085938766518556420e-02 -6.757392569688692729e-01 5.311470297156401649e-02 9.288618881392798898e-02 1.146581769027422149e-01 -2.332534219037493417e-01 5.024577742146190129e-01 -4.461365219593816933e-01 -9.744024927976890904e-02 1.923529875566411251e-01 -3.775214632532759573e-01 -3.932295595543499611e-01 5.409812715369169966e-01 -1.567914178733505887e-02 -6.935597464201384565e-02 2.435761277963417459e-01 2.905012030772897158e-01 1.130282333066274375e-01 -4.125974009825007505e-01 -1.048402459662215180e-01 2.793289014881254750e-02 6.518059045998950835e-03 1.872870958227328964e-01 -2.388852569125802516e-01 -3.303767216876548618e-01 6.640796357046366283e-02 -2.201810665402890443e-01 -1.109300312954372425e-01 -3.236808687252763495e-01 -9.595872754377475500e-02
2.211789881847159300e-01 3.598890872504069138e-01 -4.063032220690721563e-01 5.223540849382747320e-01 2.602789942068769458e-01 5.665980530594735276e-01 -3.254435116751870360e-01 -1.080194740314872198e-01 6.517124599943355800e-01 -2.097565810490100713e-01 7.040241381287135614e-01 -5.125264374571336656e-01 -1.484103373943606030e-01 -1.759877756900539714e-01 -2.587329298539733924e-01 -1.077634163968069630e-01 2.724819930063195148e-03 8.905353192340967339e-02 -3.475212814173755937e-02 -1.698227251628016132e-01 -3.580815472283630507e-01 -3.967153650051146729e-01 2.379876980368796913e-01 -9.709135723576191312e-02 -8.657560676300728175e-02 1.804525755295333656e-01 -3.093534944274620724e-01 6.035654340990881384e-01 2.291372077042019839e-01 -8.677487451076508485e-02 -7.824896469594962156e-02 -1.143278352129613873e-01 -3.074873104302934812e-01 -4.737630101937994609e-01 1.150203983975935929e-01 5.003643079579486175e-01 2.464854344787478085e-02 -2.622176874673990965e-01 1.905303013224998177e-01 -1.740816177904711548e-01 4.445640173193821654e-01 -3.492256093715074838e-01 2.924886586305887604e-01 -1.569825550179926310e-01 -1.049075024069349577e-01 -2.884986023342623884e-01 -3.206212236455956432e-01 5.917720351568116488e-01 -5.524126520665120221e-01 -1.498570767937567882e-01 -1.345803930670084331e-02 -2.224957088803129410e-02 -2.593774204980254794e-01 -2.118954874795047905e-01 -1.841772171250405654e-01 8.227089285857862311e-02 -3.755276994564220039e-01 3.635281329974249798e-01 2.962001877697850172e-01 2.160533597083347523e-01 2.173248156677175802e-01 -1.888848566050250477e-01 -1.197798078375378605e-01 -4.169588659697262001e-01 1.511178666610254462e-01 -1.635245178613957684e-01 -3.755847642423353339e-01 -1.693499044565840717e-01 -9.753701389989770376e-02 -1.281814997513443799e-01 1.032825799929734112e-01 -7.097312237888001585e-01 2.162134193751305833e-01 2.780844596076706421e-01 -2.144346089292527013e-01 1.256840969262664476e-01 -2.265506024356205572e-01 -4.890923347577370156e-02 1.010513032593133437e-01 1.764323981660385898e-01 9.028653440267707386e-02 2.167678991900591490e-01 -2.490340632735908166e-01 8.084268482636841613e-02 -2.042714841770652823e-01 1.839487702554080950e-01 -3.013299975104833939e-01 6.222498037267379933e-01 8.367937452831605283e-01 -2.192746810634599308e-01 -3.180567172054685199e-01 -7.984439824553790643e-02 8.599475382453346251e-02 1.930297296861973044e-01 -5.276201011108457017e-02 2.397308823975009828e-01 1.926710564329826569e-01 4.350955662423214854e-01 -1.730152237429367357e-01 3.648391902086301486e-01 -8.274543739525566308e-03 -2.470644031140902253e-01 -7.620256674878218839e-02 -7.153174597984274241e-01 -5.388221602104029673e-01 3.614993374284751204e-01 -3.334880652188719485e-02 -5.486209838118175641e-01 6.639274840667019895e-02 1.662328693816088054e-01 -7.490125098887641109e-01 -3.611717549222504542e-01 1.435336149963209462e-01 -1.838655757488323605e-01 3.071684452101286489e-01 4.125385596146211031e-02 4.393017227440199068e-01 -2.805028563591079882e-01 -1.716324090755465825e-01 -3.057525390589661135e-02 7.356771891609424630e-02 4.279059336175759509e-01 7.053781109529144722e-01 -3.290606883612374745e-01 -4.775461873117954892e-01 -2.718694683707563731e-01 -6.165091152783959139e-01 -4.521117664677385961e-01 4.392354965267292188e-01 1.238000085262353500e-01 5.277279714442520975e-01 -1.170840244806697072e-01 -3.359557442287223195e-01 -4.112584893075195702e-01 1.348966088533856689e-01 5.776108758526234122e-02 1.748644809192440586e-01 -9.524462611795458944e-04 -5.678384201925599228e-01 1.702222054380904126e-01 -7.394122254777603376e-02 -4.185274816676323728e-01 -4.087419113999006814e-01 3.434802552502128625e-01 -3.247780600871953416e-01 -3.617707413478847278e-01 2.592919459434375185e-01 -5.441197508415992340e-02 -5.491085057060203223e-01 -3.878770587057206454e-01 -6.107122395725191055e-02 5.154954517861621843e-01 -5.188980974144362657e-01 -2.624072100588205059e-01 1.272227257924030686e-01 -4.122900843676017835e-01 2.699740967677002335e-01 5.707044489883940086e-01 6.049367425311532459e-03 1.705377800996553950e-01 -4.169545536481815695e-01 2.020806273453603086e-01 4.023731068272519140e-01 1.127645388532730747e-01 1.863380299737712464e-01 2.918090564780916329e-01 8.713095717857693989e-02 2.188573710488342927e-01 1.446660948088802356e-01 -2.508645845885298375e-01 -8.561446855048218674e-02 -2.656418732675593919e-01 -8.162484682745132364e-03 -2.008032375162160099e-01 -2.169307352747420203e-01 -4.281497486853366036e-02 -3.262384887240850073e-01 1.835318641640441284e-01 7.030157486525607791e-01 -3.202107585898552600e-01 -2.289842407857142492e-01 3.098910479865918943e-01 -5.003954789632274192e-02 1.444349183936965708e-01 9.648739056298615002e-02 -1.669703095049426544e-01 -1.228183324904260632e-01 5.958882276308334891e-01 -2.635580239286226534e-01 2.450381349750794038e-02 5.083674696055111575e-01 1.978072892207658473e-01 3.110754133550291956e-01 -4.188770980840136882e-01 5.802371138673994011e-01 -5.912078760381671572e-01 -6.524310606502486953e-02 6.491492051445557632e-01 3.736558321293272922e-01 -4.343815197217913981e-01 3.110001524947564322e-01 -8.740489264449216589e-02 -2.980702227182828734e-01 -9.608283790395882873e-02 -4.438881453181049430e-01 1.007912864063049141e-01 -3.742009450250299157e-02 4.679871270146032658e-01 -3.007581396451420863e-01 -5.411635247363227874e-02 -9.422970019642129547e-02 -3.563542326240689562e-01 5.908024750746908305e-02 -8.299913020027610555e-02 3.582274003912791493e-01 2.280324709665922656e-01 -1.032001635954997443e-01 -5.649832999706379255e-02 -9.639650594293963648e-01 1.738492363428573995e-01 -7.157132997304421762e-02 -2.063885691876414519e-01 3.053754074609297819e-01 -2.893214508502998661e-01 8.061428481951931069e-01 -2.613380161061331641e-01 3.434283636791967548e-02 2.253348241080394831e-01 1.128902024353070355e-01 3.036324695892758108e-01 2.199468503514048767e-01 2.551300132149405542e-01 3.334006681106819747e-01 -2.085196267214481924e-01 5.775700325754754560e-01 1.232686413026101852e-01 4.125219646538725304e-01 1.631887406390041262e-01 6.889311073289909604e-02 2.027544230198446637e-02 5.643881300104014453e-02 -1.402072920270833745e-01 2.506629203089094649e-01 -2.907599897015662460e-01 -5.271650880489606728e-01 2.323418230015199260e-01 3.275792572430857169e-02 -1.437910658123485730e-01 -3.961707480018898941e-01 3.488445354967971701e-01
8.552488065867086542e-02 1.972801867011918786e-01 -1.224148554757617524e-01 -1.091966281490791557e-02 -8.556077879701504130e-02 2.260277141429994641e-01 -5.357595033188967681e-01 -4.957335178178125523e-01 -4.167904498608587804e-01 -3.224354407128290911e-02 -3.249830599224061145e-01 -4.219592680514728800e-01 -3.153839677120753859e-02 -8.285592283766168853e-02 1.543210904069763356e-01 4.091885043680543732e-01 2.037074919502404879e-01 -1.339829547945696996e-02 2.148847272859365498e-01 -3.257316181290091373e-01 -2.269492732932480161e-01 -6.010137484557762644e-01 -4.227097455205739429e-01 2.670119479493684306e-02 -1.754325413613404272e-01 -2.175621724829124026e-01 6.412533627597091224e-01 -2.693540420637491328e-01 -1.025998136899122504e-01 -2.804829889847351709e-01 -4.319411609147034287e-02 1.225536203798917173e-01 -4.638024865107951422e-01 2.107883681540279053e-02 -2.821907334896520680e-01 -9.086609269712497827e-01 -3.200267650127851526e-01 -1.648428333070730417e-02 4.918544468918903401e-01 2.363039934091006600e-01 4.245364424465731812e-01 4.156488426790013735e-01 -1.124108182364735586e-01 -2.380625182439493059e-01 3.408818103651584108e-01 3.479722806906061505e-01 1.480512557163610188e-01 -7.990812341037856203e-01 -2.061504276997186136e-01 -1.798157341800699915e-01 -2.184247408742734375e-01 3.759317613561940358e-02 1.647434788754448820e-01 3.150568279334367561e-01 4.998044284178452257e-01 -9.063066836954636329e-01 -3.265952703680097824e-01 9.372293289214754519e-02 -1.482628406969116186e-01 4.491035075181646352e-01 -1.882697234870960856e-01 -2.400898124970934910e-01 -1.564029080038449038e-01 3.611958351650325083e-01 -8.735786005893036998e-02 3.186314237808988148e-01 5.695368019046949115e-01 -3.062452643513136064e-01 -9.154783293135133615e-01 3.907367190313561223e-02 -3.268941456940307466e-01 3.085262274061506549e-01 6.424518986607556936e-01 -1.875902088535228440e-01 -8.982961427775770780e-02 -1.492559550193753581e-01 1.004641120061566528e-01 3.191750351522470996e-01 -4.717756702369644423e-02 9.850029700078982708e-01 8.183623026638449371e-02 3.040610041891647075e-01 1.148432908560992893e-01 5.149968896703627230e-01 -2.687166151110641499e-01 -4.752178050571783108e-01 3.905015619881481437e-02 1.274771290254164413e-01 -3.452486690777043510e-01 2.942366389982740138e-01 -2.709443223191364269e-02 3.056540141516715936e-01 -5.616194077926214279e-01 -8.635123423313574922e-03 -2.121510520784980758e-01 -5.775640194563519403e-02 8.692135062047320546e-03 2.561409387473669308e-01 2.166283871538891570e-01 -9.310697192436789837e-02 -3.583437949448975424e-01 -1.575016026728103258e-01 6.078539726602758680e-02 5.774138151750521919e-01 -4.451559745626049724e-01 -1.723986489764876284e-01 1.315236668687658483e-01 2.640595476390995011e-01 2.305892066569669996e-01 5.176796576279658890e-02 3.347388117368765154e-02 -1.243971408687107455e-01 -7.990397097900739376e-02 3.467934070589888118e-01 2.592357510517468433e-01 6.230416872170291970e-02 1.467468126718539101e-01 4.412564843760097832e-01 -3.041175377811898284e-01 3.024160137280050287e-01 4.985278259987341309e-01 -5.282970683387729904e-01 -1.228980478914391272e-01 1.205648850750533907e-01 2.905600657231809381e-01 1.135649180375550849e-01 5.589403193827940236e-02 -1.700646531907942793e-01 -2.966474473128281608e-01 4.738611208543979103e-01 -4.783799204172267117e-01 4.231647251334532123e-01 8.520113871964754559e-02 2.192133302911686288e-01 -1.077258298368647532e-01 -3.771784561128516122e-01 4.478876792573340260e-01 3.897103930457236631e-02 -4.401599718498936525e-02 -1.194522586081030457e-01 -1.235811463905048951e-01 1.287369240533466630e-01 -3.819122359624510521e-02 -4.151013399408558235e-02 1.819384129093166991e-02 -3.743469793041662719e-01 -2.184992752965317087e-01 1.712166305596632410e-01 4.552811179850938528e-01 -4.270585980595115183e-01 3.731260507823888628e-01 -2.109812583984635448e-01 -1.134918894363986658e-01 -2.313135107094471121e-01 -8.989122761759980040e-01 -5.415765709633962866e-01 -2.667236102535581743e-01 7.067713568260750590e-01 6.168850318701468716e-02 1.911387827279020513e-01 9.853922850414567614e-02 -6.578160175725041858e-01 -7.138283947509452276e-02 -3.474602222866674528e-01 -3.521843356687316406e-01 -1.334399419296241063e-01 2.123493357352410904e-01 -3.278362706210823097e-02 1.572947793941641415e-01 1.448959215710618476e-01 3.406011432027903352e-01 -8.346674848351968989e-02 -1.029764855531679763e-01 -6.207699310950547389e-01 -3.091277895236954065e-01 4.700101865269769585e-01 1.696079528117880042e-01 4.364245790518324619e-01 7.571479008359108809e-01 1.957701366657302877e-01 -3.574936088823650326e-01 -1.025304557334749400e-01 1.961145873817087271e-01 -4.063157876064754093e-01 -2.578864865472460521e-02 3.074980267318099675e-02 -1.341127168833175232e-01 1.548811976200891172e-01 -2.804669534585843560e-01 1.750839841160446442e-01 -2.227465710599012827e-01 3.780280499696840324e-01 4.286267898780169450e-01 -1.553806667979079903e-01 2.224102718583549632e-01 1.572614798928261837e-01 3.651062502320064351e-01 1.128464504653577255e-01 6.878047647872566339e-02 -3.030198080324371657e-01 2.198703452132870217e-01 2.986591702431509177e-01 -2.482507198982010777e-01 -2.405303612283148929e-01 -1.729972135450592863e-01 -1.766403135882107789e-01 -6.226459124426397818e-02 3.027993257879684208e-01 4.170230154877778705e-01 6.218493132696585324e-01 -3.699471360331392511e-02 2.606860030600272049e-01 -1.599166927076305367e-01 -1.401946968295204599e-01 6.742897288729930716e-02 9.547377893241683344e-02 2.819745050496278993e-01 -1.484768477876076964e-01 -1.849083081850370902e-01 -1.836314190780651556e-01 -1.609823341316195949e-02 -3.019524460017725676e-01 9.590278880351604807e-02 5.676419454594503478e-01 5.493462190817639534e-01 -7.580844107021617040e-02 -4.859987507428575187e-02 1.044611614699312782e-02 8.165289713303128249e-02 4.376925769498979379e-02 5.485050433012388371e-01 3.778232430127434482e-01 -1.776814591740170368e-01 9.766133718097670668e-02 -3.991148975366808904e-01 1.459193066748500078e-01 -8.845700940448070204e-02 1.377417095473698894e-01 -4.148409995618665969e-01 -3.014039679780680658e-01 -3.507831566082303953e-01 -2.190871745201103393e-01 -1.178727444057820206e-01 -3.439620403529455861e-01 -7.290417120814739471e-01 -8.657884354146144767e-02 -3.697431818855035496e-02 -5.782645997536082355e-02 3.270402351217064352e-01 8.930521359843347773e-02
4.854339851867098959e-02 1.229342373428818219e-01 -2.966562716571558012e-01 3.940434740606137964e-01 3.272193434234454967e-02 -5.165423454845523982e-02 -1.925393517656272813e-01 2.242138030214796060e-02 -2.403811305982314628e-01 2.967326593391313438e-01 -1.116311333462188388e-01 3.493104674141085941e-01 5.824929158622085129e-02 1.018619824946161330e-02 -4.269884696718599937e-01 -2.716255581066264191e-01 5.406042376031053864e-01 -1.027826820035911415e-01 -1.483965436462469090e-01 2.349422616765433902e-01 5.077381907693112595e-01 -7.830103029904114664e-02 -6.594974173718093358e-01 1.670013461666732535e-01 -2.344299060635317566e-01 -2.011813227856653619e-01 -4.231052166148177585e-01 -2.641802998375414324e-01 -9.634688023810132618e-02 1.609018665462474684e-01 1.902703516327413913e-01 -3.800249247155393362e-01 4.707920272296976794e-02 -4.395451180414310099e-02 -1.657699996845249657e-01 2.210178821502309099e-01 -6.459597407341648168e-02 -7.575203716063856618e-02 -5.441212776744150381e-02 1.758239092542450699e-01 -4.270774509349346548e-01 -9.590225196479207348e-02 4.351115916946253215e-01 7.071087123991719181e-02 2.215325988979981175e-01 -1.759637707444384191e-01 -1.541131346476940500e-01 -2.453911673509884539e-01 7.948792063165968647e-02 -2.147543759790276063e-01 -8.341694401517629753e-02 -2.730108357137144282e-01 4.714956823514757783e-02 -2.967842851228288947e-01 -2.697664562754512052e-01 7.171399329263708489e-02 1.360144353312538190e-02 -1.024008339411606842e-02 3.095508490697901904e-01 -2.692446418655593532e-01 -1.722606144625803415e-01 -6.777683001857268130e-02 -2.409636491528167543e-02 1.940582208325301872e-01 3.363160333175444633e-02 -5.236372459745869401e-01 -1.703698117505758891e-01 1.982979931466978540e-01 -1.174454050962969315e-01 -6.309621429147895810e-01 -1.019407145999189253e-03 -4.168798381237192041e-01 1.919412854631427079e-01 3.072517791636779627e-01 -3.638480697992033108e-02 -1.621800412548031478e-01 -1.011020351263087758e-01 6.310611414794793650e-02 -4.837270464125915936e-03 -1.335996017360986110e-01 -2.559949590126255892e-01 2.363342341786573986e-01 -3.323300458145745373e-01 3.919907768594106390e-01 1.290647758102853315e-01 1.274553451423164341e-01 -8.460007655997597853e-02 1.304690835638209478e-01 -2.086534780532871003e-01 3.166251381117943797e-01 1.864051390812062128e-02 -1.665471858038319319e-01 8.744741668844127624e-02 2.084251928782431817e-01 6.587827812783521308e-02 -1.383277167130483598e-01 -4.880651335090300247e-01 8.972511925102176489e-02 -1.831609400197471149e-01 -1.140238375348772738e-02 2.640519131873719227e-01 -4.297464471983529488e-02 -3.540054246520165093e-01 6.601113256149968578e-01 2.428958362798716575e-02 -3.940291841685312352e-02 -2.128049494357480975e-01 -2.209671505575056261e-01 -9.847330781984584003e-02 -4.049733147801728439e-01 -3.407816409019913118e-01 8.458242434688583236e-03 -2.414702241637705082e-01 3.200589866163492392e-01 1.959810215670100553e-02 9.545733297697867048e-03 -4.665954021878835484e-02 2.809946602499225898e-01 2.321657493715422182e-01 -3.651417824849139127e-01 -1.039873119832725352e-02 2.426087821561545566e-01 1.582550898716109933e-01 3.099666001667253368e-01 1.861908522606491589e-01 9.384856313963661767e-02 1.209952718853346959e-01 -2.055337978133189858e-01 1.263911927522413936e-01 2.368285880811643040e-01 -2.640303563157431754e-01 1.649125158564633542e-01 -2.989104030818084956e-01 2.505263096900400832e-01 -1.982162702891061556e-01 -3.168033800036887393e-01 2.223021888595272666e-01 -1.056567390149535796e-01 -2.126716365820875004e-02 2.358311106200838836e-02 4.613838465894259389e-01 -1.594470839881079460e-01 -8.827971903439049695e-02 1.811789492848530636e-01 4.915700071163154883e-01 -1.663002006940476341e-01 1.907929711390084215e-01 -4.160900258506276539e-01 -5.239470494242143978e-02 -2.771216411580302852e-01 -1.866926041013594606e-01 5.720854248499860489e-02 -1.409960077026834735e-01 -8.716844408450054038e-01 -1.531436083694071547e-02 -6.164728934313010861e-02 -7.041918531665576457e-03 2.339849545085637694e-01 -2.335372914174493608e-01 -2.228189156932028903e-01 3.422888362732730370e-03 -3.181501653469138713e-01 -3.996627507027291082e-01 5.772635913615492206e-03 -1.725341728850638967e-01 3.990497322638409949e-01 -1.463225186867619099e-01 2.812160672501139436e-01 2.668222123448202310e-01 -9.347109211495026326e-02 3.608720278725000008e-01 -1.839463284638684706e-02 -1.796787161684319512e-01 -1.031926523122340122e-01 5.572995649716058764e-02 -5.663804516862781108e-02 9.219089318564807622e-02 -5.837293178643827574e-01 -3.148543392097763460e-01 1.060682222160166666e-01 -1.495907787965131963e-01 2.335596086973834862e-01 1.547003400103398769e-02 3.389314235964362848e-02 3.523138515696330741e-01 5.899958867225224210e-03 -3.946962380656146574e-02 -7.375104620772787722e-02 1.042460866857717883e-01 2.854826467652122335e-01 3.893669580685829024e-01 3.816523988048182159e-01 2.697930204756581740e-01 -1.839023299241998310e-01 1.224007594864972154e-01 1.675760102789315420e-01 -7.811646579301531612e-02 8.103582455047968480e-01 -1.499944226594610297e-01 1.646732251872496944e-01 -4.863844626464063070e-02 -4.728220344572127420e-02 1.531244918432454749e-01 -3.588977118613660977e-01 -1.702599041849758577e-01 5.044600560664720401e-01 1.167297381725103667e-01 -3.156731296477011117e-01 9.421727114021337043e-03 -4.371336625075193383e-01 -3.649442893634607943e-01 2.191714615479471717e-01 1.119005212481193057e-01 -3.619842503862563121e-01 5.136694882413871399e-01 -3.422007557975548786e-01 1.889126571045136038e-01 -4.938083166725310003e-01 -3.535699410809949317e-01 1.532240087376307014e-01 -1.509367891646761217e-01 -4.642431889690177282e-01 -1.424086718148770414e-01 -7.001712750156523501e-01 -1.055394246363781791e-01 -1.810720819356476455e-02 2.558706682536088239e-02 -1.925205985823756627e-01 -2.621975513835688235e-02 6.066855451421828554e-02 2.462120427176235082e-01 2.598608698608586010e-01 -3.636782425251533502e-02 1.272851840690203407e-01 -4.809092994578876290e-01 3.274742060029398605e-01 5.253907843638200292e-01 -2.010587090177810010e-01 -4.484076086253920845e-01 -4.639763536525912113e-02 -8.972793035795080530e-02 -8.184960089913374814e-02 -2.597000252381757579e-01 -4.043477879442894385e-01 -1.438597256125011825e-01 6.670844960920185862e-01 -2.196972706470891670e-02 -3.309297535188969186e-01 8.551297164851373589e-02 1.076973390318264855e-02
-1.401127841269062153e-02 1.857753248811913616e-01 4.206601747826982929e-01 4.707561027337189147e-02 1.541084060837995540e-01 -4.481401438884856370e-02 2.082820843015542323e-01 1.881525355956222001e-02 1.015494516866226674e-02 3.401113713551945916e-01 -1.894527989619417263e-01 -1.683543615024648832e-01 2.780048476986548070e-02 -7.530966530068594622e-02 2.358011963373210229e-01 -2.554564062402259750e-01 -3.068404432551569694e-01 -3.775834182336722522e-01 -1.023485258239381773e-01 -2.444574281556958772e-01 8.669296388471077475e-02 3.195688583174322028e-01 -4.855385128791711580e-01 -1.293920536634351193e-01 3.147050401129860009e-01 -2.456336669026830677e-01 -7.056031928790319763e-02 -1.957986436912975692e-01 1.217800834756801454e-01 6.609651071635722075e-02 -1.407458672471716410e-01 -3.367717929924392006e-01 3.916116802323546531e-01 1.439899144875096959e-01 -2.100908232670050113e-01 -5.550314816067977025e-02 3.093873043739398671e-02 -1.260210833841630684e-01 1.919895754947379685e-01 2.485729798835152604e-01 7.917028588502840469e-02 4.653729121076502495e-02 8.329354031849868500e-02 -1.869841128208145076e-01 -2.872480521373913520e-01 9.409010357480515618e-02 -3.290721623587248845e-01 -6.329816199365393414e-01 1.157849209892767711e-01 -2.121042165684570990e-01 3.174922181468130544e-01 -3.603924826251098806e-02 9.331543970185399162e-02 5.523854947604903143e-02 1.044595883053897611e-01 3.193032030285638534e-01 3.283365467093847245e-01 7.481245419488342929e-02 1.675548003665557062e-01 -3.556689830757789328e-01 -1.030134567496341497e-01 1.001514848523689521e-01 -1.800624334732676968e-01 1.229113464035230946e-01 -3.340466985248663478e-01 -5.571338795271373323e-01 9.451913447533562274e-02 -1.057314313233339437e-01 -5.789973086812195274e-02 -4.672685608008202429e-01 5.561673630322537809e-01 -7.568763452186818563e-01 2.840400088653228794e-01 -5.828873451428506075e-02 -1.782895117920610950e-01 3.232433274316599547e-01 2.709792960466427258e-01 -4.609582004305151082e-01 4.512292381858397372e-02 5.973116192581702510e-02 -2.067592266432137504e-01 8.887722382688448275e-02 -5.727732950731225792e-01 -2.781869311090779950e-01 2.993822585613372111e-01 2.857050814522062443e-01 -3.280329678091313816e-01 -3.903834152208515151e-01 -1.199487667813821795e-01 -1.112377129948497467e-01 1.485129329150740862e-01 -3.411379090832786787e-01 5.125666051450789018e-02 5.246648860031344341e-01 -2.094591298040045790e-01 2.555506384885853580e-03 -3.609093275904615844e-02 -2.044813234931708856e-01 9.864520342296165256e-02 -1.593661714141184627e-01 3.912438203596906305e-01 -5.083687632014437519e-01 3.480661091114469613e-02 -6.064682529983726061e-02 9.487881397232369451e-01 3.295510572464844246e-01 -5.323349623289343191e-02 5.648465146453877928e-02 1.864200059093360784e-01 -2.127459682901227389e-01 -3.950973091261369974e-01 -2.728606090882288449e-01 -1.110252080627873311e-01 -1.604427773683523850e-01 -2.250426276507310475e-01 -6.560008861243932059e-03 -5.869813413652092554e-02 3.096647752761927386e-01 4.132704422529396848e-01 -3.592520715377287011e-01 1.142128144796287492e-01 5.065855391048025291e-01 -4.295574651699021196e-01 2.527268212827171734e-01 6.188011130234609691e-01 9.122191346012872848e-02 -4.428213953651402579e-02 1.193033911688338167e-01 -1.435920633534194524e-01 3.971097170450967745e-02 6.616717868166053229e-01 5.730917594605230286e-02 -4.636189954154729675e-01 1.228273547703662844e-01 6.069666276079284384e-02 -2.253354784653165133e-02 1.318043319908305741e-02 5.153933633614519658e-03 6.197797586341911025e-01 -2.212557027966571555e-01 -3.682303245200005959e-01 -9.651634345013093697e-02 6.312400323509256839e-02 2.077307091928311256e-02 1.975772290173525292e-01 -3.427278466352422504e-01 -1.870476857150332739e-01 -2.455373470025485061e-01 1.394616141040335398e-02 1.070688746525215174e-01 5.862777164837704724e-01 4.917654610021233996e-02 4.292331917835904842e-01 -1.457182011617981776e-01 -3.121540716615681665e-01 -5.295949380768504300e-01 -2.243253003341039165e-01 1.854857307764988528e-01 1.578841314019435171e-01 2.168367001037245778e-01 -2.360333312423575636e-01 -1.031221207225737901e-01 -3.400425427709988790e-01 3.873444447479760383e-02 -3.560337904793684644e-02 6.976403909733454034e-01 1.354994044760974847e-01 1.190425191655325801e-02 1.578969355487747916e-01 -3.592867579687152313e-01 -3.380616247515446857e-03 -1.681470696569750678e-02 -9.718200897856482667e-02 1.585084359844784740e-01 3.034249029771448614e-01 -2.991471893457127718e-01 2.540708344843853328e-01 -5.708677195720132103e-01 -5.014607149757183135e-02 1.285300931567898153e-01 -1.555530996635317090e-02 -6.815367443787326840e-01 -5.157023092787326179e-01 -5.656785265418319553e-02 1.263394120154391898e-01 3.957397054108351409e-01 3.232887792769879032e-01 5.362767334170749356e-01 2.433714402514161601e-01 -3.324816572384046154e-01 -1.687283799423864861e-01 6.388785029689082740e-02 -1.929921749897566818e-01 -1.559711418837824055e-02 2.814688775240382079e-01 1.702943169818794955e-01 -3.709546582648448609e-01 2.485110108891161740e-01 -2.110170365737134290e-01 2.471321332493071898e-02 3.296833497802578172e-01 3.651792471412411700e-01 5.232028985092419537e-01 1.077991616626075150e-01 -6.817289917926028231e-02 -3.022572538619151122e-02 4.095416037014907445e-02 -8.829175133142101728e-02 3.378681548422930031e-02 -2.668013917751734798e-01 -3.801323668165534908e-01 -2.314424323484369217e-01 8.173419106495291575e-02 -4.676629947910887486e-01 4.667228891410770131e-01 -1.184794168011122778e-01 -3.641610698854471501e-02 4.964059297966201545e-02 -1.811042075000501850e-02 6.475905379768839842e-02 -5.041267596107899124e-02 -1.894437309196319585e-01 3.704659195960875728e-02 -2.170827453539662943e-02 -5.900682533278067687e-02 1.493531631898164236e-01 3.789986192816181543e-01 -8.115540908095326966e-02 -5.548973933112721219e-02 1.022145366184092942e-02 -4.701674420528308973e-01 7.967124731513884617e-02 -6.196450295332026070e-02 -3.589081780283180367e-01 8.845781709661539038e-02 -2.640653991426928360e-01 1.284308577004049656e-01 5.649633527666238220e-02 -5.555375036947280964e-01 7.018083534634490805e-02 3.197433342381063581e-01 -1.816517512583732188e-02 -1.468873676487004176e-01 -5.630465479229139758e-01 -5.537050118352513373e-01 -1.832830714443287323e-01 -6.095924486525464703e-01 -3.097583138666511471e-01 -2.064924673778935904e-01 1.774150293292356129e-01
-1.821275666938317883e-01 -1.675909838210081770e-01 -4.174295745471991864e-02 -7.131747960767101380e-02 1.389230018565325298e-01 1.014541863914011390e-03 -7.221465634952192736e-02 1.478697487806631405e-01 -2.305290895356834902e-01 2.675837097916040075e-01 -4.882923549383720585e-02 3.432135549390830653e-01 1.800258610409184723e-01 2.070224129799026480e-01 1.272892123522367802e-02 -2.640049771795500710e-01 3.071469103970489445e-01 1.435753029431897088e-01 -1.794622402612828238e-01 1.391351819525853128e-01 1.146483837385328663e-01 -5.993349464691497680e-02 -6.376925418589367289e-02 -1.461320205266882118e-02 3.525024405350039025e-01 -2.958167020713357576e-01 -3.422038236170864278e-02 1.174547498099363513e-01 3.751087922042785627e-01 1.526758388455124738e-01 -1.983960583605061390e-01 -4.386325362697088281e-01 -3.308977453353064146e-01 -9.620000320548539874e-02 -2.421837265462382649e-01 -5.199371078632351179e-02 -3.025688354763687027e-01 -5.258503596482136389e-02 8.855057051648052013e-02 5.985741435581009434e-02 1.716216361474480201e-01 -1.691912458386057860e-01 4.264738062135434160e-02 1.055329381406982375e-02 -1.016158915424347359e-01 -2.446141095918449304e-01 8.073775854223624870e-02 2.321347278302566264e-01 -1.781076886796839343e-01 2.044106512755836380e-01 -1.802888200009217512e-01 4.531094714071800394e-02 2.261001598500311793e-02 9.206549749662383542e-02 4.894863802127398522e-02 2.081601671792936495e-02 1.873774157322798395e-01 9.441015778099767775e-02 1.994573289823628991e-03 -1.091481661578445547e-02 -1.585569643111951754e-01 2.741506769270911081e-01 -1.459179664864045101e-01 -2.887489376584050776e-02 6.025615893532907524e-02 -1.059699442541986447e-02 8.176016566130885066e-02 -1.719043255437508189e-01 1.729821359245214130e-01 1.667016594526891937e-01 1.962673835406221201e-01 -2.423365619118469649e-01 7.208215474709224468e-02 -3.951086518443484574e-01 2.349649967339420553e-02 -9.842240843052715848e-02 -2.102278288194861164e-02 -2.714483726251965545e-01 -2.347871217277476275e-01 -6.844993559523811222e-02 1.563085354348397737e-01 -1.598844225563725574e-01 -2.845819156199516087e-01 -1.603424456673371024e-01 9.737462956884623821e-02 -1.392874781144559648e-01 -1.279928622485401457e-01 -2.533000008888859345e-01 5.604124371706866725e-01 -1.273112448974497990e-01 -3.280682205451666000e-01 -2.374539501357576451e-02 5.444543871161185850e-02 -3.744424234712679517e-02 -4.810398917266174301e-01 1.756473226426576717e-01 8.909721428311981328e-02 7.936557725333191760e-02 -4.033513012347902937e-01 -1.563542822546519773e-01 1.012899299130849973e-01 8.091017250887422296e-02 4.959819259034172756e-01 -9.716930955927299829e-02 1.561288046361156423e-01 1.586592460509512748e-01 3.365548668503890450e-01 -3.268116729445644242e-02 2.684834340330459652e-05 2.732879594438680781e-02 -3.353187801881560848e-01 -2.910362697269515131e-01 -1.998673721902928524e-01 -2.587596227999442444e-01 -1.122750600495508316e-01 2.796679471075806944e-01 -1.026814124593980471e-02 -3.506545151032863794e-01 -1.953514610112885852e-01 -2.041703174215138972e-01 1.712313409173685241e-01 3.657069577041725805e-02 2.719213903367989627e-01 -2.730353670006860911e-01 2.417759688856586930e-01 -1.310108062975794824e-02 -3.886557947405591684e-01 5.527330461945390017e-02 -3.622933177571716623e-01 4.720280966702924963e-01 -1.855767281150605408e-01 -2.256382774030546434e-01 -3.543952839369379215e-01 9.387911028835078942e-02 3.041389691482782043e-01 1.759202032508898339e-01 -4.956917391078057844e-01 -7.941514029600819924e-02 5.563712574263699612e-02 -9.405350981756969986e-02 -1.050393187878164714e-01 -1.324905235032327877e-01 -1.240201366872000360e-01 -2.030846309259504712e-01 2.322863843786117932e-01 3.276891557582903847e-01 2.118359788143974742e-01 -2.657079258018157225e-02 4.532864673005064238e-01 -1.666695197583773214e-01 -1.671049472065852526e-01 -1.724404289035352533e-01 -1.562683598026302356e-01 1.445370304222759195e-01 -1.478120699898711476e-01 -3.338021222947872291e-01 8.430508928710138405e-02 -3.229010046418161195e-02 1.288292189578352058e-02 5.008253732631936517e-01 6.041734041960458712e-02 -3.158168766472802536e-01 4.768350529189367693e-02 -4.584499614179204929e-01 1.085673234633912632e-01 -1.450950320956254924e-01 -2.233619713482412894e-01 -1.171354918739308942e-01 -5.862469493170570367e-02 -1.691132000118876766e-01 -4.866288582305709487e-01 1.667293778895306555e-01 2.239372852415192905e-01 2.074178797395854756e-01 -2.076758818471548529e-01 -1.521040268812915153e-01 -8.704866145179801507e-02 -9.167897671951044658e-03 -2.455120750442076061e-01 1.202064106702497581e-01 -1.918069587460581871e-01 -2.602925741906873536e-01 -3.099728341166188561e-01 -6.076284427318625614e-01 -1.449352747370248329e-01 8.319475057819444852e-02 1.084111020902301381e-01 -1.096943939889463704e-01 -1.410876648636854302e-01 -1.394613350407053753e-01 -1.847795574503225680e-01 -6.263052379430678052e-02 -1.807526960826416340e-01 -2.379152067299897255e-02 4.222976060111847604e-03 -2.445431330067816544e-01 -6.901566050039088795e-02 4.363449335200871027e-02 -2.215996941089980188e-01 1.802854608172228534e-01 2.893804649392106021e-01 -3.223527197388476040e-02 -2.585171602233102273e-02 -1.697456761322980456e-01 -2.526884020547282561e-01 -3.751458887959466804e-01 2.839170199770821648e-02 -3.171838860604161425e-01 1.960114925969642097e-01 1.379988335189053228e-01 6.673637412991462181e-02 2.642220996161523047e-02 6.346600198517753089e-02 2.952967483100127355e-01 -1.772434652535747335e-01 -3.955623222775476733e-01 2.507560123808306174e-01 -3.220363499062785517e-01 -1.779094638795228889e-01 5.555382497912311757e-02 4.931796824944403856e-02 -9.965959445345691503e-02 -2.098097229570336786e-01 -1.621475220340856394e-01 -9.327589790574329631e-02 -2.839237975007010695e-01 -2.168033163860133561e-01 -3.741121443194412866e-01 -6.491093863360528071e-02 1.602027998886216831e-01 -1.784157541106527467e-01 -1.096774976773684379e-01 -8.308090466405329555e-02 1.031146398576984584e-02 2.982977408467796798e-01 -2.267331900122835919e-01 -1.518791240308453305e-01 -1.051329212642563155e-01 -1.616196378248290766e-01 -6.368203149341064018e-01 -8.641694054308973749e-02 -1.984493131047524728e-01 1.121357293579642311e-01 1.875300618727664126e-01 -1.843447461318167835e-02 2.770738928542500895e-02 1.306566272823914410e-01 -3.480602581919732263e-01 5.939243401592990412e-02 3.121384135508071256e-01
-6.151800411944919819e-03 -3.223067588337630296e-01 -4.746917651489594436e-01 -7.691502798796837070e-02 2.122888642779026114e-01 -3.083871218906663603e-01 -3.812799011351074574e-01 2.248116355220944607e-01 1.878498898251045601e-01 -2.065275346796117684e-01 -8.243619203185574562e-02 -3.403259035903701268e-01 -3.272073251936866711e-01 -1.948484861744182173e-01 2.193019237238960917e-01 6.541947977243177392e-02 -6.138238618661340240e-01 -6.602309439564991722e-01 3.882690623547505743e-02 1.621021315908513505e-01 -2.125115030948639822e-02 -9.412972799636094845e-02 -2.790877932321601529e-01 -2.513219447821939401e-01 -3.351109165453047267e-01 -2.061029528259730459e-01 3.069686872533837138e-03 4.834706801388242992e-02 -2.392412413875855126e-01 7.672819100047276186e-02 -2.218302247158625562e-01 5.216240410341970168e-01 1.058179401730064417e-01 4.558440923768527359e-02 2.656423640101888139e-01 -9.354555250388631171e-02 3.970759043060807097e-02 -1.930419175702898782e-01 1.151133335887646048e-01 -2.749820828028168851e-01 -2.901644936051248763e-02 -7.696557785865346113e-02 -5.913900858139715250e-02 1.930437249676445477e-01 1.632716818527754632e-01 2.243679610541805258e-01 -6.268319939850208744e-02 1.898692413583003696e-02 8.694659685612102229e-02 -1.746376448651952296e-01 -1.969262617276897054e-01 2.931264674764542111e-01 6.025372137390270361e-03 7.774097143629012108e-02 1.480725568263577541e-01 2.778443733587191433e-01 -1.396682456557629404e-01 -1.188240688331502065e-01 -2.360350098424526533e-01 -1.353625972386097217e-03 -1.764784117307796607e-01 5.770598123559941284e-01 -2.003826181632258618e-01 -1.360842421779708336e-02 1.604541839274468695e-01 1.284187667670421695e-01 -1.266649877416605452e-01 -3.896731947502016929e-02 -4.071212874657190173e-01 1.060586417773249773e-01 1.195825628716839506e-01 -1.902078002124075670e-02 4.751929161174076599e-01 -4.392797911769830699e-01 2.016910478094135206e-01 3.334583486787265350e-04 1.898282515158194739e-01 -3.340819799988820060e-01 1.427233957119690977e-01 2.595006402348855601e-01 -1.134711426090614927e-01 1.720241193229999910e-01 5.832219047161175604e-03 1.971367071741002841e-01 -2.575410591350519446e-02 -2.285729849791850732e-01 1.404538062279494792e-01 -1.040453216542301107e-01 5.366477597785647424e-02 -7.305583510725413565e-02 -9.208313764348538544e-02 -2.373729043757332943e-02 4.959324353494140580e-01 -7.362512195572917762e-04 2.981257196101922968e-01 1.077668357762307932e-01 9.540539453449073393e-02 -2.392879361694187634e-01 1.592598424824288317e-01 -7.350927159539503986e-02 -1.813095822757363959e-02 1.530795143891331908e-02 1.083536795983250783e-01 9.858807919935896891e-02 -3.012808606556031665e-01 -4.992633921213320003e-02 1.355206809983124094e-01 2.489130234983073231e-01 -9.751877425523441945e-02 1.577605951148550456e-01 -2.093531100043951598e-01 1.550336910314578098e-01 -1.759156202909100131e-01 3.664912055384995926e-02 -3.362106364823806426e-01 -9.159269868693359351e-02 -2.168857097483922747e-01 5.656315891025425202e-01 -4.191529269539642777e-02 -7.573812831898528442e-02 -1.968426076852447804e-01 -4.855361382416013560e-01 -1.377746978060293281e-01 -1.720196652981391128e-01 -2.054169911491798492e-02 8.505007214884029165e-02 2.262339420781645793e-01 -8.478649322043448067e-02 1.405400380128189741e-01 -5.389605243654717048e-01 -1.504933115726946324e-01 -1.951507153148114015e-01 -1.799120519302217502e-01 -7.058474305823730921e-01 -2.783633960105143523e-01 -2.722105753203727385e-01 1.976403864895492565e-02 1.263043140058266525e-02 -1.354357752097544165e-01 -3.001894663687917908e-01 7.317604385171140591e-02 -1.932344482391017415e-01 -3.529522548190300313e-02 1.258353879969682787e-01 -2.555447761253377692e-01 -2.055549387246579651e-01 -2.094491856394005980e-01 -2.279504537013055387e-01 -3.715947290438704198e-01 -3.042863660282838500e-01 3.143849153894830439e-01 -7.536332675389614821e-02 -1.701882882837113531e-02 9.647185673412224383e-02 -2.607526414791871278e-02 1.771956136506096235e-01 9.347877947436035451e-02 -6.503539484583201191e-02 2.958141730593450425e-01 -1.819391497114423439e-01 -2.946751498007130765e-01 1.100640302423199768e-01 -1.360954811976296253e-01 3.619382537524039323e-02 4.229955430164943769e-02 -2.567599368715474395e-02 -3.468958476247736566e-01 2.079225841019029242e-01 -1.757988259714829138e-01 2.253076436958504070e-01 1.867326640722218878e-01 1.493166956390716560e-01 3.339471476084606705e-01 -8.935387290689758566e-02 -5.044289462245619277e-02 -3.918868182940870581e-01 1.827358494867064101e-02 2.552024166804130467e-01 -2.624824328058894540e-01 -4.645914363422240512e-02 7.895771586958288957e-01 -5.329833398012615575e-01 4.615753800324243761e-01 1.278892063350072217e-01 1.007172217595864588e-01 -5.572998406699835455e-02 2.900101243974703147e-01 -1.263043791462790666e-01 -1.768451713049674912e-01 -5.388924115549040272e-02 -8.523115929470578833e-02 -1.001888940973628267e-01 1.300890490356505225e-01 4.092586135435473393e-02 1.591699901006330409e-01 -4.018591705425136884e-02 -5.941446219967947556e-02 -3.272003608969317745e-01 1.817047748066857038e-01 -4.182229674216304538e-01 -1.256739779346810644e-02 -1.296492653375064807e-01 2.076919463223843021e-01 1.543294490700915511e-01 3.634047852863653283e-01 -6.148052860903255867e-01 -1.940201461010163386e-01 -2.460239077845225442e-01 -7.697584642811866606e-02 6.749348026366840114e-02 1.045398549633004825e-01 -6.213029752378663728e-01 -3.384291828755975340e-01 -3.626931319638768692e-01 3.522688984078210517e-01 1.833652371043232032e-01 -7.481301374982944896e-01 6.690587246582472281e-01 -3.070066229976892158e-01 -1.175962285359384019e-01 -6.455861834430377810e-02 1.334231570959994728e-01 1.519512550684491425e-01 -1.640600993791181406e-01 -3.712386622561638649e-01 -1.756371548254394843e-01 6.745844126501253368e-02 3.129996983461845739e-01 -9.785882451856399433e-02 -2.582584339900665937e-01 -2.145305015730947229e-01 1.740617202665296626e-01 1.158196030447696256e-01 3.312344541008556149e-03 5.031509823809807852e-02 6.574453331510328458e-02 6.937022951750855537e-02 3.875434163735552023e-02 1.484094485717375733e-01 2.880208527707273647e-01 1.273788763140533964e-01 1.275749894300232112e-01 2.848086904019083918e-02 -1.544872074950567886e-01 1.298737140894040409e-01 -8.658686236063047881e-01 -3.194262274917110678e-01 6.015508540410856829e-03 9.294725340237400268e-02 -4.707283891270505616e-02
