1.385575707509143981e-02 8.213283127575329856e-02
3.268152286139337503e-01 3.572160296022845460e-01
-4.294139995649203650e-02 -1.188364318805682773e-01
1.942018049530166157e-01 1.042484324266536033e-01
-5.358323570619231146e-01 -3.221109280781403461e-01
-3.575195124894160470e-01 -3.531206070711758183e-01
-3.783794309868140915e-01 -3.271005015748129074e-01
3.055507140043729475e-01 2.088752553792735389e-01
-3.361404117972885963e-01 -3.251045627581756192e-01
5.332548972981118185e-01 4.530376855962354177e-01
-1.661954175773212861e-01 -1.874934985484131289e-01
-4.974472427252664697e-01 -4.950652410170963691e-01
-2.361040378423183150e-01 -2.068382237937692325e-01
6.680483345360869324e-03 -1.899871912160839837e-01
2.036639805429725503e-01 1.831498663072216593e-01
-7.325476835528899056e-02 5.704388252633060818e-02
-2.234171243410812760e-02 1.320522566240366902e-01
-4.425179405035168934e-01 -3.904269460830470106e-01
-1.356407430675737324e-01 -1.844502084060173630e-01
-1.877769123081149127e-01 -9.616043486555782283e-02
9.821066397410674331e-02 1.626195703359449296e-01
-4.031378074469748052e-01 -4.393670583819304643e-01
-2.272645997257253248e-01 -1.133925642107433823e-01
1.998314149090434921e-01 7.919699655320293352e-02
-6.268023520126940473e-02 -6.126030214480798070e-02
-2.812836585557678681e-01 -2.474427056916732037e-01
-1.525712810369110051e-01 -2.376605136604654223e-01
3.185269595954137722e-01 4.897062110568271842e-02
-1.115827598824328110e-01 7.256260020788956114e-03
-1.285257948743819267e-01 -5.915715312315826535e-02
4.410020153918293301e-02 -3.597362817075520306e-03
-1.566532439070886795e-01 -1.236011154398034134e-01
-1.504149787436719898e-01 -1.607403666768018602e-01
1.017170981899054305e-02 2.447323487239126405e-01
4.633439396375220731e-01 2.587028188568236686e-01
-3.351147025552444481e-01 -2.673843782907270317e-01
-5.925420620565695629e-01 -4.284937194317299802e-01
-2.618401581524169019e-01 -2.325794054428308721e-01
-1.278860587118398895e-01 9.691441827675764675e-02
5.800139645706247071e-01 3.840189029610116545e-01
3.158230879665647334e-02 -2.424084305336232648e-02
2.366502947891414022e-01 2.861155304181682291e-01
2.465912087596872915e-01 3.230702074414108504e-01
2.733086841815743351e-01 1.042505096398525649e-01
-4.039404952982212360e-01 -3.001508269186425881e-01
-2.677622321839098207e-01 -2.190760201353395553e-01
-5.942754461177929270e-01 -4.997561583155302745e-01
1.681432905878421646e-01 2.383036603486399577e-02
-1.428651309099864541e-01 -2.193079430024884036e-01
-2.044681302571053627e-01 -2.746844990756833749e-01
-5.815475007260963169e-02 6.827661114368875628e-02
1.693588315689043278e-01 3.066663177300613663e-01
-1.623379029786561900e-01 -8.362482632013855388e-02
-1.329128573329710628e-01 -2.156505915070290602e-01
1.336394429846861354e-01 -1.515476908925445128e-02
5.028368373172095035e-02 1.342503194676470113e-01
-1.447077678511641818e-01 -1.344349178126006406e-01
2.178267380042929191e-01 5.120261705908792788e-02
-3.554654819416349643e-01 -1.437436520610433643e-01
-2.497307930905372508e-01 -3.114100819075483750e-01
3.708236353065096774e-02 1.293464541948613489e-01
-1.669385288958171731e-01 -2.198120974270004468e-01
1.509730478756732101e-02 -1.364479374396469769e-01
2.817666171705914269e-01 2.292382641814850741e-01
5.862455229026243275e-01 5.208095808512988034e-01
-1.906409050016389176e-02 -1.633958023170090090e-02
-2.214714316498317959e-01 -2.516769577269279412e-01
-2.277364957813994562e-02 -8.025572579495537928e-02
-6.271523949457752378e-02 1.098316785047550176e-01
-2.341361933935552642e-01 -1.683969389644463799e-01
-3.002889467422771852e-01 -2.880045232799140487e-01
-3.281712049167506140e-01 -2.160739718002104570e-01
5.619653375496957981e-01 6.529269779008239905e-01
6.657435809673328819e-02 1.966191324675379548e-01
3.716260124375005414e-01 3.496558293676127471e-01
-1.231744591871813954e-01 -3.176916441522389251e-02
1.179075536516144551e-01 9.962013332849678493e-02
-1.148932258555069447e-01 -1.619177255759353951e-01
-1.446424561574169987e-01 -2.568799074315909481e-01
-1.236289911409221565e-01 -7.248991377716945683e-02
4.055644500399301355e-01 3.953939652755519840e-01
-2.508352013413345794e-01 -1.086415719817769993e-01
-2.775565807405613525e-02 -1.167618440859081869e-01
-5.077812224906631117e-02 8.386787371315616857e-02
2.830734621569869214e-02 -1.410982472619634609e-01
2.480602887879273036e-02 -1.805987930108339523e-02
-1.959532697423513881e-01 -8.181774149095624726e-02
-1.684291297251046815e-01 -1.915437321173392160e-01
-6.499896639409442900e-02 -1.157875496188685294e-01
8.015039950700522664e-02 2.143569079483108319e-01
5.233060283738039109e-02 1.622245096145264256e-02
-2.238844771750708174e-01 -2.042410554222131858e-01
3.330267605758288063e-01 3.931301734478502841e-01
-5.070433219844954209e-01 -4.116600387237719372e-01
-1.618279167415467290e-01 -6.904403810832170085e-02
3.524677177609537582e-01 2.069562530671285316e-01
-3.412297019028173728e-01 -3.684345195018983166e-01
4.292229705195973466e-01 3.760452872068837937e-01
-1.928556829481444523e-01 -1.034437926558646054e-01
5.066920780755450326e-02 -3.931183369104712666e-02
-3.069487762115687413e-01 -2.324085029072201491e-01
-1.476403077805929671e-02 8.653920177330484687e-02
6.207967794598340250e-02 2.956424318786319769e-02
4.009254201605061962e-01 3.920098883831037995e-01
-1.675076399349889056e-01 -1.046716815729444305e-01
7.370255871087273425e-01 6.578099247661411964e-01
3.674729682446434831e-01 3.391889895949080636e-01
-3.463890689779083182e-02 -2.141829663737519485e-01
-2.002209794589712433e-01 -4.008069087821743426e-01
3.947983787603139838e-01 3.939087702295233084e-01
-2.711951784528449649e-01 -4.797627571662761436e-01
3.837416916218533425e-02 -8.928024878895333971e-02
1.670075029256649912e-01 7.223081983899384828e-02
1.697881718379785632e-01 1.297163920890559707e-01
-1.505523423889919832e-01 -3.478250276274960640e-01
-1.690125302984717970e-01 -1.181557167115831891e-01
-1.840732573408770112e-01 4.247666715656035069e-03
3.344779722035306352e-02 1.633520587208996955e-01
-2.790934932214214070e-01 -2.297416200415269005e-01
-3.775490938624559423e-01 -3.485840417864790042e-01
-2.291860914052096521e-01 -1.764594165137784998e-01
-1.512446084998660401e-01 -2.198030920645406006e-01
-1.376052845898974482e-02 1.615394025851185356e-01
-3.446662392997024704e-01 -4.150300282795451046e-01
-1.642565789133320353e-01 -1.410376775231892699e-01
-1.548763814003242256e-01 -2.749641323231480361e-01
2.380547849839162455e-01 2.865298791246221888e-01
-3.450359958618627876e-01 -3.206701510637970931e-01
9.132283931883271311e-02 -4.712191655456419298e-02
1.245684602812886926e-01 1.633142441888754404e-01
-2.616631534926525116e-01 -2.306108074116011430e-01
3.444777222242053488e-02 4.187893440671006801e-02
-3.857059389337558764e-01 -3.530997736188020153e-01
1.421858022063082413e-02 -3.619332909617386379e-02
1.245683414005199496e-01 -1.482044651340342356e-01
-2.344399165221023873e-01 -1.467478195534317187e-01
-3.059174515692441032e-01 -4.793088632496809165e-01
1.815638538096480403e-01 1.903670012409984513e-01
-2.363505540452389142e-01 -1.732658412495641509e-01
-2.576709865361560547e-01 -1.890206385337339368e-01
3.643767337911848481e-01 2.827167541354772551e-01
8.157798275035914315e-02 7.853571196360498163e-02
-5.163465011682710770e-01 -5.448196448577364848e-01
-4.847431478718299686e-02 -4.531086887631523286e-02
2.546487563292685885e-01 3.382665362054096403e-01
-2.339678950170534233e-01 -3.364556730413516550e-01
2.757873484806439568e-01 1.476774342095515669e-01
-5.424568275602228429e-01 -3.903071436795433335e-01
-4.178874541947668469e-02 4.166692678290378343e-02
-2.124124587816851595e-01 -2.242672238661229667e-01
1.111762706587081651e-01 7.893689183338655629e-03
5.958916317526595785e-01 5.356875974790098471e-01
-1.596871040893778626e-01 -1.674345550406310668e-01
1.292792794372385756e-01 2.329034319403890108e-01
5.133353154539018609e-02 3.292804864591395569e-02
-1.129326798208128563e-01 -2.501694657075734796e-01
-2.444629126509139105e-01 -1.332531545337195533e-01
4.960422549342662080e-02 7.077250454647963929e-02
-2.359966515233531958e-01 -6.645238026275006316e-02
1.079847855134098145e-01 -1.502183361351910017e-04
-2.141752035345955707e-01 -2.611729812951085750e-01
-5.752344523651036212e-01 -6.160690655157788909e-01
-7.916180939656622395e-02 6.301028499077614142e-02
1.069451579565306176e-01 2.047639808062708677e-01
-2.534378023622055887e-01 -2.901658865165726575e-01
1.819411032753886770e-01 1.594798692244535354e-01
-1.420009276620396166e-01 -1.897260121154749346e-01
-9.372671837028120900e-02 -6.714091900575620830e-02
-1.624807520166861863e-01 4.226332148782115106e-02
1.110842702215369404e-01 2.290355696651847628e-01
-8.729997805754471929e-02 -6.720824380297876766e-02
1.205931253537332465e-01 3.071438398515464741e-01
-2.476032606930853031e-01 -4.077155174487721578e-01
-4.078346863856260190e-02 8.173115705473443793e-02
-2.876159108559300237e-01 -1.465362489070543006e-01
-4.260880929929061756e-01 -2.907557614159846926e-01
-2.179455690117032551e-01 -2.667853470401757021e-01
2.417641344118781066e-01 5.501328246285441120e-02
-3.809978692700904945e-01 -1.988176071075680174e-01
2.959282313844480150e-01 3.850871846501904283e-01
1.204171630988690178e-01 7.351974151162110616e-02
8.699837444652110119e-02 2.632602179411228874e-03
-2.601650160910171095e-01 -1.167820406041595732e-01
-1.414859662556063602e-01 -1.958700619492290684e-01
-1.358404306489891245e-01 -1.169293985520256512e-01
-2.155243264225978062e-01 -2.342863338472854495e-01
-8.835505961862968882e-02 1.590596627760902937e-01
-2.035302070193908963e-01 -1.703350008262700666e-01
5.259344348937259328e-01 5.075829649500613883e-01
2.656875746670302463e-01 2.525638930944311689e-01
4.978395986596922951e-02 2.275088150200437476e-01
-3.494057976513460506e-01 -2.823661296460076575e-01
5.005556762806056409e-02 1.320978298636710062e-02
-1.354718990150672320e-01 -5.818471162487800358e-02
-3.521053010919852899e-01 -1.851655653081454578e-01
-2.155421134948752870e-01 -6.822191885067109551e-02
2.445617400516242879e-01 1.484217736159513523e-01
3.527943474971068083e-01 2.881096812301469079e-01
-6.631208863532851716e-02 -2.036833655648416230e-01
3.028598289479027539e-01 1.444677106890761287e-01
4.199858290962687479e-01 4.062697359564133026e-01
-4.879660711224755865e-01 -4.493492097738561175e-01
-2.123377995090528214e-01 -1.558906300101892406e-01
-4.828403365173841721e-01 -3.808412527969051165e-01
-2.127520561218054773e-01 -2.348946995924111047e-01
-1.548030335762337895e-01 -1.655888392912955101e-02
-2.030492764259947958e-01 -2.841919498208733130e-01
-6.880504677510926315e-02 -2.210880229976704484e-02
2.224980598735382953e-01 1.724867400459831890e-01
6.823738179074703702e-02 1.878404474122156165e-01
3.702699603877744952e-03 -9.317219528604790690e-02
6.761949075906933948e-02 1.450239064285036017e-02
-1.173795866470285637e-01 -7.015905046000345258e-02
2.419011454390296301e-01 2.137458093075990384e-01
-4.677938922383551579e-01 -4.490766947271016551e-01
-1.749007155390356616e-01 -1.575721656264150450e-01
-1.688776114142846452e-01 -1.600888158070244149e-01
-4.173804608481902489e-01 -2.992616247939195451e-01
2.729095169220235872e-02 -1.465677118752061261e-02
-1.311485546027497343e-03 6.854608782899259192e-03
-3.450921903603768603e-01 -3.779647492653274155e-01
-2.049682720793659652e-01 -8.321861974458906464e-02
3.860952296186232618e-02 -6.096082709374364868e-03
-3.564003084305237268e-01 -2.839671103505968519e-01
-9.693501086248933196e-02 -2.131066063905821539e-01
-3.553867146221682538e-01 -3.028248341363929397e-01
2.331336846504356575e-01 3.738139630989300022e-01
8.131336313907881752e-03 1.646167160600165436e-01
-2.145522357403025493e-01 -2.346020475196248234e-01
-1.772977880460038236e-01 -2.024305005993010664e-01
2.022842706564377258e-01 1.404185274196425304e-01
-2.424204286658595831e-01 -2.859606804951617121e-01
-4.669640273885089510e-01 -6.761653274437294803e-01
-1.401219941441565753e-01 -4.005396662779067002e-02
-3.787557819212629129e-01 -3.686463525695521937e-01
1.653282938217689180e-01 1.137223309026747647e-01
1.144132700435853411e-01 1.907084223994836292e-01
2.683873456964645521e-01 6.989635066962109067e-02
-1.122592613425988789e-01 -2.147922750479959453e-01
5.443705235499427669e-02 1.283255965802971299e-01
-1.057778155807851950e-01 -4.767561363087000070e-02
-5.400641297336402635e-01 -5.821018118458056723e-01
-9.758138493139360478e-03 -2.030349136985640235e-02
8.435067027096410097e-02 1.899012318719236758e-01
-1.081042518719597251e-01 -3.305222948921478221e-02
1.719151390103591803e-01 1.390816759284924653e-01
1.960795809188572714e-01 1.174676350396551133e-01
-1.511728854479384501e-02 -9.218910970230377588e-02
2.386132858382022937e-02 1.260987583950968216e-01
1.919336590292992362e-01 2.107325485460681269e-01
